tree
version=v4
num_class=3
num_tree_per_iteration=3
label_index=0
max_feature_idx=23
objective=multiclass num_class:3
feature_names=xgboost_prob_down xgboost_prob_neutral xgboost_prob_up xgboost_et_prob_down xgboost_et_prob_neutral xgboost_et_prob_up xgboost_hist_prob_down xgboost_hist_prob_neutral xgboost_hist_prob_up xgboost_dart_prob_down xgboost_dart_prob_neutral xgboost_dart_prob_up xgboost_gblinear_prob_down xgboost_gblinear_prob_neutral xgboost_gblinear_prob_up xgboost_approx_prob_down xgboost_approx_prob_neutral xgboost_approx_prob_up lightgbm_prob_down lightgbm_prob_neutral lightgbm_prob_up catboost_prob_down catboost_prob_neutral catboost_prob_up
feature_infos=[0.0010070139542222023:0.92592668533325195] [0.0472865030169487:0.99603253602981567] [0.0013449571561068296:0.94344782829284668] [0.00086324650328606367:0.9335169792175293] [0.02587263286113739:0.9972108006477356] [0.0010912084253504872:0.96498823165893555] [0.0034783375449478626:0.88516658544540405] [0.05112016573548317:0.98890429735183716] [0.0043485495261847973:0.90030169486999512] [0.0041503380052745342:0.79145187139511108] [0.090913683176040649:0.98822033405303955] [0.0050103338435292244:0.83118605613708496] [0.022803323343396187:0.35398322343826294] [0.0057208174839615822:0.95134031772613525] [0.024856390431523323:0.72436130046844482] [0.0013678213581442833:0.92133027315139771] [0.037992224097251892:0.99611330032348633] [0.0015411198837682605:0.94190382957458496] [0.0011893610935658216:0.8929477334022522] [0.050568174570798874:0.99705398082733154] [0.0010503745870664716:0.94304054975509644] [0.011255000717937946:0.91889423131942749] [0.016164550557732582:0.96100074052810669] [0.013859502971172333:0.96308404207229614]
tree_sizes=2810 2979 3033 3194 3424 3407 3409 3215 3417 3414 3445 2788 3427 3480 3417 3413 3422 3010 2885 3454 3452 3451 3432 3416 3377 3434 3019 3451 3431 3336 3437 3450 3419 3420 3422 3431 3457 3436 3445 3412 3438 3393 3393 3445 3428 3427 3447 3400 3399 3434 3419 3450 3440 3433 3466 3450 3413 3183 3426 3454 3238 3392 3438 3424 3464 3429 3424 3441 3408 3440 3457 3436 3410 3434 3439 3372 3474 3393 3402 3432 3441 3436 3450 3434 3414 3440 3451 3415 3449 3444 3417 3429 3438 3445 3448 3457 3420 3438 3426 3444 3430 3454 3436 3434 3448

Tree=0
num_leaves=26
num_cat=0
split_feature=3 3 9 3 3 9 16 9 3 3 9 4 21 6 8 9 9 18 8 3 6 22 9 9 9
split_gain=64740.2 895.194 1926.96 189.683 58.435 572.996 43.0898 34.5942 22.4328 14.3656 397.451 60.0429 31.4074 12.0398 9.022 7.71578 7.68536 6.33608 4.18042 1.69946 1.49326 0.404153 0.220945 0.211792 1.10945
threshold=0.21137911826372149 0.15290001034736636 0.12480710074305536 0.24901000410318377 0.12986022233963015 0.095513235777616515 0.70118024945259105 0.14224174618721011 0.18262923508882525 0.10142650455236436 0.075408201664686217 0.78238078951835643 0.38629499077796942 0.11556132137775423 0.15487746894359591 0.11095157638192178 0.08153958618640901 0.1537500396370888 0.097202852368354811 0.085144639015197768 0.1447122320532799 0.41577291488647466 0.15978020429611209 0.12197173386812211 0.11678380891680719
decision_type=2 2 2 2 2 2 2 2 2 2 2 2 2 2 2 2 2 2 2 2 2 2 2 2 2
left_child=1 4 6 -2 9 18 -3 8 17 19 11 -11 -13 14 -7 -8 -12 -4 -6 -1 -9 -18 -22 24 -15
right_child=3 2 7 -5 5 13 15 20 -10 10 16 12 -14 23 -16 -17 21 -19 -20 -21 22 -23 -24 -25 -26
leaf_value=-2.6334298176758586 -2.2771190939769683 -2.4686933422691797 -2.5348895157964133 -2.1539901319823072 -2.2067531687336865 -2.5002062991504559 -2.1730339131975764 -2.5946229230875284 -2.4215262894904623 -2.5918810869737472 -2.5594706674515386 -2.2421831460803325 -2.4877162562550685 -2.6284572243378297 -2.6225900560221644 -2.405790181267065 -2.6332341795792966 -2.6261106164797088 -2.4334676512205986 -2.6297782859651804 -2.6175555614075487 -2.6043591205178171 -2.6331540325079104 -2.6332822361468375 -2.5904087959768156
leaf_weight=9308.7158150076866 43.309951782226562 2.3770307898521414 2.4807795584201795 742.78725433349609 7.3386977985501272 2.377408266067504 32.146778583526611 2.3774106800556174 2.3774151802062988 2.1704530939459792 2.8942437693476668 6.9255117475986463 2.7908778786659241 5.7884937748312941 2.2740486189723015 2.3774145618081084 376.148392111063 3.7211705148220062 2.0673169195652008 441.06169128417969 7.5457110404968253 2.0673170536756507 76.904211454093456 109.36108973622322 2.0673169866204262
leaf_count=90056 419 23 24 7186 71 23 311 23 23 21 28 67 27 56 22 23 3639 36 20 4267 73 20 744 1058 20
internal_value=-2.59773 -2.63079 -2.50194 -2.16043 -2.63246 -2.59926 -2.19928 -2.62128 -2.52976 -2.63289 -2.62335 -2.34795 -2.29851 -2.62924 -2.55585 -2.18421 -2.63245 -2.58734 -2.23932 -2.63327 -2.63092 -2.6331 -2.63202 -2.63246 -2.61813
internal_weight=11192.5 10406.4 132.308 786.097 10274 131.274 36.9012 95.4067 8.57937 10142.8 392.997 11.8868 9.71639 121.868 4.65146 34.5242 381.11 6.20195 9.40601 9749.78 86.8273 378.216 84.4499 117.217 7.85581
internal_count=108280 100675 1280 7605 99395 1270 357 923 83 98125 3802 115 94 1179 45 334 3687 60 91 94323 840 3659 817 1134 76
is_linear=0
shrinkage=1


Tree=1
num_leaves=27
num_cat=0
split_feature=4 3 4 10 5 11 9 3 9 5 11 4 10 7 2 3 9 5 9 9 11 10 1 9 9 22
split_gain=61879.7 1646.67 698.138 1599.3 649.786 568.943 355.477 216.44 603.891 122.78 807.212 49.1512 533.89 26.6409 25.358 24.1546 378.657 12.9888 9.65136 9.38493 7.3189 3.52437 2.44998 2.03092 1.34894 0.403091
threshold=0.67103767395019542 0.18262923508882525 0.60843619704246532 0.67372769117355358 0.21085678786039355 0.18919020891189578 0.14224174618721011 0.14340762048959735 0.10881533101201059 0.15402889251708987 0.13210863620042804 0.55880331993103038 0.58733490109443676 0.64484554529190075 0.15659428387880328 0.10354045778512956 0.08153958618640901 0.12322316318750383 0.12070493772625925 0.097155727446079268 0.14709374308586123 0.63050270080566417 0.7253052592277528 0.12619352340698245 0.13263925909996035 0.12316489219665529
decision_type=2 2 2 2 2 2 2 2 2 2 2 2 2 2 2 2 2 2 2 2 2 2 2 2 2 2
left_child=2 4 11 13 7 22 23 9 19 15 14 -1 25 21 -11 17 -17 -2 -10 -9 -12 -4 -6 -3 -20 -13
right_child=1 6 3 -5 5 -7 -8 8 18 10 20 12 -14 -15 -16 16 -18 -19 24 -21 -22 -23 -24 -25 -26 -27
leaf_value=-0.38135732161397329 -0.14937353479505114 -0.37881327080098592 -0.14976620329938045 -0.37929116266206458 -0.2996992872445457 -0.14967317689993609 -0.15289667486106912 -0.37248603735577235 -0.22021332315155601 -0.36978416599728126 -0.2028034417175866 -0.15048197704865668 -0.38068304043111678 -0.25907040748652116 -0.25757351300541576 -0.33152227348551144 -0.15022680894361745 -0.1581239902844466 -0.17742623002876817 -0.27190395206888146 -0.15013382533677844 -0.18874415301645409 -0.37886143261046579 -0.29576024269856932 -0.14926374595952716 -0.17294657400225119
leaf_weight=3207.7311183214188 17490.893601894379 94.81767962872982 108.51540476083755 245.71151196956635 5.3515009135007849 52.010360971093178 21.403440698981285 39.810763955116272 4.4947227984666815 46.874180793762207 6.20699818432331 23.75736972689629 242.07292853295803 5.3508605062961569 7.2771702855825415 29.751051187515259 505.54925471544266 456.53590488433838 5.7789293527603141 4.7087572962045661 374.34620261192322 6.4210325777530661 55.648948967456818 4.4947228729724875 125.21013751626015 4.9227916449308387
leaf_count=14987 81720 443 507 1148 25 243 100 186 21 219 29 111 1131 25 34 139 2362 2133 27 22 1749 30 260 21 585 23
internal_value=-0.189351 -0.152915 -0.372535 -0.30635 -0.151755 -0.270901 -0.336411 -0.151046 -0.205534 -0.150527 -0.176838 -0.379469 -0.356578 -0.157121 -0.35601 -0.149909 -0.160509 -0.149594 -0.15291 -0.363605 -0.151033 -0.151882 -0.373517 -0.375986 -0.150389 -0.153621
internal_weight=23175.6 19331.2 3844.48 365.999 19210.4 113.011 120.716 19097.4 180.003 18917.4 434.705 3478.48 270.753 120.287 54.1514 18482.7 535.3 17947.4 135.484 44.5195 380.553 114.936 61.0004 99.3124 130.989 28.6802
internal_count=108280 90318 17962 1710 89754 528 564 89226 841 88385 2031 16252 1265 562 253 86354 2501 83853 633 208 1778 537 285 464 612 134
is_linear=0
shrinkage=1


Tree=2
num_leaves=28
num_cat=0
split_feature=5 5 11 5 11 5 11 5 11 11 11 5 11 1 0 14 11 11 11 1 11 11 5 6 4 4 19
split_gain=65571.5 659.314 1596.95 355.038 688.266 89.992 968.283 38.3557 34.3583 21.6367 12.6165 11.9491 410.043 28.757 10.6687 7.47012 6.77906 4.34808 3.19655 4.03647 2.37845 1.53512 1.52911 1.2219 0.562488 0.340491 0.10415
threshold=0.25527928769588476 0.19727593660354617 0.16278878599405291 0.29120446741580969 0.20687981694936755 0.15402889251708987 0.11230461299419404 0.32418467104434973 0.13210863620042804 0.1950006186962128 0.098951704800128951 0.12609169632196429 0.093909114599227919 0.84251180291175853 0.13814492523670199 0.096506752073764815 0.13834033161401751 0.14709374308586123 0.11006123200058938 0.78147327899932872 0.25739455223083502 0.21005363017320636 0.079390905797481551 0.096387773752212538 0.81581035256385814 0.89152103662490856 0.66261324286460888
decision_type=2 2 2 2 2 2 2 2 2 2 2 2 2 2 2 2 2 2 2 2 2 2 2 2 2 2 2
left_child=1 5 16 4 -2 11 10 -5 15 14 -7 22 13 -13 -4 -8 -3 23 19 -14 -6 26 -1 -10 -24 -26 -11
right_child=3 2 9 7 20 6 8 -9 17 21 -12 12 18 -15 -16 -17 -18 -19 -20 -21 -22 -23 24 -25 25 -27 -28
leaf_value=-2.3600207014587125 -1.9929180635735111 -1.9947405771358762 -2.2216736230399232 -2.0441856688268372 -2.3131399984725678 -2.0061224349330558 -2.3114024791694683 -1.9851207292644701 -2.295042912431684 -2.3356108987337283 -2.1848420390741068 -2.2125053802236878 -2.3537604292143435 -2.0150555332400932 -2.3381426840543496 -2.1978336193105088 -2.1285235799292153 -2.3595075258540086 -2.3599189434018721 -2.2862300427005975 -2.3582393122945757 -2.3598028669713194 -2.359499162504116 -2.3365172581081648 -2.3570284351337585 -2.3454940895176262 -2.3231613370460162
leaf_weight=10462.158141374588 36.849218338727951 39.50024539232254 3.7113958597183219 55.936027526855469 2.9160966575145748 19.75038239359856 2.7835468947887412 1248.7519569396973 2.6509971618652335 2.6509972214698783 3.048646628856658 4.1094081997871381 4.6392448842525473 7.8204412758350372 3.0486465990543365 3.0486465990543365 5.5670938193798056 303.14150881767273 431.05212044715881 2.9160967469215393 17.629132330417633 110.01637214422226 705.2980680167675 2.7835468947887421 852.8257794380188 15.24323323369026 2.6509971022605896
leaf_count=78930 278 298 28 422 22 149 21 9421 20 20 23 31 35 59 23 23 42 2287 3252 22 133 830 5321 21 6434 115 20
internal_value=-2.32287 -2.35749 -2.25904 -1.99293 -2.11998 -2.35877 -2.33324 -1.98748 -2.35636 -2.35332 -2.02431 -2.35946 -2.35129 -2.07145 -2.27089 -2.24333 -2.00747 -2.35871 -2.35935 -2.32606 -2.35147 -2.35853 -2.35977 -2.31608 -2.35806 -2.35685 -2.32987
internal_weight=14352.5 12990.4 167.146 1362.08 57.3944 12823.3 337.207 1304.69 314.408 122.078 22.799 12486.1 450.537 11.9298 6.76004 5.83219 45.0673 308.576 438.607 7.55534 20.5452 115.318 12035.5 5.43454 1573.37 868.069 5.30199
internal_count=108280 98004 1261 10276 433 96743 2544 9843 2372 921 172 94199 3399 90 51 44 340 2328 3309 57 155 870 90800 41 11870 6549 40
is_linear=0
shrinkage=1


Tree=3
num_leaves=29
num_cat=0
split_feature=3 3 6 3 9 5 19 3 9 9 6 9 5 15 3 10 10 23 8 19 10 4 5 3 9 9 9 9
split_gain=37582.5 296.01 437.276 268.268 695.569 93.1542 45.6263 29.9961 304.909 17.2614 11.7082 11.5942 9.75275 7.17132 6.8715 205.958 14.1548 17.3152 10.6164 5.87387 5.84762 2.75592 6.73599 2.20238 1.47325 0.453135 1.76862 0.193006
threshold=0.18262923508882525 0.21137911826372149 0.15390098094940188 0.14340762048959735 0.10776738077402116 0.29120446741580969 0.72777855396270763 0.12098806351423265 0.083507604897022261 0.13815151154994967 0.10304343327879907 0.14441885054111483 0.15902776271104815 0.13510981947183612 0.089060161262750639 0.87788456678390514 0.84243422746658336 0.24236085265874865 0.0663469433784485 0.8206266760826112 0.90159678459167492 0.73056375980377208 0.22967509925365451 0.28596463799476629 0.15978020429611209 0.12480710074305536 0.12070493772625925 0.14224174618721011
decision_type=2 2 2 2 2 2 2 2 2 2 2 2 2 2 2 2 2 2 2 2 2 2 2 2 2 2 2 2
left_child=3 2 -2 7 6 23 -5 14 19 13 12 -4 -10 -6 -1 16 -16 -18 20 -9 -17 22 -15 -3 -13 26 -12 -11
right_child=1 5 11 4 9 -7 -8 8 10 27 25 24 -14 21 15 18 17 -19 -20 -21 -22 -23 -24 -25 -26 -27 -28 -29
leaf_value=-0.03569460239920369 0.25733807060562636 0.23356665926660103 0.075967572286797791 0.016036807190374661 0.089028714981624041 0.0090658408384315225 0.24595909051073628 0.11195245454963117 0.099789521148344634 -0.01275631107643806 -0.030708689530086097 0.0047704573786997908 -0.025928032344564939 0.064938515226412363 -0.035476999398084359 0.11397468393922811 -0.021830781461748782 0.083150321251067028 0.051002170837859712 0.25507019806948561 0.24357716967443235 -0.028076226400288271 -0.027421990305130761 0.25573055415244916 -0.034432938362861848 -0.035715312079833895 0.0073114547177357036 -0.035582598083098639
leaf_weight=9031.8285795599222 30.771420687437057 134.46103040874004 2.0690471976995495 2.4884793534874907 2.5787727162241927 4.011053428053855 31.15630017220974 3.051440402865409 2.3187664076685897 2.8000382184982291 14.882500603795053 2.2377523258328464 2.4469767063856125 3.3906844928860647 574.63509683310986 4.3449789583682996 12.1333144903183 4.8372503519058219 2.3333304747939101 8.3383717462420446 4.8106448277831078 3.4392807632684708 3.0008900687098503 1146.9334528148174 21.397335208952427 141.48155978322029 3.2174143791198722 93.149246841669083
leaf_count=91450 191 845 15 19 22 26 193 22 22 27 143 22 21 31 5664 38 118 43 20 55 37 33 26 6769 212 1402 32 926
internal_value=-0.000480157 0.247832 0.132651 -0.0339769 0.0340922 0.252803 0.229866 -0.0349654 -0.0143579 -0.0278877 -0.0321338 -0.0196903 0.0398927 0.0260941 -0.0353395 -0.0299729 -0.0341461 0.0102076 0.172743 0.227001 0.196675 0.00365783 0.0226527 0.253556 -0.0304819 -0.0345043 -0.0236623 -0.0350791
internal_weight=11294.5 1341.88 56.4756 9952.66 142.004 1285.41 33.6448 9810.66 175.737 108.359 164.347 25.7041 4.76574 12.4096 9634.92 603.095 591.606 16.9706 11.489 11.3898 9.15562 9.83086 6.39157 1281.39 23.6351 159.581 18.0999 95.9493
internal_count=108424 8080 440 100344 1277 7640 212 99067 1697 1065 1620 249 43 112 97370 5920 5825 161 95 77 75 90 57 7614 234 1577 175 953
is_linear=0
shrinkage=0.05


Tree=4
num_leaves=31
num_cat=0
split_feature=1 5 0 16 10 10 5 15 9 11 10 1 5 15 10 5 11 5 15 9 9 15 9 16 0 10 15 22 15 10
split_gain=30327.9 5157.42 2364.34 1450.62 2516.01 859.673 342.034 293.215 564.306 175.235 147.845 199.745 143.049 812.134 310.178 136.884 348.842 96.8975 69.208 439.706 56.8315 53.4054 50.0139 69.4242 47.0003 62.8031 43.8844 127.99 41.6684 38.9328
threshold=0.68946769833564769 0.19727593660354617 0.14912742376327517 0.59716159105300914 0.66506275534629833 0.74763113260269176 0.29120446741580969 0.12513078004121783 0.097155727446079268 0.1950006186962128 0.70982229709625255 0.65061587095260631 0.38925035297870642 0.24192444235086444 0.59396484494209301 0.15402889251708987 0.13210863620042804 0.25527928769588476 0.083652634173631682 0.064785864204168334 0.11678380891680719 0.14494943618774417 0.12782227993011477 0.72992971539497387 0.24401770532131198 0.60069203376770031 0.30380117893219 0.098790537565946593 0.15754626691341403 0.54037532210350048
decision_type=2 2 2 2 2 2 2 2 2 2 2 2 2 2 2 2 2 2 2 2 2 2 2 2 2 2 2 2 2 2
left_child=3 2 7 12 6 -4 24 15 -9 -3 11 -6 13 14 29 18 -17 28 -2 -20 21 -10 -7 -24 -5 -26 27 -15 -13 -1
right_child=1 9 5 4 10 22 -8 8 20 -11 -12 17 -14 26 -16 16 -18 -19 19 -21 -22 -23 23 -25 25 -27 -28 -29 -30 -31
leaf_value=0.030292854533805959 0.038550886497428466 -0.14065163649227269 0.021123162020339755 0.030957121156323528 -0.12705989487957811 -0.13254366349252358 -0.1341369318010118 -0.11316848673587968 0.013807581075710127 0 -0.13690670962284462 0.029296048794273711 -0.14160568287532269 0.013357033487727927 -0.11352984933409614 -0.12355992411915073 0.035312123291970803 -0.13512142721743003 -0.087870500203605179 0.033442788160301738 0.03430073622969651 -0.077910627819173517 -0.13171153018998291 0.015427456632463424 0.037808194894753559 -0.10427433251726755 -0.13947549869604911 -0.12593985623976547 -0.057282904813912162 -0.024721722601644396
leaf_weight=96.135859146714211 15392.891100689769 451.14011126756668 145.70022568106651 453.50989666581154 119.75175189971924 280.7742415368557 34.558911919593811 92.636996060609818 49.815316677093506 23.323919951915741 619.77640664577484 44.824945062398911 1828.1070776581764 18.602038890123367 73.820460766553879 46.217623755335808 129.50564967095852 15.042476534843443 77.494898483157158 1634.4088043868542 292.67190849781036 22.329105973243713 16.218121975660328 14.768482655286787 14.941752195358278 14.677489340305327 1086.4109497070312 131.39914748072624 19.177848368883133 47.321080088615417
leaf_count=449 75592 1690 698 2200 456 1059 129 363 237 108 2320 217 6788 83 287 178 634 56 321 7966 1427 92 61 70 71 57 4027 497 82 209
internal_value=0.000469503 0.0288487 0.0330948 -0.114246 -0.0702543 -0.0790437 0.0160032 0.0359905 -0.0035045 -0.133754 -0.124774 -0.0865279 -0.132136 -0.120151 -0.0308369 0.0370364 -0.00681567 -0.0244024 0.0374875 0.0279097 0.0245152 -0.0150543 -0.125806 -0.0628032 0.0269572 -0.0333255 -0.135813 -0.108653 0.0028894 0.0120745
internal_weight=23288 18669.9 18195.4 4618.06 1336.26 457.461 517.688 17738 457.453 474.464 818.573 198.797 3281.8 1453.69 217.277 17280.5 175.723 79.0453 17104.8 1711.9 364.816 72.1444 311.761 30.9866 483.129 29.6192 1236.41 150.001 64.0028 143.457
internal_count=108424 90496 88698 17928 5588 1888 2457 86810 2119 1798 3131 811 12340 5552 945 84691 812 355 83879 8287 1756 329 1190 131 2328 128 4607 580 299 658
is_linear=0
shrinkage=0.05


Tree=5
num_leaves=31
num_cat=0
split_feature=17 4 4 3 3 10 11 3 4 4 11 4 6 3 11 10 3 4 6 22 4 22 11 3 4 3 4 11 4 4
split_gain=30227 3040.03 1625.38 5081.82 1106.39 628.602 291.648 216.892 408.706 114.198 90.3045 51.7206 431.347 95.4917 87.2263 70.6107 161.175 47.7544 99.3371 36.6585 50.9768 27.1176 26.4877 21.4329 27.8976 13.4705 61.0915 13.4317 26.7164 4.63252
threshold=0.23008703440427783 0.59096911549568187 0.73942172527313244 0.11111438646912576 0.21137911826372149 0.69452565908432018 0.18154969811439517 0.15290001034736636 0.65706273913383495 0.67103767395019542 0.13367681950330737 0.81260314583778392 0.058185715228319175 0.10142650455236436 0.12370536103844644 0.80985310673713695 0.10354045778512956 0.55880331993103038 0.1418099328875542 0.23586644232273105 0.68573033809661876 0.16390910744667056 0.096834179013967528 0.28596463799476629 0.48409909009933477 0.18262923508882525 0.59096911549568187 0.20687981694936755 0.68573033809661876 0.85917645692825328
decision_type=2 2 2 2 2 2 2 2 2 2 2 2 2 2 2 2 2 2 2 2 2 2 2 2 2 2 2 2 2 2
left_child=2 4 3 5 17 9 -3 8 21 -1 -10 12 13 14 -4 -14 22 -2 -19 20 -7 -5 -17 24 -6 26 -9 28 -8 -13
right_child=1 6 11 7 23 19 27 25 10 -11 -12 29 15 -15 -16 16 -18 18 -20 -21 -22 -23 -24 -25 -26 -27 -28 -29 -30 -31
leaf_value=0.18729543875221258 0.21488658956592604 0.19721757443834476 0.21348638913748208 0.037118678611270148 0.14250506802470564 0.19413186914197245 0.12401596597618617 0.15633281032938945 0.16305683044497146 -0.034324952018812749 -0.033165980998133206 -0.032658156888043709 -0.03587822349848651 -0.020382301898556481 -0.020769420994886659 0.19870521665161522 -0.032074534869389118 0.18858957898051257 -0.019869061179682738 0.21542455881289968 -0.0061024603355815544 0.21290834475898582 0.029111071797848932 -0.035391617612720992 -0.030731490472351304 -0.036715122161194873 -0.027568249854466421 -0.034589470241251342 -0.032436080987138759 -0.036509524726522712
leaf_weight=6.1615369617938986 1625.2444935292006 14.545668020844458 25.83160184323788 2.8796360343694714 3.4780545979738227 7.0278218984603864 3.3587164580821973 4.1974527835845938 5.5313954502344123 34.41004467010498 78.978961929678917 965.82417267560959 630.53661367297173 7.1861886084079734 4.4680365025997153 10.907744333148001 35.073951914906502 27.846559464931488 6.9075623750686637 295.54697926342487 5.1924276351928711 25.880556359887123 3.3380004018545142 43.471931338310242 4.5142854899168015 1063.6723976135254 46.007970571517944 151.75584083795547 7.1903568208217621 9300.2449964135885
leaf_count=33 8321 78 138 20 19 37 20 23 33 274 628 7681 5017 51 35 66 250 146 49 1541 40 136 24 305 32 7522 358 1197 57 74293
internal_value=-0.000381064 0.18609 -0.0284287 0.0190548 0.206475 0.187372 -0.0111951 -0.0288105 0.0368941 0.0021822 -0.0188555 -0.0352412 -0.0221986 0.14113 0.179136 -0.0313668 0.0258623 0.213551 0.147502 0.211699 0.11352 0.196957 0.16296 -0.0214396 0.0501947 -0.0355182 -0.0098842 -0.0307793 0.0221667 -0.0361503
internal_weight=14447.2 1888.31 12558.9 1575.49 1711.46 348.339 176.851 1227.15 113.271 40.5716 84.5104 10983.4 717.342 37.4858 30.2996 679.856 49.3197 1660 34.7541 307.767 12.2202 28.7602 14.2457 51.4643 7.99234 1113.88 50.2054 162.305 10.5491 10266.1
internal_count=108424 10224 98200 10645 8872 1925 1352 8720 817 307 661 87555 5581 224 173 5357 340 8516 195 1618 77 156 90 356 51 7903 381 1274 77 81974
is_linear=0
shrinkage=0.05


Tree=6
num_leaves=31
num_cat=0
split_feature=0 4 5 0 9 9 4 5 4 5 20 5 4 10 9 4 5 4 10 4 20 4 15 9 4 4 11 10 4 5
split_gain=20120.9 1551.47 1091.4 614.546 1186.22 508.991 319.427 228.427 102.104 1162.27 155.644 127.62 149.05 120.358 89.7525 131.721 230.082 47.42 387.584 39.7798 21.2738 28.8787 13.6491 48.1375 30.9551 13.5948 13.4137 13.3102 14.9297 13.258
threshold=0.16335774213075641 0.64194524288177501 0.29120446741580969 0.11637197434902193 0.10463363677263261 0.12948085367679599 0.79241356253623974 0.14963255077600482 0.83702078461647045 0.068244334310293212 0.088549088686704649 0.12067208439111711 0.81260314583778392 0.84398370981216442 0.123382605612278 0.73942172527313244 0.21085678786039355 0.55880331993103038 0.59396484494209301 0.7540060579776765 0.1174285188317299 0.78238078951835643 0.15754626691341403 0.14224174618721011 0.73056375980377208 0.81948721408844005 0.18393717706203463 0.73878729343414318 0.77735388278961193 0.21085678786039355
decision_type=2 2 2 2 2 2 2 2 2 2 2 2 2 2 2 2 2 2 2 2 2 2 2 2 2 2 2 2 2 2
left_child=3 2 17 8 6 19 7 -5 9 13 11 12 -11 25 15 16 26 -2 -19 -3 21 -12 -16 24 -24 -1 -6 -7 -29 -9
right_child=1 5 -4 4 14 27 -8 29 -10 10 20 -13 -14 -15 22 -17 -18 18 -20 -21 -22 -23 23 -25 -26 -27 -28 28 -30 -31
leaf_value=0.099735632794521786 0.18548703367411884 0.17805893149821186 -0.030453810790568882 0.19088546116383717 0.18515577966772256 -0.034470293920825977 -0.016396448171512045 0.06375680308352398 -0.035082189726034996 0.18080908519609307 0.021251727054379679 -0.033500478926053547 -0.023266358353151367 0.20710632693902409 -0.034259950282419807 -0.03040669113368474 -0.031396118562188401 -0.031482159252056746 0.18541673508890555 0.025216076591195704 -0.034778235631793469 -0.031083055408002155 0.11357793972843189 -0.029724549625636684 -0.030116182241889052 -0.031119060361976258 0.050627251585704594 0.11071205551116417 -0.028203484897877818 -0.03032175629143255
leaf_weight=1.9210274666547755 1309.0980388075113 40.125181421637535 62.739662915468216 117.13784199953079 25.162609808146957 128.1716942563653 28.920156069099903 4.373100861907008 7161.8985515013337 23.216024845838547 40.781759366393089 28.800058230757713 13.932190723717211 58.297647565603256 348.85768139362335 61.004797868430614 25.752821944653988 23.839669793844223 139.73186904937029 5.160636954009532 1421.1684244796634 71.189950585365295 10.258510932326315 68.052516728639603 5.1729351729154578 6.5143799185752869 2.8976557776331893 2.7130702584981909 3.6617002859711647 12.722565717995165
leaf_count=13 5953 195 536 577 140 1326 292 32 77740 137 325 258 149 297 3516 641 222 203 656 39 13424 765 72 674 55 70 24 16 39 108
internal_value=-0.000529816 0.157088 0.173356 -0.0288859 0.0158368 0.018019 0.133819 0.166125 -0.0324861 -0.0213104 -0.02988 0.044914 0.105263 0.181885 -0.0194784 0.0196889 0.0761846 0.182054 0.153775 0.16149 -0.0331222 -0.0119621 -0.0299088 -0.0115145 0.0659905 0.00419762 0.173225 -0.0309028 0.0359738 -0.00420256
internal_weight=11253.3 1715.24 1535.41 9538.03 710.313 179.832 163.154 134.234 8827.72 1665.82 1599.09 65.9483 37.1482 66.7331 547.16 114.818 53.8131 1472.67 163.572 45.2858 1533.14 111.972 432.342 83.484 15.4314 8.43541 28.0603 134.546 6.37477 17.0957
internal_count=108494 8963 7348 99531 6353 1615 1009 717 93178 15438 15058 544 286 380 5344 1027 386 6812 859 234 14514 1090 4317 801 127 83 164 1381 55 140
is_linear=0
shrinkage=0.05


Tree=7
num_leaves=29
num_cat=0
split_feature=4 3 5 11 4 10 9 3 9 4 10 5 11 6 3 0 7 7 17 11 16 8 5 4 9 11 0 11
split_gain=35710.5 1052.78 348.553 572.41 336.351 925.01 330.901 114.572 378.613 35.2923 453.421 30.3916 406.753 19.4904 13.3304 146.964 8.01101 7.66679 6.77943 6.37328 6.1025 5.34746 3.05159 2.5038 2.47542 0.850923 0.762877 0.628729
threshold=0.68573033809661876 0.16506033390760425 0.17779963463544848 0.14912253618240359 0.62517628073692333 0.67372769117355358 0.14224174618721011 0.12986022233963015 0.097155727446079268 0.55880331993103038 0.61354416608810436 0.12881294637918475 0.10322901979088785 0.11221589520573617 0.10354045778512956 0.087506722658872618 0.64484554529190075 0.59091168642044078 0.12192045524716379 0.13210863620042804 0.72576490044593822 0.18981645256280902 0.19727593660354617 0.89388135075569164 0.13263925909996035 0.12799149006605151 0.14514066278934482 0.18154969811439517
decision_type=2 2 2 2 2 2 2 2 2 2 2 2 2 2 2 2 2 2 2 2 2 2 2 2 2 2 2 2
left_child=4 2 7 25 9 16 20 11 -9 -1 17 14 18 -10 23 -16 -6 -11 -13 -14 -3 22 -5 -2 -15 -4 -18 -7
right_child=1 6 3 21 5 27 -8 8 13 10 -12 12 19 24 15 -17 26 -19 -20 -21 -22 -23 -24 -25 -26 -27 -28 -29
leaf_value=-0.11521127607757319 0.03746135728549415 -0.067704453908460902 -0.11682711484155971 0.023791416580159236 0.038468620803513362 -0.1187733659622241 0.03772401140884326 -0.12682667144317591 -0.063214709045207498 0.040078071621004192 -0.11719180653794044 -0.13497383854055209 0.011350321224486305 0.020281772808903475 -0.10952812314031274 0.036470336901911267 -0.023139613749370978 -0.020228610374888583 -0.068851544250386407 0.039067960364023213 -0.12346899614987138 0.039254040569194223 -0.022864305592869571 0.039171197818265877 0.039211520396131468 -0.071471972186702357 0.0039767311121791226 -0.071490850064147279
leaf_weight=4587.2562421113253 3418.0768057405949 8.8552785664796811 92.815507933497429 7.8928656280040723 136.05541503429413 295.00147779285908 42.743610888719559 44.605411484837532 4.2639756053686133 50.121028423309326 442.20364239811897 32.902687713503838 22.8984684497118 23.84319794178009 17.477344512939453 307.20936155319214 4.3338221758604032 5.2769298255443564 7.890671342611312 558.26092672348022 131.51176728308201 153.58556333184242 5.0336740612983704 12526.445091247559 156.76381403207779 6.3588361889123908 4.3240791708230972 5.5417136996984473
leaf_count=14939 17610 33 306 40 672 984 213 159 19 229 1459 124 109 115 70 1559 20 22 30 2858 453 780 21 64807 799 23 20 21
internal_value=0.000687418 0.0355664 0.0368239 -0.019944 -0.110113 -0.0681987 -0.0834507 0.037706 0.0025812 -0.113771 -0.100318 0.0381828 0.0272307 0.0342434 0.0385998 0.0283462 0.0355034 0.0340384 -0.123874 0.0380015 -0.12039 0.0366602 0.00498543 0.0388069 0.0368405 -0.114564 -0.0098772 -0.11811
internal_weight=23099.5 17569.4 17386.3 265.686 5530.11 445.257 183.111 17120.6 229.476 5084.86 497.602 16891.2 621.953 184.871 16269.2 324.687 144.713 55.398 40.7934 581.159 140.367 166.512 12.9265 15944.5 180.607 99.1743 8.6579 300.543
internal_count=108494 90128 89429 1170 18366 1717 699 88259 1092 16649 1710 87167 3121 933 84046 1629 712 251 154 2967 486 841 61 82417 914 329 40 1005
is_linear=0
shrinkage=0.05


Tree=8
num_leaves=31
num_cat=0
split_feature=5 5 11 5 11 11 7 5 11 11 3 3 23 3 1 7 5 22 3 2 5 5 3 20 22 22 3 3 3 3
split_gain=30747.4 227.719 804.208 226.538 531.398 26.7365 20.523 18.1775 406.682 16.3276 11.2541 9.63812 7.80108 3.81341 2.91288 2.84191 2.41384 180.385 6.536 2.17492 7.64198 1.96408 1.71926 0.999686 0.978171 0.859847 0.320523 0.233214 0.592997 0.0793067
threshold=0.22967509925365451 0.16401687264442447 0.13367681950330737 0.29120446741580969 0.20687981694936755 0.16071715950965884 0.74352553486824047 0.12609169632196429 0.088038951158523573 0.11006123200058938 0.11111438646912576 0.21137911826372149 0.4425919651985169 0.060685111209750182 0.83704787492752086 0.64484554529190075 0.35934601724147802 0.13145363330841067 0.16506033390760425 0.16864320635795596 0.18672005087137225 0.089062102138996138 0.05375936999917031 0.22970648109912875 0.16390910744667056 0.10373457521200181 0.10581390187144281 0.024262201040983204 0.02168367896229029 0.053246885538101203
decision_type=2 2 2 2 2 2 2 2 2 2 2 2 2 2 2 2 2 2 2 2 2 2 2 2 2 2 2 2 2 2
left_child=1 7 6 4 23 11 -3 21 14 10 13 12 -4 -10 -9 -6 17 18 25 20 -7 -1 27 -2 -19 -5 -24 28 -23 -29
right_child=3 2 5 16 15 19 -8 8 9 -11 -12 -13 -14 -15 -16 -17 -18 24 -20 -21 -22 22 26 -25 -26 -27 -28 29 -30 -31
leaf_value=-0.036375739651720161 0.16413889335154119 0.021389011832228449 0.094389911036598592 -0.034461948143963854 -0.03517918019281583 -0.033739023300668684 0.16452305322257699 0.11801472866567833 0.017834642874221231 -0.036284730119023618 -0.031152450656371251 -0.029205937874672003 0.001345973460125414 0.099482455863789343 0.21630179817176112 0.013270786943103888 0.16251673845657683 0.11025113832055269 0.041083573918072804 -0.035887902361310904 0.048497321289053014 -0.027461420722309688 -0.033494329931022686 0.099302782542665655 0.16670155302523526 -0.0052860045046643897 -0.036728628595908835 -0.030563445704871569 -0.0077520679022637737 -0.0169687463670165
leaf_weight=9891.8165575116873 102.84094476699829 2.9558805227279654 5.7984266057610494 7.6624980270862597 49.042180210351944 10.494626984000204 64.922211959958076 4.777934446930888 3.2642441838979703 507.95035539567471 4.709489569067955 3.4051747620105735 3.6239882484078407 3.004785344004631 13.971074208617209 2.66895967721939 2174.6861190795898 7.6725794672965995 4.4728764295577994 263.42945708334446 2.9696562886238089 14.032695993781092 441.06242942810059 5.471467286348342 167.88631346821785 4.7140349149703979 377.40979599952698 215.59309002757072 7.3492303341627112 6.069413185119628
leaf_count=82530 431 17 37 44 382 83 280 27 23 4058 32 23 23 18 75 20 8922 36 22 2091 20 118 3699 26 707 26 2796 1815 62 51
internal_value=-0.000689456 -0.0344626 0.00480811 0.157618 0.0990646 -0.0315637 0.158685 -0.0356854 -0.026579 -0.0349711 0.0237177 0.0371279 0.061999 0.0645058 0.197365 -0.0324192 0.161539 0.149839 -0.0059012 -0.0348618 -0.0135479 -0.03613 -0.0338099 0.161662 0.164774 -0.0247244 -0.0350262 -0.0295918 -0.0214364 -0.030276
internal_weight=14375.7 11848.6 357.599 2527.12 160.024 289.721 67.8781 11491 537.678 518.929 10.9785 12.8276 9.42241 6.26903 18.749 51.7111 2367.09 192.408 16.8494 276.894 13.4643 10953.3 1061.52 108.312 175.559 12.3765 818.472 243.044 21.3819 221.663
internal_count=108494 97878 2574 10616 859 2277 297 95304 4233 4131 73 83 60 41 102 402 9757 835 92 2194 103 91071 8541 457 743 70 6495 2046 180 1866
is_linear=0
shrinkage=0.05


Tree=9
num_leaves=31
num_cat=0
split_feature=0 4 5 0 10 10 4 10 4 5 4 2 5 4 10 2 4 5 5 4 10 5 4 4 10 17 4 4 10 4
split_gain=15971.9 1114.83 853.883 436.883 790.308 256.926 207.412 103.017 225.126 158.23 87.7128 1034.27 89.2565 84.5156 228.134 79.3643 73.9276 107.509 59.0961 48.7409 33.506 20.6736 45.9767 12.3584 10.3821 8.60976 16.6996 6.48047 6.12541 18.5701
threshold=0.15827365964651111 0.67103767395019542 0.29120446741580969 0.11637197434902193 0.80631142854690563 0.76574063301086437 0.80088695883750927 0.72325065732002269 0.73942172527313244 0.18672005087137225 0.84205657243728649 0.070473179221153273 0.11198723316192628 0.62517628073692333 0.67372769117355358 0.092887967824935927 0.78238078951835643 0.1454807445406914 0.1454807445406914 0.78744536638259899 0.83660924434661876 0.22967509925365451 0.52668660879135143 0.72090607881546032 0.83041241765022289 0.10841596499085428 0.73056375980377208 0.82240551710128795 0.68643978238105785 0.72090607881546032
decision_type=2 2 2 2 2 2 2 2 2 2 2 2 2 2 2 2 2 2 2 2 2 2 2 2 2 2 2 2 2 2
left_child=3 2 13 10 7 -3 18 28 9 23 11 12 20 21 -15 16 17 -13 -6 -7 27 -2 -23 -9 -18 26 -17 -1 -5 -30
right_child=1 5 -4 4 6 19 -8 8 -10 -11 -12 15 -14 14 -16 25 24 -19 -20 -21 -22 22 -24 -25 -26 -27 -28 -29 29 -31
leaf_value=0.074634813995006058 0.14642216347994114 -0.032363329078271656 -0.031940277509180076 -0.033538594441725238 0.15360545222558519 0.14481647415426155 -0.021212442477666574 0.15946239307211757 -0.032401213943107542 -0.031887089753130975 -0.034946210289626932 0.16723652777786208 -0.031792991707540387 -0.032985488692656481 0.14886962265411824 0.025556982590193251 -0.034532766728704617 -0.033653092749738281 -0.022149995458217244 -0.021466374475021109 0.15953028771351999 0.13240830721840377 -0.018558719022206745 0.06265911387416194 0.022838377026638188 -0.03471041953070985 -0.029469242591763752 -0.026319330652746994 0.016987238202919582 -0.034904779716585767
leaf_weight=2.0667043179273596 1697.7162452489138 128.50590600073338 71.926876217126846 321.94608347117901 106.26203921437263 29.055040307343006 21.971302069723606 34.894612438976765 85.4479800760746 16.969416968524456 6674.9414197802544 15.428754910826685 6.8234830498695365 25.035526409745216 52.626662418246269 17.000641509890556 31.14980997890234 10.845962598919867 4.7577067092061034 4.8867537230253211 82.138568244874477 18.805380590260032 6.4733588099479666 5.4075090885162345 9.7393345013260824 1489.1107745319605 60.79049426317215 2.8188441395759583 25.483847089111805 49.510038457810879
leaf_count=14 6546 1415 608 3257 427 120 233 151 945 141 76835 71 63 247 208 125 352 91 35 48 359 75 57 39 94 14330 669 32 201 561
internal_value=-0.000849486 0.125721 0.136616 -0.0292399 0.009518 4.07853e-05 0.118313 -0.017419 0.0189156 0.0949568 -0.0323437 -0.0222758 0.138435 0.143363 0.0904437 -0.031572 0.0214011 0.0855824 0.145924 0.120789 0.152007 0.145703 0.0941737 0.148068 -0.0205716 -0.0338556 -0.0172423 0.0199999 -0.0305074 -0.0172121
internal_weight=11110.5 2035.03 1872.58 9075.51 672.651 162.448 132.991 539.659 142.72 57.2715 8402.85 1727.91 93.8476 1800.66 77.6622 1634.07 67.1639 26.2747 111.02 33.9418 87.0241 1722.99 25.2787 40.3021 40.8891 1566.9 77.7911 4.88555 396.94 74.9939
internal_count=108349 9324 7741 99025 5990 1583 695 5295 1276 331 93035 16200 468 7133 455 15732 608 162 462 168 405 6678 132 190 446 15124 794 46 4019 762
is_linear=0
shrinkage=0.05


Tree=10
num_leaves=31
num_cat=0
split_feature=4 3 4 10 9 5 11 3 9 4 10 5 11 10 16 3 9 10 16 22 4 4 6 11 20 5 15 1 11 22
split_gain=29796.4 648.455 525.021 962.49 292.975 206.611 304.603 48.3007 224.278 35.2042 336.414 27.1611 333.203 10.827 10.6742 10.3292 199.059 8.57004 4.81451 3.84612 211.725 6.76012 3.72321 3.66422 3.42244 3.11965 2.52137 1.79776 1.74214 1.73338
threshold=0.71035820245742809 0.15290001034736636 0.64194524288177501 0.69877851009368908 0.12782227993011477 0.17779963463544848 0.14912253618240359 0.12497156858444215 0.09631457552313806 0.59096911549568187 0.61928692460060131 0.12881294637918475 0.10322901979088785 0.72325065732002269 0.74268248677253734 0.089060161262750639 0.071485608816146864 0.6780790686607362 0.59716159105300914 0.11404043436050416 0.47041642665863043 0.51217204332351696 0.11082325503230096 0.13210863620042804 0.1825160086154938 0.10413115844130517 0.10964297130703927 0.68946769833564769 0.088038951158523573 0.29717804491519934
decision_type=2 2 2 2 2 2 2 2 2 2 2 2 2 2 2 2 2 2 2 2 2 2 2 2 2 2 2 2 2 2
left_child=2 5 9 17 14 7 -7 11 26 19 -11 15 28 27 -3 25 -17 -4 -12 20 -1 -22 -10 -14 -8 -2 -9 -5 -13 -16
right_child=1 4 3 13 -6 6 24 8 22 10 18 12 23 -15 29 16 -18 -19 -20 -21 21 -23 -24 -25 -26 -27 -28 -29 -30 -31
leaf_value=-0.098739051615427287 0.038612177017947981 -0.031133535902204079 0.037875242156119357 -0.019793810390681354 0.035924250029520342 -0.099252299142354838 -0.0062673767726877565 -0.11590839245504314 -0.0087689323732105424 0.03649906582884372 -0.039430088395998611 -0.11243907393996454 0.016590505970653143 -0.10179654180657637 -0.060411341372218985 -0.10277076870084363 0.037623264563462502 -0.013888984125579677 -0.10116030791128597 -0.099308307594990153 -0.010678185043844636 0.035079914986627325 0.03850869330087154 0.038707802467801075 0.038287405524101592 0.03406673760336535 -0.068440166341301248 -0.064462948772930323 -0.068277322557981232 -0.10722302372495454
leaf_weight=1105.331673771143 14294.817151561379 6.1280774176120749 208.85936573147774 5.3384115397930128 55.645642474293709 67.948979064822197 4.0870318859815589 23.763271600008011 3.8283365815877906 51.448188334703445 4.8265528678894034 34.798818469047546 22.000473946332932 312.86653456091881 6.0716228187084189 25.594341367483139 593.82188178598881 7.7841640114784232 325.98184296488762 4126.0860936045647 10.80339479446411 26.547458410263062 153.31451836228371 515.86647719144821 98.955096989870071 467.45143568515778 9.1141585856676084 6.375340074300766 8.2944028079509717 110.31986801326275
leaf_count=3304 77914 22 1098 23 293 206 20 80 18 253 17 115 107 963 21 107 3182 34 993 12358 34 105 818 2781 525 2527 32 24 30 345
internal_value=0.000785806 0.0358819 -0.0927341 -0.0455746 -0.0587972 0.0369184 -0.0176654 0.0374974 0.0123338 -0.0972428 -0.0818996 0.037796 0.0270707 -0.0999575 -0.101812 0.0381993 0.031689 0.0359481 -0.100372 -0.0983424 -0.0947832 0.0217674 0.0372867 0.0378384 0.0364374 0.0384704 -0.104836 -0.0470719 -0.105452 -0.105253
internal_weight=22694.1 16501.8 6192.25 541.224 178.165 16323.7 170.991 16152.7 190.02 5651.03 382.257 15962.6 580.96 324.58 122.52 15381.7 619.416 216.644 330.808 5268.77 1142.68 37.3509 157.143 537.867 103.042 14762.3 32.8774 11.7138 43.0932 116.391
internal_count=108349 89143 19206 2142 681 88462 751 87711 948 17064 1263 86763 3033 1010 388 83730 3289 1132 1010 15801 3443 139 836 2888 545 80441 112 47 145 366
is_linear=0
shrinkage=0.05


Tree=11
num_leaves=25
num_cat=0
split_feature=5 5 11 5 11 5 11 7 20 7 5 11 19 4 11 11 0 22 8 11 1 1 22 20
split_gain=24720 212.937 521.429 121.789 363.109 31.7055 336.482 9.5457 9.25734 6.29684 5.91857 352.881 12.677 5.94695 3.86786 3.6541 2.04656 1.97449 1.42212 1.40251 0.660563 0.237256 0.193242 0.130963
threshold=0.22967509925365451 0.17779963463544848 0.154700443148613 0.29120446741580969 0.21005363017320636 0.14154177904129031 0.10212848708033563 0.73642393946647655 0.17246031016111377 0.65572232007980358 0.10413115844130517 0.06467441096901895 0.85413676500320446 0.81260314583778392 0.13210863620042804 0.088038951158523573 0.099652469158172621 0.28025862574577337 0.230425700545311 0.16703042387962344 0.79042503237724315 0.75031131505966198 0.11404043436050416 0.12552366405725482
decision_type=2 2 2 2 2 2 2 2 2 2 2 2 2 2 2 2 2 2 2 2 2 2 2 2
left_child=1 5 7 4 9 10 16 -3 -4 -2 -1 13 15 -12 17 -13 -7 -8 -6 -10 -19 -21 -5 -16
right_child=3 2 8 22 18 6 14 -9 19 -11 11 12 -14 -15 23 -17 -18 20 -20 21 -22 -23 -24 -25
leaf_value=-0.036124937691799933 0.046664212609108302 0.036481373103364904 0.025595605686097884 0.12647328561277224 0.0026107152025004431 0.14242413173740434 0.013063667767248405 0.13473241047030357 0.00061841204229884741 0.13240379188463783 0.13242846929053828 -0.0036024810104792675 0.041744033741511408 0.27722376625610395 -0.015059925279752055 -0.036427144357197232 0.073106919907893295 -0.032301913819154184 -0.034828213107583494 -0.03585430878764416 -0.0013931124115000827 -0.011557969635290622 0.13253361936789881 -0.036350391568642969
leaf_weight=9859.7555141374469 3.4994326829910269 3.4595102444291106 5.8907338827848426 524.2817291021347 2.3146024048328391 26.611487746238712 5.5870384573936454 63.253634624183178 2.4167310744523993 124.5160294175148 3.7148878499865514 9.1050734072923643 4.5833316296339026 7.2188288122415543 3.071726828813552 751.40135776251554 4.299666389822959 5.4535279273986799 43.574560433626175 167.07780691236258 2.9774201214313507 2.5776010230183592 2229.2100921869278 330.09857405722141
leaf_count=86583 16 17 38 1879 16 106 37 237 15 451 20 65 36 52 24 6255 22 35 354 1376 23 22 7922 2748
internal_value=-0.000591385 -0.0342493 0.0118364 0.128827 0.0873508 -0.0352744 -0.0209384 0.130204 -0.0328924 0.130403 -0.035782 -0.031385 -0.0355293 0.240837 -0.0351173 -0.0360449 0.135028 -0.00835641 -0.0328204 -0.0350328 -0.0229947 -0.0355705 0.131419 -0.0362056
internal_weight=14186 11258.6 244.676 2927.4 173.905 11013.9 378.099 66.7131 177.963 128.015 10635.8 776.023 765.09 10.9337 347.188 760.506 30.9112 14.018 45.8892 172.072 8.43095 169.655 2753.49 333.17
internal_count=108349 97711 1705 10638 837 96006 2995 254 1451 467 93011 6428 6356 72 2867 6320 128 95 370 1413 58 1398 9801 2772
is_linear=0
shrinkage=0.05


Tree=12
num_leaves=31
num_cat=0
split_feature=15 4 15 10 17 4 10 9 15 4 2 2 4 15 10 4 8 17 4 17 15 18 4 10 2 9 4 4 2 10
split_gain=13027.8 842.21 444.073 837.511 386.985 240.301 172.545 71.0197 85.6109 68.8334 776.104 67.9258 96.0803 63.896 48.9718 45.261 45.2547 41.3111 40.1198 39.474 37.3202 35.9832 27.8936 135.884 26.3859 26.2034 23.6416 16.7671 74.4434 10.7475
threshold=0.15754626691341403 0.67103767395019542 0.10964297130703927 0.79892775416374218 0.31109571456909185 0.80902329087257396 0.76574063301086437 0.12197173386812211 0.13510981947183612 0.85328030586242687 0.070473179221153273 0.22690501064062121 0.48409909009933477 0.26083336770534521 0.84243422746658336 0.73942172527313244 0.088724292814731612 0.14391656219959262 0.7540060579776765 0.21656139194965365 0.22680348157882693 0.030988479033112529 0.62517628073692333 0.67372769117355358 0.086518276482820525 0.14684736728668216 0.81581035256385814 0.7540060579776765 0.15965855121612552 0.87683489918708812
decision_type=2 2 2 2 2 2 2 2 2 2 2 2 2 2 2 2 2 2 2 2 2 2 2 2 2 2 2 2 2 2
left_child=2 4 9 7 11 17 -3 8 27 10 14 22 20 -6 -1 19 24 -5 -8 -10 -13 -16 -2 -24 26 -14 -12 28 -4 -7
right_child=1 6 3 5 13 29 18 -9 15 -11 16 12 25 -15 21 -17 -18 -19 -20 -21 -22 -23 23 -25 -26 -27 -28 -29 -30 -31
leaf_value=-0.0027859115119228208 0.12272245238235585 -0.031023692311610514 0.099994277999945647 0.1250741030201595 -0.027019382486938717 -0.031675937677687227 0.12098617862978861 -0.032284411189239054 0.11530836658754087 -0.034961370922150507 0.064262526429624947 0.035563139061680064 0.0927389700569341 0.093695874844844873 -0.019798750835533549 -0.024560054820631675 -0.034253022689873965 -0.0044072550656340265 -0.01765456718389222 -0.013898227360981364 0.118596873142394 0.12386053050488939 -0.031832923719532495 0.124282294274976 -0.020957364523231756 -0.026524145837039666 -0.016451600421676572 -0.033480504398079404 -0.025666150424746299 0.065817619359571825
leaf_weight=9.1649536117911321 1805.836678519845 126.1047782599926 14.287692494690416 158.45369735360146 54.265950091183186 32.540387563407421 27.220906987786293 466.44948588311672 28.378096111118793 6109.4033287167549 23.337086111307144 17.399708792567253 4.9933643490076092 12.88416116684675 4.2954887002706519 10.967668570578097 1519.4928681924939 6.2749217227101317 6.1072733253240576 7.1283535510301581 82.696619600057602 92.539683066308498 17.485279351472855 62.060191780328751 49.467336319386959 21.635708197951317 13.966139018535612 66.010983854532242 53.039480306208134 2.3147869408130637
leaf_count=100 6169 1454 80 577 460 369 99 4995 119 74638 138 109 25 56 40 119 15279 48 58 57 291 405 168 221 451 204 161 783 469 17
internal_value=-0.000977299 0.106528 -0.0287521 0.00565363 0.115017 0.094974 -0.00417428 -0.0220066 0.00465217 -0.0324736 -0.023582 0.118956 0.0823119 -0.00295362 0.106952 0.0625136 -0.0322482 0.120114 0.0956159 0.0894962 0.104609 0.117327 0.12138 0.0899283 0.00279446 -0.0019256 0.0342014 -0.0157303 0.00178828 -0.0237295
internal_weight=10906.2 2238.69 8667.51 845.846 2079.26 199.584 159.433 646.262 179.812 7821.67 1712.26 2012.11 126.725 67.1501 106 46.4741 1606.26 164.729 33.3282 35.5064 100.096 96.8352 1885.38 79.5455 86.7706 26.6291 37.3032 133.338 67.3272 34.8552
internal_count=108159 9314 98845 7633 7703 1011 1611 6622 1627 91212 16574 7187 629 516 545 295 16029 625 157 176 400 445 6558 389 750 229 299 1332 549 386
is_linear=0
shrinkage=0.05


Tree=13
num_leaves=31
num_cat=0
split_feature=1 0 16 10 2 10 10 16 10 1 10 10 1 10 16 16 10 10 1 1 10 16 15 16 15 23 10 1 0 9
split_gain=17599.9 1253.64 767.791 1417.46 582.075 672.367 474.161 191.7 703.326 128.521 227.058 106.477 151.595 78.0275 119.659 51.0296 367.452 55.8777 64.797 44.6942 42.7243 46.1338 33.6964 31.2263 30.8592 26.6174 25.9094 25.0506 24.9374 45.8762
threshold=0.71042850613594066 0.13524594902992251 0.6069457232952119 0.68643978238105785 0.15659428387880328 0.77525603771209728 0.76840120553970348 0.86244523525238048 0.87223511934280407 0.65061587095260631 0.61354416608810436 0.84243422746658336 0.82076087594032299 0.73551794886589061 0.6846112608909608 0.51815780997276317 0.54947969317436229 0.60715535283088695 0.56797602772712719 0.66436040401458751 0.74460905790328991 0.74679851531982433 0.16872482746839526 0.84318658709526073 0.19117443263530734 0.46696080267429357 0.64076533913612377 0.51701301336288463 0.091475609689950957 0.05610217712819577
decision_type=2 2 2 2 2 2 2 2 2 2 2 2 2 2 2 2 2 2 2 2 2 2 2 2 2 2 2 2 2 2
left_child=2 4 15 9 7 20 24 8 11 10 -4 22 -13 14 -5 -1 27 18 -18 -16 -6 -22 -2 -10 -3 -7 -12 -17 -9 -30
right_child=1 6 3 13 5 25 -8 28 23 -11 26 12 -14 -15 19 16 17 -19 -20 -21 21 -23 -24 -25 -26 -27 -28 -29 29 -31
leaf_value=-0.08570884431143147 0.032535905119709045 0.026049423423257657 0.032972548079718264 -0.076655590005238972 0.034640938938813842 -0.078922237420674612 -0.077724858065484875 0.036698345174964321 -0.081619854825348781 0.03322763536395585 -0.023594852185038959 -0.062455637386689314 0.018910148301862759 -0.086402802274538129 -0.069418706734084276 -0.021500475522805599 -0.075990854928711993 -0.086299582172544853 -0.006877389840218533 0.0092589162918913677 -0.047098733487230121 0.026837661132433605 -0.041053079031791048 -0.042125884135665585 -0.038271709210606977 -0.028094006528725332 -0.067741112563013628 0.031971263349903752 -0.069218486058047771 0.026861049165396601
leaf_weight=3141.161132261157 2829.7285079807043 171.03535717725754 150.8985608369112 226.63013005256653 334.49757197499275 248.04930955171585 370.32695442438126 11223.306193158031 121.18340274691582 373.95795822143555 51.485263824462891 69.385720029473305 309.56622444093227 796.75932270288467 23.076290130615234 30.23903089761734 102.17338608205318 956.73663863539696 51.070239558815956 73.122391700744629 36.316027760505676 48.057862281799316 14.936204880475996 91.715391635894775 20.147858381271362 30.380044013261795 102.03405714035034 73.817521661520004 14.666897416114805 62.272638589143753
leaf_count=8965 15847 926 837 697 1878 747 1132 64295 373 2084 224 244 1651 2286 73 116 312 2737 229 362 136 260 59 366 80 124 338 389 49 343
internal_value=0.000929797 0.028574 -0.0709268 -0.0434013 0.0312447 -0.0133757 -0.0447641 0.0333569 0.0230019 0.0136186 -0.0104773 0.0288202 0.0038988 -0.0779401 -0.0568763 -0.0822791 -0.0733502 -0.0817684 -0.0531458 -0.00997972 0.0266354 -0.00507065 0.0321363 -0.0648509 0.0191137 -0.0734905 -0.0531674 0.0163391 0.0365037 0.00795737
internal_weight=22148.7 15995.6 6153.16 1797.96 15434.1 697.301 561.51 14736.8 3436.52 678.376 304.418 3223.62 378.952 1119.59 322.829 4355.2 1214.04 1109.98 153.244 96.1987 418.871 84.3739 2844.66 212.899 191.183 278.429 153.519 104.057 11300.2 76.9395
internal_count=108159 88510 19649 6901 86372 3145 2138 83227 18540 3483 1399 17801 1895 3418 1132 12748 3783 3278 541 435 2274 396 15906 739 1006 871 562 505 64687 392
is_linear=0
shrinkage=0.05


Tree=14
num_leaves=31
num_cat=0
split_feature=17 4 4 3 3 10 3 4 10 4 10 4 10 4 10 3 4 3 19 4 10 4 3 3 10 3 4 10 4 1
split_gain=15243.2 1373.85 833.414 2079.61 661.718 329.726 140.483 276.428 96.7168 61.9942 42.634 37.9136 85.9616 29.3404 262.525 165.825 21.7201 18.0908 16.0142 15.9526 12.2788 19.4716 7.31585 6.45781 5.15104 5.02177 30.0195 3.37637 2.95308 2.78745
threshold=0.21054032444953921 0.62517628073692333 0.76671016216278087 0.10142650455236436 0.21137911826372149 0.72953143715858471 0.15290001034736636 0.67103767395019542 0.73551794886589061 0.67103767395019542 0.76323589682579052 0.59096911549568187 0.63558626174926769 0.82887926697731029 0.84963104128837597 0.10142650455236436 0.73942172527313244 0.24901000410318377 0.84753650426864635 0.48409909009933477 0.74763113260269176 0.69929671287536632 0.063889630138874068 0.18262923508882525 0.68235850334167492 0.16506033390760425 0.49832551181316381 0.83205664157867443 0.67103767395019542 0.75031131505966198
decision_type=2 2 2 2 2 2 2 2 2 2 2 2 2 2 2 2 2 2 2 2 2 2 2 2 2 2 2 2 2 2
left_child=2 4 3 5 11 9 7 24 -3 -1 -9 25 -13 14 18 22 -12 19 27 -6 21 -7 -16 -8 -5 -2 -27 -4 -10 -11
right_child=1 8 13 6 17 20 23 10 28 29 16 12 -14 -15 15 -17 -18 -19 -20 -21 -22 -23 -24 -25 -26 26 -28 -29 -30 -31
leaf_value=0.10531964771298988 0.11186084055371348 -0.033182703744313244 -0.035582613733966546 0.05232318148765365 0.091163410914498977 0.09780524252108215 -0.019321412899484525 -0.034742502140615847 0.10441587007409243 -0.033679504499117274 0.11362542578974649 -0.034656651040829746 0.10978059123056519 -0.03560824538897308 0.12097009844501827 -0.03153329328700856 -0.020859408719029068 -0.035279817210978601 0.077352242149916747 -0.030503829645805908 0.11263402295361197 -0.02958354359784723 0.20359767797457062 -0.037220021893772846 0.11571600650775396 0.10973719716597281 -0.0042254000169850998 -0.0032611154857119097 0.046637993909097834 0.014215015397419465
leaf_weight=8.9766288772225362 2699.7331369370222 201.68427039682865 603.46724183857441 5.8707945793867102 4.9813563674688321 7.7116063684225065 57.024492263793945 127.15089909732342 11.327040672302248 52.580594658851624 6.9999999552965146 14.68818725645542 31.073827892541885 8381.1883994936943 33.327303893864155 23.27262832224369 4.4406908750534058 79.565172910690308 2.4291118234395972 4.3927271962165833 384.45094436407089 4.086682453751564 5.0513608604669562 1054.1428756713867 44.683893874287605 25.889287576079369 7.1950119137763968 8.7072047218680364 5.7411829680204383 2.6460278034210196
leaf_count=30 8667 1847 5638 32 19 25 468 1180 37 487 27 120 103 79567 119 170 34 540 15 33 1260 35 29 7286 148 84 43 60 32 24
internal_value=-0.000714129 0.0972854 -0.0286775 0.00279452 0.106498 0.0940181 -0.0295427 0.0102338 -0.0234006 -0.0109098 -0.026317 0.110795 0.0635144 -0.0347959 -0.0246908 0.0730268 0.0630651 -0.0274865 -0.0345832 0.0357428 0.11102 0.0542069 0.135908 -0.0363205 0.109381 0.111566 0.085291 -0.0351359 0.0882194 -0.0311253
internal_weight=13904.5 3086.27 10818.2 1760.77 2867.52 460.452 1300.31 189.146 218.752 64.2033 138.592 2778.58 45.762 9057.44 676.255 61.6513 11.4407 88.9393 614.604 9.37408 396.249 11.7983 38.3787 1111.17 50.5547 2732.82 33.0843 612.174 17.0682 55.2266
internal_count=108159 11525 96634 11036 9609 1861 9175 1421 1916 541 1241 9017 223 85598 6031 318 61 592 5713 52 1320 60 148 7754 180 8794 127 5698 69 511
is_linear=0
shrinkage=0.05


Tree=15
num_leaves=31
num_cat=0
split_feature=3 3 9 5 3 9 5 3 9 5 0 0 18 12 18 0 9 9 0 3 16 7 2 16 6 14 7 22 9 18
split_gain=14878.4 126.609 303.478 113.22 57.2889 230.432 40.2055 13.5784 206.3 24.0929 10.5054 9.68564 9.64411 8.60278 4.48792 3.85408 2.85515 2.84683 2.31257 1.68118 103.924 19.0282 6.7301 1.90061 1.64915 1.04465 0.407138 0.419776 0.350862 0.293047
threshold=0.16506033390760425 0.12986022233963015 0.10983960330486299 0.29120446741580969 0.21137911826372149 0.14224174618721011 0.14963255077600482 0.10142650455236436 0.077153541147708907 0.10413115844130517 0.09729532897472383 0.15329100191593173 0.17525546252727511 0.18561081588268283 0.13337389379739764 0.1145714931190014 0.08153958618640901 0.15978020429611209 0.18347147107124331 0.085144639015197768 0.89023917913436901 0.87480053305625927 0.048694731667637832 0.87391296029090892 0.11872005462646486 0.18477243185043338 0.85048505663871776 0.40823125839233404 0.13815151154994967 0.1362566947937012
decision_type=2 2 2 2 2 2 2 2 2 2 2 2 2 2 2 2 2 2 2 2 2 2 2 2 2 2 2 2 2 2
left_child=1 7 6 4 5 12 14 19 9 10 -9 -6 -2 -5 -3 -4 -10 18 -7 -1 21 23 -23 -21 -17 -13 27 -18 29 -26
right_child=3 2 15 13 11 17 -8 8 16 -11 -12 25 -14 -15 -16 24 26 -19 -20 20 -22 22 -24 -25 28 -27 -28 -29 -30 -31
leaf_value=-0.035180626210582502 0.12123834448713516 0.13286269997726019 0.029513049510041595 -0.032088624284722499 0.1207292007906446 0.036469964641484075 -0.022622943524993944 0.16461934561997141 0.011859918089419122 -0.0038306927569701854 0.064523753850683402 0.10704754999161331 0.05029844370875837 0.053689872576446834 0.066848985843356676 -0.00143199857127896 -0.035455878023699573 -0.03463411065863313 -0.024766062298993724 -0.035192179826935739 0.25279299146116452 -0.0067396867211441036 0.10291588243216668 0.0090847078206307812 -0.012152322339266419 0.099010597570284839 -0.0064909259148899119 -0.0059789941038245493 -0.035365432890648842 -0.029380495863087754
leaf_weight=7260.8703989982605 80.981755957007408 39.447228670120239 1.8507450222969044 15.795335739851 178.32843019068241 2.257963351905345 4.7583068311214438 13.698758937418466 2.7445341423153868 3.2429670915007582 5.2682175859808913 2006.9743119180202 7.0283408910036078 2.7606359720230094 5.855932116508483 4.4314059838652602 327.61241691559553 33.943164765834808 2.2760898843407631 370.99628095328808 2.3997053280472747 2.0815800279378882 2.6054077744483948 1.9630044624209393 6.8947366550564793 217.36664070188999 2.0605376213788977 1.9815497919917096 110.01233726739883 11.407769978046415
leaf_count=90103 289 150 18 119 598 21 32 66 20 24 32 6307 32 20 29 38 3648 394 25 4166 25 23 24 23 69 704 23 19 1242 110
internal_value=-0.000739376 -0.033595 0.00728566 0.104755 0.105658 0.071813 0.111412 -0.0345402 -0.02483 0.120071 0.140807 0.107413 0.116134 -0.0173771 0.125746 -0.031835 -0.0347325 -0.0297363 0.0056882 -0.0349901 -0.0312707 -0.0336195 0.0594223 -0.0349268 -0.0328994 0.1063 -0.0351607 -0.0353087 -0.0339319 -0.0239329
internal_weight=10729.9 8182.18 184.658 2547.71 2529.16 126.487 50.0615 7997.53 356.609 22.2099 18.967 2402.67 88.0101 18.556 45.3032 134.597 334.399 38.4772 4.53405 7640.92 380.046 377.646 4.68699 372.959 132.746 2224.34 331.655 329.594 128.315 18.3025
internal_count=108393 99884 1688 8509 8370 761 211 98196 3832 122 98 7609 321 139 179 1477 3710 440 46 94364 4261 4236 47 4189 1459 7011 3690 3667 1421 179
is_linear=0
shrinkage=0.05


Tree=16
num_leaves=31
num_cat=0
split_feature=4 3 4 7 9 5 10 4 10 19 10 4 4 4 10 6 3 10 22 7 10 5 16 5 10 1 7 5 4 3
split_gain=22382.4 581.58 292.236 704.223 287.496 164.271 215.043 35.4073 582.041 35.2792 30.286 52.1629 25.472 21.583 346.877 13.5355 11.3194 11.1912 11.0941 9.55442 7.07036 6.83909 5.03253 4.97953 4.86107 2.43773 2.3036 1.32417 2.1221 1.29241
threshold=0.71035820245742809 0.14340762048959735 0.64194524288177501 0.68817391991615307 0.11095157638192178 0.17779963463544848 0.75567394495010387 0.85917645692825328 0.86252960562706005 0.85880586504936229 0.84108743071556102 0.81581035256385814 0.82887926697731029 0.55880331993103038 0.61354416608810436 0.13215101510286334 0.090524837374687209 0.69452565908432018 0.21329291909933093 0.60416322946548473 0.7777097523212434 0.028773445636034015 0.74268248677253734 0.15402889251708987 0.81163766980171215 0.59593439102172863 0.6656688153743745 0.10594701766967775 0.86673301458358776 0.085144639015197768
decision_type=2 2 2 2 2 2 2 2 2 2 2 2 2 2 2 2 2 2 2 2 2 2 2 2 2 2 2 2 2 2
left_child=2 5 13 17 22 7 -7 8 10 12 24 -12 -10 -1 19 -6 27 26 -5 -15 -8 -18 -3 -11 -2 -16 -4 29 -29 -9
right_child=1 4 3 18 15 6 20 16 9 23 11 -13 -14 14 25 -17 21 -19 -20 -21 -22 -23 -24 -25 -26 -27 -28 28 -30 -31
leaf_value=-0.079117760249506092 0.037658123534324552 -0.032989401733457206 0.038171849964673842 -0.021103191258777396 -0.029687828941579727 0.036998548790255506 -0.020206275228999634 0.037884167415146212 -0.085536103526940202 -0.12552534134526624 -0.089120504895321626 0.027249122970490425 0 0.039233859122195187 -0.053183114318276659 0.036366459748332192 -0.036945431606363953 -0.016091089346488039 -0.084183162852516868 -0.02121939969120866 -0.082293774668797767 0.019009467614830966 -0.086548207213993977 -0.076661283588495097 0.02759714376503053 -0.081650670334380365 0.01028421682416244 0.034693433350715307 -0.0019456623356139708 0.026570338029468829
leaf_weight=5469.7320192158222 1991.2784294337034 6.1846791058778754 183.27046385407448 7.9725967347621909 7.9244466423988333 92.129611417651176 5.8142745047807685 12163.215970993042 20.303147703409195 44.575651451945305 12.183164596557615 36.461337506771088 14.64883780479431 66.391195207834244 14.565160751342772 77.577354565262794 6.0284251719713202 9.9220980703830701 341.57461950182915 6.6275916993618003 66.45632541179657 26.234035059809685 143.72308084368706 12.292103528976439 143.46630090475082 633.53828287124634 8.9683822393417341 9.1118758171796781 6.0275175124406806 36.466869354248047
leaf_count=14997 11832 19 1044 32 35 536 22 73746 62 173 41 202 69 321 44 441 30 36 969 28 186 147 413 34 822 1759 47 54 35 217
internal_value=0.000708437 0.0348706 -0.074891 -0.0399145 -0.0429802 0.0361211 -0.0134998 0.0366839 0.0309081 -0.0918854 0.0361061 -0.00276527 -0.0503733 -0.0780016 -0.0694504 0.0299681 0.0377544 0.0342639 -0.0828102 0.0335086 -0.0776431 0.00776178 -0.0845586 -0.11626 0.0369949 -0.081085 0.0369447 0.0378327 0.0204269 0.0378525
internal_weight=21664.7 14922.1 6742.56 551.708 235.41 14686.7 164.4 14522.3 2275.21 91.8197 2183.39 48.6445 34.952 6190.85 721.122 85.5018 12247.1 202.161 349.547 73.0188 72.2706 32.2625 149.908 56.8678 2134.74 648.103 192.239 12214.8 15.1394 12199.7
internal_count=108393 89116 19277 2128 908 88208 744 87464 13235 338 12897 243 131 17149 2152 476 74229 1127 1001 349 208 177 432 207 12654 1803 1091 74052 89 73963
is_linear=0
shrinkage=0.05


Tree=17
num_leaves=27
num_cat=0
split_feature=5 5 11 3 5 11 3 5 11 11 5 4 5 23 11 5 1 19 11 19 11 2 22 3 3 2
split_gain=17617.8 178.934 517.45 87.025 31.0405 212.289 30.4585 12.3442 360.746 25.8411 19.6248 14.9161 10.9937 7.75369 7.29809 23.6141 2.71313 2.37597 1.58329 1.41084 3.72233 1.3937 0.836889 0.272309 0.250615 0.176508
threshold=0.22967509925365451 0.15402889251708987 0.14513451606035235 0.24901000410318377 0.29120446741580969 0.20687981694936755 0.16506033390760425 0.10413115844130517 0.065911252051591887 0.093909114599227919 0.12609169632196429 0.79241356253623974 0.12609169632196429 0.42825493216514593 0.17655231058597567 0.21085678786039355 0.82491272687911998 0.7640308439731599 0.25739455223083502 0.83295789361000072 0.11006123200058938 0.23489557951688769 0.11404043436050416 0.093451522290706648 0.14340762048959735 0.15392706543207171
decision_type=2 2 2 2 2 2 2 2 2 2 2 2 2 2 2 2 2 2 2 2 2 2 2 2 2 2
left_child=1 7 6 4 5 -2 13 24 11 10 16 -9 -13 25 15 17 -10 23 -5 -11 -21 -7 -6 -4 -1 -3
right_child=3 2 14 18 22 21 -8 8 9 19 -12 12 -14 -15 -16 -17 -18 -19 -20 20 -22 -23 -24 -25 -26 -27
leaf_value=-0.035579905631938483 0.10192109282113043 0.10508420830925257 -0.019573231200879143 0.0018465889815626542 0.094480906193219222 0.0012684476537428938 -0.017640970282016662 0.076105480889994817 -0.033381668745358604 -0.036181695454530559 0.078920213510060816 0.26334524957784361 0.14322575736556567 0.035562228481435192 -0.035614995912181785 0.095161928477341826 0.014631357072012175 0.014941595650672568 -0.035005255721285836 0.028609985166651815 -0.029849013756350219 -0.035437586897873873 0.09909916764891287 -0.035379304064555993 -0.037218718873994021 0.074535148087911271
leaf_weight=8045.8966185674071 152.14554540067911 84.682010531425476 10.013219133019453 3.4753898829221717 624.54288028180599 2.4569744244217864 5.6409045308828345 4.9496386721730259 8.491059675812723 805.99924098700285 7.8133346438407889 5.6021707952022544 10.381329342722891 5.961213305592536 304.00867056846619 3.7982487678527823 3.5861157551407805 2.5619460791349402 10.591268837451933 2.6443617865443221 12.791422963142393 33.222888439893723 2653.0152556747198 17.638955891132355 822.27150471508503 11.100814163684843
leaf_count=80812 471 273 88 20 1891 20 33 23 63 7282 38 40 41 30 2721 17 31 21 69 23 124 295 7948 128 5848 43
internal_value=-0.000542584 -0.0337532 -0.00274603 0.0965677 0.0970724 0.0762719 0.0924496 -0.0351717 -0.0293372 -0.0345076 0.0209656 0.171858 0.196171 0.0986921 -0.0331501 -0.0106628 -0.0187134 -0.0262388 -0.0259547 -0.035876 -0.01861 -0.0328005 0.0982439 -0.0305427 -0.0357358 0.102242
internal_weight=13655.3 10175.8 445.406 3479.45 3465.38 187.825 107.385 9730.43 862.259 841.326 19.8905 20.9331 15.9835 101.744 338.021 34.0124 12.0772 30.2141 14.0667 821.435 15.4358 35.6799 3277.56 27.6522 8868.17 95.7828
internal_count=108393 97679 3354 10714 10625 786 379 94325 7665 7561 132 104 81 346 2975 254 94 237 89 7429 147 315 9839 216 86660 316
is_linear=0
shrinkage=0.05


Tree=18
num_leaves=26
num_cat=0
split_feature=3 3 9 3 9 19 3 9 4 9 0 0 15 3 22 7 9 23 14 3 16 7 19 9 21
split_gain=12893.1 109.972 256.479 78.1067 212.81 18.0311 12.3611 163.911 17.7131 8.43614 8.28515 7.28091 6.22821 4.93372 4.46153 3.4069 2.51289 2.44525 1.23347 0.753261 54.2462 12.5411 0.534099 0.329024 0.172756
threshold=0.16506033390760425 0.12986022233963015 0.097155727446079268 0.21137911826372149 0.14224174618721011 0.65042853355407726 0.10142650455236436 0.077153541147708907 0.78238078951835643 0.12619352340698245 0.099652469158172621 0.17591053247451785 0.1206321530044079 0.15290001034736636 0.41577291488647466 0.78582748770713817 0.15978020429611209 0.37686611711978918 0.14901724457740786 0.086356122046709075 0.86671215295791637 0.87480053305625927 0.86941295862197887 0.082199931144714369 0.46388924121856695
decision_type=2 2 2 2 2 2 2 2 2 2 2 2 2 2 2 2 2 2 2 2 2 2 2 2 2
left_child=1 6 15 4 5 -2 19 8 -8 12 -10 -5 -4 24 23 -3 17 -6 -13 -1 22 -22 -21 -9 -14
right_child=3 2 9 11 16 -7 7 14 10 -11 -12 18 13 -15 -16 -17 -18 -19 -20 20 21 -23 -24 -25 -26
leaf_value=-0.035064439025809975 -0.001526983675784622 0.045794485286473056 0.051949283309930275 0.10325407659946542 -0.026392922451170076 0.10400941964191715 0 -0.0079491760460322948 0.13505256193759585 -0.034481020532197135 0.046652977118467581 0.094833132384101043 -0.032923079056063939 0.03746273916164148 0.019553569822489587 0.11068965002983955 -0.034917499745773406 0.033961018348136141 0.089480260746921864 -0.035177627570441822 0.010088925017312201 0.14357946553796175 -0.0023422739547273937 -0.035346235606150869 -0.0086832047742149612
leaf_weight=6903.7371771857142 4.1166504919528952 4.063209041953086 3.9592371433973339 330.10851219296455 2.8027813285589209 88.933460056781769 3.8694183006882694 2.1074199303984633 15.391462586820127 118.52668461203575 4.7686094790697089 1755.9400721639395 8.6673921048641187 2.8263835310935965 3.1732030287384978 41.873963415622711 41.4622942507267 2.3299936205148697 492.78444634377956 321.08613848686218 3.0022528618574134 4.3339550569653511 1.689702697098254 313.40448628365993 2.2288363277912131
leaf_count=90499 24 20 31 1012 31 294 26 16 65 1387 28 5179 76 18 28 139 472 18 1493 3765 36 39 18 3650 21
internal_value=-0.000722584 -0.0335554 0.00479304 0.0929647 0.0559018 0.0993139 -0.0344784 -0.0250145 0.0988147 -0.0297019 0.11696 0.0949518 0.00216956 -0.0139191 -0.0345912 0.105939 -0.0308995 0.0010467 0.0936946 -0.0349232 -0.0318771 0.0959281 -0.0350274 -0.0351996 -0.0293253
internal_weight=10477.2 7758.71 182.146 2718.48 139.645 93.0501 7576.56 342.715 24.0295 136.209 20.1601 2578.83 17.6818 13.7226 318.685 45.9372 46.5951 5.13277 2248.72 7233.85 330.112 7.33621 322.776 315.512 10.8962
internal_count=108385 99862 1692 8523 839 318 98170 3813 119 1533 93 7684 146 115 3694 159 521 49 6672 94357 3858 75 3783 3666 97
is_linear=0
shrinkage=0.05


Tree=19
num_leaves=31
num_cat=0
split_feature=16 3 5 16 10 5 3 10 1 11 5 3 5 10 9 3 5 5 11 11 3 9 5 3 3 17 6 23 9 11
split_gain=13648.2 2282.57 2032.92 755.665 1181.81 205.603 199.988 129.741 146.204 82.9297 55.0425 626.7 177.044 57.6624 50.8584 50.4623 42.5849 39.0185 177.879 38.1181 30.3791 137.657 20.0273 102.5 17.1574 16.6463 10.6915 9.60355 8.66839 7.03168
threshold=0.73424825072288524 0.13520654290914538 0.16401687264442447 0.62342593073844921 0.69452565908432018 0.25527928769588476 0.21137911826372149 0.73878729343414318 0.70036229491233837 0.16703042387962344 0.38925035297870642 0.28596463799476629 0.32418467104434973 0.63050270080566417 0.13263925909996035 0.16506033390760425 0.21085678786039355 0.12609169632196429 0.10778684914112092 0.33438749611377722 0.10354045778512956 0.082199931144714369 0.21085678786039355 0.18262923508882525 0.21137911826372149 0.12192045524716379 0.082025028765201582 0.48600460588932043 0.19669347256422046 0.14513451606035235
decision_type=2 2 2 2 2 2 2 2 2 2 2 2 2 2 2 2 2 2 2 2 2 2 2 2 2 2 2 2 2 2
left_child=3 2 17 10 5 6 -5 8 22 29 11 12 13 -1 -3 16 -10 20 25 -14 -2 26 23 -6 -16 -19 -22 -15 -8 -4
right_child=1 14 9 4 7 -7 28 -9 15 -11 -12 -13 19 27 24 -17 -18 18 -20 -21 21 -23 -24 -25 -26 -27 -28 -29 -30 -31
leaf_value=0.033875632838559537 0.037218290438777231 -0.075957607016030049 -0.073026323525439266 0.036477829632632637 0.032224168006199004 -0.069251854176424182 -0.077820712090730562 -0.069108642854556521 0.035514420547630064 0.025324548628670847 -0.072555436395251083 -0.072854816573099279 -0.072312897878279478 -0.046358412196390836 0.035725376438677313 -0.07541743224239672 -0.062764490785237534 -0.09114430861064246 0.036479873706140052 0.033929494194579288 -0.09562270585100302 0.036627642581048558 -0.072189038471853817 -0.07414397761122378 -0.067598025611423057 -0.0048620746789064286 -0.034042041534461505 0.021225493127389604 -0.017466425521336041 -0.03760181156062372
leaf_weight=207.72510254383087 12710.030731767416 509.98555274307728 448.42637751996517 604.52993249893188 32.453178852796555 57.657354116439819 40.38659979403019 952.73047125339508 92.478621929883957 22.631176367402077 2673.8812599778175 1867.9935150146484 73.731402337551117 29.239282160997391 13.913947090506555 13.725465953350065 11.728579580783842 34.262041449546814 191.23134487867355 8.9811792969703657 20.831398010253906 157.93005667626858 110.55968368053436 71.020124971866608 4.7217960953712454 6.9087528586387625 12.816220685839651 5.7682105600833884 7.8513328880071631 17.794780492782593
leaf_count=1133 81272 1414 1218 3769 175 167 113 2681 573 134 7183 5027 200 99 85 44 34 104 1195 30 66 968 301 194 13 27 47 29 28 62
internal_value=0.000808016 0.0288683 0.0328255 -0.0570528 -0.0311145 0.0206145 0.0286349 -0.0597191 -0.0326551 -0.0672133 -0.0676771 -0.0617037 0.00230823 0.0238603 -0.072996 0.0119673 0.0240116 0.0365532 0.0161323 -0.0605024 0.0369196 0.0170079 -0.0572185 -0.0407436 0.0075839 -0.0771533 -0.0736474 -0.0348575 -0.0685445 -0.0717517
internal_weight=21013.9 14151.5 13622.9 6862.44 1995.12 710.425 652.768 1284.7 331.966 488.852 4867.32 2193.44 325.445 242.733 528.621 117.933 104.207 13134 232.402 82.7126 12901.6 191.578 214.033 103.473 18.6357 41.1708 33.6476 35.0075 48.2379 466.221
internal_count=108385 86605 85093 21780 8079 4077 3910 4002 1321 1414 13701 6518 1491 1261 1512 651 607 83679 1326 230 82353 1081 670 369 98 131 113 128 141 1280
is_linear=0
shrinkage=0.05


Tree=20
num_leaves=31
num_cat=0
split_feature=5 5 11 3 5 11 5 11 19 4 11 5 11 16 2 21 5 11 11 19 20 14 22 2 3 10 10 10 12 19
split_gain=15191.3 187.641 411.377 59.9959 25.1285 167.671 19.7325 255.412 15.5441 11.5791 5.6966 17.6741 5.63339 4.96932 4.57292 3.24773 2.04901 121.874 4.89461 4.15089 1.26436 0.854228 0.528398 0.459127 0.315834 0.307322 2.54325 0.298888 0.581039 0.202434
threshold=0.22967509925365451 0.16401687264442447 0.14912253618240359 0.24901000410318377 0.29120446741580969 0.21667969226837161 0.12322316318750383 0.093909114599227919 0.69122570753097545 0.7540060579776765 0.17655231058597567 0.21085678786039355 0.11006123200058938 0.7621416747570039 0.17226199060678485 0.50541695952415477 0.10413115844130517 0.062082761898636825 0.083768524229526534 0.80924871563911449 0.24389459937810901 0.093880597501993193 0.10930895432829858 0.096338305622339263 0.15290001034736636 0.69877851009368908 0.70599377155303966 0.60715535283088695 0.091170419007539763 0.83663898706436168
decision_type=2 2 2 2 2 2 2 2 2 2 2 2 2 2 2 2 2 2 2 2 2 2 2 2 2 2 2 2 2 2
left_child=1 6 8 4 5 20 16 9 -3 -8 11 21 13 -9 -10 -5 24 -18 19 -19 -2 -4 -6 -11 -1 -12 -27 -7 -29 -20
right_child=3 2 10 15 22 27 7 12 14 23 25 -13 -14 -15 -16 -17 17 18 29 -21 -22 -23 -24 -25 -26 26 -28 28 -30 -31
leaf_value=-0.035398007830248907 0.091434441080152612 -0.0043112745831123487 -0.0028192663354231697 -0.034503235078916644 0.084390811727509008 -0.03504230656994916 0.031518429419020326 -0.03125275289120974 0.092601269730190283 0.12010132944295382 -0.035876117484317155 0.087588053699680535 -0.035738107841090376 0.034327370124579808 0.04161848749936297 0.015183579175536586 0.17210935851005038 -0.029002348599625322 -0.036097442044917168 0.041527626629005082 0.055428102310545985 -0.034570230109372171 0.088555353707981121 0.074892118313598155 -0.037129966479221739 0.017663578133214616 -0.033292040915460321 0.00059502085492060927 -0.028045458008823132 -0.021825953534536008
leaf_weight=7593.6962546780705 148.09060990810394 4.443433664739131 3.1141850873827961 9.0433637797832471 580.66158324480057 27.822731032967567 6.2819485217332831 4.8900645151734334 92.707131706178188 23.942406997084621 210.76590809226036 3.2426903247833243 477.43203184008598 5.0521273538470268 6.9799071103334418 4.2127463519573203 6.4352520108222953 3.396024525165557 383.41183944046497 3.3239135518670082 7.7630878984928122 12.590461201965807 2848.1165200471878 6.9565851092338553 793.50841152667999 2.4096751958131781 10.954336956143377 2.5095215588808051 3.241147518157959 8.7045235112309438
leaf_count=80911 432 25 24 59 1675 263 28 34 285 82 1961 13 4503 34 27 24 36 24 3652 25 27 96 8115 27 5741 21 104 20 29 88
internal_value=-0.000707254 -0.0334697 0.0026017 0.0864688 0.0868583 0.0682027 -0.0348146 -0.0252731 0.0853905 0.0996741 -0.033007 -0.00606943 -0.034963 0.00168103 0.0894411 -0.0183917 -0.0353809 -0.0314765 -0.0351118 0.00592582 0.0899651 -0.0290189 0.0878714 0.112228 -0.035566 -0.0352323 -0.0232725 -0.0324196 -0.0162375 -0.0358384
internal_weight=13295.7 9664.24 347.208 3631.46 3618.21 189.427 9317.03 524.555 104.13 37.1809 243.077 18.9473 487.374 9.94219 99.687 13.2561 8792.48 405.272 398.836 6.71994 155.854 15.7046 3428.78 30.899 8387.2 224.13 13.364 33.5734 5.75067 392.116
internal_count=108385 97741 2556 10644 10561 771 95185 4708 337 137 2219 133 4571 68 312 83 90477 3825 3789 49 459 120 9790 109 86652 2086 125 312 49 3740
is_linear=0
shrinkage=0.05


Tree=21
num_leaves=31
num_cat=0
split_feature=15 5 15 10 15 9 15 10 9 9 5 5 15 9 19 5 5 9 10 15 9 15 15 9 1 9 1 15 15 5
split_gain=8372.18 431.804 285.801 471.397 133.314 289.686 44.8074 257.145 38.7156 34.7615 26.7177 25.4136 24.6524 23.3495 25.0472 22.1594 21.5351 17.1241 15.8932 15.097 117.157 12.6915 11.6314 11.48 10.6021 9.43543 8.6568 8.06603 7.53051 6.5977
threshold=0.14850189536809924 0.29120446741580969 0.10964297130703927 0.79666137695312511 0.19117443263530734 0.14224174618721011 0.074938978999853148 0.86858540773391735 0.090964023023843779 0.11443342268466951 0.22967509925365451 0.16401687264442447 0.12513078004121783 0.057997673749923713 0.85413676500320446 0.15902776271104815 0.075355142354965224 0.16580910980701449 0.84398370981216442 0.24192444235086444 0.1908276900649071 0.16872482746839526 0.094526741653680815 0.21085810661315921 0.79042503237724315 0.12948085367679599 0.6131989359855653 0.16277723014354709 0.087139744311571135 0.072569150477647795
decision_type=2 2 2 2 2 2 2 2 2 2 2 2 2 2 2 2 2 2 2 2 2 2 2 2 2 2 2 2 2 2
left_child=2 4 6 9 5 25 -1 18 11 10 12 -5 -4 15 -15 -9 24 21 -8 20 -6 -7 -20 26 -10 -2 -22 -27 -16 -14
right_child=1 -3 3 8 19 17 7 13 16 -11 -12 -13 29 14 28 -17 -18 -19 22 -21 23 -23 -24 -25 -26 27 -28 -29 -30 -31
leaf_value=-0.03380517788589317 0.081537037835899565 -0.032925793574649177 -0.0091349413747301485 0.080878069460031468 0.081626856391742247 -0.017298586314658464 -0.032677644160343432 0.077639495213647103 0.041210064103930404 -0.030646587723893795 -0.035254130908038396 -0.024218937088259253 -0.015472869987891845 0.057676252151108422 -0.026368560786955039 -0.030239768012620766 0.063874849765054947 -0.030960143741435797 -0.02058493417382104 0.083943362736325342 0.046854494020119236 0.034110719373218357 0.021313019082193407 -0.029547195683427254 -0.026510614359881963 0.0085214425925618266 -0.029178579944382516 0.065754995108774611 0.020963161699692631 0.056838195345525921
leaf_weight=5509.5527784377337 244.92317836731672 91.487509310245514 36.083120740950108 153.73819155246019 345.25346812605858 23.737764358520508 977.26567751914263 54.094914428889751 7.472967982292178 411.87211330235004 32.012598000466824 5.5623441413044921 3.0584122166037551 28.269812650978565 18.617633886635303 4.7266665548086158 18.131258502602577 70.731975771486759 65.24485456943512 1870.9304876625538 11.270162917673586 22.663047313690186 21.290539383888245 24.312111526727676 18.30095799267292 9.3011686801910418 4.7016993984580031 20.664774894714355 13.971941411495207 30.317901290953159
leaf_count=77233 810 793 431 545 1125 291 12231 238 42 4933 289 43 36 151 251 41 78 967 838 5393 62 174 190 282 236 96 64 104 122 186
internal_value=-0.00107552 0.0735887 -0.0286911 0.00131279 0.0772788 0.0501481 -0.0319038 -0.0230312 0.0656278 -0.0241989 0.00195831 0.0770745 0.0193861 0.0462245 0.0239102 0.0685974 0.0233481 -0.0155917 -0.0308562 0.0819706 0.0722303 0.00785734 -0.0101186 -0.00820229 -0.00603782 0.0781425 0.02385 0.0488362 -0.00591048 0.0498586
internal_weight=10149.6 2739.98 7409.58 716.55 2648.49 392.022 6693.03 1183.48 203.206 513.344 101.472 159.301 69.4594 119.681 60.8594 58.8216 43.9052 117.133 1063.8 2256.47 385.537 46.4008 86.5354 40.284 25.7739 274.889 15.9719 29.9659 32.5896 33.3763
internal_count=108275 10161 98114 6819 9368 2442 91295 14062 944 5875 942 588 653 803 524 279 356 1432 13259 6926 1533 465 1028 408 278 1010 126 200 373 222
is_linear=0
shrinkage=0.05


Tree=22
num_leaves=31
num_cat=0
split_feature=4 3 4 10 9 4 10 3 10 4 10 7 4 10 4 7 18 7 7 4 16 10 3 10 10 19 4 19 10 4
split_gain=17448.8 446.938 213.919 524.839 204.267 81.2949 619.374 23.5567 36.4294 16.1863 268.599 14.8004 29.7852 13.4766 53.7272 9.38113 9.19895 7.7985 4.99281 7.1659 4.91268 4.75026 4.32982 44.2044 6.84561 2.26737 1.74632 1.47406 1.24505 27.1386
threshold=0.71035820245742809 0.14340762048959735 0.64194524288177501 0.69877851009368908 0.11095157638192178 0.83702078461647045 0.83205664157867443 0.10581390187144281 0.86982983350753795 0.55880331993103038 0.61354416608810436 0.85048505663871776 0.81581035256385814 0.79666137695312511 0.77229663729667675 0.67927816510200512 0.1362566947937012 0.61073344945907604 0.6656688153743745 0.67103767395019542 0.74679851531982433 0.85999032855033886 0.086356122046709075 0.88452565670013439 0.91041645407676708 0.65042853355407726 0.79697251319885265 0.57791966199874889 0.75567394495010387 0.73942172527313244
decision_type=2 2 2 2 2 2 2 2 2 2 2 2 2 2 2 2 2 2 2 2 2 2 2 2 2 2 2 2 2 2
left_child=2 5 9 18 20 6 13 22 -9 -1 17 12 -8 28 -15 -5 -6 -11 -4 -20 -3 -14 -7 -24 -25 -17 -16 -12 -2 -30
right_child=1 4 3 15 16 7 11 8 -10 10 27 -13 21 14 26 25 -18 -19 19 -21 -22 -23 23 24 -26 -27 -28 -29 29 -31
leaf_value=-0.067442266331990006 0.03736426251880938 -0.021207591787766288 0.037561879135565815 0.012696053495016488 -0.029002299470258393 0.037065976431847246 -0.06705767600299288 0.034178497748950862 -0.07256461110044847 0.039165551292122569 -0.042765803876890593 -0.077595464137163506 0.035337608816165662 -0.073468527049011412 0.0047683962517628383 -0.036476810840351259 0.035715574048754979 -0.023505444213036984 -0.04474582229683105 0.027342953782659843 -0.071425790657160121 -0.025199899248990965 0.035655629773186412 -0.027308463714525756 -0.11220640209535244 -0.070658648324530629 0.035077236576777311 -0.069383330236829618 -0.053816563016487455 0.035749665383188724
leaf_weight=5586.62974627316 1099.8188623487949 6.1928141713142386 167.75743009150028 3.1354754865169516 5.2741093933582297 11431.212029933929 35.651879608631134 20.788783848285675 11.885487258434294 63.994403526186943 10.95431938767433 113.24063536524773 10.073334723711012 13.360733926296232 5.8171904683113089 8.2241815924644452 70.636260747909546 4.755778804421424 4.0022294968366614 11.343447327613829 142.80308857560158 3.8548897802829734 134.19592940807343 6.2468055039644224 4.2288322895765305 339.99136808514595 67.641274690628052 640.50751152634621 8.0435274839401227 233.95935750007629
leaf_count=14914 7275 18 1052 11 26 77385 105 129 38 323 33 327 59 39 31 26 437 20 15 67 389 14 870 30 18 927 437 1720 25 1515
internal_value=0.00106712 0.0341861 -0.0639192 -0.0334525 -0.0355995 0.0353776 0.0247452 0.036833 -0.00530692 -0.0664956 -0.0590789 -0.067421 -0.0432203 0.0352847 0.015886 -0.0691722 0.0308984 0.0345379 0.0350646 0.00694663 -0.0694963 0.0177846 0.0369528 0.0278175 -0.0675531 -0.0699511 0.0328216 -0.0689964 0.0365259 0.0325846
internal_weight=20266.2 13424.9 6841.3 534.454 224.906 13200 1591.46 11608.6 32.6743 6306.84 720.212 162.821 49.5801 1428.64 86.8192 351.351 75.9104 68.7502 183.103 15.3457 148.996 13.9282 11575.9 144.672 10.4756 348.216 73.4585 651.462 1341.82 242.003
internal_count=108275 89167 19108 2098 870 88297 9827 78470 167 17010 2096 505 178 9322 507 964 463 343 1134 82 407 73 78303 918 48 953 468 1753 8815 1540
is_linear=0
shrinkage=0.05


Tree=23
num_leaves=31
num_cat=0
split_feature=5 5 11 3 19 5 11 5 11 3 11 5 8 4 21 19 9 11 19 22 5 5 5 11 23 19 19 3 5 4
split_gain=13303.3 175.229 359.985 53.3758 21.7566 21.1779 147.496 16.7091 295.968 28.5438 17.5789 11.8049 4.50035 3.86066 3.50817 1.68528 1.1671 1.09102 1.08425 0.865133 91.7225 2.29726 1.48603 0.718988 0.408112 0.3588 0.836423 0.330594 0.71979 0.123476
threshold=0.22967509925365451 0.16401687264442447 0.16071715950965884 0.24901000410318377 0.69122570753097545 0.29120446741580969 0.21667969226837161 0.10413115844130517 0.075622666627168669 0.11111438646912576 0.094840846955776228 0.12609169632196429 0.15733410418033603 0.81581035256385814 0.50541695952415477 0.84753650426864635 0.071485608816146864 0.12370536103844644 0.75755205750465404 0.10930895432829858 0.41729533672332769 0.46596333384513861 0.32418467104434973 0.10212848708033563 0.48600460588932043 0.70557913184165966 0.710655838251114 0.15290001034736636 0.079390905797481551 0.84423843026161205
decision_type=2 2 2 2 2 2 2 2 2 2 2 2 2 2 2 2 2 2 2 2 2 2 2 2 2 2 2 2 2 2
left_child=1 7 4 5 -3 6 24 27 9 13 11 29 -6 -9 -5 23 -13 -17 25 20 22 -22 -7 -12 -2 -4 -27 28 -1 -10
right_child=3 2 18 14 12 19 -8 8 10 -11 15 16 -14 -15 -16 17 -18 -19 -20 -21 21 -23 -24 -25 -26 26 -28 -29 -30 -31
leaf_value=-0.035406087520536617 0.083175142929010737 -0.01752301825668795 -0.03577146049505505 -0.034579139450456341 0.083084674956238877 -0.037653781556854039 -0.033631769979257292 0.095944867372371012 -0.032015228826814408 -0.0017851563674117416 -0.0167967869690708 0.024209006242350017 0.037415078077171454 0.1462794459463671 0.017395366559528076 0.016120261299599713 0.066998125568889885 -0.02507699295826565 -0.0032051468462983464 0.08061851237301397 0.047256187083872365 0.080863144061918565 -0.010222636369812788 -0.035721330434936381 0.054616758815256364 0 -0.028778964930240927 -0.037002808470257324 -0.032913723227100233 -0.0091903580521631219
leaf_weight=6614.8783215656877 149.6636858433485 5.6852822899818412 200.81783588975668 9.619986876845358 98.444212213158607 8.737975090742113 32.870970651507378 19.129505977034569 6.2539552897214907 5.3556130081415168 8.1286488398909551 4.8956869691610319 8.1479346007108671 14.947610534727572 3.9865623563528052 2.4369954392313948 4.8495991379022598 2.3291574865579605 3.2556670010089865 2916.8268947601318 9.7541198730468732 581.2307333946228 13.51479911804199 816.94171649217606 8.5515275895595533 2.6592464819550541 17.475558370351791 758.73682925105095 547.23341274261475 2.3177725747227669
leaf_count=74902 420 35 1934 64 292 40 323 59 49 29 64 21 37 65 22 21 20 24 32 8040 27 1601 46 8129 28 26 177 5639 6087 22
internal_value=-0.000831145 -0.0333057 0.00208744 0.0786747 0.0748763 0.0790368 0.0619804 -0.0346584 -0.0280514 0.104509 -0.034313 0.0134389 0.079945 0.121016 -0.0188838 -0.035385 0.0494438 -0.00382466 -0.0344776 0.0799444 0.076629 0.0803815 -0.0221438 -0.0355574 0.0819455 -0.0349026 -0.0249627 -0.0353952 -0.03522 -0.0276883
internal_weight=12879.7 9144.92 336.486 3734.76 112.277 3721.15 191.086 8808.43 887.586 39.4327 848.154 18.317 106.592 34.0771 13.6065 829.837 9.74529 4.76615 224.208 3530.06 613.238 590.985 22.2528 825.07 158.215 220.953 20.1348 7920.85 7162.11 8.57173
internal_count=108275 97664 2533 10611 364 10525 771 95131 8503 153 8350 112 329 124 86 8238 41 45 2169 9754 1714 1628 86 8193 448 2137 203 86628 80989 71
is_linear=0
shrinkage=0.05


Tree=24
num_leaves=31
num_cat=0
split_feature=3 3 9 5 3 9 1 3 9 5 15 3 9 14 1 15 6 21 3 3 9 5 9 3 11 6 7 16 15 14
split_gain=9920.55 109.392 203.66 67.6681 28.228 58.1608 17.4494 13.5484 136.13 21.9513 8.06975 75.3284 77.6761 7.75053 6.2164 5.55682 4.84478 4.05717 2.96781 1.92814 67.0611 33.2103 9.56211 1.56482 1.29346 0.89447 0.627804 0.594708 0.414489 0.172034
threshold=0.16506033390760425 0.12986022233963015 0.10983960330486299 0.29120446741580969 0.18262923508882525 0.14224174618721011 0.73809298872947704 0.10354045778512956 0.08153958618640901 0.12881294637918475 0.16872482746839526 0.24901000410318377 0.15978020429611209 0.23205748945474627 0.72965362668037426 0.1206321530044079 0.12038633599877359 0.38629499077796942 0.24901000410318377 0.086356122046709075 0.069342691451311125 0.14154177904129031 0.05610217712819577 0.21137911826372149 0.10212848708033563 0.11556132137775423 0.84720528125762951 0.87544828653335582 0.11662838235497476 0.11929441243410112
decision_type=2 2 2 2 2 2 2 2 2 2 2 2 2 2 2 2 2 2 2 2 2 2 2 2 2 2 2 2 2 2
left_child=1 7 6 4 5 14 -3 19 9 17 18 12 23 -5 -2 16 -4 -9 24 -1 21 22 -21 -12 -6 -17 -10 -22 -8 -18
right_child=3 2 15 13 10 -7 28 8 26 -11 11 -13 -14 -15 -16 25 29 -19 -20 20 27 -23 -24 -25 -26 -27 -28 -29 -30 -31
leaf_value=-0.034803935897336068 0.020953007045745431 -0.00687864966028893 0.069577569927026281 -0.032169939047504613 0.087085324548152765 -0.03344402497149019 0.095140605505915063 0.10668281351106207 -0.034921961197785921 -0.029130059002225945 0.047379481354624747 0.078524691752052664 -0.035073636835738872 0.047369335488730395 0.085776855732429005 -0.0045176892802673094 -0.024033523589929818 0.042942009146787259 0.081102851011024407 0.18994975592542646 -0.034975657255514207 -0.029490248060548837 0.061920451820066447 0.086817992173491121 0.10600021392498055 -0.03393646713851832 0 -0.00069484952893977012 0.063378898208581988 0
leaf_weight=6151.1696317270398 5.1610285863280287 4.8037914186716071 1.7768495678901661 15.426779404282572 95.973938941955566 17.364677004516125 43.222945876419544 19.745226971805103 257.79294804483652 3.6316071078181258 7.5545855909585979 2387.6425737887621 29.967080280184746 2.9913885891437522 29.435785368084908 3.3173340111970893 2.0970776900649075 4.9301870614290229 236.48377612233162 3.9226653352379781 319.09666450321674 4.0849691182374954 3.9990252777934074 21.419727325439453 45.20537942647934 114.90161520242691 1.525850974023341 1.6019789576530445 9.4583950415253621 1.5473268851637838
leaf_count=90126 24 30 15 116 274 234 134 73 3266 28 37 6546 256 20 88 26 26 26 654 27 4109 35 34 63 151 1422 19 20 39 20
internal_value=-0.000699046 -0.0330814 0.00522104 0.0770662 0.0776786 0.040009 0.0823536 -0.0341071 -0.0233017 0.0793209 0.0783584 0.0771446 0.0208531 -0.0175573 0.07694 -0.0308996 0.0160668 0.095892 0.0860284 -0.0345827 -0.0304046 0.0820017 0.137499 0.0782523 0.0937402 -0.0331889 -0.0347326 -0.0348221 0.090565 -0.0167256
internal_weight=9847.25 6952.63 181.125 2894.63 2876.21 51.9615 57.4851 6771.5 287.626 28.307 2824.25 2446.58 58.9414 18.4182 34.5968 123.64 5.42125 24.6754 377.663 6483.87 332.705 12.0067 7.92169 28.9743 141.179 118.219 259.319 320.699 52.6813 3.6444
internal_count=107938 99475 1712 8463 8327 346 203 97763 3412 127 7981 6902 356 136 112 1509 61 99 1079 94351 4225 96 61 100 425 1448 3285 4129 173 46
is_linear=0
shrinkage=0.05


Tree=25
num_leaves=31
num_cat=0
split_feature=4 4 11 4 7 22 4 7 19 7 4 16 4 7 22 11 22 9 4 11 9 11 1 11 7 4 9 9 7 4
split_gain=15670.7 264.266 768.469 170.745 465.584 37.2093 16.5992 284.021 16.7941 16.1403 40.053 14.7861 13.4376 222.576 13.7002 10.6352 6.63867 6.49665 6.33754 5.74035 7.32689 4.05701 3.57706 3.18062 3.03432 7.67621 2.94606 1.78821 1.79311 1.45923
threshold=0.71035820245742809 0.80902329087257396 0.11006123200058938 0.64194524288177501 0.68817391991615307 0.2943215817213059 0.85917645692825328 0.86712056398391735 0.86505335569381725 0.77193641662597667 0.76671016216278087 0.86535954475402843 0.55880331993103038 0.59764954447746288 0.15699245780706408 0.14336208999156955 0.21329291909933093 0.10463363677263261 0.84205657243728649 0.079466909170150771 0.075408201664686217 0.23194585740566256 0.74261754751205455 0.11353784427046777 0.65005186200141918 0.67103767395019542 0.10776738077402116 0.076564960181713118 0.80068418383598339 0.73942172527313244
decision_type=2 2 2 2 2 2 2 2 2 2 2 2 2 2 2 2 2 2 2 2 2 2 2 2 2 2 2 2 2 2
left_child=3 2 5 12 15 26 7 11 18 23 29 19 -1 14 -14 -5 -6 22 -9 20 -3 -15 -7 -4 -17 -26 -2 28 -12 -11
right_child=1 6 9 4 16 17 -8 8 -10 10 27 -13 13 21 -16 24 -18 -19 -20 -21 -22 -23 -24 -25 25 -27 -28 -29 -30 -31
leaf_value=-0.063311669702851334 -0.012684898057010494 -0.0054806117514448228 -0.0033389819262391721 -0.039167218441364261 -0.018866209632594277 -0.014025202820761319 0.036770745168720545 -0.056438347473661936 -0.095099463718205435 -0.071670345811505928 0.031264215435977925 -0.031802974443146538 0.039688396030620771 -0.06478901157137866 -0.030854710905887234 0.037530050522192528 -0.06625583945640405 -0.023001858088680275 0.011352603271846584 0.037085595700542949 0.032894414291680177 -0.026501419636894008 -0.06804732372479981 0.035973168552298991 -0.025686397501671433 0.034182080826611248 0.030807039318238045 0.036720916167201523 -0.010875272567980779 -0.032058791338701563
leaf_weight=5551.0581828206778 5.536862149834632 18.505718693137169 4.8127381950616828 4.3008390814065924 8.6302420496940595 3.8154410272836676 10312.398590087891 6.8590968549251539 42.147388562560081 9.1521473526954633 3.9932703673839551 7.3778426349163047 58.621191173791885 664.61980754137039 7.1081823408603659 150.07400186359882 362.0548974275589 10.007609158754347 5.6737973242998123 1075.2375858277082 34.757827609777451 8.9528819322586042 249.00853058695793 817.31703744828701 6.7390370070934322 17.887719631195068 9.3733086884021741 39.428352952003479 4.4740480482578278 6.7236365079879752
leaf_count=14841 26 89 25 14 34 11 73867 22 139 27 24 37 305 1784 25 992 983 40 31 7551 220 36 695 5610 27 109 53 268 23 30
internal_value=0.000888016 0.0338201 0.0110977 -0.0600927 -0.0332733 -0.061352 0.0361173 0.0304326 -0.0800833 0.0338522 0.00937335 0.0358098 -0.062431 -0.0557505 0.0317052 0.0328287 -0.065209 -0.0657058 -0.0265338 0.0362785 0.0195852 -0.0643196 -0.0672986 0.0357339 0.0348001 0.0173099 0.0145146 0.0322354 0.0094419 -0.0575369
internal_weight=19506.6 12666.6 1163.64 6840.05 549.687 277.742 11503 1190.56 54.6803 885.901 63.7715 1135.88 6290.36 739.302 65.7294 179.002 370.685 262.832 12.5329 1128.5 53.2635 673.573 252.824 822.13 174.701 24.6268 14.9102 47.8957 8.46732 15.8758
internal_count=107938 88788 6832 19150 2159 825 81956 8089 192 6007 372 7897 16991 2150 330 1142 1017 746 53 7860 309 1820 706 5635 1128 136 79 315 47 57
is_linear=0
shrinkage=0.05


Tree=26
num_leaves=27
num_cat=0
split_feature=5 5 11 5 11 16 5 11 4 11 4 21 5 11 19 8 2 19 11 7 2 5 2 4 11 11
split_gain=11783.5 109.498 313.634 88.0779 174.227 11.3863 11.3164 214.754 23.3846 9.75628 7.54293 7.90626 5.45271 120.757 4.68818 2.46565 2.26209 2.06207 5.12395 1.85035 1.40632 5.00216 1.20683 0.308102 0.138738 0.0602518
threshold=0.21085678786039355 0.15402889251708987 0.14513451606035235 0.25527928769588476 0.19778468459844592 0.72116759419441234 0.10413115844130517 0.076395094394683852 0.76671016216278087 0.093909114599227919 0.68573033809661876 0.26028650999069219 0.32418467104434973 0.22782674431800845 0.65042853355407726 0.26928135752677923 0.088766157627105727 0.82909968495368969 0.11006123200058938 0.77193641662597667 0.14389789104461673 0.18672005087137225 0.14617209881544116 0.76671016216278087 0.21005363017320636 0.28257317841053015
decision_type=2 2 2 2 2 2 2 2 2 2 2 2 2 2 2 2 2 2 2 2 2 2 2 2 2 2
left_child=1 6 5 4 14 -3 23 8 -8 10 -9 -12 13 -5 -2 -15 -10 -11 -19 22 -7 -22 -4 -1 -6 -17
right_child=3 2 19 12 24 20 7 9 16 17 11 -13 -14 15 -16 25 -18 18 -20 -21 21 -23 -24 -25 -26 -27
leaf_value=-0.03687383299145032 0.011701682053594138 0.00058300506651737889 -0.0019632262048015414 0.077017734528796997 -0.01282222372613652 0.077203033239041124 -0.0020818944816975008 -0.032864894620570163 0.12021081564565504 -0.035752756457146005 -0.018459137667219218 0.073306090203952665 0.073929433690863341 0.010006661434632998 0.076399446199697185 -0.015860258964065697 0.065058543053061316 0.036210106016213293 -0.029538403076994763 0.0094340392966032645 0.019435043669180602 0.080435650240120171 -0.035536048450142334 -0.035081380284397057 -0.035450131012903847 -0.037558061434090101
leaf_weight=729.81319138407707 3.3984549641609183 5.8132588267326346 3.1206356659531584 233.90184368938208 2.5973412990570059 77.764434441924095 5.3282532915472975 6.3638381808996192 22.332170180976394 693.06060688197613 3.4843042939901334 4.758911594748497 3435.6454467773438 2.7635476216673878 96.372923523187637 2.8744070827960995 6.148061826825141 2.9854824393987682 13.037348970770834 1.8634139597415913 7.6464017778635007 6.9132453203201294 260.92609917372465 6726.4598024040461 54.333649903535843 22.874218329787254
leaf_count=5582 17 31 31 643 19 220 28 43 78 7234 26 31 9275 17 272 21 23 29 148 15 38 20 2653 80736 546 162
internal_value=-0.000839167 -0.0334707 -0.00660396 0.0717649 0.0347298 0.0694262 -0.0346601 -0.0287039 0.093041 -0.0344947 0.00538576 0.0357636 0.073325 0.0651919 0.074356 -0.0311057 0.110579 -0.0353285 -0.0158511 -0.0348066 0.073665 0.0514059 -0.0351653 -0.0352614 -0.0346964 -0.0358751
internal_weight=12432.6 8577.82 364.047 3854.76 156.702 98.1373 8213.77 757.499 33.8085 723.69 14.6071 8.24322 3698.06 262.414 99.7714 28.5122 28.4802 709.083 16.0228 265.91 92.3241 14.5596 264.047 7456.27 56.931 25.7486
internal_count=107938 96966 3008 10972 854 309 93958 7640 129 7511 100 57 10118 843 289 200 101 7411 177 2699 278 58 2684 86318 565 183
is_linear=0
shrinkage=0.05


Tree=27
num_leaves=31
num_cat=0
split_feature=0 4 17 15 10 9 4 10 4 17 0 4 2 22 17 2 15 8 4 18 15 10 4 4 10 10 4 0 4 9
split_gain=6781.65 368.488 242.358 205.176 391.545 160.428 134.492 37.4177 86.856 61.7649 35.3116 29.9592 329.672 31.7574 29.4079 26.8923 37.1424 17.195 12.3717 10.9998 9.87695 9.43175 10.158 9.32791 48.3283 6.6668 21.5254 6.63548 11.5008 5.35063
threshold=0.14514066278934482 0.67103767395019542 0.31109571456909185 0.094526741653680815 0.82396838068962108 0.10983960330486299 0.81948721408844005 0.76840120553970348 0.77735388278961193 0.15093457698822024 0.3023624867200852 0.86847364902496349 0.065006166696548476 0.3950688391923905 0.13340858370065692 0.24368796497583392 0.22680348157882693 0.085833627730608 0.47041642665863043 0.027779819443821911 0.1828238442540169 0.76574063301086437 0.73942172527313244 0.64194524288177501 0.68643978238105785 0.69877851009368908 0.73942172527313244 0.090384330600500121 0.81581035256385814 0.22028135508298877
decision_type=2 2 2 2 2 2 2 2 2 2 2 2 2 2 2 2 2 2 2 2 2 2 2 2 2 2 2 2 2 2
left_child=3 2 15 11 7 -3 14 20 9 -9 -4 12 13 -1 -6 23 -17 27 -18 -15 25 -7 -23 -2 -25 -5 -27 -14 -29 -20
right_child=1 5 10 4 6 21 -8 8 -10 -11 -12 -13 17 19 -16 16 18 -19 29 -21 -22 22 -24 24 -26 26 -28 28 -30 -31
leaf_value=-0.018402090973862126 0.072048254603538531 0.066721412042241107 -0.027526017381992719 -0.034321828059036434 0.075033121530642732 -0.032092095510680832 -0.026254543871913158 0.071375977849968394 -0.034127998700497944 -0.027114324113786906 0.061725927492693081 -0.034388474635965935 -0.017207386375739341 -0.01419444355722942 -0.026150392823278967 -0.0020953666557443477 0.069656585326707418 -0.034181061892923477 0.041973216540320581 0.079158270584868837 0.025893843064698586 0.061907926046203779 -0.025907746340285216 -0.030290682467792564 0.072141581828325682 -0.00086892526795325799 -0.034029218409752884 0.06434167165886627 -0.02015338823403539 -0.033331990333544607
leaf_weight=9.6748798936605436 2447.0227710902691 61.752628609538078 74.342579439282417 402.31951336562634 167.71136643737555 138.99468417465687 44.243375517427921 47.125848952680826 94.645869415253401 23.22241635620594 12.203011214733122 4298.0281199365854 73.268990267068148 2.9590047001838675 7.0518366098403922 29.78970006108284 70.960468076169491 1141.3888662792742 3.7342882230877867 78.722003597766161 7.2197359800338736 5.1240299567580205 6.6205053254961967 13.827511094510553 56.906090147793293 73.02716352045536 149.7936195731163 6.5873836502432814 8.1134646087884885 4.100223034620285
leaf_count=139 6710 199 691 5102 476 2051 592 175 1473 212 40 70916 815 31 62 260 201 14199 13 299 50 15 72 164 157 600 2370 27 122 32
internal_value=-0.000652794 0.0627572 0.0677223 -0.0286148 -0.00792779 -0.000624538 0.0511632 -0.0241994 -0.00294325 0.0388541 -0.0144341 -0.0323543 -0.025714 0.0655271 0.0708212 0.070435 0.0453124 -0.0325365 0.0631393 0.0756109 -0.0297269 -0.0284534 0.0135115 0.0715018 0.0519327 -0.0304095 -0.0232256 -0.0110269 0.0187525 0.00254612
internal_weight=9560.48 2925.38 2712.89 6635.1 1016.36 212.492 219.007 797.354 164.994 70.3483 86.5456 5618.74 1320.71 91.3559 174.763 2626.34 108.585 1229.36 78.795 81.681 632.36 150.739 11.7445 2517.76 70.7336 625.14 222.821 87.9698 14.7008 7.83451
internal_count=108265 10605 8268 97660 11112 2337 1130 9982 1860 387 731 86548 15632 469 538 7537 506 15163 246 330 8122 2138 87 7031 321 8072 2970 964 149 45
is_linear=0
shrinkage=0.05


Tree=28
num_leaves=31
num_cat=0
split_feature=4 4 11 4 22 22 4 11 9 22 4 22 1 4 1 11 1 16 22 4 20 11 4 4 19 1 9 5 19 9
split_gain=14192.8 260.228 655.934 147.089 405.545 23.4929 22.8635 299.051 46.5312 15.3181 11.8612 184.525 14.9613 10.7614 10.4681 10.341 10.3205 7.67083 6.13503 15.522 8.44496 4.85491 9.35471 4.6857 4.05262 3.20464 2.87723 2.80159 2.58662 2.51057
threshold=0.71035820245742809 0.80088695883750927 0.11353784427046777 0.64194524288177501 0.20387647300958636 0.28281491994857794 0.85917645692825328 0.066571768373250975 0.07480166852474214 0.31333853304386144 0.55880331993103038 0.15699245780706408 0.6131989359855653 0.76671016216278087 0.83128982782363903 0.17402685433626178 0.70538693666458141 0.73836231231689464 0.3706911057233811 0.81948721408844005 0.10208185017108919 0.13210863620042804 0.73942172527313244 0.60843619704246532 0.85090750455856334 0.86240321397781383 0.10776738077402116 0.06100545451045037 0.65042853355407726 0.10463363677263261
decision_type=2 2 2 2 2 2 2 2 2 2 2 2 2 2 2 2 2 2 2 2 2 2 2 2 2 2 2 2 2 2
left_child=3 2 5 10 16 -2 7 8 14 21 -1 12 -12 -11 -3 28 -5 -7 -9 20 -20 22 -4 -14 -10 -21 -24 -16 -6 -19
right_child=1 6 9 4 15 17 -8 18 24 13 11 -13 23 -15 27 -17 -18 29 19 25 -22 -23 26 -25 -26 -27 -28 -29 -30 -31
leaf_value=-0.059839501831458954 0.016361178029605711 -0.010088196982684735 -0.031350216691301717 0.035157967346063433 -0.029003256587704897 0.0052140746550038948 0.036486144702775801 0.036838896876106773 0.036087134661240604 -0.049908587809952054 0.035702007051778374 -0.06073329423241796 -0.057751730961823726 0.020962464676911752 -0.068417103093038473 -0.0058194875172871583 -0.045638757619177232 -0.062623498121284912 -0.065139285268001904 0.033732800073176077 0.017162229102844023 0.036135219159198866 0.0066237909022189472 0.0047439201985378914 -0.016624492581936649 -0.01013836239928198 0.036398148059367051 -0.096569837475633649 -0.06275574159623698 -0.032143799338953095
leaf_weight=5549.0201703608036 9.9374822080135328 5.8056392371654502 7.063540816307067 162.23021388053894 8.3491818755865079 4.1182945519685736 9770.392578125 1095.1153189688921 10.144809544086455 8.3225947618484515 57.135239899158478 661.92861130833626 5.1734373867511732 12.142071008682249 34.864266380667686 8.7448423355817777 3.3391877412796012 245.17178064584732 6.4612225443124753 62.593939080834389 4.851834625005722 653.81362959742546 12.223003163933752 5.5300072431564331 4.7431161254644385 3.9253376573324195 29.685319647192955 30.530229032039642 351.55485877394676 10.34753994643688
leaf_count=14970 53 22 28 1110 25 13 74107 8123 62 28 300 1792 15 76 100 40 14 678 24 443 25 4767 72 31 23 27 205 100 953 39
internal_value=0.000781742 0.0334549 0.00892121 -0.0568698 -0.0315882 -0.0575335 0.0356621 0.0292438 -0.0603009 0.0337338 -0.0590158 -0.0526868 0.0255462 -0.00841763 -0.0769754 -0.0607478 0.0332868 -0.0604225 0.0358568 0.0217411 -0.0306275 0.0349765 0.019074 -0.0269439 0.0189837 0.03098 0.028118 -0.0826443 -0.0620527 -0.0615129
internal_weight=18835.3 12022.3 992.825 6813.01 534.218 269.575 11029.4 1259.04 86.0881 723.25 6278.79 729.767 67.8387 20.4647 71.2001 368.649 165.569 259.638 1172.95 77.8323 11.3131 702.785 48.9719 10.7034 14.8879 66.5193 41.9083 65.3945 359.904 255.519
internal_count=108265 89015 5959 19250 2142 783 83056 8949 307 5176 17108 2138 346 104 222 1018 1124 730 8642 519 49 5072 305 46 85 470 277 200 978 717
is_linear=0
shrinkage=0.05


Tree=29
num_leaves=30
num_cat=0
split_feature=5 5 11 3 5 11 3 5 8 3 11 5 5 11 17 11 20 0 7 19 5 3 5 4 4 20 20 4 19
split_gain=10628.9 97.0805 262.862 82.093 36.8986 132.492 10.4657 9.77965 184.354 22.3928 15.2804 10.3839 4.34494 97.4724 3.7806 2.3778 2.13704 1.25417 0.964697 0.679928 0.669009 0.348233 0.913611 0.488599 0.434576 0.346225 0.194541 0.155965 0.0975228
threshold=0.21085678786039355 0.15402889251708987 0.14513451606035235 0.24901000410318377 0.25527928769588476 0.19778468459844592 0.13520654290914538 0.10413115844130517 0.083936173468828215 0.10142650455236436 0.093909114599227919 0.12881294637918475 0.32418467104434973 0.2414682283997536 0.16442674398422244 0.21005363017320636 0.091814439743757262 0.083563793450593962 0.58408081531524669 0.76763004064559948 0.25527928769588476 0.14340762048959735 0.079390905797481551 0.89152103662490856 0.89388135075569164 0.15199800580739978 0.1938445866107941 0.81581035256385814 0.83295789361000072
decision_type=2 2 2 2 2 2 2 2 2 2 2 2 2 2 2 2 2 2 2 2 2 2 2 2 2 2 2 2 2
left_child=1 7 6 4 5 26 14 21 9 27 11 17 13 15 -3 -6 -12 -10 -15 -4 -5 22 -1 -24 -25 -21 -2 -9 -18
right_child=3 2 19 20 12 -7 -8 8 10 -11 16 -13 -14 18 -16 -17 28 -19 -20 25 -22 -23 23 24 -26 -27 -28 -29 -30
leaf_value=-0.03508896143056655 0.073723884513185442 0.069123141251637293 -0.034964153727780556 -0.035046886116914137 0.071646363397187551 -0.034855985726621706 0.00097770754573164452 0.081841767100435156 0.00063143298438145051 -0.0012246281483724083 6.5925594905432591e-05 0.051616379786686345 0.06884391447399206 -0.037690614778539515 0.024246888541017083 0.034716770218605905 -0.035685595791044737 -0.032906485552734253 -0.0044616903564121567 0.00022913280876769805 -0.010979638426896346 -0.036711380549386212 -0.032492106196674773 0 -0.023537565049122872 -0.023423634293433988 0.051547102455022246 0.12334224806772971 -0.023565413629089975
