{"learner":{"attributes":{"scikit_learn":"{\"_estimator_type\": \"classifier\"}"},"feature_names":[],"feature_types":[],"gradient_booster":{"model":{"cats":{"enc":[],"feature_segments":[],"sorted_idx":[]},"gbtree_model_param":{"num_parallel_tree":"1","num_trees":"300"},"iteration_indptr":[0,3,6,9,12,15,18,21,24,27,30,33,36,39,42,45,48,51,54,57,60,63,66,69,72,75,78,81,84,87,90,93,96,99,102,105,108,111,114,117,120,123,126,129,132,135,138,141,144,147,150,153,156,159,162,165,168,171,174,177,180,183,186,189,192,195,198,201,204,207,210,213,216,219,222,225,228,231,234,237,240,243,246,249,252,255,258,261,264,267,270,273,276,279,282,285,288,291,294,297,300],"tree_info":[0,1,2,0,1,2,0,1,2,0,1,2,0,1,2,0,1,2,0,1,2,0,1,2,0,1,2,0,1,2,0,1,2,0,1,2,0,1,2,0,1,2,0,1,2,0,1,2,0,1,2,0,1,2,0,1,2,0,1,2,0,1,2,0,1,2,0,1,2,0,1,2,0,1,2,0,1,2,0,1,2,0,1,2,0,1,2,0,1,2,0,1,2,0,1,2,0,1,2,0,1,2,0,1,2,0,1,2,0,1,2,0,1,2,0,1,2,0,1,2,0,1,2,0,1,2,0,1,2,0,1,2,0,1,2,0,1,2,0,1,2,0,1,2,0,1,2,0,1,2,0,1,2,0,1,2,0,1,2,0,1,2,0,1,2,0,1,2,0,1,2,0,1,2,0,1,2,0,1,2,0,1,2,0,1,2,0,1,2,0,1,2,0,1,2,0,1,2,0,1,2,0,1,2,0,1,2,0,1,2,0,1,2,0,1,2,0,1,2,0,1,2,0,1,2,0,1,2,0,1,2,0,1,2,0,1,2,0,1,2,0,1,2,0,1,2,0,1,2,0,1,2,0,1,2,0,1,2,0,1,2,0,1,2,0,1,2,0,1,2,0,1,2,0,1,2,0,1,2,0,1,2,0,1,2,0,1,2,0,1,2,0,1,2,0,1,2,0,1,2],"trees":[{"base_weights":[-3.5388032E-1,-4.4552246E-1,-1.1336266E-2,-5.436571E-1,-3.633225E-1,-8.986429E-2,1.9304873E-1,-5.751938E-1,-5.106499E-1,-4.1614774E-1,-3.1603718E-1,1.5877283E-1,-1.2722528E-1,3.7871182E-1,2.4026137E-2,-5.092323E-1,-5.943351E-1,-5.237973E-1,-4.2773932E-1,-3.793357E-1,-4.7803926E-1,-2.2925676E-1,-3.5281208E-1,2.819359E-1,-1.5629992E-1,-3.948821E-1,-1.0663355E-1,3.190015E-1,7.5463885E-1,-1.6560367E-1,1.7874987E-1,-5.267021E-1,-3.2446268E-1,-5.9473157E-1,4.2503086E-1,-3.8566202E-1,-5.331963E-1,-4.3428597E-1,1.047159E0,-3.6237964E-1,-5.4819936E-1,-4.885918E-1,-1.394175E-1,-1.8159565E-1,-3.617963E-1,-3.619293E-1,1.7328373E-1,5.3502756E-1,1.9614083E-1,7.119826E-1,-2.261007E-1,-4.3331954E-1,-9.789433E-2,-7.069601E-2,-2.74973E-1,3.7944427E-1,4.73547E-2,-3.6596876E-1,8.391424E-1,-7.951053E-2,-3.9828855E-1,-3.0338361E-3,3.1158385E-1,-4.4222766E-1,-5.5853647E-1,-2.2176816E-1,-6.6838926E-1,-5.717623E-1,-6.159031E-1,1.1015246E0,-3.7801433E-1,-2.4338877E-1,-4.5979244E-1,-5.526196E-1,-4.7740677E-1,1.3421732E0,-4.3826994E-1,1.3809038E0,-3.2310236E-1,-2.2824188E-1,-3.7821397E-1,-5.628229E-1,-3.2441494E-1,-4.9007848E-1,2.3772064E-1,2.9784188E-1,-3.2924202E-1,-9.004223E-2,-2.4379627E-1,-1.4495453E-1,-4.0879038E-1,-5.0235116E-1,-3.3537742E-1,7.5375617E-1,-2.5269213E-1,5.9849167E-1,-3.927329E-2,1.0902973E-1,3.27299E-1,1.9162675E-2,1.0855595E0,-2.5266972E-1,6.7302495E-1,-3.435656E-1,-5.8897066E-1,-5.978904E-1,9.9594004E-2,-1.7523335E-1,-1.975137E-2,-1.0621209E-2,-3.211631E-1,-1.578092E-1,4.1063714E-1,-6.2129673E-2,2.3227149E-1,-6.2329245E-1,2.3283501E-1,1.190699E-2,9.343775E-1,-1.4262073E-1,8.3497584E-2,-1.8650042E-1,-5.3090847E-1,3.7768576E-1,-1.6825125E-1,6.576278E-1,2.0579526E-1],"categories":[],"categories_nodes":[],"categories_segments":[],"categories_sizes":[],"default_left":[0,0,0,0,0,0,0,0,0,0,0,0,0,0,0,0,0,0,0,0,0,0,0,0,0,0,0,0,0,0,0,0,0,0,0,0,0,0,0,0,0,0,0,0,0,0,0,0,0,0,0,0,0,0,0,0,0,0,0,0,0,0,0,0,0,0,0,0,0,0,0,0,0,0,0,0,0,0,0,0,0,0,0,0,0,0,0,0,0,0,0,0,0,0,0,0,0,0,0,0,0,0,0,0,0,0,0,0,0,0,0,0,0,0,0,0,0,0,0,0,0,0,0,0,0,0,0],"id":0,"left_children":[1,3,5,7,9,11,13,15,17,19,21,23,25,27,29,31,33,35,37,39,41,43,45,47,49,51,53,55,57,59,61,63,65,67,69,71,73,75,77,79,81,83,85,87,89,91,93,95,97,99,101,103,105,107,109,111,113,115,117,119,121,123,125,-1,-1,-1,-1,-1,-1,-1,-1,-1,-1,-1,-1,-1,-1,-1,-1,-1,-1,-1,-1,-1,-1,-1,-1,-1,-1,-1,-1,-1,-1,-1,-1,-1,-1,-1,-1,-1,-1,-1,-1,-1,-1,-1,-1,-1,-1,-1,-1,-1,-1,-1,-1,-1,-1,-1,-1,-1,-1,-1,-1,-1,-1,-1,-1],"loss_changes":[2.0716094E3,4.1970312E2,2.2359021E2,2.4298828E1,7.057544E1,9.3512474E1,1.2129047E2,1.4896484E1,1.2330566E1,3.0217285E1,4.759497E1,5.1081768E1,4.8138565E1,4.100467E1,5.945576E1,8.57373E0,4.0654297E0,1.2700195E1,1.5792847E1,2.374939E1,1.7682983E1,2.8025635E1,5.0458496E1,2.036213E1,2.2534393E1,7.0325623E0,4.911496E1,2.6073883E1,2.4174728E1,1.8155424E1,2.698256E1,6.368042E0,8.21793E0,4.0944824E0,2.7360456E0,6.589546E0,9.786621E0,1.1740784E1,3.8782406E0,1.606549E1,2.2276611E0,5.361328E0,1.2746431E1,1.862136E1,1.1878143E1,3.824182E1,4.4600773E1,8.776077E0,8.01363E0,7.028311E0,8.328983E0,7.4199295E0,7.331953E0,3.5656006E1,1.741211E1,2.1902374E1,5.9258823E0,2.996562E0,1.8352402E1,6.8691545E0,6.718315E0,2.9725977E1,2.3397736E1,0E0,0E0,0E0,0E0,0E0,0E0,0E0,0E0,0E0,0E0,0E0,0E0,0E0,0E0,0E0,0E0,0E0,0E0,0E0,0E0,0E0,0E0,0E0,0E0,0E0,0E0,0E0,0E0,0E0,0E0,0E0,0E0,0E0,0E0,0E0,0E0,0E0,0E0,0E0,0E0,0E0,0E0,0E0,0E0,0E0,0E0,0E0,0E0,0E0,0E0,0E0,0E0,0E0,0E0,0E0,0E0,0E0,0E0,0E0,0E0,0E0,0E0,0E0,0E0],"parents":[2147483647,0,0,1,1,2,2,3,3,4,4,5,5,6,6,7,7,8,8,9,9,10,10,11,11,12,12,13,13,14,14,15,15,16,16,17,17,18,18,19,19,20,20,21,21,22,22,23,23,24,24,25,25,26,26,27,27,28,28,29,29,30,30,31,31,32,32,33,33,34,34,35,35,36,36,37,37,38,38,39,39,40,40,41,41,42,42,43,43,44,44,45,45,46,46,47,47,48,48,49,49,50,50,51,51,52,52,53,53,54,54,55,55,56,56,57,57,58,58,59,59,60,60,61,61,62,62],"right_children":[2,4,6,8,10,12,14,16,18,20,22,24,26,28,30,32,34,36,38,40,42,44,46,48,50,52,54,56,58,60,62,64,66,68,70,72,74,76,78,80,82,84,86,88,90,92,94,96,98,100,102,104,106,108,110,112,114,116,118,120,122,124,126,-1,-1,-1,-1,-1,-1,-1,-1,-1,-1,-1,-1,-1,-1,-1,-1,-1,-1,-1,-1,-1,-1,-1,-1,-1,-1,-1,-1,-1,-1,-1,-1,-1,-1,-1,-1,-1,-1,-1,-1,-1,-1,-1,-1,-1,-1,-1,-1,-1,-1,-1,-1,-1,-1,-1,-1,-1,-1,-1,-1,-1,-1,-1,-1],"split_conditions":[4.6864274E-1,-4.9502057E-1,1.772128E0,-7.410915E-1,-1.6192825E-1,-1.5454551E0,-3.437555E-1,-2.6438504E-1,9.9791214E-2,3.488072E-2,-4.6392033E-1,1.5164673E0,-3.9498734E-1,2.1422489E-1,-1.9538337E-1,8.819012E-1,3.0231645E0,-3.0503914E-1,3.0231645E0,1.2839928E0,2.0859313E0,9.1243947E-1,2.6247697E0,-2.7697961E0,-1.9615681E0,9.953729E-1,1.3823372E0,1.9612336E0,-8.645105E-1,3.7937E-1,-9.605186E-2,-9.735693E-2,-2.7251306E-1,2.8916946E-1,-1.1172494E-1,-1.08473785E-1,-3.391344E-2,-4.7605616E-1,-2.3936903E-1,-4.385698E-1,1.0080044E0,5.5269103E0,-2.9670328E-1,-3.215554E-1,-8.951051E-1,-3.8920173E-1,-1.1063492E-1,-1.9201316E0,-1.7070131E-1,1.7164112E0,7.34341E-1,6.97999E-1,-2.52776E-1,3.504256E-1,-9.9895346E-1,-3.009468E-1,-2.7695772E-1,-4.293694E-1,-2.7049363E0,5.5084E-1,-1.7957887E-1,-5.871495E-1,-1.3032532E-1,-4.4222766E-1,-5.5853647E-1,-2.2176816E-1,-6.6838926E-1,-5.717623E-1,-6.159031E-1,1.1015246E0,-3.7801433E-1,-2.4338877E-1,-4.5979244E-1,-5.526196E-1,-4.7740677E-1,1.3421732E0,-4.3826994E-1,1.3809038E0,-3.2310236E-1,-2.2824188E-1,-3.7821397E-1,-5.628229E-1,-3.2441494E-1,-4.9007848E-1,2.3772064E-1,2.9784188E-1,-3.2924202E-1,-9.004223E-2,-2.4379627E-1,-1.4495453E-1,-4.0879038E-1,-5.0235116E-1,-3.3537742E-1,7.5375617E-1,-2.5269213E-1,5.9849167E-1,-3.927329E-2,1.0902973E-1,3.27299E-1,1.9162675E-2,1.0855595E0,-2.5266972E-1,6.7302495E-1,-3.435656E-1,-5.8897066E-1,-5.978904E-1,9.9594004E-2,-1.7523335E-1,-1.975137E-2,-1.0621209E-2,-3.211631E-1,-1.578092E-1,4.1063714E-1,-6.2129673E-2,2.3227149E-1,-6.2329245E-1,2.3283501E-1,1.190699E-2,9.343775E-1,-1.4262073E-1,8.3497584E-2,-1.8650042E-1,-5.3090847E-1,3.7768576E-1,-1.6825125E-1,6.576278E-1,2.0579526E-1],"split_indices":[49,49,49,49,49,118,105,159,159,79,102,156,48,79,159,105,105,159,105,156,105,156,105,102,105,118,156,156,83,80,105,80,159,175,8,80,152,137,26,137,105,159,137,9,105,48,9,118,80,156,159,175,159,48,105,159,128,156,105,105,34,21,159,0,0,0,0,0,0,0,0,0,0,0,0,0,0,0,0,0,0,0,0,0,0,0,0,0,0,0,0,0,0,0,0,0,0,0,0,0,0,0,0,0,0,0,0,0,0,0,0,0,0,0,0,0,0,0,0,0,0,0,0,0,0,0,0],"split_type":[0,0,0,0,0,0,0,0,0,0,0,0,0,0,0,0,0,0,0,0,0,0,0,0,0,0,0,0,0,0,0,0,0,0,0,0,0,0,0,0,0,0,0,0,0,0,0,0,0,0,0,0,0,0,0,0,0,0,0,0,0,0,0,0,0,0,0,0,0,0,0,0,0,0,0,0,0,0,0,0,0,0,0,0,0,0,0,0,0,0,0,0,0,0,0,0,0,0,0,0,0,0,0,0,0,0,0,0,0,0,0,0,0,0,0,0,0,0,0,0,0,0,0,0,0,0,0],"sum_hessian":[6.599338E4,5.2063926E4,1.3929458E4,2.372862E4,2.8335307E4,1.0063823E4,3.8656343E3,1.2124659E4,1.1603961E4,1.3378961E4,1.4956347E4,1.3139E3,8.749924E3,1.8412637E3,2.0243706E3,2.7344492E3,9.39021E3,1.0010107E4,1.5938536E3,8.394688E3,4.9842725E3,4.4545566E3,1.050179E4,9.449415E2,3.689585E2,6.2342615E2,8.1264976E3,1.5907169E3,2.5054674E2,9.0926117E2,1.1151095E3,2.4960571E3,2.3839189E2,9.387073E3,3.1367354E0,6.410703E2,9.369037E3,1.5875802E3,6.273471E0,7.6320693E3,7.626188E2,4.8329253E3,1.5134749E2,3.2786726E3,1.1758837E3,1.0323389E4,1.7840182E2,2.3760771E2,7.0733386E2,2.666225E1,3.4229626E2,5.5128125E2,7.214491E1,6.6984985E3,1.4279988E3,1.300569E3,2.9014804E2,1.7252045E1,2.332947E2,6.649879E2,2.4427327E2,4.709024E2,6.4420703E2,6.8812134E2,1.8079359E3,1.850674E2,5.33245E1,4.518075E3,4.8689976E3,1.5683677E0,1.5683677E0,2.2153194E2,4.1953836E2,6.9415957E3,2.4274412E3,2.7446434E0,1.5848356E3,5.097195E0,1.1762757E0,8.0810144E2,6.823968E3,7.139994E2,4.86194E1,4.823515E3,9.410206E0,4.5482662E1,1.0586482E2,1.3280154E3,1.9506573E3,2.1055336E2,9.653303E2,1.63816E3,8.685229E3,7.528165E1,1.0312018E2,2.140822E2,2.3525517E1,4.26596E2,2.8073782E2,9.802299E0,1.6859953E1,3.3327814E2,9.018114E0,3.5209854E2,1.991827E2,1.9996689E1,5.2148228E1,2.1933623E3,4.505136E3,2.1290591E2,1.2150929E3,7.0968636E1,1.2296003E3,1.8232275E2,1.0782528E2,1.215485E1,5.097195E0,2.43097E1,2.08985E2,4.7992053E2,1.850674E2,9.5278336E1,1.4899493E2,1.4193727E2,3.2896512E2,1.4938702E2,4.9482E2],"tree_param":{"num_deleted":"0","num_feature":"176","num_nodes":"127","size_leaf_vector":"1"}},{"base_weights":[2.9402888E-1,5.508733E-1,-2.1171786E-2,6.988191E-1,4.2062587E-1,1.3731954E-1,-2.2684628E-1,7.878911E-1,6.3713825E-1,5.1248956E-1,3.7181655E-1,3.703542E-1,9.803387E-2,-4.6697867E-1,-1.0074781E-1,8.005064E-1,2.8615338E-1,6.803449E-1,5.494351E-1,5.203554E-1,1.3988836E-1,3.7956056E-1,3.4548875E-3,4.0386853E-1,-7.070097E-2,1.6834594E-2,1.535238E-1,-6.5440404E-1,-4.289062E-1,1.5537247E-1,-1.9220155E-1,6.8008506E-1,8.393664E-1,1.0328326E0,1.7312007E-1,3.5398272E-1,6.908769E-1,5.0150025E-1,6.7533255E-1,5.380471E-1,3.9662117E-1,-2.1717589E-1,3.814765E-1,3.6267805E-1,5.328516E-1,-7.425913E-2,4.036322E-1,2.6667938E-1,5.2678835E-1,-6.584466E-1,1.3635267E-2,-3.909138E-1,3.7405033E-2,1.3981313E-1,4.2427558E-1,-4.5961553E-1,-6.8990195E-1,-2.1138042E-1,-4.6192822E-1,1.9327099E-2,2.9364717E-1,-1.4674133E-1,-4.9950302E-1,7.856724E-1,5.2557033E-1,9.0267533E-1,7.970954E-1,1.1689365E0,2.2997317E-1,-1.8812222E-2,4.3474343E-1,-4.3205708E-1,4.8847237E-1,7.962348E-1,6.713198E-1,6.364457E-1,4.2216477E-1,6.350896E-1,8.9365906E-1,3.567002E-1,5.5152017E-1,5.4478645E-1,3.3272257E-1,-4.350652E-1,6.046066E-1,6.6375124E-1,-5.1870562E-2,5.436324E-1,3.5107103E-1,3.7298548E-1,5.9577274E-1,3.207298E-2,-4.379073E-1,6.990727E-1,-7.789087E-2,1.928726E-1,4.0202966E-1,7.362874E-1,4.3075708E-1,-3.3411033E-2,-7.588085E-1,1.4912419E-1,-5.625664E-1,-6.8128663E-1,-2.9328638E-1,-1.3264874E-2,1.4514141E-1,1.9757436E-1,5.570054E-2,-1.4084627E-1,4.774596E-1,-1.7920972E-3,-6.896817E-1,-5.7800454E-1,-7.17043E-1,-2.6321256E-1,2.5177285E-1,-3.9567846E-1,-5.3800607E-1,1.4915523E-1,-7.157067E-2,-9.332936E-2,3.3826697E-1,-1.9588736E-1,8.294312E-2,-1.0052009E-1,-5.3357077E-1],"categories":[],"categories_nodes":[],"categories_segments":[],"categories_sizes":[],"default_left":[0,0,0,0,0,0,0,0,0,0,0,0,0,0,0,0,0,0,0,0,0,0,0,0,0,0,0,0,0,0,0,0,0,0,0,0,0,0,0,0,0,0,0,0,0,0,0,0,0,0,0,0,0,0,0,0,0,0,0,0,0,0,0,0,0,0,0,0,0,0,0,0,0,0,0,0,0,0,0,0,0,0,0,0,0,0,0,0,0,0,0,0,0,0,0,0,0,0,0,0,0,0,0,0,0,0,0,0,0,0,0,0,0,0,0,0,0,0,0,0,0,0,0,0,0,0,0],"id":1,"left_children":[1,3,5,7,9,11,13,15,17,19,21,23,25,27,29,31,33,35,37,39,41,43,45,47,49,51,53,55,57,59,61,63,65,67,69,71,73,75,77,79,81,83,85,87,89,91,93,95,97,99,101,103,105,107,109,111,113,115,117,119,121,123,125,-1,-1,-1,-1,-1,-1,-1,-1,-1,-1,-1,-1,-1,-1,-1,-1,-1,-1,-1,-1,-1,-1,-1,-1,-1,-1,-1,-1,-1,-1,-1,-1,-1,-1,-1,-1,-1,-1,-1,-1,-1,-1,-1,-1,-1,-1,-1,-1,-1,-1,-1,-1,-1,-1,-1,-1,-1,-1,-1,-1,-1,-1,-1,-1],"loss_changes":[6.5815703E3,8.6276855E2,1.1899204E3,1.14569336E2,1.0654834E2,1.886554E2,4.809593E2,5.394043E1,4.647754E1,2.4079346E1,4.435498E1,4.4013733E1,7.9478195E1,3.8640503E1,2.4406581E2,3.841797E1,1.7599442E1,2.818042E1,2.4270508E1,1.7406738E1,1.4976644E1,3.9163086E1,1.0068029E1,4.6386505E1,1.0513699E1,6.007134E1,3.878894E1,5.9371643E0,3.2514282E1,5.1536285E1,1.07121735E2,3.2844482E1,1.602002E1,2.6033974E0,9.364833E0,2.7894989E1,1.5883545E1,3.1443054E1,9.17627E0,1.700122E1,9.357178E0,1.2792568E1,1.2743407E1,2.8565186E1,1.4864075E1,1.0496121E1,7.6110973E0,1.2934494E1,2.8864471E1,1.5639858E0,1.4487204E1,9.452648E0,3.725359E1,4.8436172E1,1.5257568E1,1.5246454E1,1.8149109E0,1.4515711E1,1.9595215E1,1.634354E1,2.3525215E1,7.554611E1,1.3322403E1,0E0,0E0,0E0,0E0,0E0,0E0,0E0,0E0,0E0,0E0,0E0,0E0,0E0,0E0,0E0,0E0,0E0,0E0,0E0,0E0,0E0,0E0,0E0,0E0,0E0,0E0,0E0,0E0,0E0,0E0,0E0,0E0,0E0,0E0,0E0,0E0,0E0,0E0,0E0,0E0,0E0,0E0,0E0,0E0,0E0,0E0,0E0,0E0,0E0,0E0,0E0,0E0,0E0,0E0,0E0,0E0,0E0,0E0,0E0,0E0,0E0,0E0,0E0,0E0],"parents":[2147483647,0,0,1,1,2,2,3,3,4,4,5,5,6,6,7,7,8,8,9,9,10,10,11,11,12,12,13,13,14,14,15,15,16,16,17,17,18,18,19,19,20,20,21,21,22,22,23,23,24,24,25,25,26,26,27,27,28,28,29,29,30,30,31,31,32,32,33,33,34,34,35,35,36,36,37,37,38,38,39,39,40,40,41,41,42,42,43,43,44,44,45,45,46,46,47,47,48,48,49,49,50,50,51,51,52,52,53,53,54,54,55,55,56,56,57,57,58,58,59,59,60,60,61,61,62,62],"right_children":[2,4,6,8,10,12,14,16,18,20,22,24,26,28,30,32,34,36,38,40,42,44,46,48,50,52,54,56,58,60,62,64,66,68,70,72,74,76,78,80,82,84,86,88,90,92,94,96,98,100,102,104,106,108,110,112,114,116,118,120,122,124,126,-1,-1,-1,-1,-1,-1,-1,-1,-1,-1,-1,-1,-1,-1,-1,-1,-1,-1,-1,-1,-1,-1,-1,-1,-1,-1,-1,-1,-1,-1,-1,-1,-1,-1,-1,-1,-1,-1,-1,-1,-1,-1,-1,-1,-1,-1,-1,-1,-1,-1,-1,-1,-1,-1,-1,-1,-1,-1,-1,-1,-1,-1,-1,-1],"split_conditions":[-1.7746593E-1,-6.528953E-1,5.8577293E-1,-8.858214E-1,-5.036643E-1,-4.5861277E-1,-3.9573684E-1,1.2679384E0,7.672203E-2,1.7846373E0,1.8723592E0,1.4505806E0,-3.1113452E-1,-4.6807075E-1,9.695651E-2,-2.6035908E-1,-1.1184858E0,-9.208943E-1,-4.5861277E-1,4.216421E-1,-2.4684246E-1,2.2211854E-1,1.5268508E0,-2.1623695E-1,4.5734623E-1,-1.5090284E0,1.2234814E0,1.0686625E0,6.986595E-2,2.4338816E-1,8.281679E-1,-1.765451E-2,-9.686607E-1,-6.8504876E-1,-8.690437E-1,-3.854587E-1,-8.442299E-1,-4.143795E-1,-1.8291935E-1,-4.2162E-1,-6.418818E-1,1.5445596E0,6.4222686E-2,-8.047668E-1,-2.480412E-1,-1.4717735E-1,2.3133688E0,1.1280265E-1,-5.330727E-1,-6.227351E-1,2.6247697E0,-4.479328E-1,-1.2650697E-1,1.5617047E-1,-4.9035525E-1,-6.575608E-1,-9.618349E-1,1.664538E0,1.6209358E0,-4.359188E-1,-3.0245173E-1,1.0338185E0,5.841972E-1,7.856724E-1,5.2557033E-1,9.0267533E-1,7.970954E-1,1.1689365E0,2.2997317E-1,-1.8812222E-2,4.3474343E-1,-4.3205708E-1,4.8847237E-1,7.962348E-1,6.713198E-1,6.364457E-1,4.2216477E-1,6.350896E-1,8.9365906E-1,3.567002E-1,5.5152017E-1,5.4478645E-1,3.3272257E-1,-4.350652E-1,6.046066E-1,6.6375124E-1,-5.1870562E-2,5.436324E-1,3.5107103E-1,3.7298548E-1,5.9577274E-1,3.207298E-2,-4.379073E-1,6.990727E-1,-7.789087E-2,1.928726E-1,4.0202966E-1,7.362874E-1,4.3075708E-1,-3.3411033E-2,-7.588085E-1,1.4912419E-1,-5.625664E-1,-6.8128663E-1,-2.9328638E-1,-1.3264874E-2,1.4514141E-1,1.9757436E-1,5.570054E-2,-1.4084627E-1,4.774596E-1,-1.7920972E-3,-6.896817E-1,-5.7800454E-1,-7.17043E-1,-2.6321256E-1,2.5177285E-1,-3.9567846E-1,-5.3800607E-1,1.4915523E-1,-7.157067E-2,-9.332936E-2,3.3826697E-1,-1.9588736E-1,8.294312E-2,-1.0052009E-1,-5.3357077E-1],"split_indices":[50,50,50,50,50,154,55,105,105,105,105,105,30,26,154,157,50,105,154,9,157,154,104,34,175,105,154,50,154,123,157,32,153,13,153,30,154,164,154,117,164,82,157,154,158,153,82,50,153,119,105,34,157,50,164,125,164,164,50,105,157,175,153,0,0,0,0,0,0,0,0,0,0,0,0,0,0,0,0,0,0,0,0,0,0,0,0,0,0,0,0,0,0,0,0,0,0,0,0,0,0,0,0,0,0,0,0,0,0,0,0,0,0,0,0,0,0,0,0,0,0,0,0,0,0,0,0],"split_type":[0,0,0,0,0,0,0,0,0,0,0,0,0,0,0,0,0,0,0,0,0,0,0,0,0,0,0,0,0,0,0,0,0,0,0,0,0,0,0,0,0,0,0,0,0,0,0,0,0,0,0,0,0,0,0,0,0,0,0,0,0,0,0,0,0,0,0,0,0,0,0,0,0,0,0,0,0,0,0,0,0,0,0,0,0,0,0,0,0,0,0,0,0,0,0,0,0,0,0,0,0,0,0,0,0,0,0,0,0,0,0,0,0,0,0,0,0,0,0,0,0,0,0,0,0,0,0],"sum_hessian":[8.1294805E4,4.4793746E4,3.650106E4,2.0969598E4,2.3824148E4,2.0615072E4,1.5885985E4,8.574278E3,1.2395318E4,8.262258E3,1.556189E4,2.9724036E3,1.7642668E4,5.4685654E3,1.0417419E4,8.363205E3,2.1107253E2,8.298966E3,4.0963525E3,8.0907915E3,1.7146625E2,1.5241176E4,3.2071432E2,2.76278E3,2.0962352E2,7.163425E3,1.0479244E4,9.2012164E2,4.548444E3,2.7405618E3,7.6768574E3,2.0455198E3,6.3176855E3,2.6565193E1,1.8450734E2,2.608219E2,8.038144E3,2.9709546E3,1.1253982E3,7.075035E3,1.01575635E3,6.90695E1,1.0239674E2,1.3732756E4,1.5084199E3,2.6903296E2,5.1681374E1,1.3074905E3,1.4552896E3,2.5599186E1,1.8402434E2,3.429325E2,6.820492E3,9.975954E3,5.0328964E2,1.4441805E2,7.757036E2,6.008563E2,3.9475876E3,1.382356E3,1.3582058E3,6.689115E3,9.877421E2,1.2123387E3,8.33181E2,2.5203123E3,3.7973735E3,2.221816E1,4.3470316E0,1.06743774E2,7.7763565E1,3.7674274E1,2.2314761E2,1.251462E3,6.786682E3,1.096901E3,1.8740536E3,9.539319E2,1.7146625E2,4.9169757E2,6.583338E3,3.033262E2,7.124302E2,5.5062397E1,1.4007101E1,6.1824448E1,4.0572292E1,8.24487E2,1.2908269E4,4.284241E2,1.0799958E3,2.0865752E2,6.037544E1,3.1878231E1,1.9803143E1,8.481541E2,4.5933633E2,4.549893E2,1.00030023E3,3.864028E0,2.1735157E1,1.4973108E2,3.4293247E1,8.452561E1,2.5840686E2,4.6387656E3,2.1817268E3,5.9129287E3,4.0630254E3,4.2987312E1,4.6030234E2,4.878335E1,9.563469E1,1.5649313E2,6.192105E2,5.409639E2,5.9892433E1,2.1141062E3,1.8334813E3,5.694611E2,8.128949E2,1.4007101E2,1.2181348E3,5.510587E3,1.1785286E3,7.824657E1,9.094956E2],"tree_param":{"num_deleted":"0","num_feature":"176","num_nodes":"127","size_leaf_vector":"1"}},{"base_weights":[-7.44202E-3,-1.73452E-1,1.561004E-1,-2.9359466E-1,-9.5404506E-2,3.2601845E-1,1.097598E-1,-3.5608563E-1,-2.4437238E-1,-1.5524788E-1,-3.9992902E-2,1.596316E-1,4.327909E-1,2.9221885E-3,1.384826E-1,-4.1840503E-1,-2.6798826E-1,-3.3367503E-1,-2.0504965E-1,-2.2678685E-1,-1.1796687E-1,-5.0099093E-2,2.831103E-1,1.3628621E-1,7.968892E-1,5.062841E-1,2.3733324E-1,-6.223234E-2,8.6567745E-2,1.0344037E-1,1.9832386E-1,1.01086356E-1,-4.2928132E-1,-4.058914E-1,-1.987535E-1,1.679384E-1,-3.4659612E-1,-3.9546636E-1,-1.9127767E-1,-2.1160525E-1,-4.244179E-1,-1.3652633E-1,1.849817E-2,-5.6901023E-2,2.7891055E-1,-3.7724593E-1,3.6973456E-1,-1.7226706E-1,1.7101942E-1,1.0417883E0,1.582406E-2,3.3370525E-1,5.5033773E-1,7.845095E-2,3.9739156E-1,7.025356E-2,-1.1745405E-1,6.068155E-2,3.932926E-1,1.461217E-1,5.1036973E-2,2.699519E-1,1.5769418E-1,-1.9423994E-3,1.2788751E0,-5.749196E-1,-4.0355152E-1,6.5632665E-1,-4.1746137E-1,-2.201721E-1,2.975236E-1,-6.408754E-1,5.0077194E-1,-4.063721E-1,-2.8062508E-1,1.0761145E-1,-4.6159753E-1,-1.783794E-1,-3.6613062E-1,-2.0387194E-1,-5.536522E-1,1.006961E0,-4.508786E-1,-2.4773748E-1,-1.1107773E-1,-1.4985856E-1,1.0075128E-1,-4.7170322E-2,-2.6587838E-1,8.389063E-1,-3.890038E-2,6.025432E-1,-5.0088817E-1,2.5949687E-1,7.2280097E-1,1.3713585E-1,-2.9592612E-1,2.0567167E-1,-1.9093399E-1,-1.1414292E-1,1.1728663E0,-3.0443344E-1,8.371019E-1,3.163387E-1,1.2573416E0,1.0185461E0,5.350524E-1,3.4677818E-1,-2.5218334E-2,2.6982912E-1,6.0787463E-1,-1.6633932E-1,1.6323505E-1,-2.7507427E-1,-7.981174E-2,4.6317462E-2,7.032646E-1,4.2983335E-1,-6.29253E-1,1.6087845E-1,-8.879654E-3,4.2780202E-2,5.9628236E-1,2.6225322E-1,7.356311E-1,1.3558789E-1,3.8000122E-1],"categories":[],"categories_nodes":[],"categories_segments":[],"categories_sizes":[],"default_left":[0,0,0,0,0,0,0,0,0,0,0,0,0,0,0,0,0,0,0,0,0,0,0,0,0,0,0,0,0,0,0,0,0,0,0,0,0,0,0,0,0,0,0,0,0,0,0,0,0,0,0,0,0,0,0,0,0,0,0,0,0,0,0,0,0,0,0,0,0,0,0,0,0,0,0,0,0,0,0,0,0,0,0,0,0,0,0,0,0,0,0,0,0,0,0,0,0,0,0,0,0,0,0,0,0,0,0,0,0,0,0,0,0,0,0,0,0,0,0,0,0,0,0,0,0,0,0],"id":2,"left_children":[1,3,5,7,9,11,13,15,17,19,21,23,25,27,29,31,33,35,37,39,41,43,45,47,49,51,53,55,57,59,61,63,65,67,69,71,73,75,77,79,81,83,85,87,89,91,93,95,97,99,101,103,105,107,109,111,113,115,117,119,121,123,125,-1,-1,-1,-1,-1,-1,-1,-1,-1,-1,-1,-1,-1,-1,-1,-1,-1,-1,-1,-1,-1,-1,-1,-1,-1,-1,-1,-1,-1,-1,-1,-1,-1,-1,-1,-1,-1,-1,-1,-1,-1,-1,-1,-1,-1,-1,-1,-1,-1,-1,-1,-1,-1,-1,-1,-1,-1,-1,-1,-1,-1,-1,-1,-1],"loss_changes":[2.0032524E3,3.4328247E2,2.9259076E2,4.4204224E1,7.358664E1,1.4135034E2,8.960925E1,3.4681824E1,2.8215576E1,2.8400146E1,3.763546E1,4.6136757E1,6.947302E1,3.3742554E1,4.8215393E1,2.1075928E1,2.5010574E1,1.6050598E1,1.4567123E1,1.0809845E1,1.7790253E1,2.5013428E1,2.0131626E1,3.224546E1,2.0864693E1,2.6515076E1,3.3680763E1,2.546941E1,2.1459698E1,3.2447968E1,2.4647125E1,9.45429E0,1.3313171E1,1.1053696E1,1.872599E1,1.7097647E1,9.294647E0,1.2617149E1,1.1676331E1,8.793747E0,1.0215794E1,1.7424278E1,1.1649171E1,2.2232471E1,4.0392334E1,5.2454557E0,1.1764858E1,1.1701265E1,3.3939476E1,1.2878487E1,7.4892325E0,1.0985893E1,1.937323E1,1.8616436E1,1.7489319E1,2.2547642E1,1.45191E1,2.2985619E1,8.117405E0,1.8316284E1,2.9263794E1,1.072644E1,2.6561874E1,0E0,0E0,0E0,0E0,0E0,0E0,0E0,0E0,0E0,0E0,0E0,0E0,0E0,0E0,0E0,0E0,0E0,0E0,0E0,0E0,0E0,0E0,0E0,0E0,0E0,0E0,0E0,0E0,0E0,0E0,0E0,0E0,0E0,0E0,0E0,0E0,0E0,0E0,0E0,0E0,0E0,0E0,0E0,0E0,0E0,0E0,0E0,0E0,0E0,0E0,0E0,0E0,0E0,0E0,0E0,0E0,0E0,0E0,0E0,0E0,0E0,0E0,0E0,0E0],"parents":[2147483647,0,0,1,1,2,2,3,3,4,4,5,5,6,6,7,7,8,8,9,9,10,10,11,11,12,12,13,13,14,14,15,15,16,16,17,17,18,18,19,19,20,20,21,21,22,22,23,23,24,24,25,25,26,26,27,27,28,28,29,29,30,30,31,31,32,32,33,33,34,34,35,35,36,36,37,37,38,38,39,39,40,40,41,41,42,42,43,43,44,44,45,45,46,46,47,47,48,48,49,49,50,50,51,51,52,52,53,53,54,54,55,55,56,56,57,57,58,58,59,59,60,60,61,61,62,62],"right_children":[2,4,6,8,10,12,14,16,18,20,22,24,26,28,30,32,34,36,38,40,42,44,46,48,50,52,54,56,58,60,62,64,66,68,70,72,74,76,78,80,82,84,86,88,90,92,94,96,98,100,102,104,106,108,110,112,114,116,118,120,122,124,126,-1,-1,-1,-1,-1,-1,-1,-1,-1,-1,-1,-1,-1,-1,-1,-1,-1,-1,-1,-1,-1,-1,-1,-1,-1,-1,-1,-1,-1,-1,-1,-1,-1,-1,-1,-1,-1,-1,-1,-1,-1,-1,-1,-1,-1,-1,-1,-1,-1,-1,-1,-1,-1,-1,-1,-1,-1,-1,-1,-1,-1,-1,-1,-1],"split_conditions":[-2.7920273E-1,-7.453837E-1,-4.0185398E-1,-9.2197776E-1,-5.329152E-1,5.428211E-1,-1.326844E-1,-1.3342042E-1,-5.5942494E-1,-4.6249938E-1,1.4351376E0,1.6643381E0,6.2266755E-1,-3.1452703E-1,-2.7111975E-2,-4.7271886E-1,-1.8741666E-1,-4.5001826E-1,-1.4440318E0,1.927444E-5,2.3961656E-1,1.4392993E0,-1.1369227E0,-4.6159992E-1,4.4978678E-1,-1.3947284E0,-1.4610507E-1,-3.0783677E-1,1.1490425E0,1.3244526E-1,-2.2215371E-1,-4.5767322E-1,-1.0908546E0,-3.0321845E-1,2.1173434E0,-7.285158E-1,-1.830749E-1,-5.3717965E-1,-3.264905E-1,2.256177E0,-2.1033678E0,-5.573786E-1,-6.7595726E-1,1.6520056E0,-3.3472556E-1,-4.1668352E-1,6.869196E-1,-4.2490944E-1,1.6520056E0,-4.6146548E-1,2.2749941E-1,4.1039796E0,-1.6855488E0,9.9730957E-1,1.7296954E0,-3.7656644E-1,-9.4563437E-1,2.1898625E0,8.959965E-1,9.802016E-1,3.9346187E0,3.1746345E0,1.974345E0,-1.9423994E-3,1.2788751E0,-5.749196E-1,-4.0355152E-1,6.5632665E-1,-4.1746137E-1,-2.201721E-1,2.975236E-1,-6.408754E-1,5.0077194E-1,-4.063721E-1,-2.8062508E-1,1.0761145E-1,-4.6159753E-1,-1.783794E-1,-3.6613062E-1,-2.0387194E-1,-5.536522E-1,1.006961E0,-4.508786E-1,-2.4773748E-1,-1.1107773E-1,-1.4985856E-1,1.0075128E-1,-4.7170322E-2,-2.6587838E-1,8.389063E-1,-3.890038E-2,6.025432E-1,-5.0088817E-1,2.5949687E-1,7.2280097E-1,1.3713585E-1,-2.9592612E-1,2.0567167E-1,-1.9093399E-1,-1.1414292E-1,1.1728663E0,-3.0443344E-1,8.371019E-1,3.163387E-1,1.2573416E0,1.0185461E0,5.350524E-1,3.4677818E-1,-2.5218334E-2,2.6982912E-1,6.0787463E-1,-1.6633932E-1,1.6323505E-1,-2.7507427E-1,-7.981174E-2,4.6317462E-2,7.032646E-1,4.2983335E-1,-6.29253E-1,1.6087845E-1,-8.879654E-3,4.2780202E-2,5.9628236E-1,2.6225322E-1,7.356311E-1,1.3558789E-1,3.8000122E-1],"split_indices":[51,51,55,51,51,51,49,34,164,164,97,120,60,164,160,32,118,32,175,13,152,120,164,34,49,118,175,32,60,60,158,9,49,158,127,127,34,161,48,32,60,120,51,60,32,120,164,120,60,27,60,119,60,49,51,117,60,34,51,32,51,51,60,0,0,0,0,0,0,0,0,0,0,0,0,0,0,0,0,0,0,0,0,0,0,0,0,0,0,0,0,0,0,0,0,0,0,0,0,0,0,0,0,0,0,0,0,0,0,0,0,0,0,0,0,0,0,0,0,0,0,0,0,0,0,0,0],"split_type":[0,0,0,0,0,0,0,0,0,0,0,0,0,0,0,0,0,0,0,0,0,0,0,0,0,0,0,0,0,0,0,0,0,0,0,0,0,0,0,0,0,0,0,0,0,0,0,0,0,0,0,0,0,0,0,0,0,0,0,0,0,0,0,0,0,0,0,0,0,0,0,0,0,0,0,0,0,0,0,0,0,0,0,0,0,0,0,0,0,0,0,0,0,0,0,0,0,0,0,0,0,0,0,0,0,0,0,0,0,0,0,0,0,0,0,0,0,0,0,0,0,0,0,0,0,0,0],"sum_hessian":[7.3783445E4,3.6615766E4,3.716768E4,1.4417736E4,2.2198027E4,7.9626553E3,2.9205023E4,6.3489946E3,8.068742E3,1.0670502E4,1.1527526E4,3.1137822E3,4.848873E3,6.1889873E3,2.3016037E4,3.715672E3,2.6333225E3,2.4636711E3,5.6050713E3,3.6529844E3,7.0175176E3,1.1179018E4,3.4850864E2,3.0050652E3,1.0871716E2,3.5223484E3,1.3265248E3,3.4785107E3,2.7104766E3,1.4518563E4,8.497474E3,7.583899E1,3.639833E3,8.780664E2,1.7552561E3,6.1372593E1,2.4022986E3,3.7568793E2,5.2293833E3,3.394781E3,2.5820325E2,6.178028E3,8.394894E2,1.0953692E4,2.2532509E2,3.9892185E1,3.0861646E2,3.0335596E2,2.7017092E3,8.241462E1,2.630254E1,7.184977E2,2.8038506E3,6.6676935E2,6.597554E2,1.0227304E3,2.4557805E3,2.500933E3,2.0954356E2,7.999479E3,6.5190845E3,3.072575E3,5.424899E3,7.057848E1,5.2605076E0,5.4270905E2,3.097124E3,8.767513E0,8.692989E2,1.6833625E3,7.189361E1,1.7535027E1,4.3837566E1,1.256823E3,1.1454756E3,4.339919E1,3.3228876E2,4.8725454E3,3.5683777E2,3.3215723E3,7.320873E1,3.945381E0,2.5425787E2,1.1481058E3,5.0299224E3,2.7486154E2,5.6462787E2,1.0467973E4,4.857202E2,8.1099495E1,1.4422559E2,3.945381E0,3.5946804E1,2.3672285E2,7.189361E1,8.636E1,2.1699594E2,2.4663015E3,2.3540773E2,8.329138E0,7.408549E1,1.9288528E1,7.0140104E0,7.0666156E2,1.1836143E1,8.636E1,2.7174907E3,1.854329E2,4.8133646E2,4.1251147E2,2.4724387E2,2.8801282E2,7.347176E2,4.716922E2,1.9840883E3,2.4474512E3,5.348183E1,2.0296793E2,6.575635E0,7.3046533E3,6.948254E2,6.42308E3,9.6004265E1,3.0243535E3,4.822132E1,4.93611E3,4.8878885E2],"tree_param":{"num_deleted":"0","num_feature":"176","num_nodes":"127","size_leaf_vector":"1"}},{"base_weights":[-1.7404893E-1,-2.665451E-1,-3.6200285E-2,-3.4133476E-1,-2.0066543E-1,-9.98203E-2,4.47682E-2,-3.0002284E-1,-3.9142728E-1,-1.6319032E-1,-2.821355E-1,2.678832E-2,-1.3597621E-1,6.801645E-2,-1.382726E-1,-3.7641382E-1,-2.639888E-1,-4.094681E-1,-2.1066678E-1,-1.4092125E-1,-2.76294E-1,-2.952535E-1,-4.6264265E-2,5.409059E-2,-4.454372E-1,-1.618266E-1,2.4062952E-2,1.1126693E-1,-3.2718875E-2,6.0550896E-3,-2.3130298E-1,-3.8059077E-1,1.1733159E0,-1.280308E-1,-2.9692453E-1,-4.141103E-1,-9.901191E-2,-1.18571006E-1,-4.8831436E-1,-2.3201871E-1,-1.0332488E-1,-2.8228593E-1,5.820336E-1,-2.9778552E-1,5.9851474E-1,1.2933746E-1,-2.6939523E-1,4.164726E-2,8.819679E-1,-5.093726E-1,-1.13007315E-1,-3.2422376E-1,-1.4446023E-1,6.5586877E-1,7.883392E-3,-2.28516E-2,1.3235196E-1,-2.860599E-1,1.4576585E-2,6.2276006E-2,-4.083127E-1,3.6966212E-2,-2.785175E-1,-3.102576E-1,-4.1795024E-1,-3.5079443E-1,1.9434212E0,-2.2096902E-1,1.19875655E-1,-8.6569205E-2,-3.10296E-1,-2.7196273E-1,-4.234724E-1,1.5140386E0,-3.456597E-1,3.5785827E-1,-2.158105E-1,-5.340234E-1,-3.0583987E-1,-1.0605393E-1,-2.913759E-1,-3.1975564E-2,-1.532869E-1,-2.9951817E-1,-3.716104E-2,7.337474E-2,1.7621521E0,-2.004411E-1,-3.2075062E-1,1.3171209E0,-2.5946808E-1,8.466108E-3,1.332044E0,-4.1393998E-1,2.202967E-1,2.6976088E-1,-1.1766794E-3,1.4511025E0,3.7202728E-1,6.2529194E-1,-5.331097E-1,5.105641E-1,-3.1317016E-1,-5.214675E-1,-2.7545172E-1,-1.22272305E-1,-2.837788E-1,8.2583207E-1,-4.570826E-1,6.855651E-2,-1.5752603E-1,-9.471462E-2,2.3586354E-1,1.5920162E-1,5.675629E-3,-3.4588307E-1,3.892538E-1,3.8197596E-2,-3.4480366E-1,2.9233359E-2,8.0048925E-1,-4.8613992E-1,5.683247E-1,3.4298337E-1,-2.5313663E-1,-3.3160043E-1,1.05656125E-1],"categories":[],"categories_nodes":[],"categories_segments":[],"categories_sizes":[],"default_left":[0,0,0,0,0,0,0,0,0,0,0,0,0,0,0,0,0,0,0,0,0,0,0,0,0,0,0,0,0,0,0,0,0,0,0,0,0,0,0,0,0,0,0,0,0,0,0,0,0,0,0,0,0,0,0,0,0,0,0,0,0,0,0,0,0,0,0,0,0,0,0,0,0,0,0,0,0,0,0,0,0,0,0,0,0,0,0,0,0,0,0,0,0,0,0,0,0,0,0,0,0,0,0,0,0,0,0,0,0,0,0,0,0,0,0,0,0,0,0,0,0,0,0,0,0,0,0],"id":3,"left_children":[1,3,5,7,9,11,13,15,17,19,21,23,25,27,29,31,33,35,37,39,41,43,45,47,49,51,53,55,57,59,61,63,65,67,69,71,73,75,77,79,81,83,85,87,89,91,93,95,97,99,101,103,105,107,109,111,113,115,117,119,121,123,125,-1,-1,-1,-1,-1,-1,-1,-1,-1,-1,-1,-1,-1,-1,-1,-1,-1,-1,-1,-1,-1,-1,-1,-1,-1,-1,-1,-1,-1,-1,-1,-1,-1,-1,-1,-1,-1,-1,-1,-1,-1,-1,-1,-1,-1,-1,-1,-1,-1,-1,-1,-1,-1,-1,-1,-1,-1,-1,-1,-1,-1,-1,-1,-1],"loss_changes":[6.141405E2,1.4190686E2,9.965614E1,2.7746338E1,4.6710632E1,4.9607033E1,3.622242E1,2.0213867E1,1.9732117E1,2.637262E1,1.4888916E1,3.1014894E1,3.4884323E1,3.2921032E1,1.2901356E1,1.5705017E1,2.246222E1,7.894043E0,1.4093004E1,3.0005707E1,9.010834E0,1.0496033E1,1.0076312E1,2.3320404E1,2.6740913E0,2.037146E1,1.1912475E1,1.4960831E1,2.7218254E1,8.760793E0,7.42675E0,6.008911E0,8.5285635E0,2.2709574E1,1.13284E1,7.0803833E0,3.3536423E1,1.9471722E1,9.0242004E-1,1.9090698E1,2.2135162E1,7.19841E0,6.996108E0,1.0078339E1,8.547771E0,2.073561E1,8.128912E0,2.1945929E1,9.011578E0,3.2790546E0,2.9786193E0,6.507454E0,2.0196243E1,5.9199915E0,1.1485294E1,1.3362266E1,1.5520187E1,1.4566456E1,1.6219007E1,8.0056305E0,3.6804724E0,7.9001055E0,1.0187149E1,0E0,0E0,0E0,0E0,0E0,0E0,0E0,0E0,0E0,0E0,0E0,0E0,0E0,0E0,0E0,0E0,0E0,0E0,0E0,0E0,0E0,0E0,0E0,0E0,0E0,0E0,0E0,0E0,0E0,0E0,0E0,0E0,0E0,0E0,0E0,0E0,0E0,0E0,0E0,0E0,0E0,0E0,0E0,0E0,0E0,0E0,0E0,0E0,0E0,0E0,0E0,0E0,0E0,0E0,0E0,0E0,0E0,0E0,0E0,0E0,0E0,0E0,0E0,0E0],"parents":[2147483647,0,0,1,1,2,2,3,3,4,4,5,5,6,6,7,7,8,8,9,9,10,10,11,11,12,12,13,13,14,14,15,15,16,16,17,17,18,18,19,19,20,20,21,21,22,22,23,23,24,24,25,25,26,26,27,27,28,28,29,29,30,30,31,31,32,32,33,33,34,34,35,35,36,36,37,37,38,38,39,39,40,40,41,41,42,42,43,43,44,44,45,45,46,46,47,47,48,48,49,49,50,50,51,51,52,52,53,53,54,54,55,55,56,56,57,57,58,58,59,59,60,60,61,61,62,62],"right_children":[2,4,6,8,10,12,14,16,18,20,22,24,26,28,30,32,34,36,38,40,42,44,46,48,50,52,54,56,58,60,62,64,66,68,70,72,74,76,78,80,82,84,86,88,90,92,94,96,98,100,102,104,106,108,110,112,114,116,118,120,122,124,126,-1,-1,-1,-1,-1,-1,-1,-1,-1,-1,-1,-1,-1,-1,-1,-1,-1,-1,-1,-1,-1,-1,-1,-1,-1,-1,-1,-1,-1,-1,-1,-1,-1,-1,-1,-1,-1,-1,-1,-1,-1,-1,-1,-1,-1,-1,-1,-1,-1,-1,-1,-1,-1,-1,-1,-1,-1,-1,-1,-1,-1,-1,-1,-1],"split_conditions":[8.763429E-2,-5.0629735E-1,9.666797E-1,3.6274523E-1,6.4008646E-2,-8.74194E-1,1.9612336E0,-1.00889005E-1,1.2679384E0,9.273419E-1,1.968847E0,1.8730518E0,1.7754032E-1,4.34375E-1,-9.459412E-1,1.4520328E0,-2.8514904E-1,2.6388357E0,1.9007759E-1,-4.057812E-1,2.966153E0,4.0327306E0,3.506178E-2,1.9521774E0,6.082947E-1,-3.8920173E-1,-1.8590503E0,-8.9139855E-1,1.0702185E-1,1.9702137E0,-6.459317E-1,-1.7934394E-1,-6.0216856E-1,-8.3644185E-3,-4.110523E-1,-4.1271943E-1,-3.1488654E-1,-2.8005978E-1,1.3532872E0,-7.3785496E-1,-3.519967E-1,6.6155964E-1,4.4364583E-1,-3.0902335E-1,1.3992182E0,-9.030201E-2,6.9112015E-1,-1.5090284E0,-1.4440318E0,-1.9615681E0,-2.311244E-1,-2.8196946E-1,1.3325016E0,4.4030505E-1,7.179176E-1,3.76593E-1,4.9808368E-2,1.456189E0,4.4030505E-1,-6.410924E-2,9.00667E-1,-1.7778265E-1,2.3881876E0,-3.102576E-1,-4.1795024E-1,-3.5079443E-1,1.9434212E0,-2.2096902E-1,1.19875655E-1,-8.6569205E-2,-3.10296E-1,-2.7196273E-1,-4.234724E-1,1.5140386E0,-3.456597E-1,3.5785827E-1,-2.158105E-1,-5.340234E-1,-3.0583987E-1,-1.0605393E-1,-2.913759E-1,-3.1975564E-2,-1.532869E-1,-2.9951817E-1,-3.716104E-2,7.337474E-2,1.7621521E0,-2.004411E-1,-3.2075062E-1,1.3171209E0,-2.5946808E-1,8.466108E-3,1.332044E0,-4.1393998E-1,2.202967E-1,2.6976088E-1,-1.1766794E-3,1.4511025E0,3.7202728E-1,6.2529194E-1,-5.331097E-1,5.105641E-1,-3.1317016E-1,-5.214675E-1,-2.7545172E-1,-1.22272305E-1,-2.837788E-1,8.2583207E-1,-4.570826E-1,6.855651E-2,-1.5752603E-1,-9.471462E-2,2.3586354E-1,1.5920162E-1,5.675629E-3,-3.4588307E-1,3.892538E-1,3.8197596E-2,-3.4480366E-1,2.9233359E-2,8.0048925E-1,-4.8613992E-1,5.683247E-1,3.4298337E-1,-2.5313663E-1,-3.3160043E-1,1.05656125E-1],"split_indices":[153,153,153,175,79,102,156,105,105,156,105,156,158,175,105,80,157,137,137,48,157,157,147,135,100,48,105,163,48,100,82,80,105,102,12,135,157,157,175,10,137,135,48,34,105,135,156,105,175,105,158,158,156,34,156,10,12,118,34,80,63,147,105,0,0,0,0,0,0,0,0,0,0,0,0,0,0,0,0,0,0,0,0,0,0,0,0,0,0,0,0,0,0,0,0,0,0,0,0,0,0,0,0,0,0,0,0,0,0,0,0,0,0,0,0,0,0,0,0,0,0,0,0,0,0,0,0],"split_type":[0,0,0,0,0,0,0,0,0,0,0,0,0,0,0,0,0,0,0,0,0,0,0,0,0,0,0,0,0,0,0,0,0,0,0,0,0,0,0,0,0,0,0,0,0,0,0,0,0,0,0,0,0,0,0,0,0,0,0,0,0,0,0,0,0,0,0,0,0,0,0,0,0,0,0,0,0,0,0,0,0,0,0,0,0,0,0,0,0,0,0,0,0,0,0,0,0,0,0,0,0,0,0,0,0,0,0,0,0,0,0,0,0,0,0,0,0,0,0,0,0,0,0,0,0,0,0],"sum_hessian":[4.8168254E4,2.8825049E4,1.9343205E4,1.3496963E4,1.5328085E4,1.0832612E4,8.510593E3,7.4016875E3,6.0952754E3,1.0501685E4,4.8264004E3,2.4057595E3,8.426853E3,7.5525127E3,9.580796E2,2.3684443E3,5.033243E3,5.5404873E3,5.54788E2,8.776753E3,1.7249315E3,4.5714814E3,2.5491898E2,2.2753071E3,1.3045232E2,7.255516E3,1.1713363E3,5.284509E3,2.2680042E3,3.7545593E2,5.8262366E2,2.3628948E3,5.549709E0,9.830708E2,4.0501724E3,5.4582163E3,8.227126E1,4.1794333E2,1.3684468E2,2.5617358E3,6.215017E3,1.7137556E3,1.1175961E1,4.5593433E3,1.2137995E1,1.4263719E2,1.1228179E2,2.2427686E3,3.2538624E1,1.0871109E2,2.174123E1,6.986679E2,6.5568486E3,2.8105598E1,1.1432307E3,7.172662E2,4.5672427E3,3.563358E2,1.9116685E3,3.3156116E2,4.3894775E1,8.690957E1,4.957141E2,8.2386475E2,1.53903E3,2.0020661E0,3.5476427E0,7.1538904E2,2.676818E2,2.4295987E2,3.8072126E3,3.397913E2,5.118425E3,1.0176186E1,7.209508E1,7.021469E1,3.4772864E2,1.0745346E2,2.9391214E1,8.2193634E2,1.7397996E3,2.5611519E3,3.653865E3,1.6006036E3,1.1315201E2,8.611231E0,2.56473E0,8.72991E2,3.6863525E3,6.377726E0,5.7602687E0,1.3060194E2,1.203524E1,8.696948E1,2.5312304E1,3.5401974E2,1.8887488E3,1.4411973E1,1.812665E1,1.6220062E0,1.0708908E2,4.7847776E0,1.6956451E1,1.361814E2,5.624865E2,5.6583003E3,8.985479E2,2.4683857E1,3.4217415E0,8.3729596E2,3.059348E2,5.621413E2,1.5512494E2,3.7676292E3,7.996133E2,3.2792242E2,2.8413363E1,1.7948689E3,1.167995E2,3.1848093E2,1.3080239E1,4.1215015E1,2.6797588E0,4.2373734E1,4.453583E1,4.358834E2,5.983073E1],"tree_param":{"num_deleted":"0","num_feature":"176","num_nodes":"127","size_leaf_vector":"1"}},{"base_weights":[7.1524635E-2,1.2502593E-1,-2.6953792E-2,2.0672646E-1,1.0159158E-1,1.8584372E-2,-1.3567437E-1,3.9643836E-1,1.9749796E-1,6.646672E-2,1.3445824E-1,-1.6675265E-1,3.4561913E-2,4.0689606E-2,-1.7721027E-1,-7.244216E-1,4.2456424E-1,2.3128715E-1,1.639214E-1,2.184112E-1,4.8737273E-2,3.8064033E-2,1.4621268E-1,-2.2635897E-1,6.1228715E-2,-3.1706E-3,1.0484888E-1,-3.9005035E-1,8.65319E-2,-2.1813351E-1,8.821219E-2,-1.3390794E0,9.671742E-2,4.4898996E-1,-3.1453368E-1,1.0959072E-1,2.5332016E-1,-1.2534572E-1,1.7840545E-1,-7.758615E-2,2.3527153E-1,-5.415758E-2,7.415574E-2,9.913478E-3,3.8640434E-1,1.2039697E-1,1.9731231E-1,-9.192858E-2,-2.9970703E-1,-1.542695E-1,2.149343E-1,1.4847589E-1,-3.282886E-2,2.7005736E-2,1.5770736E-1,-5.6428397E-3,-4.7236663E-1,-1.3611471E-2,1.6728021E-1,-3.3575073E-1,-1.6830215E-1,1.7216952E-1,-3.0997342E-1,-4.0841034E-1,-1.4502224E0,5.356445E-1,-9.674659E-1,5.3911364E-1,2.9479688E-1,5.113073E-1,-9.7305554E-1,1.05120605E-2,2.3910412E-1,2.5984594E-1,-2.066409E-1,5.758437E-1,-1.9152956E-1,9.5503755E-2,2.1553269E-1,2.5077054E-1,-2.2662346E-1,2.1760717E-1,5.433637E-1,1.7610279E-1,-7.683322E-2,9.2156455E-2,-7.395824E-2,6.9363475E-2,-1.5280484E-1,2.906687E-1,7.2460234E-1,1.3053852E-1,-8.097935E-2,2.376412E-1,8.12751E-2,-5.3391643E-2,-6.006073E-1,-1.6477197E-1,-3.6875442E-1,-2.6719263E-1,7.746081E-1,-1.9651152E-1,3.8339654E-1,-6.1770687E-3,2.519295E-1,-6.1047368E-2,8.530132E-2,-7.579428E-2,1.007872E-1,6.9101757E-1,1.489584E-1,-2.2288635E-1,1.0157738E0,2.3457699E-1,-4.9763647E-1,1.4719385E-1,-9.9882625E-2,-3.2482266E-1,1.8559052E-1,-3.5259354E-1,3.0351278E-1,-3.2270753E-1,-1.2786713E-1,9.140043E-2,6.7873824E-1,6.371597E-1,-4.3106183E-1],"categories":[],"categories_nodes":[],"categories_segments":[],"categories_sizes":[],"default_left":[0,0,0,0,0,0,0,0,0,0,0,0,0,0,0,0,0,0,0,0,0,0,0,0,0,0,0,0,0,0,0,0,0,0,0,0,0,0,0,0,0,0,0,0,0,0,0,0,0,0,0,0,0,0,0,0,0,0,0,0,0,0,0,0,0,0,0,0,0,0,0,0,0,0,0,0,0,0,0,0,0,0,0,0,0,0,0,0,0,0,0,0,0,0,0,0,0,0,0,0,0,0,0,0,0,0,0,0,0,0,0,0,0,0,0,0,0,0,0,0,0,0,0,0,0,0,0],"id":4,"left_children":[1,3,5,7,9,11,13,15,17,19,21,23,25,27,29,31,33,35,37,39,41,43,45,47,49,51,53,55,57,59,61,63,65,67,69,71,73,75,77,79,81,83,85,87,89,91,93,95,97,99,101,103,105,107,109,111,113,115,117,119,121,123,125,-1,-1,-1,-1,-1,-1,-1,-1,-1,-1,-1,-1,-1,-1,-1,-1,-1,-1,-1,-1,-1,-1,-1,-1,-1,-1,-1,-1,-1,-1,-1,-1,-1,-1,-1,-1,-1,-1,-1,-1,-1,-1,-1,-1,-1,-1,-1,-1,-1,-1,-1,-1,-1,-1,-1,-1,-1,-1,-1,-1,-1,-1,-1,-1],"loss_changes":[4.1111307E2,9.6749756E1,1.3600536E2,1.9589294E1,4.5332306E1,5.731998E1,5.942598E1,1.6708328E1,1.2115906E1,5.1139633E1,2.2973236E1,2.0905296E1,4.728209E1,3.0534184E1,7.133284E1,6.8356643E0,9.346428E0,1.428891E1,2.2634155E1,9.936333E0,4.4505554E1,2.1610725E1,2.3807404E1,1.19461975E1,1.0599798E1,5.215625E1,2.5599983E1,4.6547565E0,1.1326244E1,3.323053E1,2.9367355E1,7.463455E-3,3.4858005E0,6.614296E0,9.650381E0,1.0533668E1,1.36588745E1,1.20238085E1,1.5766022E1,5.3084774E0,1.0025261E1,1.7600775E1,3.6388268E1,1.977939E1,5.024395E0,2.4567108E1,2.8347672E1,8.371088E0,7.2212524E0,1.4111439E1,1.3040495E1,3.037479E1,3.2344532E1,1.9126446E1,1.7113304E1,6.238633E0,2.3268642E0,8.675452E0,7.0280533E0,1.8319992E1,2.4874054E1,2.953914E1,1.779109E1,0E0,0E0,0E0,0E0,0E0,0E0,0E0,0E0,0E0,0E0,0E0,0E0,0E0,0E0,0E0,0E0,0E0,0E0,0E0,0E0,0E0,0E0,0E0,0E0,0E0,0E0,0E0,0E0,0E0,0E0,0E0,0E0,0E0,0E0,0E0,0E0,0E0,0E0,0E0,0E0,0E0,0E0,0E0,0E0,0E0,0E0,0E0,0E0,0E0,0E0,0E0,0E0,0E0,0E0,0E0,0E0,0E0,0E0,0E0,0E0,0E0,0E0,0E0,0E0],"parents":[2147483647,0,0,1,1,2,2,3,3,4,4,5,5,6,6,7,7,8,8,9,9,10,10,11,11,12,12,13,13,14,14,15,15,16,16,17,17,18,18,19,19,20,20,21,21,22,22,23,23,24,24,25,25,26,26,27,27,28,28,29,29,30,30,31,31,32,32,33,33,34,34,35,35,36,36,37,37,38,38,39,39,40,40,41,41,42,42,43,43,44,44,45,45,46,46,47,47,48,48,49,49,50,50,51,51,52,52,53,53,54,54,55,55,56,56,57,57,58,58,59,59,60,60,61,61,62,62],"right_children":[2,4,6,8,10,12,14,16,18,20,22,24,26,28,30,32,34,36,38,40,42,44,46,48,50,52,54,56,58,60,62,64,66,68,70,72,74,76,78,80,82,84,86,88,90,92,94,96,98,100,102,104,106,108,110,112,114,116,118,120,122,124,126,-1,-1,-1,-1,-1,-1,-1,-1,-1,-1,-1,-1,-1,-1,-1,-1,-1,-1,-1,-1,-1,-1,-1,-1,-1,-1,-1,-1,-1,-1,-1,-1,-1,-1,-1,-1,-1,-1,-1,-1,-1,-1,-1,-1,-1,-1,-1,-1,-1,-1,-1,-1,-1,-1,-1,-1,-1,-1,-1,-1,-1,-1,-1,-1],"split_conditions":[1.40070375E-2,-8.041631E-1,1.1018474E0,-1.1734488E0,-1.07225806E-1,-1.4938717E0,8.5237604E-1,-5.515162E-1,-1.8788707E-1,-1.5357686E0,-2.9656425E-1,1.0309712E0,3.704126E-1,-1.2050074E0,2.0833933E0,-2.821794E-1,3.0537457E0,-4.08977E-1,-1.8021543E-1,-2.0239937E0,-7.5160027E-1,9.365861E0,5.9631515E-1,3.070747E-1,-2.1155602E-1,-1.9126676E-1,4.4978678E-1,-1.5619295E0,2.334462E-1,-2.6073992E-1,3.9346187E0,-6.9474226E-1,2.7771786E-1,-1.4110205E-1,-5.202812E-1,-8.862737E-2,8.8247603E-1,-1.990829E-1,-2.5715375E-1,-4.913189E-1,1.7320225E-1,-6.8017465E-1,4.495524E-1,4.999999E-1,-4.0682626E-1,9.5236665E-1,1.2734712E0,1.3760725E-1,-3.733424E-1,4.7124627E-1,-4.2053223E-1,-2.545113E-1,8.324748E-2,-2.3330687E-1,1.3491245E-1,-1.4587387E0,-3.2403336E0,-6.465463E-1,-7.433262E-1,7.4897003E-1,-1.0784545E0,3.5863369E0,-4.8609835E-1,-4.0841034E-1,-1.4502224E0,5.356445E-1,-9.674659E-1,5.3911364E-1,2.9479688E-1,5.113073E-1,-9.7305554E-1,1.05120605E-2,2.3910412E-1,2.5984594E-1,-2.066409E-1,5.758437E-1,-1.9152956E-1,9.5503755E-2,2.1553269E-1,2.5077054E-1,-2.2662346E-1,2.1760717E-1,5.433637E-1,1.7610279E-1,-7.683322E-2,9.2156455E-2,-7.395824E-2,6.9363475E-2,-1.5280484E-1,2.906687E-1,7.2460234E-1,1.3053852E-1,-8.097935E-2,2.376412E-1,8.12751E-2,-5.3391643E-2,-6.006073E-1,-1.6477197E-1,-3.6875442E-1,-2.6719263E-1,7.746081E-1,-1.9651152E-1,3.8339654E-1,-6.1770687E-3,2.519295E-1,-6.1047368E-2,8.530132E-2,-7.579428E-2,1.007872E-1,6.9101757E-1,1.489584E-1,-2.2288635E-1,1.0157738E0,2.3457699E-1,-4.9763647E-1,1.4719385E-1,-9.9882625E-2,-3.2482266E-1,1.8559052E-1,-3.5259354E-1,3.0351278E-1,-3.2270753E-1,-1.2786713E-1,9.140043E-2,6.7873824E-1,6.371597E-1,-4.3106183E-1],"split_indices":[51,51,51,51,103,103,153,107,33,175,159,153,164,123,164,26,164,32,32,79,103,32,107,51,159,153,153,175,83,164,51,121,26,33,175,159,159,34,159,51,153,153,30,164,153,103,103,79,97,32,32,128,30,159,51,83,103,102,175,30,106,164,32,0,0,0,0,0,0,0,0,0,0,0,0,0,0,0,0,0,0,0,0,0,0,0,0,0,0,0,0,0,0,0,0,0,0,0,0,0,0,0,0,0,0,0,0,0,0,0,0,0,0,0,0,0,0,0,0,0,0,0,0,0,0,0,0],"split_type":[0,0,0,0,0,0,0,0,0,0,0,0,0,0,0,0,0,0,0,0,0,0,0,0,0,0,0,0,0,0,0,0,0,0,0,0,0,0,0,0,0,0,0,0,0,0,0,0,0,0,0,0,0,0,0,0,0,0,0,0,0,0,0,0,0,0,0,0,0,0,0,0,0,0,0,0,0,0,0,0,0,0,0,0,0,0,0,0,0,0,0,0,0,0,0,0,0,0,0,0,0,0,0,0,0,0,0,0,0,0,0,0,0,0,0,0,0,0,0,0,0,0,0,0,0,0,0],"sum_hessian":[7.802549E4,5.055873E4,2.746676E4,1.1266739E4,3.9291992E4,1.9358334E4,8.108427E3,5.2019464E2,1.0746545E4,1.8996426E4,2.0295564E4,1.5351487E3,1.7823184E4,1.5451671E3,6.56326E3,1.2040738E1,5.081539E2,5.3518955E3,5.3946494E3,1.9831882E3,1.7013238E4,2.2072654E3,1.8088299E4,1.2173224E3,3.1782632E2,1.1597025E4,6.226159E3,1.4769707E2,1.39747E3,5.686987E3,8.76273E2,6.5950694E0,5.445669E0,4.924086E2,1.5745313E1,8.220308E2,4.5298643E3,2.5654404E2,5.1381055E3,1.06362915E2,1.8768253E3,3.3692659E3,1.3643972E4,2.0434434E3,1.6382202E2,1.2020708E4,6.067591E3,4.3100482E2,7.8631757E2,1.3204391E2,1.857824E2,1.8958619E3,9.701163E3,2.5193655E3,3.7067935E3,2.6452122E1,1.2124494E2,6.236355E2,7.7383453E2,1.690097E3,3.9968896E3,7.2436053E2,1.5191248E2,1.2982656E0,5.296804E0,4.2736244E0,1.1720448E0,3.0878387E2,1.8362474E2,7.0170493E0,8.728264E0,4.66788E2,3.552428E2,4.4671387E3,6.2725784E1,2.1331738E1,2.3521231E2,1.5912522E3,3.546853E3,3.27828E1,7.358012E1,1.776974E3,9.985126E1,3.0105176E2,3.068214E3,1.2166407E4,1.4775647E3,1.4975089E3,5.459345E2,1.2935883E2,3.4463184E1,1.1445164E4,5.755439E2,4.5012617E3,1.5663291E3,4.0186176E2,2.9143051E1,2.6780246E2,5.1851514E2,1.1846251E2,1.3581414E1,5.3748634E1,1.3203375E2,7.598839E2,1.135978E3,7.831688E3,1.8694755E3,1.0520948E3,1.4672708E3,5.8385365E1,3.648408E3,2.2538197E1,3.9139237E0,3.7619257E0,1.1748302E2,2.1710214E2,4.0653336E2,2.6963728E1,7.468708E2,1.6473002E3,4.2796963E1,8.275082E2,3.1693816E3,6.259368E2,9.842372E1,1.6643332E1,1.3526915E2],"tree_param":{"num_deleted":"0","num_feature":"176","num_nodes":"127","size_leaf_vector":"1"}},{"base_weights":[4.079886E-2,-6.550744E-2,4.710538E-2,-1.0341095E-1,9.010355E-2,6.325597E-2,7.896989E-3,1.20868534E-1,-1.2586759E-1,-2.590418E-2,2.263428E-1,-8.030698E-3,7.2466165E-2,-7.126452E-3,1.22586645E-1,4.4977626E-1,-1.1118111E-2,-3.0702692E-1,-9.7758576E-2,1.4008571E-1,-1.8376882E-1,5.302082E-1,1.2303102E-1,-7.83685E-2,4.9099345E-2,1.2136737E-1,6.4620785E-2,-4.2029163E-1,-4.409886E-3,2.8711667E-2,1.6106366E-1,2.6587257E-1,8.5474914E-1,1.4879035E0,-3.8086087E-2,-3.854777E-1,-1.0640139E-1,5.697883E-1,-1.0825179E-1,2.220912E-1,-2.2685063E-1,2.4274737E-3,-3.3022952E-1,-4.2881206E-1,6.1017734E-1,6.4084727E-1,8.140717E-3,6.883828E-2,-1.6639009E-1,1.3464259E0,3.5018314E-2,7.437671E-2,2.0243412E-1,-4.943723E-3,7.2808154E-2,6.5368325E-1,-4.4540486E-1,-6.472535E-3,3.984824E-1,9.51812E-2,-2.0739338E-1,1.8517391E-1,-1.3841556E-2,-2.008105E-1,4.25472E-1,2.85372E-1,1.095273E0,-6.531319E-1,-9.223117E-4,-5.1091605E-1,-2.3962322E-1,-1.828794E-1,6.9523305E-1,9.3006855E-1,6.755072E-2,-7.436763E-2,-2.5598428E-1,-3.8555346E-2,4.2419812E-1,7.3002917E-1,-3.4678775E-1,-4.5839086E-1,2.2821055E-1,-7.2881454E-1,-2.202865E-1,-6.74389E-1,2.912426E-1,6.6213214E-1,-5.843252E-1,-3.606608E-1,7.775398E-1,-5.6080353E-1,8.60917E-2,-1.255949E-1,1.9946572E-1,-5.3657126E-1,-1.4654502E-1,-3.6335894E-1,1.4690862E0,7.20559E-2,-8.7719016E-2,2.3383949E-2,1.8081601E-1,5.376381E-1,1.5567382E-1,-7.598291E-2,1.5138978E-1,3.359666E-1,6.778842E-2,-4.625836E-1,5.118473E-1,-8.944838E-3,2.4056676E-1,8.629987E-1,9.608682E-2,5.778788E-2,4.8038182E-1,2.727855E-1,-3.2627457E-1,1.6780324E-1,6.058706E-1,-9.507239E-2,5.08254E-1],"categories":[],"categories_nodes":[],"categories_segments":[],"categories_sizes":[],"default_left":[0,0,0,0,0,0,0,0,0,0,0,0,0,0,0,0,0,0,0,0,0,0,0,0,0,0,0,0,0,0,0,0,0,0,0,0,0,0,0,0,0,0,0,0,0,0,0,0,0,0,0,0,0,0,0,0,0,0,0,0,0,0,0,0,0,0,0,0,0,0,0,0,0,0,0,0,0,0,0,0,0,0,0,0,0,0,0,0,0,0,0,0,0,0,0,0,0,0,0,0,0,0,0,0,0,0,0,0,0,0,0,0,0,0,0,0,0,0,0,0,0,0,0],"id":5,"left_children":[1,3,5,7,9,11,13,15,17,19,21,23,25,27,29,31,33,35,37,39,41,43,45,47,49,51,53,55,57,59,61,63,65,-1,67,69,71,73,75,77,79,81,83,85,87,89,91,93,95,97,99,101,103,105,107,-1,109,111,113,115,117,119,121,-1,-1,-1,-1,-1,-1,-1,-1,-1,-1,-1,-1,-1,-1,-1,-1,-1,-1,-1,-1,-1,-1,-1,-1,-1,-1,-1,-1,-1,-1,-1,-1,-1,-1,-1,-1,-1,-1,-1,-1,-1,-1,-1,-1,-1,-1,-1,-1,-1,-1,-1,-1,-1,-1,-1,-1,-1,-1,-1,-1],"loss_changes":[4.605945E1,2.2700243E1,4.10607E1,1.5600689E1,1.1934823E1,3.0164017E1,3.261867E1,1.2279516E1,1.4257095E1,1.0707377E1,1.0763765E1,2.1123472E1,1.5579437E1,1.8735695E1,7.89608E0,5.687475E0,8.070191E0,5.843212E0,1.7090528E1,6.0343966E0,5.749109E0,6.990608E0,1.5429242E1,3.0554197E1,5.2783394E1,2.1369385E1,1.9974258E1,3.2113628E0,1.3778443E1,1.0043045E1,6.5737305E0,4.3736677E0,2.92523E0,0E0,4.4892344E0,4.7473106E0,6.679495E0,6.6657248E0,1.1966373E1,8.656302E0,4.4152975E0,9.75445E0,4.8987923E0,1.512494E0,5.438776E0,6.775139E0,9.508998E0,2.243489E1,1.0691544E1,7.1522446E0,1.304943E1,1.9301352E1,3.2155098E1,4.099847E1,4.1372757E1,0E0,1.9953194E0,1.0081307E1,1.1682885E1,7.119645E0,8.111614E0,9.806877E0,8.010431E0,0E0,0E0,0E0,0E0,0E0,0E0,0E0,0E0,0E0,0E0,0E0,0E0,0E0,0E0,0E0,0E0,0E0,0E0,0E0,0E0,0E0,0E0,0E0,0E0,0E0,0E0,0E0,0E0,0E0,0E0,0E0,0E0,0E0,0E0,0E0,0E0,0E0,0E0,0E0,0E0,0E0,0E0,0E0,0E0,0E0,0E0,0E0,0E0,0E0,0E0,0E0,0E0,0E0,0E0,0E0,0E0,0E0,0E0,0E0,0E0],"parents":[2147483647,0,0,1,1,2,2,3,3,4,4,5,5,6,6,7,7,8,8,9,9,10,10,11,11,12,12,13,13,14,14,15,15,16,16,17,17,18,18,19,19,20,20,21,21,22,22,23,23,24,24,25,25,26,26,27,27,28,28,29,29,30,30,31,31,32,32,34,34,35,35,36,36,37,37,38,38,39,39,40,40,41,41,42,42,43,43,44,44,45,45,46,46,47,47,48,48,49,49,50,50,51,51,52,52,53,53,54,54,56,56,57,57,58,58,59,59,60,60,61,61,62,62],"right_children":[2,4,6,8,10,12,14,16,18,20,22,24,26,28,30,32,34,36,38,40,42,44,46,48,50,52,54,56,58,60,62,64,66,-1,68,70,72,74,76,78,80,82,84,86,88,90,92,94,96,98,100,102,104,106,108,-1,110,112,114,116,118,120,122,-1,-1,-1,-1,-1,-1,-1,-1,-1,-1,-1,-1,-1,-1,-1,-1,-1,-1,-1,-1,-1,-1,-1,-1,-1,-1,-1,-1,-1,-1,-1,-1,-1,-1,-1,-1,-1,-1,-1,-1,-1,-1,-1,-1,-1,-1,-1,-1,-1,-1,-1,-1,-1,-1,-1,-1,-1,-1,-1,-1],"split_conditions":[-1.5619295E0,1.0039625E0,-1.044611E-1,-1.3410995E0,-2.6838353E-1,-8.153167E-1,1.8400072E-1,-1.4439056E0,-2.2417827E0,1.0639538E0,-2.6516324E-1,-1.8583709E-1,-4.262207E-1,-1.1734488E0,-2.914537E-1,-1.6092674E0,-1.140733E0,1.8485037E0,-3.803252E0,-3.406339E-1,2.4168885E0,-2.2788642E-1,-1.705016E-1,-3.3472556E-1,-1.9830279E-1,-2.16234E-1,-3.7797484E-1,-4.1201812E-1,4.1039796E0,1.40070375E-2,7.069909E-1,-3.070661E-1,7.4041706E-1,1.4879035E0,-4.569084E-1,-1.5454551E0,1.401281E0,2.4707766E0,8.2291424E-1,-4.4344687E-1,-3.0651623E-1,-2.3715533E-1,1.5669389E0,3.5514086E-2,2.6451302E0,1.24375835E-1,-1.5196602E-1,-7.378427E-1,-3.2626528E-1,-1.4440318E0,7.071231E-1,-4.3190733E-1,-2.0755182E-1,4.6735445E-1,-3.724626E-1,6.5368325E-1,6.8616605E-1,3.9346187E0,4.441315E-1,5.8645946E-1,-7.91298E-1,6.120163E-1,1.920033E0,-2.008105E-1,4.25472E-1,2.85372E-1,1.095273E0,-6.531319E-1,-9.223117E-4,-5.1091605E-1,-2.3962322E-1,-1.828794E-1,6.9523305E-1,9.3006855E-1,6.755072E-2,-7.436763E-2,-2.5598428E-1,-3.8555346E-2,4.2419812E-1,7.3002917E-1,-3.4678775E-1,-4.5839086E-1,2.2821055E-1,-7.2881454E-1,-2.202865E-1,-6.74389E-1,2.912426E-1,6.6213214E-1,-5.843252E-1,-3.606608E-1,7.775398E-1,-5.6080353E-1,8.60917E-2,-1.255949E-1,1.9946572E-1,-5.3657126E-1,-1.4654502E-1,-3.6335894E-1,1.4690862E0,7.20559E-2,-8.7719016E-2,2.3383949E-2,1.8081601E-1,5.376381E-1,1.5567382E-1,-7.598291E-2,1.5138978E-1,3.359666E-1,6.778842E-2,-4.625836E-1,5.118473E-1,-8.944838E-3,2.4056676E-1,8.629987E-1,9.608682E-2,5.778788E-2,4.8038182E-1,2.727855E-1,-3.2627457E-1,1.6780324E-1,6.058706E-1,-9.507239E-2,5.08254E-1],"split_indices":[175,50,159,60,32,50,63,120,175,81,159,139,32,50,48,60,50,163,119,30,48,30,56,32,32,159,30,32,119,50,30,139,81,0,116,122,60,163,48,32,159,159,50,63,9,60,30,60,30,175,56,97,50,104,30,0,81,50,128,16,175,37,97,0,0,0,0,0,0,0,0,0,0,0,0,0,0,0,0,0,0,0,0,0,0,0,0,0,0,0,0,0,0,0,0,0,0,0,0,0,0,0,0,0,0,0,0,0,0,0,0,0,0,0,0,0,0,0,0,0,0,0,0],"split_type":[0,0,0,0,0,0,0,0,0,0,0,0,0,0,0,0,0,0,0,0,0,0,0,0,0,0,0,0,0,0,0,0,0,0,0,0,0,0,0,0,0,0,0,0,0,0,0,0,0,0,0,0,0,0,0,0,0,0,0,0,0,0,0,0,0,0,0,0,0,0,0,0,0,0,0,0,0,0,0,0,0,0,0,0,0,0,0,0,0,0,0,0,0,0,0,0,0,0,0,0,0,0,0,0,0,0,0,0,0,0,0,0,0,0,0,0,0,0,0,0,0,0,0],"sum_hessian":[6.869921E4,3.8458655E3,6.4853344E4,3.093366E3,7.524997E2,4.5930594E4,1.8922748E4,2.80738E2,2.812628E3,4.0646802E2,3.4603168E2,5.2539995E3,4.0676598E4,1.6731164E4,2.1915845E3,7.99226E1,2.008154E2,3.759828E2,2.436645E3,1.9788115E2,2.0858687E2,8.650351E1,2.5952817E2,2.3554175E3,2.898582E3,5.619892E3,3.5056703E4,1.080445E2,1.662312E4,6.383946E2,1.5531898E3,5.6272114E1,2.3650486E1,2.5259998E0,1.982894E2,2.6927008E2,1.067127E2,3.6736687E1,2.3999084E3,1.6228078E2,3.560037E1,9.196804E1,1.16618835E2,6.22602E0,8.027749E1,4.6137207E1,2.1339096E2,8.81045E2,1.4743724E3,3.0030848E1,2.868551E3,3.5596677E3,2.060224E3,3.6902686E3,3.1366436E4,1.8058381E0,1.0623866E2,1.6539676E4,8.344445E1,4.9894846E2,1.3944617E2,1.3654753E3,1.8771446E2,1.4114696E1,4.2157417E1,7.796511E0,1.5853975E1,1.0201037E1,1.8808836E2,1.4305272E2,1.2621736E2,9.823723E1,8.475476E0,2.0779528E1,1.5957158E1,1.9539318E3,4.4597665E2,7.101324E1,9.126754E1,3.305774E0,3.2294594E1,2.9758488E1,6.220955E1,2.3799187E1,9.281965E1,4.793485E0,1.432535E0,7.74387E1,2.838791E0,5.256231E0,4.0880978E1,2.4812645E1,1.8857831E2,3.537607E2,5.272843E2,7.3436844E1,1.4009355E3,1.8242787E0,2.820657E1,2.2045325E3,6.640186E2,2.4081394E3,1.1515282E3,2.5066696E2,1.8095573E3,2.5380925E3,1.152176E3,5.8550665E2,3.078093E4,1.04976E2,1.262663E0,1.63771455E4,1.625295E2,3.2041004E1,5.1403442E1,4.5608377E2,4.2864674E1,2.724872E1,1.1219745E2,1.3129019E3,5.257347E1,1.6331444E2,2.4400024E1],"tree_param":{"num_deleted":"0","num_feature":"176","num_nodes":"123","size_leaf_vector":"1"}},{"base_weights":[-8.686907E-2,-1.8979515E-1,-2.1381695E-2,-1.4787786E-1,-2.526126E-1,-2.1742445E-1,-1.282374E-2,-2.3358311E-1,-1.0571241E-1,-2.80521E-1,-1.4164273E-1,-3.5826084E-1,-1.24195755E-1,-1.9118045E-2,1.9224156E-1,-1.5540795E-1,-2.9974717E-1,-3.7043583E-2,-1.7720956E-1,-2.855194E-1,4.718307E-1,4.0512735E-1,-1.6831598E-1,3.0527136E-1,-3.7614018E-1,-1.4487807E-1,7.1068007E-1,4.5084204E-3,-1.1379116E-1,7.416365E-2,3.829387E-1,3.454608E-1,-1.6870917E-1,-3.276779E-1,1.1920199E-1,1.02892205E-1,-1.1298061E-1,-2.2047678E-1,1.681378E-2,-3.3662817E-1,-2.2201398E-1,-3.65391E-1,1.06513E0,9.882502E-1,-1.21699296E-1,2.914958E-1,-1.9151546E-1,-3.0007204E-1,1.520377E0,-2.9066998E-1,-4.8079515E-1,-6.7699356E-3,-2.4310464E-1,1.0862132E0,-4.142299E-1,-6.047726E-2,3.3485156E-2,-5.254439E-2,-1.8967889E-1,6.5864545E-1,2.5127554E-2,8.588623E-1,2.5149813E-1,-1.470767E-1,6.739382E-1,-3.3112448E-2,-2.0769936E-1,5.2104384E-1,-3.331615E-1,1.0912098E0,-4.152937E-4,2.6581287E-1,-1.3811092E-1,-1.6314903E-2,-1.954524E-1,-2.314906E-1,6.2248415E-1,-1.7765391E-1,1.820439E-1,-3.3911285E-1,1.9793428E-1,-2.2756007E-1,5.758931E-1,-4.9267462E-1,1.04498304E-1,3.003592E0,4.4549134E-1,1.4100772E0,-2.3525105E-1,-3.538959E-1,6.071986E-1,9.500147E-1,-1.06905825E-1,-3.2671666E-1,-1.314268E-1,-5.27223E-1,6.0794616E-1,-3.588443E-1,4.468013E-2,-5.106336E-1,5.767905E-2,2.2826335E-1,-1.4247862E-1,-3.6285362E-1,-1.6268775E-1,2.004702E-1,1.9823731E0,4.5835026E-2,-1.1312501E-1,7.1745752E-3,1.24213606E-1,-7.6576255E-2,1.6214032E-1,-9.838535E-2,-2.6104853E-1,1.1711723E0,-2.9727235E-1,-3.234086E-1,8.147376E-2,1.1043739E0,2.6220867E-1,3.5284987E-1,-1.5602955E-1],"categories":[],"categories_nodes":[],"categories_segments":[],"categories_sizes":[],"default_left":[0,0,0,0,0,0,0,0,0,0,0,0,0,0,0,0,0,0,0,0,0,0,0,0,0,0,0,0,0,0,0,0,0,0,0,0,0,0,0,0,0,0,0,0,0,0,0,0,0,0,0,0,0,0,0,0,0,0,0,0,0,0,0,0,0,0,0,0,0,0,0,0,0,0,0,0,0,0,0,0,0,0,0,0,0,0,0,0,0,0,0,0,0,0,0,0,0,0,0,0,0,0,0,0,0,0,0,0,0,0,0,0,0,0,0,0,0,0,0,0,0,0,0],"id":6,"left_children":[1,3,5,7,9,11,13,15,17,19,21,23,25,27,29,31,33,35,37,39,41,43,45,47,49,51,53,55,57,59,61,63,65,67,69,71,73,75,77,79,81,83,85,87,89,91,93,95,-1,97,99,101,103,105,-1,107,109,111,113,115,117,119,121,-1,-1,-1,-1,-1,-1,-1,-1,-1,-1,-1,-1,-1,-1,-1,-1,-1,-1,-1,-1,-1,-1,-1,-1,-1,-1,-1,-1,-1,-1,-1,-1,-1,-1,-1,-1,-1,-1,-1,-1,-1,-1,-1,-1,-1,-1,-1,-1,-1,-1,-1,-1,-1,-1,-1,-1,-1,-1,-1,-1],"loss_changes":[2.738917E2,4.1529907E1,4.1645317E1,3.4202744E1,1.949643E1,1.3540882E1,3.070673E1,1.6069855E1,3.1182701E1,1.9105438E1,1.861201E1,5.017067E0,1.0868322E1,5.166593E1,1.5876984E1,9.601429E0,1.9842224E1,3.4491146E1,2.6160645E1,1.6153107E1,1.7134975E1,1.8435755E1,1.300452E1,8.839961E0,3.3824348E0,8.282902E0,6.9395885E0,3.480067E1,2.1406364E1,1.2499005E1,1.658382E1,6.179759E0,7.364582E0,7.5332794E0,1.2454143E1,4.4866558E1,1.675088E1,2.3744522E1,1.8290192E1,3.7697754E0,1.0013252E1,9.634136E-1,2.2307938E1,1.5087936E1,5.601065E0,1.5543392E1,9.312866E0,2.019697E0,0E0,5.1812153E0,2.9481888E0,8.190454E0,3.331049E0,8.703795E0,0E0,3.1907717E1,3.0501745E1,1.3185034E1,1.3354797E1,1.698914E1,7.980928E0,8.058853E0,8.889284E0,0E0,0E0,0E0,0E0,0E0,0E0,0E0,0E0,0E0,0E0,0E0,0E0,0E0,0E0,0E0,0E0,0E0,0E0,0E0,0E0,0E0,0E0,0E0,0E0,0E0,0E0,0E0,0E0,0E0,0E0,0E0,0E0,0E0,0E0,0E0,0E0,0E0,0E0,0E0,0E0,0E0,0E0,0E0,0E0,0E0,0E0,0E0,0E0,0E0,0E0,0E0,0E0,0E0,0E0,0E0,0E0,0E0,0E0,0E0,0E0],"parents":[2147483647,0,0,1,1,2,2,3,3,4,4,5,5,6,6,7,7,8,8,9,9,10,10,11,11,12,12,13,13,14,14,15,15,16,16,17,17,18,18,19,19,20,20,21,21,22,22,23,23,24,24,25,25,26,26,27,27,28,28,29,29,30,30,31,31,32,32,33,33,34,34,35,35,36,36,37,37,38,38,39,39,40,40,41,41,42,42,43,43,44,44,45,45,46,46,47,47,49,49,50,50,51,51,52,52,53,53,55,55,56,56,57,57,58,58,59,59,60,60,61,61,62,62],"right_children":[2,4,6,8,10,12,14,16,18,20,22,24,26,28,30,32,34,36,38,40,42,44,46,48,50,52,54,56,58,60,62,64,66,68,70,72,74,76,78,80,82,84,86,88,90,92,94,96,-1,98,100,102,104,106,-1,108,110,112,114,116,118,120,122,-1,-1,-1,-1,-1,-1,-1,-1,-1,-1,-1,-1,-1,-1,-1,-1,-1,-1,-1,-1,-1,-1,-1,-1,-1,-1,-1,-1,-1,-1,-1,-1,-1,-1,-1,-1,-1,-1,-1,-1,-1,-1,-1,-1,-1,-1,-1,-1,-1,-1,-1,-1,-1,-1,-1,-1,-1,-1,-1,-1],"split_conditions":[-2.2959769E-1,2.8304023E-1,-5.987735E-1,-1.00889005E-1,8.819012E-1,-1.9004793E0,2.5968275E0,-5.655709E-1,-9.605186E-2,1.7334958E0,-4.1209066E-1,-1.3113028E0,1.4247274E0,6.468271E-1,3.8795263E-2,-1.6964129E0,1.136996E-1,-2.545404E-1,8.1274474E-1,-5.791647E-1,-5.330727E-1,1.10514104E-1,-3.043683E-1,-1.9762116E-2,6.595569E-1,-1.1222455E-1,5.848763E-1,-9.115751E-1,1.0820297E0,3.5146317E-1,-4.542506E-1,-3.8683796E-1,-3.6774573E-1,-1.4603434E0,-3.1692186E-1,-1.1260124E-2,-2.6721337E-1,1.5694809E0,-2.2740583E-1,4.4496155E0,2.9482622E0,-2.1007985E-1,-4.913189E-1,4.4894513E-1,-2.795402E-1,2.776164E-1,-4.398505E-1,7.7207017E-1,1.520377E0,5.333446E-1,8.143415E-1,-4.4117782E-1,-2.3683201E-1,-3.7350318E-1,-4.142299E-1,-1.3908647E0,1.3892682E0,1.8483732E0,1.0380105E0,-2.7916345E-1,-2.6516324E-1,3.7342843E-1,2.396076E-1,-1.470767E-1,6.739382E-1,-3.3112448E-2,-2.0769936E-1,5.2104384E-1,-3.331615E-1,1.0912098E0,-4.152937E-4,2.6581287E-1,-1.3811092E-1,-1.6314903E-2,-1.954524E-1,-2.314906E-1,6.2248415E-1,-1.7765391E-1,1.820439E-1,-3.3911285E-1,1.9793428E-1,-2.2756007E-1,5.758931E-1,-4.9267462E-1,1.04498304E-1,3.003592E0,4.4549134E-1,1.4100772E0,-2.3525105E-1,-3.538959E-1,6.071986E-1,9.500147E-1,-1.06905825E-1,-3.2671666E-1,-1.314268E-1,-5.27223E-1,6.0794616E-1,-3.588443E-1,4.468013E-2,-5.106336E-1,5.767905E-2,2.2826335E-1,-1.4247862E-1,-3.6285362E-1,-1.6268775E-1,2.004702E-1,1.9823731E0,4.5835026E-2,-1.1312501E-1,7.1745752E-3,1.24213606E-1,-7.6576255E-2,1.6214032E-1,-9.838535E-2,-2.6104853E-1,1.1711723E0,-2.9727235E-1,-3.234086E-1,8.147376E-2,1.1043739E0,2.6220867E-1,3.5284987E-1,-1.5602955E-1],"split_indices":[50,127,154,105,105,156,107,105,105,107,116,104,163,126,159,102,107,159,105,50,153,124,159,159,127,102,126,127,175,50,137,50,8,107,126,12,9,159,159,79,159,152,50,159,152,79,156,162,0,105,106,162,158,127,0,102,153,153,127,137,159,160,26,0,0,0,0,0,0,0,0,0,0,0,0,0,0,0,0,0,0,0,0,0,0,0,0,0,0,0,0,0,0,0,0,0,0,0,0,0,0,0,0,0,0,0,0,0,0,0,0,0,0,0,0,0,0,0,0,0,0,0,0],"split_type":[0,0,0,0,0,0,0,0,0,0,0,0,0,0,0,0,0,0,0,0,0,0,0,0,0,0,0,0,0,0,0,0,0,0,0,0,0,0,0,0,0,0,0,0,0,0,0,0,0,0,0,0,0,0,0,0,0,0,0,0,0,0,0,0,0,0,0,0,0,0,0,0,0,0,0,0,0,0,0,0,0,0,0,0,0,0,0,0,0,0,0,0,0,0,0,0,0,0,0,0,0,0,0,0,0,0,0,0,0,0,0,0,0,0,0,0,0,0,0,0,0,0,0],"sum_hessian":[4.0637324E4,1.5800444E4,2.4836879E4,9.479703E3,6.320741E3,1.0373572E3,2.3799521E4,3.1236597E3,6.3560435E3,5.04861E3,1.2721311E3,4.116224E2,6.2573474E2,2.3092123E4,7.0739856E2,1.4340911E3,1.6895687E3,3.243637E3,3.1124062E3,5.016038E3,3.257165E1,5.8337746E1,1.2137933E3,1.0231919E1,4.0139047E2,6.1153156E2,1.4203187E1,1.8480145E4,4.611978E3,4.3806567E2,2.6933292E2,3.6258465E1,1.3978325E3,1.5843958E3,1.0517292E2,1.1404178E3,2.1032192E3,2.5452046E3,5.672018E2,2.7760308E3,2.2400076E3,1.3598295E1,1.8973358E1,2.736382E1,3.0973928E1,5.7537163E1,1.1562561E3,7.2772684E0,2.9546506E0,2.235518E2,1.7783868E2,2.5503508E2,3.564965E2,1.0740829E1,3.4623573E0,5.697627E3,1.2782519E4,2.5538503E3,2.0581277E3,3.2787426E1,4.0527826E2,5.6924423E1,2.1240848E2,1.4605689E1,2.1652777E1,3.1316116E2,1.0846714E3,9.450413E0,1.5749453E3,1.0726125E1,9.444679E1,6.806221E2,4.5979572E2,9.693953E2,1.133824E3,2.513212E3,3.1992687E1,2.602362E2,3.0696558E2,2.7637373E3,1.2293367E1,2.2253796E3,1.4628012E1,1.08292055E1,2.76909E0,3.624827E0,1.5348531E1,2.0295702E1,7.0681176E0,2.398498E1,6.9889474E0,2.1261093E1,3.627607E1,3.5389072E2,8.023654E2,6.244609E0,1.0326596E0,1.8597293E2,3.757886E1,1.6872647E2,9.112213E0,9.2835236E1,1.6219983E2,1.4131232E2,2.1518419E2,6.073356E0,4.6674733E0,1.8864744E3,3.8111526E3,9.910677E3,2.8718418E3,2.2977488E3,2.5610153E2,9.0467676E2,1.1534509E3,2.1265242E1,1.1522184E1,5.549471E1,3.4978354E2,3.9607952E1,1.7316471E1,1.7040778E2,4.2000706E1],"tree_param":{"num_deleted":"0","num_feature":"176","num_nodes":"123","size_leaf_vector":"1"}},{"base_weights":[1.8968502E-2,-5.0155215E-2,3.209121E-2,-1.7319322E-2,-1.2678434E-1,4.354846E-2,-7.0396565E-2,-2.3879413E-2,1.8076456E-1,-2.2525623E-1,-6.605225E-2,6.068641E-2,-6.4770845E-3,-3.8771886E-2,-1.907281E-1,2.1262174E-2,-5.4002192E-2,1.5147032E-1,6.753214E-1,-2.4757627E-1,-3.6653493E-2,-1.3693568E-1,9.003922E-3,-3.301505E-2,6.877211E-2,-6.736475E-2,2.2650994E-2,-1.05022095E-1,-1.1383369E-2,-1.6495447E-1,-4.0134814E-1,1.2722395E-2,3.6128658E-1,-9.62258E-2,-1.8966245E-2,2.898139E-1,3.241703E-2,-7.0368856E-2,1.0663322E0,-2.3435907E-1,-5.332785E-1,4.146016E-1,-1.0908902E-1,1.0508032E-1,-1.6486809E-1,-6.9478944E-2,1.760755E-1,-7.180023E-3,-1.404333E-1,6.292374E-2,2.4050301E-1,-3.3679344E-2,-1.369943E-1,-6.851703E-3,9.123115E-2,-1.3517989E-1,5.392115E-2,-2.0752146E-3,-2.708098E-1,-1.9857445E-1,-0E0,-4.6929547E-1,3.5023093E-2,3.2321148E-2,-8.658988E-2,4.2138085E-1,-6.7477053E-1,-1.05099455E-1,9.478226E-2,-2.2614205E-1,-8.221433E-3,2.1639585E-1,7.2647923E-1,5.8014137E-1,-2.7772108E-2,-4.7875866E-1,4.698779E-1,1.2486794E0,-0E0,-3.3187664E-1,-2.0976657E-1,3.941039E-1,-5.683356E-1,-2.566723E-1,5.332632E-1,1.4936345E-3,-4.4296384E-1,-7.91429E-2,2.8278953E-1,-1.2505923E-1,-3.586461E-1,-1.7698213E-1,1.3990133E-2,4.6852362E-1,1.1292983E-1,-4.276692E-2,1.0930946E-1,-3.1032416E-1,-3.427379E-2,5.3357217E-2,1.2090934E-1,1.7575583E-1,5.314668E-1,-5.298181E-2,1.16498135E-1,-1.3648016E-2,-1.867426E-1,2.6018035E-2,-5.91718E-2,5.7668272E-2,2.014662E-1,-1.696647E-1,2.414992E-3,-8.407381E-2,2.1490376E-1,1.388581E-1,-1.5359092E-2,7.8027165E-1,-3.154572E-1,4.4273715E-2,-2.1933284E-1,-4.2558974E-1,7.111092E-2,-6.1116284E-1,-3.7410715E-1,-3.8306487E-1,3.4448627E-1],"categories":[],"categories_nodes":[],"categories_segments":[],"categories_sizes":[],"default_left":[0,0,0,0,0,0,0,0,0,0,0,0,0,0,0,0,0,0,0,0,0,0,0,0,0,0,0,0,0,0,0,0,0,0,0,0,0,0,0,0,0,0,0,0,0,0,0,0,0,0,0,0,0,0,0,0,0,0,0,0,0,0,0,0,0,0,0,0,0,0,0,0,0,0,0,0,0,0,0,0,0,0,0,0,0,0,0,0,0,0,0,0,0,0,0,0,0,0,0,0,0,0,0,0,0,0,0,0,0,0,0,0,0,0,0,0,0,0,0,0,0,0,0,0,0,0,0],"id":7,"left_children":[1,3,5,7,9,11,13,15,17,19,21,23,25,27,29,31,33,35,37,39,41,43,45,47,49,51,53,55,57,59,61,63,65,67,69,71,73,75,77,79,81,83,85,87,89,91,93,95,97,99,101,103,105,107,109,111,113,115,117,119,121,123,125,-1,-1,-1,-1,-1,-1,-1,-1,-1,-1,-1,-1,-1,-1,-1,-1,-1,-1,-1,-1,-1,-1,-1,-1,-1,-1,-1,-1,-1,-1,-1,-1,-1,-1,-1,-1,-1,-1,-1,-1,-1,-1,-1,-1,-1,-1,-1,-1,-1,-1,-1,-1,-1,-1,-1,-1,-1,-1,-1,-1,-1,-1,-1,-1],"loss_changes":[6.735353E1,2.9791197E1,7.328051E1,1.0767495E1,2.120116E1,4.8131035E1,2.3847218E1,1.0924116E1,3.661972E0,5.6628723E0,1.1715022E1,3.1684097E1,2.540817E1,9.006372E0,6.9609222E0,9.288794E0,7.114209E0,4.1115794E0,4.364176E0,4.368141E0,4.75241E0,7.674761E0,1.4033068E1,9.200783E0,3.8613342E1,1.08522415E1,1.9610348E1,6.9786625E0,8.469675E0,6.446493E0,4.2451153E0,6.101219E0,5.1405115E0,3.71167E0,5.8419056E0,3.4711523E0,4.589325E0,1.5039177E0,1.9403706E0,2.6552315E0,1.9447289E0,1.7628376E0,4.6922975E0,3.8848028E0,7.740427E0,6.544863E0,6.208149E0,1.1103852E1,1.155332E1,2.0626022E1,2.3700417E1,9.063771E0,9.244898E0,1.165386E1,1.0747818E1,5.814596E0,5.181855E0,6.352171E0,5.901721E0,4.903221E0,6.0621953E0,1.3257904E0,2.6834245E0,0E0,0E0,0E0,0E0,0E0,0E0,0E0,0E0,0E0,0E0,0E0,0E0,0E0,0E0,0E0,0E0,0E0,0E0,0E0,0E0,0E0,0E0,0E0,0E0,0E0,0E0,0E0,0E0,0E0,0E0,0E0,0E0,0E0,0E0,0E0,0E0,0E0,0E0,0E0,0E0,0E0,0E0,0E0,0E0,0E0,0E0,0E0,0E0,0E0,0E0,0E0,0E0,0E0,0E0,0E0,0E0,0E0,0E0,0E0,0E0,0E0,0E0,0E0,0E0],"parents":[2147483647,0,0,1,1,2,2,3,3,4,4,5,5,6,6,7,7,8,8,9,9,10,10,11,11,12,12,13,13,14,14,15,15,16,16,17,17,18,18,19,19,20,20,21,21,22,22,23,23,24,24,25,25,26,26,27,27,28,28,29,29,30,30,31,31,32,32,33,33,34,34,35,35,36,36,37,37,38,38,39,39,40,40,41,41,42,42,43,43,44,44,45,45,46,46,47,47,48,48,49,49,50,50,51,51,52,52,53,53,54,54,55,55,56,56,57,57,58,58,59,59,60,60,61,61,62,62],"right_children":[2,4,6,8,10,12,14,16,18,20,22,24,26,28,30,32,34,36,38,40,42,44,46,48,50,52,54,56,58,60,62,64,66,68,70,72,74,76,78,80,82,84,86,88,90,92,94,96,98,100,102,104,106,108,110,112,114,116,118,120,122,124,126,-1,-1,-1,-1,-1,-1,-1,-1,-1,-1,-1,-1,-1,-1,-1,-1,-1,-1,-1,-1,-1,-1,-1,-1,-1,-1,-1,-1,-1,-1,-1,-1,-1,-1,-1,-1,-1,-1,-1,-1,-1,-1,-1,-1,-1,-1,-1,-1,-1,-1,-1,-1,-1,-1,-1,-1,-1,-1,-1,-1,-1,-1,-1,-1],"split_conditions":[-7.0232713E-1,4.6864274E-1,9.7776717E-1,7.6939905E-1,-1.5077844E0,-1.1724045E-2,1.2478291E0,-3.570653E-1,1.0340623E0,2.4707766E0,-6.7422405E-2,-4.34416E-1,2.0231843E-2,7.50688E-1,3.4735954E0,2.3133688E0,2.4364395E-2,1.2366873E-1,-4.1060254E-2,2.6676953E0,6.446782E-1,3.5146317E-1,1.5519217E0,-4.364303E-1,1.3209599E0,4.39956E-2,6.103932E-1,1.1338402E0,2.216702E0,1.2397804E0,1.0719085E0,2.9893875E-1,2.7098613E0,7.499992E-1,-3.182217E-1,1.1684777E0,-1.2129567E0,6.650807E-1,1.456189E0,6.0856515E-1,-9.7370213E-1,-1.7124779E0,-8.2381946E-1,-1.5395905E-1,9.3234694E-1,-1.9140573E-1,8.959965E-1,-4.4458902E-1,1.4632797E-1,1.1222554E0,1.0066115E0,1.3196223E0,-2.7217734E-1,1.1295312E-1,9.8108925E-2,9.59156E-1,-2.1340995E-1,-5.1390046E-1,-3.9421458E0,-2.1706924E0,-4.4376025E-1,-1.4938717E0,-5.911659E-2,3.2321148E-2,-8.658988E-2,4.2138085E-1,-6.7477053E-1,-1.05099455E-1,9.478226E-2,-2.2614205E-1,-8.221433E-3,2.1639585E-1,7.2647923E-1,5.8014137E-1,-2.7772108E-2,-4.7875866E-1,4.698779E-1,1.2486794E0,-0E0,-3.3187664E-1,-2.0976657E-1,3.941039E-1,-5.683356E-1,-2.566723E-1,5.332632E-1,1.4936345E-3,-4.4296384E-1,-7.91429E-2,2.8278953E-1,-1.2505923E-1,-3.586461E-1,-1.7698213E-1,1.3990133E-2,4.6852362E-1,1.1292983E-1,-4.276692E-2,1.0930946E-1,-3.1032416E-1,-3.427379E-2,5.3357217E-2,1.2090934E-1,1.7575583E-1,5.314668E-1,-5.298181E-2,1.16498135E-1,-1.3648016E-2,-1.867426E-1,2.6018035E-2,-5.91718E-2,5.7668272E-2,2.014662E-1,-1.696647E-1,2.414992E-3,-8.407381E-2,2.1490376E-1,1.388581E-1,-1.5359092E-2,7.8027165E-1,-3.154572E-1,4.4273715E-2,-2.1933284E-1,-4.2558974E-1,7.111092E-2,-6.1116284E-1,-3.7410715E-1,-3.8306487E-1,3.4448627E-1],"split_indices":[100,49,100,154,100,152,50,49,50,161,82,139,137,119,100,82,154,50,80,103,49,50,154,146,154,100,127,128,118,82,127,152,161,50,16,82,82,152,118,50,10,103,10,127,103,16,50,9,102,127,127,127,50,100,49,161,81,102,81,118,97,103,158,0,0,0,0,0,0,0,0,0,0,0,0,0,0,0,0,0,0,0,0,0,0,0,0,0,0,0,0,0,0,0,0,0,0,0,0,0,0,0,0,0,0,0,0,0,0,0,0,0,0,0,0,0,0,0,0,0,0,0,0,0,0,0,0],"split_type":[0,0,0,0,0,0,0,0,0,0,0,0,0,0,0,0,0,0,0,0,0,0,0,0,0,0,0,0,0,0,0,0,0,0,0,0,0,0,0,0,0,0,0,0,0,0,0,0,0,0,0,0,0,0,0,0,0,0,0,0,0,0,0,0,0,0,0,0,0,0,0,0,0,0,0,0,0,0,0,0,0,0,0,0,0,0,0,0,0,0,0,0,0,0,0,0,0,0,0,0,0,0,0,0,0,0,0,0,0,0,0,0,0,0,0,0,0,0,0,0,0,0,0,0,0,0,0],"sum_hessian":[7.4251484E4,1.1845424E4,6.2406062E4,8.293959E3,3.5514644E3,5.6132484E4,6.2735767E3,8.029427E3,2.6453214E2,1.3531277E3,2.1983367E3,4.1810625E4,1.432186E4,4.969643E3,1.3039333E3,3.2123772E3,4.81705E3,2.5116336E2,1.3368766E1,1.2091848E3,1.4394287E2,1.1308574E3,1.0674794E3,3.3200964E3,3.8490527E4,4.6350786E3,9.686782E3,1.4516805E3,3.5179626E3,1.1637793E3,1.40154E2,3.1349731E3,7.740395E1,2.1823672E3,2.6346826E3,1.1511819E2,1.3604518E2,4.7927938E0,8.575973E0,1.1577931E3,5.1391685E1,1.9065475E1,1.24877396E2,1.1635714E2,1.01450024E3,7.2628723E2,3.4119214E2,2.6780095E3,6.420869E2,3.7224773E4,1.2657572E3,3.1257988E3,1.5092798E3,6.77267E3,2.9141123E3,1.2208213E3,2.3085927E2,3.397456E3,1.2050639E2,9.662421E2,1.9753719E2,1.21403915E2,1.8750086E1,2.6196755E3,5.1529767E2,7.381242E1,3.5915272E0,2.086412E3,9.595505E1,1.2845859E2,2.506224E3,1.0002518E2,1.5093008E1,1.2778939E1,1.23266235E2,2.899719E0,1.8930749E0,7.2278523E0,1.3481197E0,2.2983981E2,9.279533E2,1.394992E0,4.9996693E1,2.5626519E0,1.6502823E1,9.4330284E1,3.0547112E1,5.7127518E1,5.9229618E1,8.4339795E2,1.7110228E2,3.1747546E2,4.0881177E2,5.916703E1,2.8202512E2,2.0524795E3,6.2552997E2,2.4582277E2,3.9626413E2,3.1956244E4,5.268527E3,1.0369548E3,2.2880235E2,2.7709578E3,3.5484097E2,4.34719E2,1.0745608E3,4.1586304E3,2.6140393E3,2.2358125E3,6.782998E2,9.7656323E2,2.442581E2,1.242275E2,1.0663177E2,2.9118555E2,3.1062708E3,4.1476264E0,1.1635877E2,7.562072E1,8.906214E2,2.7699877E1,1.698373E2,4.6150597E1,7.525332E1,7.73672E0,1.1013366E1],"tree_param":{"num_deleted":"0","num_feature":"176","num_nodes":"127","size_leaf_vector":"1"}},{"base_weights":[3.1158708E-2,1.1849061E-2,4.868987E-2,1.1745438E-1,5.8969287E-3,5.3304397E-2,-8.071433E-2,2.267423E-1,2.41134E-2,4.6020495E-3,4.6246338E-1,7.497714E-2,3.385674E-2,-1.21521026E-1,1.7009228E-1,3.1686747E-1,7.90985E-2,-1.2162761E-1,1.660875E-1,2.1810293E-2,-1.9892523E-2,6.277343E-1,1.5102628E-1,1.14048146E-1,-1.6570847E-3,-2.5014043E-1,3.9175518E-2,-1.675044E-1,1.566802E-1,5.948783E-2,5.1769096E-1,-3.8625503E-1,3.4296545E-1,6.2032737E-2,8.875464E-1,7.8253686E-1,-1.8608393E-1,4.6656474E-1,7.250268E-2,9.0319134E-2,1.2333414E-2,9.460105E-3,-6.0600303E-2,4.809002E-2,7.0928705E-1,-4.9073353E-1,4.2339933E-1,1.1909318E-2,1.3169861E-1,-8.788653E-2,3.1099925E-2,-3.3237192E-1,6.391778E-2,3.957675E-1,3.5154786E-2,-6.992734E-2,-2.8491926E-1,4.7320452E-1,-1.0451498E-2,-5.783394E-1,1.4083497E-1,1.0063033E0,3.2441303E-1,-6.4035696E-1,6.043922E-1,-9.708498E-3,3.9830512E-1,3.2783628E-1,1.2188056E-2,-5.7301563E-1,9.621076E-1,-1.4673899E-1,-6.386943E-1,8.2243544E-1,2.7768567E-1,-6.819064E-1,1.098824E-1,1.9115789E-1,2.5450906E-2,5.919939E-4,6.77768E-2,-5.2756473E-2,5.984304E-2,-1.9949628E-2,-1.05871044E-1,-4.4663185E-1,5.768118E-1,-4.6035627E-1,7.670041E-1,4.969745E-2,-8.0184877E-1,4.1527383E-2,6.825398E-1,2.4186318E-1,-4.3722495E-2,2.5591576E-1,1.18001185E-1,-1.298423E-2,-1.919683E-1,1.0899035E-1,-1.0695282E-2,-1.5375401E-1,-4.639461E-1,9.7529274E-1,-2.4610484E-2,2.4187422E-1,7.7868575E-1,-4.865336E-2,4.3274567E-2,-3.5326704E-1,1.0722593E-2,1.3354537E-1,-3.3986962E-1,6.081354E-1,-1.2838267E-1,-1.842749E-1,2.6463836E-1,8.9816805E-3,-7.5598985E-1,3.8312104E-1,-1.4824351E-2,1.0752765E0,2.8222632E-1,-1.893298E-1,6.552594E-1],"categories":[],"categories_nodes":[],"categories_segments":[],"categories_sizes":[],"default_left":[0,0,0,0,0,0,0,0,0,0,0,0,0,0,0,0,0,0,0,0,0,0,0,0,0,0,0,0,0,0,0,0,0,0,0,0,0,0,0,0,0,0,0,0,0,0,0,0,0,0,0,0,0,0,0,0,0,0,0,0,0,0,0,0,0,0,0,0,0,0,0,0,0,0,0,0,0,0,0,0,0,0,0,0,0,0,0,0,0,0,0,0,0,0,0,0,0,0,0,0,0,0,0,0,0,0,0,0,0,0,0,0,0,0,0,0,0,0,0,0,0,0,0,0,0],"id":8,"left_children":[1,3,5,7,9,11,13,15,17,19,21,23,25,27,29,31,33,35,37,39,41,43,45,47,49,51,53,55,57,59,61,63,65,67,-1,69,71,73,75,77,79,81,83,85,87,89,91,93,95,97,99,101,103,105,107,109,111,113,115,117,119,121,123,-1,-1,-1,-1,-1,-1,-1,-1,-1,-1,-1,-1,-1,-1,-1,-1,-1,-1,-1,-1,-1,-1,-1,-1,-1,-1,-1,-1,-1,-1,-1,-1,-1,-1,-1,-1,-1,-1,-1,-1,-1,-1,-1,-1,-1,-1,-1,-1,-1,-1,-1,-1,-1,-1,-1,-1,-1,-1,-1,-1,-1,-1],"loss_changes":[2.3043869E1,2.0356888E1,2.1311363E1,1.7597767E1,1.8088732E1,1.4510521E1,1.2588057E1,1.0519695E1,1.9343382E1,1.289617E1,4.2814484E0,4.879841E1,2.7428925E1,1.3554729E1,6.5230412E0,9.177925E0,4.033967E0,2.694954E1,1.3233078E1,1.1657231E1,1.5087872E1,2.5377388E0,5.7120557E0,1.9441208E1,1.5550081E1,8.667469E0,2.5511744E1,1.0350277E1,7.9969068E0,6.876548E0,3.4278536E0,4.9174833E0,9.336475E0,3.9126225E0,0E0,8.0783E0,7.506233E0,7.1940784E0,1.0244269E1,1.42502575E1,1.0272722E1,2.299185E1,9.720125E0,2.3977435E0,3.6832905E0,1.7540169E0,2.1535363E0,2.0399014E1,1.5588409E1,1.1794636E1,1.2991613E1,6.0927525E0,5.7540665E0,1.1404675E1,1.2002853E1,1.1413717E1,9.52668E0,4.357643E0,4.777854E0,1.6429777E0,4.486777E0,1.12392426E-1,5.459817E0,0E0,0E0,0E0,0E0,0E0,0E0,0E0,0E0,0E0,0E0,0E0,0E0,0E0,0E0,0E0,0E0,0E0,0E0,0E0,0E0,0E0,0E0,0E0,0E0,0E0,0E0,0E0,0E0,0E0,0E0,0E0,0E0,0E0,0E0,0E0,0E0,0E0,0E0,0E0,0E0,0E0,0E0,0E0,0E0,0E0,0E0,0E0,0E0,0E0,0E0,0E0,0E0,0E0,0E0,0E0,0E0,0E0,0E0,0E0,0E0,0E0,0E0],"parents":[2147483647,0,0,1,1,2,2,3,3,4,4,5,5,6,6,7,7,8,8,9,9,10,10,11,11,12,12,13,13,14,14,15,15,16,16,17,17,18,18,19,19,20,20,21,21,22,22,23,23,24,24,25,25,26,26,27,27,28,28,29,29,30,30,31,31,32,32,33,33,35,35,36,36,37,37,38,38,39,39,40,40,41,41,42,42,43,43,44,44,45,45,46,46,47,47,48,48,49,49,50,50,51,51,52,52,53,53,54,54,55,55,56,56,57,57,58,58,59,59,60,60,61,61,62,62],"right_children":[2,4,6,8,10,12,14,16,18,20,22,24,26,28,30,32,34,36,38,40,42,44,46,48,50,52,54,56,58,60,62,64,66,68,-1,70,72,74,76,78,80,82,84,86,88,90,92,94,96,98,100,102,104,106,108,110,112,114,116,118,120,122,124,-1,-1,-1,-1,-1,-1,-1,-1,-1,-1,-1,-1,-1,-1,-1,-1,-1,-1,-1,-1,-1,-1,-1,-1,-1,-1,-1,-1,-1,-1,-1,-1,-1,-1,-1,-1,-1,-1,-1,-1,-1,-1,-1,-1,-1,-1,-1,-1,-1,-1,-1,-1,-1,-1,-1,-1,-1,-1,-1,-1,-1,-1],"split_conditions":[-2.5481248E-2,-1.2094384E0,2.2816806E0,-2.6516324E-1,4.1039796E0,1.1881273E-1,8.6860627E-1,1.222604E0,2.518867E-1,-7.8662075E-2,-9.4089454E-1,2.1434043E-1,-1.0288602E0,3.1546528E0,-1.5260121E-1,-3.1266809E-1,7.150995E-1,-5.5910137E-2,-1.4668228E-1,-1.1069905E0,5.7464745E-2,-3.477701E-1,1.772128E0,-1.0591273E0,-3.5795018E-2,5.12479E-1,-4.67737E-1,7.995799E-1,8.9955163E-1,-1.1229256E0,-1.02662705E-1,1.2520381E0,-2.0378373E0,-5.791647E-1,8.875464E-1,1.081099E-1,1.9337796E0,-2.0706056E-1,-5.169596E-1,-1.109426E-1,8.073835E-2,3.701162E-1,-2.3122126E-1,-4.1924644E-1,-3.8640907E-1,-6.79571E-2,1.1114638E0,-6.929713E-1,-7.8383857E-1,6.026276E-1,-3.9406642E-1,6.615946E-1,-8.50744E-1,9.584052E-1,-4.106059E-1,-1.8366544E-1,-5.6898797E-1,-3.7310818E-1,-2.2874841E-2,-4.0500085E-3,1.6431515E-1,1.1555651E0,2.3382828E-2,-6.4035696E-1,6.043922E-1,-9.708498E-3,3.9830512E-1,3.2783628E-1,1.2188056E-2,-5.7301563E-1,9.621076E-1,-1.4673899E-1,-6.386943E-1,8.2243544E-1,2.7768567E-1,-6.819064E-1,1.098824E-1,1.9115789E-1,2.5450906E-2,5.919939E-4,6.77768E-2,-5.2756473E-2,5.984304E-2,-1.9949628E-2,-1.05871044E-1,-4.4663185E-1,5.768118E-1,-4.6035627E-1,7.670041E-1,4.969745E-2,-8.0184877E-1,4.1527383E-2,6.825398E-1,2.4186318E-1,-4.3722495E-2,2.5591576E-1,1.18001185E-1,-1.298423E-2,-1.919683E-1,1.0899035E-1,-1.0695282E-2,-1.5375401E-1,-4.639461E-1,9.7529274E-1,-2.4610484E-2,2.4187422E-1,7.7868575E-1,-4.865336E-2,4.3274567E-2,-3.5326704E-1,1.0722593E-2,1.3354537E-1,-3.3986962E-1,6.081354E-1,-1.2838267E-1,-1.842749E-1,2.6463836E-1,8.9816805E-3,-7.5598985E-1,3.8312104E-1,-1.4824351E-2,1.0752765E0,2.8222632E-1,-1.893298E-1,6.552594E-1],"split_indices":[79,80,154,159,119,103,81,16,60,82,103,50,154,103,31,159,103,34,159,106,153,63,153,60,154,102,56,103,82,60,8,135,103,50,0,153,31,160,153,80,152,81,63,82,163,63,163,50,103,153,8,103,60,60,117,80,82,81,63,79,60,163,152,0,0,0,0,0,0,0,0,0,0,0,0,0,0,0,0,0,0,0,0,0,0,0,0,0,0,0,0,0,0,0,0,0,0,0,0,0,0,0,0,0,0,0,0,0,0,0,0,0,0,0,0,0,0,0,0,0,0,0,0,0,0],"split_type":[0,0,0,0,0,0,0,0,0,0,0,0,0,0,0,0,0,0,0,0,0,0,0,0,0,0,0,0,0,0,0,0,0,0,0,0,0,0,0,0,0,0,0,0,0,0,0,0,0,0,0,0,0,0,0,0,0,0,0,0,0,0,0,0,0,0,0,0,0,0,0,0,0,0,0,0,0,0,0,0,0,0,0,0,0,0,0,0,0,0,0,0,0,0,0,0,0,0,0,0,0,0,0,0,0,0,0,0,0,0,0,0,0,0,0,0,0,0,0,0,0,0,0,0,0],"sum_hessian":[6.8090875E4,3.2405408E4,3.568547E4,1.72709E3,3.0678318E4,3.4458062E4,1.2274072E3,7.9443195E2,9.3265796E2,3.0592783E4,8.553584E1,1.629296E4,1.8165102E4,1.0564371E3,1.7097006E2,4.9217407E2,3.0225787E2,4.5994675E2,4.7271124E2,1.7971443E4,1.262134E4,5.5007957E1,3.0527882E1,1.0791742E4,5.5012183E3,3.3275494E2,1.7832348E4,9.0723865E2,1.4919847E2,1.3080673E2,4.0163334E1,1.698333E1,4.7519077E2,2.9718494E2,5.0729384E0,2.9762312E1,4.3018442E2,1.11062744E2,3.616485E2,2.181584E3,1.578986E4,7.3325E3,5.2888394E3,7.132054E0,4.7875904E1,8.747756E0,2.1780127E1,1.5912006E3,9.200541E3,1.5148643E3,3.986354E3,2.6391327E2,6.884166E1,1.97462E2,1.7634885E4,4.9681238E2,4.1042627E2,5.11308E1,9.8067665E1,1.3965682E1,1.1684105E2,1.0045106E1,3.0118229E1,1.387812E1,3.1052094E0,6.431779E1,4.10873E2,4.5731594E1,2.5145334E2,3.1600046E0,2.6602308E1,3.972013E2,3.2983135E1,3.7161785E1,7.390096E1,1.6132828E1,3.455157E2,8.526448E2,1.3289391E3,1.3032699E4,2.757161E3,3.2800364E3,4.0524636E3,2.7885354E3,2.500304E3,3.6669943E0,3.4650595E0,1.8418499E0,4.6034054E1,3.38558E0,5.3621764E0,9.430053E0,1.2350074E1,3.0966238E2,1.2815381E3,9.11299E2,8.289242E3,8.8212787E2,6.3273645E2,1.3923417E3,2.5940122E3,1.1318633E2,1.5072694E2,5.308182E0,6.3533478E1,1.4220372E2,5.5258293E1,1.5561194E3,1.6078766E4,1.0960551E2,3.8720685E2,4.726187E1,3.631644E2,4.189047E1,9.24033E0,6.052001E1,3.7547657E1,3.3330364E0,1.0632646E1,4.538295E1,7.14581E1,8.602521E0,1.4425856E0,1.1847206E1,1.8271023E1],"tree_param":{"num_deleted":"0","num_feature":"176","num_nodes":"125","size_leaf_vector":"1"}},{"base_weights":[-4.4784542E-2,4.2749528E-2,-8.5486226E-2,-3.814279E-2,9.9974304E-2,-1.7949182E-1,-5.538336E-2,7.9611436E-2,-9.634286E-2,3.4047082E-2,1.9978978E-1,-6.643371E-2,-2.1484873E-1,9.210027E-2,-7.2809495E-2,4.4708794E-1,1.8306168E-2,-1.4022005E-1,9.668254E-2,1.8674297E-2,2.9760495E-1,1.5386795E-1,3.9196238E-1,2.4236552E-2,-2.2069585E-1,-3.2481351E-1,-1.8144934E-1,1.2048566E-1,-2.0782785E-1,-4.541953E-2,-1.7033115E-1,1.9917573E-1,6.9884753E-1,-2.1300524E-1,6.9435E-2,-2.0302046E-2,-1.8005982E-1,4.3052304E-1,1.4825906E-2,3.4186892E-2,-2.6214862E-1,8.945856E-1,1.4096648E-1,1.9267363E-2,2.0028086E-1,5.63763E-1,1.411007E-1,-2.3790729E-1,1.6090971E-1,-3.183593E-1,-5.763168E-2,8.891423E-1,-3.2960212E-1,-2.0709808E-1,-9.458708E-2,4.7606513E-2,1.9117306E-1,1.5638084E0,-2.328267E-1,-6.516924E-2,6.7115285E-2,-1.9120906E-1,-3.3355504E-3,2.0177033E0,1.3286394E-1,1.3033034E0,3.6290923E-1,-2.6673055E-1,4.0807018E-1,2.4658766E-1,-1.6686728E-3,-3.6704186E-1,5.8812823E-2,4.368265E-2,-1.9941963E-1,1.152397E0,2.5941354E-1,1.7858972E-1,-1.152767E-1,2.3167318E-2,4.158037E-1,-3.001958E-1,1.0522339E0,1.4744884E0,2.2879821E-1,1.0474555E0,6.944671E-2,2.590549E-1,-9.120121E-2,3.2260725E-1,1.12831995E-1,-2.8723657E-1,6.211403E-1,-2.9449797E-1,2.6170102E-1,-1.2015019E-1,-4.2264146E-1,-3.472593E-2,5.947974E-1,1.01618074E-1,-4.0459704E-1,8.935778E-2,-3.6149573E-1,1.8979E0,-3.1789222E-1,-2.773215E-1,-4.3565285E-1,2.2230625E-1,-2.1886349E-1,4.645888E-2,-2.7926362E-1,7.0948325E-2,-5.37272E-1,2.088726E-1,-3.4717178E-1,8.215854E-2,-3.5002115E-1,3.414282E-1,-6.868716E-2,-1.4913656E-1,1.2742831E-1,-1.000435E-1,-2.2971834E-1,-8.117058E-2,5.092305E-1],"categories":[],"categories_nodes":[],"categories_segments":[],"categories_sizes":[],"default_left":[0,0,0,0,0,0,0,0,0,0,0,0,0,0,0,0,0,0,0,0,0,0,0,0,0,0,0,0,0,0,0,0,0,0,0,0,0,0,0,0,0,0,0,0,0,0,0,0,0,0,0,0,0,0,0,0,0,0,0,0,0,0,0,0,0,0,0,0,0,0,0,0,0,0,0,0,0,0,0,0,0,0,0,0,0,0,0,0,0,0,0,0,0,0,0,0,0,0,0,0,0,0,0,0,0,0,0,0,0,0,0,0,0,0,0,0,0,0,0,0,0,0,0,0,0],"id":9,"left_children":[1,3,5,7,9,11,13,15,17,19,21,23,25,27,29,31,33,35,37,39,41,43,45,47,49,51,53,55,57,59,61,63,65,67,69,71,73,75,77,79,81,83,85,87,89,91,93,95,97,99,101,103,105,107,109,111,113,-1,115,117,119,121,123,-1,-1,-1,-1,-1,-1,-1,-1,-1,-1,-1,-1,-1,-1,-1,-1,-1,-1,-1,-1,-1,-1,-1,-1,-1,-1,-1,-1,-1,-1,-1,-1,-1,-1,-1,-1,-1,-1,-1,-1,-1,-1,-1,-1,-1,-1,-1,-1,-1,-1,-1,-1,-1,-1,-1,-1,-1,-1,-1,-1,-1,-1],"loss_changes":[1.3296411E2,5.4838898E1,7.205534E1,3.364151E1,4.5626373E1,2.46521E1,4.960161E1,3.6513195E1,2.7841919E1,1.6899193E1,2.4232613E1,2.0639393E1,1.7170135E1,1.7375952E1,4.6073616E1,1.4238781E1,1.6467918E1,1.2768551E1,1.6581272E1,1.7198727E1,2.1273594E1,1.3898525E1,2.2737656E1,3.3305187E1,8.640846E0,6.5973816E0,7.996826E0,9.568119E0,8.0415745E0,2.995794E1,1.3171059E1,1.3793772E1,2.2592472E1,8.501697E0,1.4402834E1,1.8417837E1,8.727013E0,1.4329405E1,1.0468226E1,1.5697586E1,1.0573211E1,1.7822529E1,1.171093E1,1.5222824E1,1.7642609E1,1.5574463E1,1.1496178E1,6.821892E0,5.1966663E1,1.2419338E1,9.26767E0,6.2251234E0,5.854767E0,1.4126747E1,2.1553913E1,1.2546682E1,9.063522E0,0E0,6.509218E0,1.639758E1,2.6257175E1,1.1748764E1,1.6834393E1,0E0,0E0,0E0,0E0,0E0,0E0,0E0,0E0,0E0,0E0,0E0,0E0,0E0,0E0,0E0,0E0,0E0,0E0,0E0,0E0,0E0,0E0,0E0,0E0,0E0,0E0,0E0,0E0,0E0,0E0,0E0,0E0,0E0,0E0,0E0,0E0,0E0,0E0,0E0,0E0,0E0,0E0,0E0,0E0,0E0,0E0,0E0,0E0,0E0,0E0,0E0,0E0,0E0,0E0,0E0,0E0,0E0,0E0,0E0,0E0,0E0,0E0],"parents":[2147483647,0,0,1,1,2,2,3,3,4,4,5,5,6,6,7,7,8,8,9,9,10,10,11,11,12,12,13,13,14,14,15,15,16,16,17,17,18,18,19,19,20,20,21,21,22,22,23,23,24,24,25,25,26,26,27,27,28,28,29,29,30,30,31,31,32,32,33,33,34,34,35,35,36,36,37,37,38,38,39,39,40,40,41,41,42,42,43,43,44,44,45,45,46,46,47,47,48,48,49,49,50,50,51,51,52,52,53,53,54,54,55,55,56,56,58,58,59,59,60,60,61,61,62,62],"right_children":[2,4,6,8,10,12,14,16,18,20,22,24,26,28,30,32,34,36,38,40,42,44,46,48,50,52,54,56,58,60,62,64,66,68,70,72,74,76,78,80,82,84,86,88,90,92,94,96,98,100,102,104,106,108,110,112,114,-1,116,118,120,122,124,-1,-1,-1,-1,-1,-1,-1,-1,-1,-1,-1,-1,-1,-1,-1,-1,-1,-1,-1,-1,-1,-1,-1,-1,-1,-1,-1,-1,-1,-1,-1,-1,-1,-1,-1,-1,-1,-1,-1,-1,-1,-1,-1,-1,-1,-1,-1,-1,-1,-1,-1,-1,-1,-1,-1,-1,-1,-1,-1,-1,-1,-1],"split_conditions":[-4.4357055E-1,-1.8580979E-1,-4.2280525E-1,-7.5785205E-2,-1.5790385E-1,-2.7698347E-1,-1.7124779E0,-1.4069476E0,6.8538153E-1,7.4920094E-1,9.288745E-1,-9.605186E-2,-8.6509675E-1,2.74882E0,1.1586808E0,-1.4892499E-1,-8.39012E-1,-1.18378446E-1,-8.207659E-1,5.212105E-1,-3.584269E-1,-4.2243678E-2,4.1490182E-1,-1.00889005E-1,7.055003E-1,-1.1085777E0,5.3664315E-2,-1.4701412E0,-3.0863407E-1,1.4823561E0,6.5389514E-1,-1.5381318E0,1.1943172E-2,6.658691E-1,-9.682665E-1,-2.9898375E-1,-4.339098E-1,-2.9319713E-1,-2.1931374E-1,1.8952453E0,3.605983E0,1.6675082E0,-3.1266809E-1,-5.8508158E-2,-1.0514544E0,-5.4433805E-1,6.5389514E-1,4.7714332E-1,4.999999E-1,-8.299621E-1,4.674096E-1,-2.0205845E-1,2.632894E-1,-4.2530218E-1,5.162193E-1,2.756601E-2,9.4944906E-1,1.5638084E0,-8.4816605E-1,-4.7148094E-1,-2.586512E-1,-2.4781026E-1,2.6676953E0,2.0177033E0,1.3286394E-1,1.3033034E0,3.6290923E-1,-2.6673055E-1,4.0807018E-1,2.4658766E-1,-1.6686728E-3,-3.6704186E-1,5.8812823E-2,4.368265E-2,-1.9941963E-1,1.152397E0,2.5941354E-1,1.7858972E-1,-1.152767E-1,2.3167318E-2,4.158037E-1,-3.001958E-1,1.0522339E0,1.4744884E0,2.2879821E-1,1.0474555E0,6.944671E-2,2.590549E-1,-9.120121E-2,3.2260725E-1,1.12831995E-1,-2.8723657E-1,6.211403E-1,-2.9449797E-1,2.6170102E-1,-1.2015019E-1,-4.2264146E-1,-3.472593E-2,5.947974E-1,1.01618074E-1,-4.0459704E-1,8.935778E-2,-3.6149573E-1,1.8979E0,-3.1789222E-1,-2.773215E-1,-4.3565285E-1,2.2230625E-1,-2.1886349E-1,4.645888E-2,-2.7926362E-1,7.0948325E-2,-5.37272E-1,2.088726E-1,-3.4717178E-1,8.215854E-2,-3.5002115E-1,3.414282E-1,-6.868716E-2,-1.4913656E-1,1.2742831E-1,-1.000435E-1,-2.2971834E-1,-8.117058E-2,5.092305E-1],"split_indices":[164,50,50,80,159,157,103,164,105,117,105,105,50,164,164,34,50,103,50,80,105,153,159,105,105,105,159,127,157,153,157,120,30,105,127,157,12,157,32,107,105,34,159,50,164,153,157,164,164,127,102,30,107,147,157,21,21,0,119,134,157,157,103,0,0,0,0,0,0,0,0,0,0,0,0,0,0,0,0,0,0,0,0,0,0,0,0,0,0,0,0,0,0,0,0,0,0,0,0,0,0,0,0,0,0,0,0,0,0,0,0,0,0,0,0,0,0,0,0,0,0,0,0,0,0],"split_type":[0,0,0,0,0,0,0,0,0,0,0,0,0,0,0,0,0,0,0,0,0,0,0,0,0,0,0,0,0,0,0,0,0,0,0,0,0,0,0,0,0,0,0,0,0,0,0,0,0,0,0,0,0,0,0,0,0,0,0,0,0,0,0,0,0,0,0,0,0,0,0,0,0,0,0,0,0,0,0,0,0,0,0,0,0,0,0,0,0,0,0,0,0,0,0,0,0,0,0,0,0,0,0,0,0,0,0,0,0,0,0,0,0,0,0,0,0,0,0,0,0,0,0,0,0],"sum_hessian":[3.7317062E4,1.1843539E4,2.5473523E4,4.906438E3,6.937101E3,6.1766665E3,1.9296855E4,1.6222032E3,3.2842346E3,4.179152E3,2.7579492E3,1.4728268E3,4.70384E3,2.0380538E3,1.7258803E4,2.308023E2,1.391401E3,2.6766E3,6.076344E2,3.9501953E3,2.2895645E2,2.2278904E3,5.300588E2,9.277312E2,5.450956E2,1.0931179E3,3.610722E3,1.8626985E3,1.753553E2,1.3476327E4,3.7824749E3,1.1739232E2,1.13409996E2,2.509516E2,1.1404493E3,6.6848236E2,2.0081177E3,1.1857249E2,4.8906192E2,3.7445798E3,2.0561539E2,4.647631E1,1.8248013E2,5.7215936E2,1.655731E3,3.1362753E2,2.1643126E2,3.174256E2,6.103056E2,3.3993433E2,2.0516125E2,3.487328E0,1.0896306E3,2.7856409E3,8.2508093E2,9.186514E2,9.4404706E2,1.5277841E0,1.7382751E2,1.1465464E4,2.0108636E3,3.3614768E3,4.2099805E2,3.041693E0,1.14350624E2,3.937859E1,7.40314E1,2.31645E2,1.9306599E1,3.263347E2,8.141147E2,1.2374871E2,5.4473364E2,1.5940811E2,1.8487096E3,2.1509459E1,9.706303E1,2.1669623E2,2.723657E2,3.6407717E3,1.0380824E2,2.0065475E2,4.9606295E0,2.4110844E1,2.2365467E1,1.2244266E1,1.7023587E2,1.8031674E2,3.9184262E2,6.8862573E2,9.671053E2,1.944704E1,2.9418048E2,4.6436222E1,1.6999504E2,1.951932E2,1.222324E2,4.2111743E2,1.8918819E2,5.7682575E1,2.8225174E2,1.3852756E2,6.66337E1,1.6330321E0,1.854296E0,7.3289014E2,3.5674045E2,7.35854E1,2.7120554E3,4.6791763E2,3.5716327E2,8.844055E2,3.4245914E1,9.1476935E2,2.927773E1,4.6986607E1,1.2684091E2,9.728178E1,1.1368182E4,4.3784467E2,1.5730189E3,1.00009076E3,2.361386E3,3.6639618E2,5.460186E1],"tree_param":{"num_deleted":"0","num_feature":"176","num_nodes":"125","size_leaf_vector":"1"}},{"base_weights":[6.743183E-3,-3.62386E-3,2.1645415E-1,1.4136761E-2,-9.649462E-2,2.2826575E-1,-3.7978345E-1,-1.8519126E-1,1.9100316E-2,-1.1877743E-1,5.0637376E-2,2.685184E-1,1.2954487E-1,-7.568846E-1,-1.4920205E-1,-2.8326884E-1,-8.694074E-2,2.7704578E-2,-5.357079E-2,-2.0060012E-1,-7.391482E-2,1.17552936E-1,-1.2125042E-1,2.4434543E-1,4.5068163E-1,8.703748E-2,3.2783136E-1,-7.928279E-1,-1.6926548E-1,3.87183E-1,-4.0190372E-1,-6.483753E-1,-2.6009887E-1,9.3302315E-1,-1.1771362E-1,4.0324256E-2,-1.4207485E-2,1.4723602E-1,-6.7280896E-2,-4.927996E-1,-1.606283E-1,4.2531732E-1,-7.879253E-2,8.02772E-2,4.4086713E-1,-2.4141558E-1,5.0463974E-2,2.561554E-1,-8.600711E-2,-2.8937295E-1,5.385596E-1,1.065051E-1,-4.162148E-1,5.375297E-1,1.3807152E-1,-4.6031502E-1,6.860697E-1,2.94981E-1,-4.9945495E-1,-6.7871106E-1,1.02465525E-1,-2.1679656E-1,-4.4189787E-1,1.1415842E0,-4.418565E-1,-1.4438182E-1,4.3583617E-1,8.9172535E-2,2.637625E-2,-5.245867E-2,4.4732913E-2,1.7414252E-1,-4.533475E-1,-3.5798077E-2,-1.4069317E-1,-6.427072E-1,-1.16798945E-1,-1.4624012E-1,-6.278598E-1,5.119513E-1,-1.5429471E-1,-6.8395816E-2,-2.7342904E-1,1.04028545E-1,-2.1819714E-1,6.800747E-1,3.0172032E-1,-5.8829844E-1,-1.9753335E-1,1.1449413E-1,-5.5188453E-1,3.3892623E-1,2.1807738E-1,-4.896737E-1,1.2003733E-1,-5.359813E-1,1.011016E-2,1.7120372E-1,6.2946E-1,-1.60771E-2,1.8534409E-1,1.326375E-1,-5.6107885E-1,5.937458E-1,-4.258623E-1,-7.455901E-1,2.614189E-1,-3.4089398E-1,8.60875E-1,-2.7112186E-1,6.053442E-1,9.482159E-3,-5.5058384E-1],"categories":[],"categories_nodes":[],"categories_segments":[],"categories_sizes":[],"default_left":[0,0,0,0,0,0,0,0,0,0,0,0,0,0,0,0,0,0,0,0,0,0,0,0,0,0,0,0,0,0,0,0,0,0,0,0,0,0,0,0,0,0,0,0,0,0,0,0,0,0,0,0,0,0,0,0,0,0,0,0,0,0,0,0,0,0,0,0,0,0,0,0,0,0,0,0,0,0,0,0,0,0,0,0,0,0,0,0,0,0,0,0,0,0,0,0,0,0,0,0,0,0,0,0,0,0,0,0,0,0,0,0,0],"id":10,"left_children":[1,3,5,7,9,11,13,15,17,19,21,23,25,27,29,31,33,35,37,39,41,43,45,47,49,51,53,-1,-1,55,57,59,61,63,65,67,69,71,73,75,77,79,81,83,85,87,89,91,93,95,97,99,101,103,105,-1,107,109,111,-1,-1,-1,-1,-1,-1,-1,-1,-1,-1,-1,-1,-1,-1,-1,-1,-1,-1,-1,-1,-1,-1,-1,-1,-1,-1,-1,-1,-1,-1,-1,-1,-1,-1,-1,-1,-1,-1,-1,-1,-1,-1,-1,-1,-1,-1,-1,-1,-1,-1,-1,-1,-1,-1],"loss_changes":[1.5839307E2,1.1450409E2,2.4240921E1,5.763822E1,3.655081E1,1.3301315E1,5.611619E0,1.3577057E1,3.5549892E1,3.548987E1,1.6875183E1,1.0342102E1,8.169832E0,2.969017E-1,5.973506E0,5.7243805E0,2.228221E1,2.6892677E1,1.6570524E1,3.9875854E1,1.5228638E1,1.2640365E1,8.508792E0,8.27964E0,1.8277416E1,7.9176984E0,6.694517E0,0E0,0E0,3.9162657E0,2.1927228E0,1.0674915E0,5.0897217E0,6.533449E0,1.0208321E1,2.6609863E1,2.6525455E1,6.2640753E0,1.3000429E1,2.3045586E1,2.0105736E1,3.151372E0,1.2482735E1,6.7348304E0,3.3138256E0,3.4922934E0,6.561784E0,6.2993927E0,6.197312E0,2.2784476E0,8.133568E0,7.5362043E0,2.5073128E0,4.6573315E0,1.015063E1,0E0,2.3077645E0,9.285147E-1,7.521796E-1,0E0,0E0,0E0,0E0,0E0,0E0,0E0,0E0,0E0,0E0,0E0,0E0,0E0,0E0,0E0,0E0,0E0,0E0,0E0,0E0,0E0,0E0,0E0,0E0,0E0,0E0,0E0,0E0,0E0,0E0,0E0,0E0,0E0,0E0,0E0,0E0,0E0,0E0,0E0,0E0,0E0,0E0,0E0,0E0,0E0,0E0,0E0,0E0,0E0,0E0,0E0,0E0,0E0,0E0],"parents":[2147483647,0,0,1,1,2,2,3,3,4,4,5,5,6,6,7,7,8,8,9,9,10,10,11,11,12,12,13,13,14,14,15,15,16,16,17,17,18,18,19,19,20,20,21,21,22,22,23,23,24,24,25,25,26,26,29,29,30,30,31,31,32,32,33,33,34,34,35,35,36,36,37,37,38,38,39,39,40,40,41,41,42,42,43,43,44,44,45,45,46,46,47,47,48,48,49,49,50,50,51,51,52,52,53,53,54,54,56,56,57,57,58,58],"right_children":[2,4,6,8,10,12,14,16,18,20,22,24,26,28,30,32,34,36,38,40,42,44,46,48,50,52,54,-1,-1,56,58,60,62,64,66,68,70,72,74,76,78,80,82,84,86,88,90,92,94,96,98,100,102,104,106,-1,108,110,112,-1,-1,-1,-1,-1,-1,-1,-1,-1,-1,-1,-1,-1,-1,-1,-1,-1,-1,-1,-1,-1,-1,-1,-1,-1,-1,-1,-1,-1,-1,-1,-1,-1,-1,-1,-1,-1,-1,-1,-1,-1,-1,-1,-1,-1,-1,-1,-1,-1,-1,-1,-1,-1,-1],"split_conditions":[1.7540329E0,6.8538153E-1,3.0231645E0,-1.8590503E0,9.900627E-1,7.962839E-2,4.072099E-2,-3.5403416E-1,7.6288646E-1,-2.652593E-1,2.4013257E-1,1.2679384E0,2.2735322E0,2.1597874E0,-8.750428E-2,9.8108925E-2,-3.4785256E-1,-3.814371E-2,-1.7666444E0,-7.097036E-1,-1.0908546E0,1.5070286E0,1.2460667E0,3.4827712E0,-3.892494E-1,2.9471965E0,9.975929E-2,-7.928279E-1,-1.6926548E-1,-3.4970996E-1,-2.844988E-1,-3.424355E-1,-3.624069E-1,3.2349715E0,1.1074872E0,-7.989987E-1,1.7803104E-1,1.8941973E0,7.093677E-1,9.584052E-1,-2.4615224E-1,4.5628616E-1,3.0231645E0,2.0859313E0,-1.9766153E-1,-7.72872E-1,4.796232E0,-1.2416812E0,2.1264222E0,-1.6716257E-1,2.6985747E-1,-6.0970944E-1,-2.500365E-1,2.2229757E0,1.2359668E-1,-4.6031502E-1,2.021079E-1,1.2899692E0,3.1692696E-1,-6.7871106E-1,1.02465525E-1,-2.1679656E-1,-4.4189787E-1,1.1415842E0,-4.418565E-1,-1.4438182E-1,4.3583617E-1,8.9172535E-2,2.637625E-2,-5.245867E-2,4.4732913E-2,1.7414252E-1,-4.533475E-1,-3.5798077E-2,-1.4069317E-1,-6.427072E-1,-1.16798945E-1,-1.4624012E-1,-6.278598E-1,5.119513E-1,-1.5429471E-1,-6.8395816E-2,-2.7342904E-1,1.04028545E-1,-2.1819714E-1,6.800747E-1,3.0172032E-1,-5.8829844E-1,-1.9753335E-1,1.1449413E-1,-5.5188453E-1,3.3892623E-1,2.1807738E-1,-4.896737E-1,1.2003733E-1,-5.359813E-1,1.011016E-2,1.7120372E-1,6.2946E-1,-1.60771E-2,1.8534409E-1,1.326375E-1,-5.6107885E-1,5.937458E-1,-4.258623E-1,-7.455901E-1,2.614189E-1,-3.4089398E-1,8.60875E-1,-2.7112186E-1,6.053442E-1,9.482159E-3,-5.5058384E-1],"split_indices":[156,105,105,105,156,16,60,147,13,135,155,105,156,83,158,49,9,105,156,13,49,118,120,155,118,49,9,0,0,9,16,135,32,49,32,156,156,60,102,60,55,124,105,105,161,83,105,118,156,26,49,124,34,105,32,0,102,82,60,0,0,0,0,0,0,0,0,0,0,0,0,0,0,0,0,0,0,0,0,0,0,0,0,0,0,0,0,0,0,0,0,0,0,0,0,0,0,0,0,0,0,0,0,0,0,0,0,0,0,0,0,0,0],"split_type":[0,0,0,0,0,0,0,0,0,0,0,0,0,0,0,0,0,0,0,0,0,0,0,0,0,0,0,0,0,0,0,0,0,0,0,0,0,0,0,0,0,0,0,0,0,0,0,0,0,0,0,0,0,0,0,0,0,0,0,0,0,0,0,0,0,0,0,0,0,0,0,0,0,0,0,0,0,0,0,0,0,0,0,0,0,0,0,0,0,0,0,0,0,0,0,0,0,0,0,0,0,0,0,0,0,0,0,0,0,0,0,0,0],"sum_hessian":[7.284398E4,6.9413055E4,3.430922E3,5.8269375E4,1.1143675E4,3.3650447E3,6.587739E1,1.414366E3,5.685501E4,9.678727E3,1.4649491E3,2.3884434E3,9.7660144E2,2.3966127E1,4.191126E1,7.063542E2,7.080117E2,5.083781E4,6.017203E3,3.4254744E3,6.2532515E3,1.0550991E3,4.0985E2,2.1111812E3,2.772622E2,8.05802E2,1.7079942E2,2.2095215E1,1.8709128E0,1.3124747E1,2.8786512E1,4.028317E1,6.66071E2,1.9781652E1,6.882301E2,3.907484E4,1.1762968E4,3.8348013E2,5.633723E3,4.1053998E2,3.0149346E3,5.947334E1,6.1937783E3,9.4742554E2,1.07673584E2,2.4122089E2,1.6862912E2,2.0388213E3,7.235975E1,2.9064869E1,2.4819734E2,7.767419E2,2.9060116E1,8.0016136E1,9.078329E1,3.1938531E0,9.930894E0,3.1603928E0,2.562612E1,3.8939182E1,1.3439878E0,5.401552E2,1.259158E2,1.7386623E1,2.395029E0,6.574749E2,3.0755154E1,8.676323E3,3.0398518E4,7.1345737E3,4.6283945E3,3.6787564E2,1.5604505E1,3.9448333E3,1.6888899E3,2.9282025E2,1.17719734E2,2.926346E3,8.858848E1,5.199149E1,7.4818497E0,5.8814785E3,3.1229996E2,8.785043E2,6.892123E1,3.790496E1,6.976862E1,2.543956E1,2.1578133E2,1.5330826E2,1.5320861E1,6.390912E2,1.3997302E3,2.4151924E1,4.8207825E1,1.56895685E1,1.33753E1,5.0022938E1,1.9817441E2,3.038424E2,4.7289944E2,5.9419E0,2.3118217E1,7.6065056E1,3.9510798E0,1.0402727E1,8.038056E1,1.2231002E0,8.707794E0,1.0497962E0,2.1105967E0,2.2352397E0,2.339088E1],"tree_param":{"num_deleted":"0","num_feature":"176","num_nodes":"113","size_leaf_vector":"1"}},{"base_weights":[1.724839E-2,-1.1203523E-2,6.949462E-2,-2.3421928E-2,8.16564E-2,1.942405E-2,1.2670453E-1,6.6754203E-3,-5.4278627E-2,2.86282E-2,1.6491592E-1,4.4696134E-2,-9.94256E-2,2.2864373E-1,5.753465E-2,9.189265E-2,-1.7607141E-2,-1.05490245E-1,-2.4178814E-2,9.883476E-2,-8.3485484E-2,4.6041596E-1,1.1181326E-1,1.5056773E-2,1.3476163E-1,-1.7194462E-1,6.107424E-2,2.5818145E-1,5.0552875E-2,7.1366257E-3,1.8854116E-1,-4.71446E-2,1.2866358E-1,1.8316874E-2,-4.8709054E-2,-1.2411526E-1,4.403592E-2,-1.21069774E-1,-6.104543E-5,1.14213854E-1,-3.0040082E-1,3.895448E-2,-1.6561152E-1,6.626229E-1,2.3082691E-1,9.8729566E-2,8.489865E-1,4.2509343E-2,-1.1697432E-1,2.7452E-1,6.7138664E-2,-1.3347523E-1,-4.1196305E-1,-6.75531E-2,2.821986E-1,3.1686062E-1,1.7631231E-1,-5.4479014E-2,2.5204763E-1,8.626091E-1,2.7537283E-3,3.2142818E-1,4.749152E-2,-1.03690356E-1,3.3906263E-1,2.8285733E-1,9.339045E-2,6.66553E-2,-9.341274E-2,-6.423507E-2,1.1786545E-1,-7.8805305E-2,-1.9341587E-1,-1.9541524E-1,1.4242195E-1,6.331483E-2,-1.4749129E-1,1.2746929E-1,-1.2413592E-2,1.3595304E-1,-1.334804E-1,4.1038606E-1,-4.5191914E-1,1.9689274E-3,4.0042147E-1,-4.9338046E-1,-1.3130352E-1,8.9296323E-1,3.479207E-1,-3.1314483E-1,3.39616E-1,-3.5793972E-1,1.1284558E-1,1.0497837E0,-1.7315353E-1,2.8355667E-1,2.5106601E-2,-1.404637E-1,5.7494414E-1,6.0406625E-1,1.4041264E-1,-3.029397E-1,9.26247E-2,7.553129E-1,-1.4206167E-1,2.3967187E-1,-4.9229616E-1,4.6769597E-2,-4.731344E-1,2.6814135E-2,3.8794133E-1,-6.472461E-4,3.4054276E-1,5.266063E-1,1.588723E-1,3.5054916E-1,-1.01896256E-1,6.2118447E-1,1.18670925E-1,1.1013988E0,-2.3297581E-1,4.564581E-2,-6.3872345E-2,8.8029486E-1,2.9136586E-1,-1.7989086E-1,1.2300111E-1],"categories":[],"categories_nodes":[],"categories_segments":[],"categories_sizes":[],"default_left":[0,0,0,0,0,0,0,0,0,0,0,0,0,0,0,0,0,0,0,0,0,0,0,0,0,0,0,0,0,0,0,0,0,0,0,0,0,0,0,0,0,0,0,0,0,0,0,0,0,0,0,0,0,0,0,0,0,0,0,0,0,0,0,0,0,0,0,0,0,0,0,0,0,0,0,0,0,0,0,0,0,0,0,0,0,0,0,0,0,0,0,0,0,0,0,0,0,0,0,0,0,0,0,0,0,0,0,0,0,0,0,0,0,0,0,0,0,0,0,0,0,0,0,0,0,0,0],"id":11,"left_children":[1,3,5,7,9,11,13,15,17,19,21,23,25,27,29,31,33,35,37,39,41,43,45,47,49,51,53,55,57,59,61,63,65,67,69,71,73,75,77,79,81,83,85,87,89,91,93,95,97,99,101,103,105,107,109,111,113,115,117,119,121,123,125,-1,-1,-1,-1,-1,-1,-1,-1,-1,-1,-1,-1,-1,-1,-1,-1,-1,-1,-1,-1,-1,-1,-1,-1,-1,-1,-1,-1,-1,-1,-1,-1,-1,-1,-1,-1,-1,-1,-1,-1,-1,-1,-1,-1,-1,-1,-1,-1,-1,-1,-1,-1,-1,-1,-1,-1,-1,-1,-1,-1,-1,-1,-1,-1],"loss_changes":[1.0169867E2,5.0247837E1,6.907802E1,3.635646E1,2.2710617E1,3.86405E1,7.9330826E1,4.1010117E1,2.9779247E1,2.4785727E1,3.1315746E1,2.8307846E1,2.6274628E1,2.3888535E1,4.4269653E1,2.248388E1,1.7232817E1,1.993583E1,2.8441349E1,1.1906275E1,1.2207283E1,1.3891556E1,1.6209631E1,2.8941153E1,2.476791E1,1.4241718E1,2.0014975E1,1.8638123E1,1.376756E1,1.8081282E1,3.486888E1,2.0089764E1,1.8844936E1,3.864415E1,2.138127E1,1.9934692E1,1.8692898E1,1.1836449E1,1.5351544E1,1.0064825E1,7.9296174E0,6.468787E0,8.038454E0,1.124395E1,8.650602E0,1.0786335E1,6.296707E0,2.7699245E1,2.2371653E1,3.765216E1,1.6717384E1,1.0283033E1,1.1338631E1,2.0675869E1,6.9357224E0,1.7108261E1,9.817211E0,8.213164E0,1.08251095E1,6.774519E0,1.3782545E1,1.57343445E1,1.5560431E1,0E0,0E0,0E0,0E0,0E0,0E0,0E0,0E0,0E0,0E0,0E0,0E0,0E0,0E0,0E0,0E0,0E0,0E0,0E0,0E0,0E0,0E0,0E0,0E0,0E0,0E0,0E0,0E0,0E0,0E0,0E0,0E0,0E0,0E0,0E0,0E0,0E0,0E0,0E0,0E0,0E0,0E0,0E0,0E0,0E0,0E0,0E0,0E0,0E0,0E0,0E0,0E0,0E0,0E0,0E0,0E0,0E0,0E0,0E0,0E0,0E0,0E0,0E0,0E0],"parents":[2147483647,0,0,1,1,2,2,3,3,4,4,5,5,6,6,7,7,8,8,9,9,10,10,11,11,12,12,13,13,14,14,15,15,16,16,17,17,18,18,19,19,20,20,21,21,22,22,23,23,24,24,25,25,26,26,27,27,28,28,29,29,30,30,31,31,32,32,33,33,34,34,35,35,36,36,37,37,38,38,39,39,40,40,41,41,42,42,43,43,44,44,45,45,46,46,47,47,48,48,49,49,50,50,51,51,52,52,53,53,54,54,55,55,56,56,57,57,58,58,59,59,60,60,61,61,62,62],"right_children":[2,4,6,8,10,12,14,16,18,20,22,24,26,28,30,32,34,36,38,40,42,44,46,48,50,52,54,56,58,60,62,64,66,68,70,72,74,76,78,80,82,84,86,88,90,92,94,96,98,100,102,104,106,108,110,112,114,116,118,120,122,124,126,-1,-1,-1,-1,-1,-1,-1,-1,-1,-1,-1,-1,-1,-1,-1,-1,-1,-1,-1,-1,-1,-1,-1,-1,-1,-1,-1,-1,-1,-1,-1,-1,-1,-1,-1,-1,-1,-1,-1,-1,-1,-1,-1,-1,-1,-1,-1,-1,-1,-1,-1,-1,-1,-1,-1,-1,-1,-1,-1,-1,-1,-1,-1,-1],"split_conditions":[-9.605186E-2,8.5661215E-1,2.256261E-2,-1.00889005E-1,7.6288646E-1,1.0574046E0,-3.3237886E-1,-4.597354E-1,-4.5189518E-1,1.334614E0,9.8108925E-2,9.8144716E-1,1.968847E0,-1.5522374E-2,1.0899918E0,-8.50744E-1,-7.697962E-1,1.0660167E0,-7.3915195E-1,1.974345E0,1.2807329E0,-3.1113452E-1,1.9997522E0,1.6626218E-1,-2.4271779E-1,1.1490425E0,-1.900444E-1,2.194356E-1,1.0574046E0,-1.9709575E0,7.3075485E-1,8.4926575E-1,-3.8261315E-1,1.2234814E0,1.3429246E0,3.0127002E-2,-2.1992445E0,-1.8348636E-1,-6.546124E-1,1.3892682E0,-4.158041E-1,1.173132E0,4.0057704E-2,-1.0850302E-1,-2.6365042E-1,-5.1674753E-1,5.0677276E-1,-4.1416207E-1,1.742482E0,-5.604021E-1,-2.2031103E-1,-4.8341355E-1,1.8118042E-2,-2.5984573E-1,-1.6935883E-1,-6.8511623E-1,-4.233383E-1,-5.022116E-1,-2.867709E-1,1.2297196E0,5.9669673E-1,-2.3430865E0,-1.0850302E-1,-1.03690356E-1,3.3906263E-1,2.8285733E-1,9.339045E-2,6.66553E-2,-9.341274E-2,-6.423507E-2,1.1786545E-1,-7.8805305E-2,-1.9341587E-1,-1.9541524E-1,1.4242195E-1,6.331483E-2,-1.4749129E-1,1.2746929E-1,-1.2413592E-2,1.3595304E-1,-1.334804E-1,4.1038606E-1,-4.5191914E-1,1.9689274E-3,4.0042147E-1,-4.9338046E-1,-1.3130352E-1,8.9296323E-1,3.479207E-1,-3.1314483E-1,3.39616E-1,-3.5793972E-1,1.1284558E-1,1.0497837E0,-1.7315353E-1,2.8355667E-1,2.5106601E-2,-1.404637E-1,5.7494414E-1,6.0406625E-1,1.4041264E-1,-3.029397E-1,9.26247E-2,7.553129E-1,-1.4206167E-1,2.3967187E-1,-4.9229616E-1,4.6769597E-2,-4.731344E-1,2.6814135E-2,3.8794133E-1,-6.472461E-4,3.4054276E-1,5.266063E-1,1.588723E-1,3.5054916E-1,-1.01896256E-1,6.2118447E-1,1.18670925E-1,1.1013988E0,-2.3297581E-1,4.564581E-2,-6.3872345E-2,8.8029486E-1,2.9136586E-1,-1.7989086E-1,1.2300111E-1],"split_indices":[105,104,164,105,13,107,154,50,83,175,49,105,105,49,164,60,107,49,154,60,128,30,32,50,30,60,32,60,107,107,175,164,12,154,60,164,107,107,107,49,117,60,80,50,34,154,60,34,13,49,30,12,80,32,49,104,12,80,146,105,83,122,50,0,0,0,0,0,0,0,0,0,0,0,0,0,0,0,0,0,0,0,0,0,0,0,0,0,0,0,0,0,0,0,0,0,0,0,0,0,0,0,0,0,0,0,0,0,0,0,0,0,0,0,0,0,0,0,0,0,0,0,0,0,0,0,0],"split_type":[0,0,0,0,0,0,0,0,0,0,0,0,0,0,0,0,0,0,0,0,0,0,0,0,0,0,0,0,0,0,0,0,0,0,0,0,0,0,0,0,0,0,0,0,0,0,0,0,0,0,0,0,0,0,0,0,0,0,0,0,0,0,0,0,0,0,0,0,0,0,0,0,0,0,0,0,0,0,0,0,0,0,0,0,0,0,0,0,0,0,0,0,0,0,0,0,0,0,0,0,0,0,0,0,0,0,0,0,0,0,0,0,0,0,0,0,0,0,0,0,0,0,0,0,0,0,0],"sum_hessian":[6.840917E4,4.4289277E4,2.4119896E4,3.9140977E4,5.1483013E3,1.2864164E4,1.1255732E4,1.9813049E4,1.9327928E4,3.1467034E3,2.0015981E3,1.060961E4,2.254553E3,4.5485493E3,6.7071826E3,4.3940166E3,1.5419031E4,7.1526426E3,1.2175284E4,1.9356149E3,1.2110884E3,3.0344818E2,1.69815E3,7.9843457E3,2.625265E3,1.5532817E3,7.012712E2,3.9005945E3,6.479547E2,4.845098E3,1.8620847E3,9.183971E2,3.4756196E3,7.153562E3,8.265469E3,6.3611367E3,7.9150586E2,2.42498E3,9.750305E3,1.8647467E3,7.0868164E1,4.859315E2,7.251569E2,1.6011115E2,1.4333705E2,1.6697834E3,2.8366526E1,6.6111562E3,1.3731896E3,8.545674E2,1.7706975E3,1.3404167E3,2.1286502E2,4.4351953E2,2.5775165E2,2.2697063E3,1.6308882E3,4.260853E2,2.2186943E2,2.358227E1,4.8215156E3,9.577615E2,9.043232E2,8.019689E2,1.1642822E2,6.4522327E2,2.8303965E3,4.9941875E3,2.1593745E3,7.5618604E3,7.0360846E2,3.8484998E3,2.5126367E3,2.2992168E2,5.615842E2,3.032869E2,2.1216929E3,8.5947595E2,8.890829E3,1.7150758E3,1.4967082E2,1.2036293E1,5.8831867E1,4.4198895E2,4.394252E1,6.7166985E1,6.579899E2,9.120218E1,6.890896E1,2.3422285E1,1.19914764E2,4.9124E1,1.6206594E3,2.3768118E1,4.598407E0,4.4374567E2,6.1674106E3,1.3290134E3,4.417609E1,2.459461E2,6.086213E2,1.1313105E2,1.6575664E3,1.1882084E1,1.3285347E3,2.3007524E1,1.898575E2,3.4649097E2,9.7028564E1,7.611699E1,1.8163464E2,1.5731584E2,2.1123906E3,7.5689354E1,1.5551989E3,4.3763638E1,3.8232166E2,5.771866E1,1.6415077E2,1.9432747E1,4.1495223E0,2.9343047E3,1.8872109E3,4.7276165E1,9.1048535E2,2.247689E2,6.7955426E2],"tree_param":{"num_deleted":"0","num_feature":"176","num_nodes":"127","size_leaf_vector":"1"}},{"base_weights":[-2.5356319E-2,-1.07157975E-1,-1.2912175E-2,-2.331639E-1,-7.569948E-2,-3.868287E-2,2.766898E-2,-6.490655E-2,-3.291019E-1,1.4293116E0,-8.251931E-2,-1.7981341E-1,-3.0995585E-2,7.7236556E-2,-1.6202087E-2,-3.3366024E-1,1.1094942E-1,5.479749E-1,-3.373151E-1,1.5228689E-1,3.0963004E0,2.6156375E0,-8.422245E-2,6.8803854E-2,-2.1668114E-1,-2.1901581E-2,-1.1125347E-1,1.1865695E-2,1.0927336E-1,-9.082608E-2,2.2851469E-3,-5.0825375E-1,-1.2974054E-1,1.259749E0,1.7930655E-2,1.8298674E0,-3.895377E-1,-5.168654E-1,-3.0718252E-1,1.5077444E0,-3.469076E-1,4.4318447E0,8.3525795E-1,-1.888741E-2,-1.4400555E-1,-7.891E-2,7.1188885E-1,-2.9233405E-1,-1.2161405E-1,6.2455866E-2,-3.535441E-2,7.457598E-1,-1.17653586E-1,-1.03724144E-1,4.9621787E-2,1.5381886E-1,6.655655E-2,1.9691451E-1,-1.0456118E-1,3.266331E-2,-7.954587E-2,-3.3139773E-2,-5.3527963E-1,1.3118182E-1,-4.0582874E-1,-3.799841E-1,1.6660516E0,1.1080792E0,-3.8162466E-2,-5.2862626E-1,-2.7993348E-1,2.3576282E-1,-3.2602814E-1,-4.5256683E-1,1.4848214E-1,-2.9774556E-1,1.8792323E0,1.8166915E-2,-2.4220617E-1,1.18820615E-1,-1.683234E-1,6.130509E-1,-1.650676E-1,1.9233478E0,3.9484534E-1,-3.4349954E-1,-1.1326492E-1,-2.3488806E-1,8.5635506E-2,2.1039999E0,5.9464112E-2,-3.264132E-1,-3.2615557E-2,1.1822127E-1,1.9386971E0,-1.3439912E-1,1.2013982E-1,2.0584096E-1,-1.4885226E-1,8.290668E-2,-1.5123308E-1,4.7769687E-1,1.3598128E-1,5.1189367E-2,2.4479087E-1,-5.380811E-2,9.7737855E-1,-1.2977965E-1,5.8910526E-2,-3.4341604E-2,5.8118433E-2,-9.8576255E-2,1.5002975E-1],"categories":[],"categories_nodes":[],"categories_segments":[],"categories_sizes":[],"default_left":[0,0,0,0,0,0,0,0,0,0,0,0,0,0,0,0,0,0,0,0,0,0,0,0,0,0,0,0,0,0,0,0,0,0,0,0,0,0,0,0,0,0,0,0,0,0,0,0,0,0,0,0,0,0,0,0,0,0,0,0,0,0,0,0,0,0,0,0,0,0,0,0,0,0,0,0,0,0,0,0,0,0,0,0,0,0,0,0,0,0,0,0,0,0,0,0,0,0,0,0,0,0,0,0,0,0,0,0,0,0,0,0,0],"id":12,"left_children":[1,3,5,7,9,11,13,15,17,19,21,23,25,27,29,31,33,35,37,39,41,-1,43,45,47,49,51,53,55,57,59,61,63,65,67,-1,-1,69,71,-1,73,-1,75,77,79,81,83,85,87,89,91,93,95,97,99,101,103,105,107,109,111,-1,-1,-1,-1,-1,-1,-1,-1,-1,-1,-1,-1,-1,-1,-1,-1,-1,-1,-1,-1,-1,-1,-1,-1,-1,-1,-1,-1,-1,-1,-1,-1,-1,-1,-1,-1,-1,-1,-1,-1,-1,-1,-1,-1,-1,-1,-1,-1,-1,-1,-1,-1],"loss_changes":[3.6206947E1,1.857005E1,3.2302498E1,1.5068611E1,3.8582977E1,2.0469194E1,2.6091213E1,1.6221512E1,4.459152E0,3.5292793E1,1.7175575E1,8.96637E0,1.30618E1,1.1783737E1,8.787169E0,4.7028036E0,2.1994999E1,7.82724E0,2.958931E0,7.868969E0,1.771885E1,0E0,1.460248E1,1.2118835E1,6.0339394E0,1.8266548E1,1.0019987E1,8.094601E0,7.158993E0,5.0085983E0,1.2674371E1,8.5658073E-1,4.706652E0,