{"learner":{"attributes":{"best_iteration":"63","best_score":"0.6266651556144305","scikit_learn":"{\"_estimator_type\": \"classifier\"}"},"feature_names":[],"feature_types":[],"gradient_booster":{"model":{"boosted_rounds":114,"weights":[-2.7575547E-7,9.302915E-5,-2.0998425E-5,-1.1295017E-7,8.169723E-5,-7.5713656E-6,1.5746874E-6,8.1923685E-7,-3.7504382E-8,-4.842571E-8,5.6119952E-5,-1.5289626E-5,1.2945728E-9,-2.0649091E-9,1.8133944E-9,-2.0762212E-8,4.163252E-6,-6.536901E-8,6.005371E-8,-4.3583395E-8,1.5740403E-8,1.1800124E-6,-2.3825841E-7,9.084607E-8,4.302569E-6,-4.0647106E-7,1.021692E-7,2.4965893E-6,-4.757546E-7,1.8476987E-7,2.2624783E-6,-3.6189945E-7,1.5562709E-7,4.435173E-6,-8.612935E-6,1.2421294E-6,-2.742413E-7,8.051684E-5,-1.153665E-7,-8.387158E-8,-1.9222138E-5,-2.9305466E-8,-5.4424962E-8,4.0778957E-7,-2.838695E-8,8.575243E-5,-1.6982583E-4,1.5999253E-4,-4.3768814E-8,-1.9493878E-6,-2.1065336E-8,-1.88498E-3,3.5501467E-3,-1.4278162E-3,-2.857923E-3,4.7857813E-3,-2.6126008E-3,-4.3468103E-3,6.0809976E-3,-3.5387282E-3,0E0,0E0,0E0,0E0,0E0,0E0,0E0,0E0,0E0,1.319958E-4,-1.2599645E-4,4.3051277E-5,-2.692872E-7,1.2236358E-4,-1.1677378E-5,-1.017916E-5,3.305694E-4,-2.0879E-4,0E0,0E0,0E0,8.1371945E-5,-1.4124147E-4,1.4114924E-4,-3.1886092E-8,2.597387E-7,-1.7028556E-8,-2.4190153E-5,3.1041662E-4,-2.0191152E-4,0E0,0E0,0E0,0E0,-2.0547475E-6,0E0,0E0,-4.594795E-3,0E0,3.4876507E-8,-1.8026473E-2,1.2349138E-3,0E0,0E0,0E0,0E0,-4.29694E-5,0E0,-2.7536674E-7,1.6407795E-6,-8.1063587E-7,-1.1612538E-3,1.5198975E-3,-8.504905E-4,0E0,0E0,0E0,0E0,0E0,0E0,0E0,5.8869705E-7,-6.492736E-10,-1.1996339E-7,2.066814E-6,-5.3017396E-7,-1.23651835E-8,-3.2194423E-6,-1.8246036E-8,-8.780802E-9,-1.3750246E-4,-1.0835323E-8,7.667611E-5,-1.2228022E-4,-6.283021E-9,0E0,7.816775E-7,0E0,0E0,0E0,0E0,-3.346323E-6,-1.9507817E-5,-2.434337E-6,0E0,0E0,0E0,0E0,0E0,0E0,0E0,0E0,0E0,0E0,0E0,0E0,0E0,0E0,0E0,0E0,0E0,0E0,0E0,0E0,0E0,0E0,0E0,0E0,0E0,0E0,0E0,0E0,0E0,0E0,-4.486125E-6,1.2771834E-5,-4.0881387E-6,0E0,7.260974E-7,-5.3933523E-8,0E0,0E0,0E0,0E0,0E0,0E0,0E0,0E0,0E0,0E0,0E0,0E0,0E0,0E0,0E0,0E0,0E0,0E0,0E0,0E0,0E0,0E0,0E0,0E0,0E0,0E0,0E0,-4.940591E-6,1.0351541E-5,-4.219337E-6,-3.1402396E-7,1.127266E-6,-6.123302E-7,0E0,3.108103E-8,0E0,0E0,0E0,0E0,0E0,0E0,0E0,0E0,0E0,0E0,0E0,0E0,0E0,0E0,0E0,0E0,0E0,0E0,0E0,0E0,0E0,0E0,0E0,0E0,0E0,-4.170439E-6,8.284984E-6,-3.6146614E-6,-4.1508684E-7,1.2016377E-6,-5.808386E-7,0E0,1.3325261E-7,-9.571697E-8,0E0,0E0,0E0,0E0,0E0,0E0,0E0,0E0,0E0,0E0,0E0,0E0,0E0,0E0,0E0,0E0,0E0,0E0,0E0,0E0,0E0,0E0,0E0,0E0,-3.5605472E-6,6.74349E-6,-1.691484E-6,-2.8920616E-7,5.7454434E-7,-3.0308786E-7,0E0,7.7193015E-8,-5.477776E-8,0E0,1.5188467E-8,-3.076285E-9,0E0,0E0,0E0,0E0,0E0,0E0,0E0,0E0,0E0,0E0,0E0,0E0,0E0,0E0,0E0,0E0,0E0,0E0,0E0,0E0,0E0,-3.1737789E-6,5.6419744E-6,-2.566832E-6,-5.4836323E-7,1.0620116E-6,-6.393421E-7,-6.00148E-8,1.762292E-7,-1.04816614E-7,-5.840799E-10,4.1247116E-8,-2.7625568E-8,0E0,3.5389767E-9,0E0,0E0,0E0,0E0,0E0,0E0,0E0,0E0,0E0,0E0,0E0,0E0,0E0,0E0,0E0,0E0,0E0,0E0,0E0,-2.828622E-6,4.8348465E-6,-2.2583004E-6,-5.5236416E-7,7.7931486E-7,-4.2451876E-7,-6.567711E-8,1.5243214E-7,-1.0341227E-7,-1.4937774E-8,4.9275197E-8,-3.7772576E-8,0E0,1.8433308E-8,-1.049518E-8,0E0,0E0,-1.9529882E-9,0E0,0E0,0E0,0E0,0E0,0E0,0E0,0E0,0E0,0E0,0E0,0E0,0E0,0E0,0E0,-2.5374356E-6,4.241313E-6,-2.036718E-6,-5.700339E-7,9.113056E-7,-5.536066E-7,-9.672129E-8,1.9118774E-7,-1.4171655E-7,-2.197836E-8,7.0024505E-8,-4.1729283E-8,-8.424293E-9,2.126814E-8,-1.545057E-8,0E0,3.779744E-9,-4.0923434E-9,0E0,0E0,0E0,0E0,0E0,0E0,0E0,0E0,0E0,0E0,0E0,0E0,0E0,-5.7166316E-9,0E0,-2.2941836E-6,3.790343E-6,-1.8485225E-6,-5.634636E-7,8.387029E-7,-5.340745E-7,-1.096659E-7,2.0500578E-7,-1.4852688E-7,-3.1911654E-8,7.8450434E-8,-5.8615583E-8,-1.3276672E-8,3.4418463E-8,-1.9474058E-8,-2.2404336E-9,8.476326E-9,-7.7196844E-9,0E0,0E0,0E0,0E0,0E0,0E0,0E0,0E0,0E0,0E0,0E0,0E0,0E0,-4.8893716E-9,0E0,-2.0901564E-6,3.4653103E-6,-1.6889699E-6,-5.4616305E-7,7.8526057E-7,-5.1665603E-7,-1.2391126E-7,2.0581928E-7,-1.4727291E-7,-4.5139846E-8,8.843207E-8,-6.515213E-8,-1.1266577E-8,3.8366906E-8,-3.15743E-8,-5.876367E-9,1.3530497E-8,-1.04894955E-8,0E0,0E0,-2.9806544E-9,0E0,0E0,-4.7720516E-10,0E0,0E0,0E0,0E0,-9.138632E-9,0E0,0E0,0E0,0E0,-1.8274407E-6,3.0131346E-6,-9.710798E-7,-3.298738E-7,4.2075433E-7,-2.9621256E-7,-9.790823E-8,1.3867162E-7,-1.05616124E-7,-4.2389544E-8,6.7841434E-8,-4.7709484E-8,-1.3968842E-8,2.6162523E-8,-2.3675826E-8,-5.175269E-10,4.675604E-9,-5.045041E-9,0E0,0E0,-2.935887E-9,0E0,0E0,0E0,0E0,-9.4212185E-9,0E0,2.1888973E-9,-4.311715E-8,0E0,5.3665156E-10,-2.9456478E-8,0E0,-1.7702168E-6,2.9397702E-6,-1.4362163E-6,-5.0139687E-7,5.671795E-7,-3.695922E-7,-1.3029482E-7,1.9224184E-7,-1.4389056E-7,-6.77975E-8,9.389829E-8,-7.2964696E-8,-3.027368E-8,5.1487877E-8,-4.1283908E-8,-1.1137953E-8,2.1536787E-8,-2.1651227E-8,-2.8332952E-9,4.5903237E-9,-6.0735137E-9,0E0,0E0,0E0,0E0,0E0,0E0,0E0,-1.0302635E-8,0E0,4.018633E-9,-3.4689013E-8,0E0,-5.177702E-1,5.3250796E-1,-3.4941122E-1]},"name":"gblinear"},"learner_model_param":{"base_score":"[7.445396E-2,8.2758266E-1,9.79634E-2]","boost_from_average":"1","num_class":"3","num_feature":"179","num_target":"1"},"objective":{"name":"multi:softprob","softmax_multiclass_param":{"num_class":"3"}}},"version":[3,1,2]}