tree
version=v4
num_class=3
num_tree_per_iteration=3
label_index=0
max_feature_idx=54
objective=multiclass num_class:3
feature_names=xgboost_prob_down xgboost_prob_neutral xgboost_prob_up xgboost_et_prob_down xgboost_et_prob_neutral xgboost_et_prob_up lightgbm_prob_down lightgbm_prob_neutral lightgbm_prob_up catboost_prob_down catboost_prob_neutral catboost_prob_up xgboost_hist_prob_down xgboost_hist_prob_neutral xgboost_hist_prob_up xgboost_dart_prob_down xgboost_dart_prob_neutral xgboost_dart_prob_up xgboost_gblinear_prob_down xgboost_gblinear_prob_neutral xgboost_gblinear_prob_up xgboost_approx_prob_down xgboost_approx_prob_neutral xgboost_approx_prob_up xgboost_asymmetry xgboost_max_directional xgboost_neutral_dominance xgboost_et_asymmetry xgboost_et_max_directional xgboost_et_neutral_dominance lightgbm_asymmetry lightgbm_max_directional lightgbm_neutral_dominance catboost_asymmetry catboost_max_directional catboost_neutral_dominance xgboost_hist_asymmetry xgboost_hist_max_directional xgboost_hist_neutral_dominance xgboost_dart_asymmetry xgboost_dart_max_directional xgboost_dart_neutral_dominance xgboost_gblinear_asymmetry xgboost_gblinear_max_directional xgboost_gblinear_neutral_dominance xgboost_approx_asymmetry xgboost_approx_max_directional xgboost_approx_neutral_dominance avg_asymmetry max_asymmetry avg_max_directional avg_neutral_dominance models_favor_up models_favor_down directional_consensus
feature_infos=[0.0010070140706375241:0.92592668533325195] [0.0472865030169487:0.99603253602981567] [0.0013449571561068296:0.94344782829284668] [0.00086324650328606367:0.9335169792175293] [0.025872630998492241:0.9972108006477356] [0.0010912084253504872:0.96498823165893555] [0.0014769387198612094:0.91203594207763672] [0.052711270749568939:0.99654430150985718] [0.001156416954472661:0.93959289789199829] [0.011255000717937946:0.91889423131942749] [0.016164550557732582:0.96100074052810669] [0.013859502971172333:0.96308404207229614] [0.0034783377777785063:0.88516658544540405] [0.05112016573548317:0.98890429735183716] [0.0043485495261847973:0.90030169486999512] [0.0041503440588712692:0.79145181179046631] [0.090913698077201843:0.98822033405303955] [0.005010340828448534:0.83118593692779541] [0.022623598575592041:0.3538147509098053] [4.8406695896119345e-06:0.95101946592330933] [0.025013884529471397:0.89559453725814819] [0.00089211424347013235:0.91306388378143311] [0.040719076991081238:0.99630105495452881] [0.0013841661857441068:0.94539028406143188] [2.1420419216156006e-08:0.93418217916041613] [0.0020853856112807989:0.94344782829284668] [-0.89616132527589798:0.99379136436618865] [6.891787052154541e-08:0.95910907862707973] [0.0015042268205434084:0.96498823165893555] [-0.93787391670048237:0.99570657382719219] [5.4948031902313232e-07:0.93431322369724512] [0.0021924041211605072:0.93959289789199829] [-0.88446545228362083:0.99435189738869667] [1.0579824447631836e-06:0.94817162305116653] [0.020497158169746399:0.96308404207229614] [-0.94108050130307674:0.94050358235836029] [2.8312206268310547e-07:0.88140811584889889] [0.0057344064116477966:0.90030169486999512] [-0.83404641970992088:0.98292360454797745] [6.761401891708374e-07:0.7961629219353199] [0.0060769598931074142:0.83118593692779541] [-0.70053811371326447:0.98214337415993214] [5.3718686103820801e-06:0.79119396209716797] [0.025013884529471397:0.89559453725814819] [-0.89558969658855858:0.92600558139383793] [7.3574483394622803e-07:0.9376416178420186] [0.0019512469880282879:0.94539028406143188] [-0.8985292986035347:0.99428235506638885] [0.0014735529839526862:0.79600452614249662] [0.0045984387397766113:0.95910907862707973] [0.011882538688951172:0.82467314973473549] [-0.67801494989544153:0.96634778122825082] [0:8] [0:8] [0:1]
tree_sizes=3325 3423 3333 3375 3464 3389 3397 3460 3388 3397 3476 3412 3397 3476 3418 3407 3472 3427 3416 3470 3443 3444 3478 3436 3446 3461 3430 3429 3489 3441 3438 3490 3429 3441 3480 3451 3443 3479 3447 3449 3468 3451 3449 3484 3445 3438 3475 3460 3438 3483 3455 3451 3488 3471 3467 3478 3462 3448 3481 3445 3451 3481 3460 3449 3472 3462 3459 3483 3470 3460 3469 3458 3448 3487 3469 3475 3499 3449 3462 3493 3480 3467 3481 3455 3453 3492 3462 3457 3495 3461 3445 3485 3444 3447 3482 3452 3453 3499 3466 3457 3494 3449 3480 3499 3461 3471 3480 3467 3467 3499 3466 3474 3504 3475 3464 3491 3457 3495 3499 3481 3448 3484 3472 3457 3495 3466 3463 3501 3465 3460 3486 3472 3447 3510 3469 3441 3484 3454 3470 3500 3475 3472 3491 3468 3457 3510 3489 3473 3520 3486 3475 3496 3497 3500 3487 3481 3472 3497 3488 3498 3506 3489 3494 3498 3472 3480 3477 3462 3473 3497 3471 3485 3505 3459 3491 3496 3460 3484 3496 3472 3494 3482 3484 3490 3503 3461 3493 3483 3478 3486 3512 3483 3480 3492 3492 3468 3510 3479 3493 3514 3476 3477 3510 3502 3490 3469 3499 3478 3496 3482 3477 3505 3487 3473 3489 3472 3495 3517 3481 3475 3493 3483 3477 3505 3488 3445 3507 3469 3474 3492 3476 3469 3503 3508 3482 3508 3466 3467 3504 3483 3506 3498 3469 3481 3519 3473 3476 3519 3489 3507 3518 3512 3485 3511 3475 3493 3515 3465 3476 3508 3487 3479 3518 3496 3485 3497 3521 3469 3483 3475 3495 3506 3479 3465 3512 3473 3510 3514 3479 3479 3491 3494 3473 3499 3512 3483 3490 3494 3464 3482 3497 3497 3496 3499 3480 3512 3478 3468 3506 3490 3473 3488 3475 3472 3490 3477 3471 3469 3497 3479 3523 3489 3470 3512 3509 3464 3505 3457 3466 3504 3483 3491 3508 3475 3474 3512 3481 3504 3507 3500 3436 3462 3503 3485 3478 3485 3456 3476 3506 3485 3508 3484 3480 3466 3485 3465 3458 3466 3494 3491 3470 3470 3480 3479 3447 3495 3464 3480 3465 3511 3444 3494 3483 3473 3487 3469 3477 3524 3495 3456 3518 3480 3472 3498 3514 3490 3490 3495 3492 3478 3493 3487 3520 3497 3498 3516 3449 3483 3494 3492 3470 3467 3484 3467 3483 3458 3473 3508 3472 3467 3532 3500 3497 3501 3470 3491 3488 3513 3475 3493 3486 3519 3480 3518 3468 3535 3499 3505 3483 3524 3463 3490 3481 3487 3470 3465 3489 3497 3487 3494 3468 3480 3472 3477 3478 3495 3496 3494 3484 3479 3480 3496 3491 3480 3484 3503 3480 3495 3513 3494 3491 3515 3482 3500 3516 3499 3504 3503 3515 3469 3459 3480 3486 3531 3494 3458 3477 3471 3495 3512 3463 3488 3502 3489 3479 3502 3499 3493 3489 3440 3493 3525 3502 3482 3525 3530 3513 3502 3490 3483 3547 3466 3525 3531 3482 3462 3485 3495 3473 3479 3529 3478 3472 3474 3483 3471 3507 3449 3483 3452 3512 3550 3475 3534 3542 3474 3518 3523 3503 3531 3526 3479 3540 3531 3463 3511 3536 3485 3483 3523 3501 3474 3534 3509 3466 3536 3485 3492 3542 3513 3477 3508 3509 3468 3494 3491 3479 3524 3512 3536 3506 3510 3512 3497 3497 3522 3466 3510 3514 3552 3522 3545 3502 3490 3504 3542 3497 3528 3520 3511 3495 3488 3496 3507 3467 3475 3460 3441 3494 3505 3462 3472 3472 3494 3467 3468 3492 3471 3497 3492 3484 3496 3515 3475 3474 3513 3477 3491 3485 3467 3475 3505 3506 3481 3512 3468 3477 3543 3511 3493 3538 3485 3497 3540 3503 3541 3476 3508 3525 3483 3490 3516 3485 3529 3546 3509 3510 3533 3513 3523 3451 3496 3543 3444 3549 3473 3457 3558 3497 3455 3558 3528 3452 3518 3476 3498 3475 3508 3509 3506 3483 3478 3478 3490 3489 3517 3469 3504 3474 3499 3488 3488 3485 3480 3504 3502 3530 3456 3495 3552 3475 3515 3492 3542 3457

Tree=0
num_leaves=31
num_cat=0
split_feature=3 3 50 27 15 5 3 50 3 15 15 27 48 3 3 50 3 22 15 15 15 4 29 4 13 27 23 32 15 0
split_gain=59821.1 870.263 1916.23 612.259 650.481 208.924 114.314 762.774 91.4654 86.0335 78.5963 43.9321 368.336 41.2661 40.526 445.41 105.704 44.3192 34.9904 33.3235 29.2404 27.9418 29.9687 24.2405 23.6293 23.52 19.0791 14.4987 13.7939 8.28477
threshold=0.20927730202674868 0.15345278382301333 0.18666790239512923 0.12298620864748956 0.1742162108421326 0.34885199368000036 0.12954070419073108 0.15069718286395076 0.30170831084251409 0.11027387157082559 0.1366570591926575 0.17484951019287112 0.13703296938911083 0.18722639977931979 0.091793578118085875 0.11939883092418314 0.10130211710929872 0.8793892264366151 0.1588300168514252 0.07452526688575746 0.097130268812179579 0.75784260034561168 0.69713884592056286 0.67466560006141674 0.82416376471519481 0.043354772031307227 0.29293408989906317 0.72276791557669651 0.19643944501876834 0.11521108448505403
decision_type=2 2 2 2 2 2 2 2 2 2 2 2 2 2 2 2 2 2 2 2 2 2 2 2 2 2 2 2 2 2
left_child=1 6 9 4 18 11 14 24 26 23 13 12 28 25 -1 16 17 -16 -2 21 -9 -17 -23 -3 -8 -4 -6 -24 -5 -22
right_child=3 2 10 5 8 -7 7 20 -10 -11 -12 -13 -14 -15 15 19 -18 -19 -20 -21 29 22 27 -25 -26 -27 -28 -29 -30 -31
leaf_value=-2.5934933337455099 -2.1460597584057473 -2.3149105722839418 -2.4082793486021807 -2.1301939888318415 -2.5771757337893137 -2.5604358729726444 -2.2949029773586052 -2.4475925175782813 -2.2615569858163767 -2.3915208502886509 -2.5811227380960635 -2.1312118157280606 -2.575962048928814 -2.324738864527967 -2.5581608053235643 -2.5950169012386586 -2.1849513295707177 -2.2962368170202945 -2.304816650519808 -2.5883145228391262 -2.5293669803898968 -2.2915683782043823 -2.5799574211873297 -2.141469206148479 -2.1335390412749491 -2.5616709096964305 -2.4252554897509517 -2.4282869435275178 -2.2371032586854094 -2.5854831987819216
leaf_weight=9648.4074818491936 27.953670412302021 2.142043709754943 3.74857649207115 49.481209695339203 16.815043121576316 2.8917590081691733 2.9988611936569205 4.0698830485343924 2.9988611936569205 4.1769852340221396 125.9521701335907 707.51703733205795 5.2480070888996115 4.0698830485343924 4.0698830485343915 5.8906202018260947 7.9255617260932922 2.6775546371936798 3.9627808630466452 753.4638749063015 6.8545398712158194 2.1420437097549421 3.320167750120163 33.844290614128113 9.317890137434004 7.4971529841423035 2.3562480807304373 2.9988611936569214 3.2130655646324149 162.58111757040024
leaf_count=90086 261 20 35 462 157 27 28 38 28 39 1176 6606 49 38 38 55 74 25 37 7035 64 20 31 316 87 70 22 28 30 1518
internal_value=-2.55875 -2.59006 -2.48148 -2.14769 -2.31029 -2.13624 -2.59191 -2.55304 -2.51834 -2.17672 -2.56812 -2.13464 -2.1765 -2.46117 -2.59261 -2.58166 -2.30878 -2.45422 -2.16577 -2.58688 -2.58003 -2.5114 -2.45319 -2.15179 -2.17283 -2.51054 -2.5585 -2.50798 -2.13671 -2.58321
internal_weight=11620.6 10798.1 181.431 822.438 54.0866 768.351 10616.7 185.822 22.1702 40.1633 141.268 765.459 57.9423 15.3156 10430.9 782.489 14.673 6.74744 31.9165 767.816 173.506 14.3517 8.46107 35.9863 12.3168 11.2457 19.1713 6.31903 52.6943 169.436
internal_count=108500 100821 1694 7679 505 7174 99127 1735 207 375 1319 7147 541 143 97392 7306 137 63 298 7169 1620 134 79 336 115 105 179 59 492 1582
is_linear=0
shrinkage=1


Tree=1
num_leaves=31
num_cat=0
split_feature=28 28 40 27 39 3 15 15 39 12 28 39 39 28 28 40 28 4 38 40 4 36 24 38 35 45 38 15 3 24
split_gain=57799.1 1170.93 1777.02 1041.09 1779.67 204.73 492.754 167.86 140.325 71.9093 71.2719 377.965 69.409 66.4536 56.7178 446.507 49.8841 48.5899 53.4373 44.2919 112.234 43.4848 40.0938 34.324 27.5542 26.1395 25.9527 22.607 33.6634 21.7293
threshold=0.22510527819395068 0.31277585029602056 0.22511770576238635 0.088237777352333083 0.045702520757913596 0.13395618647336963 0.12722387164831164 0.12060054764151575 0.068710148334503188 0.1176380254328251 0.38295882940292364 0.13852614909410479 0.026028390973806385 0.1790992617607117 0.1037319451570511 0.076013274490833296 0.14812392741441729 0.56377661228179943 0.31390792131423956 0.10376362502574922 0.77281641960144054 0.092316647991538062 0.044843932613730438 0.26457285881042486 -0.20436003059148786 0.17382252588868144 0.26457285881042486 0.14233560860157016 0.17268045991659167 0.032178537920117385
decision_type=2 2 2 2 2 2 2 2 2 2 2 2 2 2 2 2 2 2 2 2 2 2 2 2 2 2 2 2 2 2
left_child=3 2 8 5 7 14 9 12 -2 24 11 23 -5 -14 -1 22 -11 18 -4 20 -17 -10 -16 -3 -7 -13 -19 28 -8 -6
right_child=1 10 17 4 29 6 27 -9 21 16 -12 25 13 -15 15 19 -18 26 -20 -21 -22 -23 -24 -25 -26 -27 -28 -29 -30 -31
leaf_value=-0.15797004006496551 -0.37743489147767717 -0.31807054446073735 -0.21530785486966175 -0.37915862131234301 -0.27503944496877819 -0.23919455632509579 -0.18315009087895467 -0.20318771788332446 -0.35255401666074143 -0.15675131244462626 -0.38168989225933247 -0.30277366813122064 -0.22246694162471067 -0.35263645990462189 -0.3741784740720121 -0.37184362179944108 -0.29368056156293088 -0.16619793413926337 -0.35108181587716158 -0.1622182935104588 -0.17918286643330525 -0.25967892060214498 -0.24343795858364939 -0.38101991486065329 -0.36553766311931823 -0.22217269253882971 -0.20286363529302448 -0.16265449020010331 -0.31059629432871677 -0.17104277099466048
leaf_weight=16861.848092257977 381.0886173248291 22.935889005661011 33.301146537065506 139.15909579396248 5.0723600685596457 4.8518226742744437 32.198459565639496 18.304603725671768 19.407290697097778 9.4831079542636889 3005.0425345301628 13.011706262826918 15.217080205678938 27.567174285650253 26.905562102794647 8.6009583771228773 22.274276822805405 89.979256868362427 9.2625705599784833 1710.2674926817417 62.412082582712173 35.94759526848793 7.498271405696868 387.70473915338516 39.035118788480759 44.328016251325607 104.09365010261536 271.04045757651329 6.1750470399856559 514.29320347309113
leaf_count=76458 1728 104 151 631 23 22 146 83 88 43 13626 59 69 125 122 39 101 408 42 7755 283 163 34 1758 177 201 472 1229 28 2332
internal_value=-0.197423 -0.367166 -0.306808 -0.161847 -0.220883 -0.159618 -0.195706 -0.347515 -0.36663 -0.310101 -0.378863 -0.360713 -0.362035 -0.306339 -0.158874 -0.167271 -0.252792 -0.196475 -0.244855 -0.163825 -0.202518 -0.292241 -0.345684 -0.377504 -0.35157 -0.240463 -0.185864 -0.16774 -0.203659 -0.172058
internal_weight=23928.3 4146.1 673.08 19782.2 719.614 19062.6 385.058 200.248 436.444 75.6443 3473.02 467.98 181.943 42.7843 18677.5 1815.68 31.7574 236.637 42.5637 1781.28 71.013 55.3549 34.4038 410.641 43.8869 57.3397 194.073 309.414 38.3735 519.366
internal_count=108500 18800 3052 89700 3263 86437 1746 908 1979 343 15748 2122 825 194 84691 8233 144 1073 193 8077 322 251 156 1862 199 260 880 1403 174 2355
is_linear=0
shrinkage=1


Tree=2
num_leaves=31
num_cat=0
split_feature=5 5 17 27 17 5 40 27 39 38 13 37 48 39 39 4 39 5 29 19 29 17 45 17 28 5 17 50 5 3
split_gain=57644.9 1450.6 2055.81 915.538 1016.72 202.684 1210.38 98.7738 510.47 86.4652 59.0648 53.6043 52.5358 50.4119 45.9523 38.9535 32.0533 29.3553 29.0975 26.6034 32.7947 45.6411 25.879 25.5993 25.9282 25.2077 585.21 33.2175 44.8464 33.0583
threshold=0.2768892645835877 0.20504324138164523 0.15953525900840762 0.24248464033007625 0.23182886838912967 0.15343026071786883 0.10716256871819498 0.3009982686489821 0.14301800727844241 0.45231294631958013 0.75744706392288219 0.17342103272676471 0.16041391389444473 0.096302282065153136 0.037888642400503166 0.684881091117859 0.03233444411307574 0.23993498086929324 0.1827957481145859 0.39487451314926153 -0.16659961640834806 0.31867717206478124 0.20800450816750529 0.22204415500164035 0.23557533323764804 0.10325087234377862 0.06534424796700479 0.1390330386348069 0.12663077563047412 0.081478726118803038
decision_type=2 2 2 2 2 2 2 2 2 2 2 2 2 2 2 2 2 2 2 2 2 2 2 2 2 2 2 2 2 2
left_child=1 5 11 4 12 25 16 8 -5 -4 -8 -3 -2 18 -12 23 -7 -13 -6 20 -9 -22 -10 24 -11 -1 29 28 -28 -27
right_child=3 2 9 7 13 6 10 19 22 15 14 17 -14 -15 -16 -17 -18 -19 -20 -21 21 -23 -24 -25 -26 26 27 -29 -30 -31
leaf_value=-2.3218339454687009 -1.9715008511250272 -1.9676265737474581 -2.2992337480888323 -1.9662320524004051 -2.0592295979639061 -1.9686709396209159 -2.3126801135023349 -1.9742583727431724 -2.1344186963391634 -2.2184810423487678 -2.0997663292618709 -2.1932623385458863 -2.179958558568714 -2.2687709721545133 -2.2675695425418181 -2.2674409905398161 -2.1403030605598357 -2.0115393258486534 -2.2563855183676438 -1.9611904275144758 -1.9692887253965468 -2.1909739746822914 -2.2738571127825944 -2.2821816201027123 -2.0831281186544972 -1.9661793738481235 -2.2948922900859725 -2.3191994894347499 -2.118842438107972 -2.1585445896439199
leaf_weight=11420.095184326172 73.45875358581543 66.743307828903198 183.09868431091309 107.85828185081482 4.9337968826293936 27.821132421493534 463.2287073135376 21.379786491394047 4.2485473155975368 5.7560963630676296 4.9337968826293972 4.2485473155975324 3.1521480083465567 54.682915449142456 23.572585105895996 18.090588569641113 3.0150980949401847 4.6596970558166504 3.0150980949401855 1105.1705017089844 4.3855972290039045 4.9337968826293945 15.34959030151367 3.700347661972045 9.1823441982269269 12.06039237976074 16.171889781951908 1193.5676958560944 4.6596970558166495 2.7409982681274405
leaf_count=83328 536 487 1336 787 36 203 3380 156 31 42 36 31 23 399 172 132 22 34 22 8064 32 36 112 27 67 88 118 8709 34 20
internal_value=-2.28561 -2.31738 -2.20782 -1.98056 -2.10224 -2.31984 -2.28933 -1.96715 -2.00889 -2.28519 -2.30838 -1.983 -1.98008 -2.25167 -2.23853 -2.21518 -1.98545 -2.09821 -2.13401 -1.96247 -2.00838 -2.08665 -2.24363 -2.16445 -2.13528 -2.3211 -2.3143 -2.31811 -2.25551 -2.0018
internal_weight=14869.9 13467.3 295.48 1402.57 139.243 13171.9 522.571 1263.33 127.456 219.828 491.735 75.6516 76.6109 62.6318 28.5064 36.7294 30.8362 8.90824 7.94889 1135.87 30.6992 9.31939 19.5981 18.6388 14.9384 12649.3 1229.2 1214.4 20.8316 14.8014
internal_count=108500 98266 2156 10234 1016 96110 3813 9218 930 1604 3588 552 559 457 208 268 225 65 58 8288 224 68 143 136 109 92297 8969 8861 152 108
is_linear=0
shrinkage=1


Tree=3
num_leaves=31
num_cat=0
split_feature=3 3 15 3 15 5 12 22 5 49 3 51 15 28 15 3 3 22 26 15 5 4 15 3 7 25 9 35 49 9
split_gain=35314.4 411.4 682.691 407.137 1074.91 83.9308 72.0374 66.4537 55.7778 52.132 39.4121 333.078 54.6404 27.7821 152.584 27.1007 23.9503 18.902 14.5669 14.2034 17.6537 14.0041 13.81 18.3797 13.4075 12.3909 11.8513 7.8752 7.61255 7.35972
threshold=0.18722639977931979 0.23530557006597522 0.16162800788879397 0.12954070419073108 0.097130268812179579 0.1496943682432175 0.1176380254328251 0.60500550270080578 0.29912227392196661 0.10265768691897394 0.091793578118085875 0.66492714663036179 0.076786868274211897 0.25906093418598181 0.16437216848134997 0.10130211710929872 0.15345278382301333 0.8793892264366151 0.75970238447189342 0.073442932218313231 0.14649419486522677 0.82384207844734203 0.13852379471063617 0.17268045991659167 0.71924591064453136 0.20487000048160556 0.37374868988990789 -0.31500050425529474 0.27696446329355245 0.20930695533752444
decision_type=2 2 2 2 2 2 2 2 2 2 2 2 2 2 2 2 2 2 2 2 2 2 2 2 2 2 2 2 2 2
left_child=3 2 7 10 5 24 9 -2 13 -6 -1 19 15 14 -3 17 -11 -13 -17 20 21 -12 23 27 -5 -9 -4 28 -8 -21
right_child=1 8 26 4 6 -7 22 25 -10 16 11 12 -14 -15 -16 18 -18 -19 -20 29 -22 -23 -24 -25 -26 -27 -28 -29 -30 -31
leaf_value=-0.034401411016043049 0.038475272767409793 0.24918527421670467 0.09171051455437039 0.14244612942114884 0.22720972480899901 0.0019995085310358807 0.090813494256653762 0.25369337107477846 0.048991317407802264 -0.018801875086773313 0.17616410201454594 0.025335782221056743 -0.010713837104529111 0.25056540374545411 -0.007074931771151898 0.13570684733280161 0.12132482770538647 0.192999369779292 0.26242189906728336 0.0065536301313011917 -0.036327342047939422 0.015801869342893713 -0.027887416795897037 0.099553389769216419 0.25052257141957551 0.1651254216753838 -0.024177387045045403 -0.01927139593007474 -0.005500729069857109 -0.030041380283352598
leaf_weight=9233.6574059426785 3.9695464000105849 38.779668882489204 2.3436957150697699 3.0557874590158454 4.5390919446945217 3.860569216310977 3.5412979573011381 68.35050954669714 3.4924381226301184 8.5820724517106992 2.5816141888499242 3.2511962577700677 3.8966291695833197 1186.4026231318712 6.8322174921631804 2.8938668072223654 4.7300157770514479 3.4806734547019005 10.487679518759249 14.003421276807783 5.3274050652980804 2.8803906217217445 225.1006563603878 4.3949636146426192 47.104374617338181 4.191185198724269 37.585277110338211 32.362501934170723 4.8769596889615059 727.81766113638878
leaf_count=90086 30 228 21 21 34 30 32 414 27 77 20 30 35 6940 61 22 35 27 66 125 47 26 2124 34 284 28 351 293 44 6908
internal_value=-0.000272744 0.24006 0.150215 -0.0316584 0.021975 0.226648 -0.016399 0.237676 0.248528 0.0808818 -0.0334915 -0.0226736 0.160654 0.249093 0.2108 0.193853 0.0309876 0.112025 0.235019 -0.0285222 0.0284328 0.091597 -0.0228242 0.00240469 0.243938 0.248576 -0.0173752 -0.00806507 0.0350157 -0.0293506
internal_weight=11704.4 1351.95 116.44 10352.4 342.148 54.0207 288.128 76.5112 1235.51 17.8512 10010.3 776.621 24.01 1232.01 45.6119 20.1134 13.3121 6.73187 13.3815 752.61 10.7894 5.462 270.276 45.1757 50.1602 72.5417 39.929 40.7808 8.41826 741.821
internal_count=108500 8100 844 100400 3008 335 2673 472 7256 146 97392 7306 180 7229 289 145 112 57 88 7126 93 46 2527 403 305 442 372 369 76 7033
is_linear=0
shrinkage=0.05


Tree=4
num_leaves=31
num_cat=0
split_feature=28 28 40 28 40 35 27 40 39 50 4 36 28 48 16 4 14 28 39 50 39 28 40 29 46 40 35 29 16 29
split_gain=42657.7 966.711 1529.44 578.195 1093.1 110.614 106.633 480.837 77.4372 45.5188 49.0597 42.4288 38.4725 35.3072 34.7468 61.1092 32.4748 32.075 202.84 30.1102 26.89 26.1941 182.603 49.2354 65.8675 26.1511 24.1361 51.3507 26.5168 22.7545
threshold=0.22510527819395068 0.15540372580289843 0.13226937502622607 0.31277585029602056 0.22511770576238635 -0.18999626487493512 0.06398204900324346 0.076013274490833296 0.09900746122002603 0.29013597872108227 0.56377661228179943 0.059191729873418815 0.1070365644991398 0.051709900144487626 0.67460173368453991 0.67466560006141674 0.20574060082435611 0.38295882940292364 0.13852614909410479 0.34331499133259064 0.048215556889772422 0.082962345331907286 0.069181092083454146 0.73855877295136463 0.068714946508407607 0.094551101326942458 1.0000000180025095e-35 0.70215738564729702 0.83155551552772533 0.55519412457942974
decision_type=2 2 2 2 2 2 2 2 2 2 2 2 2 2 2 2 2 2 2 2 2 2 2 2 2 2 2 2 2 2
left_child=1 6 20 4 8 14 21 12 16 10 -6 29 -8 25 -4 -16 -2 18 19 -5 -3 -1 23 -23 -25 -9 -24 28 -28 -7
right_child=3 2 5 17 9 11 7 13 -10 -11 -12 -13 -14 -15 15 -17 -18 -19 -20 -21 -22 22 26 24 -26 -27 27 -29 -30 -31
leaf_value=0.03913497209911794 -0.1361622551734942 -0.12976231270721236 0.032110397791074136 -0.13635891445920897 -0.11681255006976166 -0.11679888403939187 -0.02656493635359607 -0.10060632713321614 -0.038645052992954537 0.014621427866075551 -0.011862709234786183 -0.010855616570827557 -0.13194881645718082 0.034111863897502197 -0.098245495619066606 0.014935958198325026 -0.090764871470006211 -0.13732996903715369 -0.038029842073325847 -0.033655518127884865 -0.027233934267617034 -0.13849829646814971 0.037004071081913878 -0.13447078183843283 0.021259264650175854 0.0085131945103867675 -0.008946654013319422 0.028780643321153238 -0.1125085394491649 -0.010579258618522311
leaf_weight=14691.791542708874 466.84245043992996 220.17804075777531 560.2722979336977 500.07666148245335 14.139467269182203 18.911234483122829 10.396223857998846 8.0560740530490893 23.053779110312462 169.90682449936867 52.409183546900749 55.478683307766914 51.871576622128487 578.14056442677975 12.839606776833532 167.6112754046917 43.02404896914959 3730.3267801254988 60.491895690560341 7.2398086041212073 6.5863292813301078 15.193651914596556 2260.9659739434719 9.998674616217615 21.158037289977074 17.242183908820152 18.159973368048671 193.79606196284294 9.3703856319189054 6.8748335242271414
leaf_count=69956 1715 823 2631 1833 57 79 47 33 97 778 238 255 194 2732 53 783 167 13626 260 29 29 61 10726 46 100 80 83 919 38 32
internal_value=0.000348059 0.0348312 -0.0118249 -0.128499 -0.0885801 0.0198893 0.0375669 0.0179316 -0.128279 0.000891915 -0.0341612 -0.0354864 -0.114354 0.0315819 0.0259646 0.00688277 -0.132331 -0.135645 -0.124574 -0.134893 -0.126784 0.038326 0.0336255 -0.0647033 -0.0287169 -0.0262352 0.0354615 0.0197033 -0.0441956 -0.0884796
internal_weight=24002.4 18934.9 1048.75 5067.51 769.376 821.988 17886.1 665.707 532.92 236.455 66.5487 81.2648 62.2678 603.439 740.723 180.451 509.866 4298.14 567.808 507.316 226.764 17220.4 2528.64 46.3504 31.1567 25.2983 2482.29 221.326 27.5304 25.7861
internal_count=108500 89700 4685 18800 3052 3833 85015 3086 1979 1073 295 366 241 2845 3467 836 1882 15748 2122 1862 852 81929 11973 207 146 113 11766 1040 121 111
is_linear=0
shrinkage=0.05


Tree=5
num_leaves=31
num_cat=0
split_feature=5 27 17 5 40 38 39 5 17 27 39 48 50 5 39 38 5 39 31 29 37 15 39 13 5 34 35 21 9 33
split_gain=37836.5 806.429 806.802 526.106 1244.34 78.0729 69.3745 60.3349 524.496 57.6454 353.669 31.0636 28.827 28.0619 31.4868 26.233 48.7179 26.1083 25.2346 28.9562 18.341 16.512 14.34 13.6293 18.9597 17.7158 13.1477 14.0488 11.336 11.1565
threshold=0.23993498086929324 0.22764044068753722 0.22837233543395999 0.17093474417924884 0.13226937502622607 0.51540386676788341 0.09900746122002603 0.12908013910055163 0.094694521278142943 0.3009982686489821 0.13852614909410479 0.07316073693800719 0.15798165649175647 0.32165740430355078 0.084651578217744841 0.43647648394107824 0.2768892645835877 0.031260364688932903 0.15926772356033328 0.51276845484972011 0.29317012429237371 0.091722723096609129 0.11734541505575181 0.67450422048568737 0.21443551033735278 0.45536546409130102 -0.49899990111589426 0.054935382679104812 0.24106203764677051 0.40356041491031652
decision_type=2 2 2 2 2 2 2 2 2 2 2 2 2 2 2 2 2 2 2 2 2 2 2 2 2 2 2 2 2 2
left_child=3 2 6 7 -5 23 15 -1 11 10 22 -9 17 20 -15 16 -2 -10 19 -7 -4 -8 -3 -6 -25 -26 -12 -28 -24 -29
right_child=1 9 13 4 5 18 21 8 12 -11 26 -13 -14 14 -16 -17 -18 -19 -20 -21 -22 -23 28 24 25 -27 27 29 -30 -31
leaf_value=-0.035638581152770625 0.033242124927231782 0.21228216778339504 0.028864133078076715 0.20500623365265114 -0.028235855318614635 0.17889976547644595 -0.0059167467250893649 0.20317297865140727 0.15330009165267622 0.20986590140466138 -0.021409721728343094 0.039349669834574767 -0.031042613724539384 0.19147553433847886 0.036717966313443109 0.20909842487206071 0.1901041008285968 -0.0049310091697951008 0.021771887199006246 0.023453225330060376 -0.015345162129502644 0.12283096730688799 0.08934688155559789 -0.016744300720757527 0.1612025489586793 0.019017977827666014 -0.026804288322566167 0.051415308142938626 0.19603185563540668 0.155823135991142
leaf_weight=11630.464133784175 6.3325868248939541 174.78271123766899 40.85359513759613 75.334383815526962 310.85140161216259 6.2112667113542539 4.7164053618907911 26.417732596397403 3.9235977381467801 1640.86852607131 9.3431625366210955 3.2495492845773688 652.55836379528046 4.126665577292445 16.148078873753548 114.30692839622498 22.669354021549225 7.7687712907791138 42.309491872787476 5.7871155291795731 55.104652106761932 5.276413232088089 4.2822156548500043 37.081735998392105 3.0171967446804029 7.998211532831192 4.7886623889207867 14.577963069081308 5.949216365814209 3.1032595932483664
leaf_count=88882 41 889 292 396 2287 37 31 142 26 8292 64 22 4867 23 108 589 118 57 300 43 402 32 23 279 20 57 34 95 31 21
internal_value=-0.000345506 0.194938 0.114116 -0.0327667 0.0181185 -0.0159501 0.189441 -0.0347841 -0.0204616 0.206664 0.182435 0.185229 -0.0296483 0.0147694 0.0682169 0.198323 0.155853 0.0481665 0.039922 0.103924 0.00347666 0.0620647 0.208914 -0.0244034 0.000365549 0.0579633 0.028438 0.0491651 0.15138 0.0697401
internal_weight=14940.2 2127.23 269.535 12813 488.591 413.256 153.302 12324.4 693.918 1857.7 216.827 29.6673 664.251 116.233 20.2747 143.309 29.0019 11.6924 54.3079 11.9984 95.9582 9.99282 185.014 358.949 48.0971 11.0154 31.813 22.4699 10.2314 17.6812
internal_count=108500 11085 1636 97415 3419 3023 811 93996 5114 9449 1157 164 4950 825 131 748 159 83 380 80 694 63 943 2643 356 77 214 150 54 116
is_linear=0
shrinkage=0.05


Tree=6
num_leaves=31
num_cat=0
split_feature=3 3 16 27 15 5 5 3 51 15 12 12 29 3 3 15 3 14 15 5 4 21 3 0 18 30 6 15 3 0
split_gain=25555.1 381.136 776.743 191.044 203.948 156.983 55.5891 38.6567 269.832 35.7307 31.2048 29.3626 19.9636 19.2457 16.7909 186.782 14.1915 13.5413 11.344 14.4808 14.5085 11.044 14.2746 14.8056 10.0237 15.5262 8.91585 8.43775 18.99 8.31331
threshold=0.18722639977931979 0.12954070419073108 0.77445122599601757 0.088237777352333083 0.16162800788879397 0.29912227392196661 0.1496943682432175 0.091793578118085875 0.66232341970317077 0.076786868274211897 0.1176380254328251 0.13294418156147006 0.1827957481145859 0.15345278382301333 0.26895338296890264 0.16162800788879397 0.10130211710929872 0.046180171892046935 0.073442932218313231 0.14649419486522677 0.8208584487438203 0.14255137741565707 0.15345278382301333 0.11521108448505403 0.10481867939233781 0.047601139172911651 0.17918130755424502 0.093182340264320387 0.15345278382301333 0.18085227161645892
decision_type=2 2 2 2 2 2 2 2 2 2 2 2 2 2 2 2 2 2 2 2 2 2 2 2 2 2 2 2 2 2
left_child=1 7 10 4 24 14 11 -1 18 16 13 27 -6 -3 15 -5 17 -10 19 20 -9 22 23 -12 -2 -26 -24 -4 -29 -14
right_child=3 2 6 5 12 -7 -8 8 9 -11 21 -13 29 -15 -16 -17 -18 -19 -20 -21 -22 -23 26 -25 25 -27 -28 28 -30 -31
leaf_value=-0.034192676475765571 0.18869212176940731 0.0089704548963738581 0.18768414771024683 0.18346483043054568 0.10194229079492854 -0.0025157955320777563 -0.024093737854352343 0.15878890015245037 0.17446483878299776 -0.011373664591627412 0.085115590398867819 0.057493243224400983 0.080714761150069356 0.12289675141222467 0.18303739286286644 -0.0052987288617932869 0.17457786919496907 0.03892353577834843 -0.029136110359989288 -0.036409688667348235 -0.0014114621999268483 -0.028433192501542449 0.070260623396641506 -0.025456860901187279 0.052429206017604701 0.19059095201906145 -0.036280469151215279 0.03913394394296394 0.18730309789415742 -0.022173010841453775
leaf_weight=8809.8182152062654 28.686892591416836 10.974327549338343 57.023212790489197 139.05855476856232 4.2853249460458782 11.681574404239653 3.8297592103481284 2.797156058251856 3.0629441067576471 4.0090402811765662 3.2928046062588683 5.2446380779147139 2.1295061632990864 5.5979581251740447 1498.3812022507191 14.468566246330736 17.279723845422268 4.6254458576440811 724.48875290155411 5.4429817199707031 2.8566752895712852 209.22085133194923 8.8859877213835698 37.562325365841389 3.8234909623861295 4.3433060050010681 2.5207077562808982 3.2691532224416715 6.3879578858613968 25.154606074094772
leaf_count=90086 147 92 268 637 27 93 28 18 20 37 29 38 18 37 6762 131 90 38 7031 47 25 2005 74 357 21 22 23 25 32 242
internal_value=-0.000456574 -0.0313735 0.0195884 0.176764 0.0948836 0.180132 0.161522 -0.0332567 -0.0224721 0.127186 -0.0190806 0.171405 0.00161501 0.0474537 0.181424 0.165676 0.149433 0.0929212 -0.0283677 0.0218034 0.0778455 -0.0232975 -0.00273751 -0.016545 0.174779 0.125907 0.0467166 0.180365 0.137144 -0.0141427
internal_weight=11660.2 9928.19 353.81 1732.01 68.4231 1663.59 75.7547 9574.38 764.563 28.9772 278.055 71.925 31.5694 16.5723 1651.91 153.527 24.9681 7.68839 735.586 11.0968 5.65383 261.483 52.2618 40.8551 36.8537 8.1668 11.4067 66.6803 9.65711 27.2841
internal_count=108500 100400 3008 8100 477 7623 391 97392 7306 185 2617 363 287 129 7530 768 148 58 7121 90 43 2488 483 386 190 43 97 325 57 260
is_linear=0
shrinkage=0.05


Tree=7
num_leaves=31
num_cat=0
split_feature=28 27 39 28 50 28 16 34 50 10 29 29 14 28 50 11 28 40 29 46 48 39 2 28 4 39 25 28 1 10
split_gain=34272.6 720.927 897.858 500.734 840.491 164.56 364.133 64.8555 63.7784 49.4378 66.3663 34.359 33.937 31.9608 205.698 31.3358 31.2488 287.586 62.0479 73.7468 31.2087 30.7851 25.9002 25.2368 24.6551 18.5539 18.3334 18.2099 17.29 16.0731
threshold=0.21538531780242923 0.088237777352333083 0.046548295766115196 0.29956881701946264 0.24660128448158505 0.13796468824148181 0.77445122599601757 0.49129489064216619 0.2805735338479281 0.22170382738113406 0.55519412457942974 0.34652402997016912 0.19296526163816455 0.3688389658927918 0.31714219134300953 0.38003075122833258 0.082962345331907286 0.074621792882680907 0.74617148563265812 0.068714946508407607 0.056608923245221383 0.14903288707137111 0.17408914864063266 0.23557533323764804 0.49734549224376684 0.093890184536576285 0.10656539350748064 0.19226136803627017 0.89699554443359386 0.12135865539312364
decision_type=2 2 2 2 2 2 2 2 2 2 2 2 2 2 2 2 2 2 2 2 2 2 2 2 2 2 2 2 2 2
left_child=1 5 7 4 12 16 9 15 11 -7 22 -6 25 14 21 -3 -1 18 26 28 -8 -5 -11 -14 -16 -2 -18 -17 -20 -10
right_child=3 2 -4 13 8 6 20 -9 29 10 -12 -13 23 -15 24 27 17 -19 19 -21 -22 -23 -24 -25 -26 -27 -28 -29 -30 -31
leaf_value=0.038604120415443324 -0.11191621279903888 -0.10876605322518873 0.025743553952507686 -0.11223254260354559 -0.081968083904782024 0.031942203605815754 -0.10370653440867504 0.011176541982228699 0.029859292757357658 -0.10133666816445237 0.018938276031479313 -0.015582081284299457 -0.01839902108386271 -0.11251083892457335 -0.07605796318420957 0.0059154864626342956 -0.11634093173997989 0.035842902387716979 -0.053773096145308244 0.019920249820540775 -0.020534768650205166 -0.034561227830056516 -0.016196345735912134 -0.094003146295687956 -0.0029692847658051168 -0.036243049924185269 -0.019156904610465552 -0.08903931155391602 -0.15641002408274707 0.0013607054287749587
leaf_weight=13980.922510430217 470.73750053346157 197.18650549650192 438.03176660835743 549.63264252245426 27.328571528196335 578.07084001600742 63.335765480995178 13.269386202096937 95.92060661315918 18.369651943445206 104.93955183029175 67.958795219659805 17.408884704113007 4358.7424559742212 14.689745947718619 9.7180861234664935 33.159554049372673 2453.4285341650248 7.8717996925115612 37.129385501146317 13.722521141171454 13.060441508889197 17.387359380722046 30.160857349634171 53.786190167069435 8.2419540733098966 5.6847684085369101 10.509307980537413 8.5708904564380628 102.18022319674492
leaf_count=69984 1532 655 2127 1782 101 2835 221 59 450 73 511 302 73 14049 57 41 118 12192 34 178 61 54 76 105 228 33 23 39 36 471
internal_value=0.000545038 0.0346404 -0.0163009 -0.105038 -0.0688263 0.0366069 0.0143989 -0.0961368 -0.0010084 0.0254729 -0.00110704 -0.0346217 -0.106614 -0.110988 -0.100472 -0.102686 0.0376763 0.0325813 -0.0540051 -0.0191189 -0.0888953 -0.11043 -0.059936 -0.0663346 -0.0186486 -0.110614 -0.102118 -0.0434191 -0.107273 0.0151597
internal_weight=23801.2 17991.3 668.715 5809.85 819.937 17322.6 795.826 230.683 293.388 718.767 140.697 95.2874 526.549 4989.91 631.169 217.414 16526.8 2545.84 92.4164 53.5721 77.0583 562.693 35.757 47.5697 68.4759 478.979 38.8443 20.2274 16.4427 198.101
internal_count=108500 89263 2921 19237 3067 86342 3777 794 1324 3495 660 403 1743 16170 2121 735 82565 12581 389 248 282 1836 149 178 285 1565 141 80 70 921
is_linear=0
shrinkage=0.05


Tree=8
num_leaves=31
num_cat=0
split_feature=5 5 40 5 17 10 28 17 5 14 5 50 17 32 48 49 13 5 17 48 2 5 17 29 48 26 48 19 4 17
split_gain=28513.5 495.744 1048.61 383.601 627.2 63.4763 39.0504 233.396 31.3715 30.3498 29.7222 340.313 33.064 28.6511 21.5835 17.6019 17.7855 16.7722 48.8142 15.9899 15.2506 15.1025 13.7503 16.5205 12.799 12.7133 11.7797 11.4564 14.5889 23.1574
threshold=0.23993498086929324 0.15720003098249438 0.13226937502622607 0.32165740430355078 0.20110566169023517 0.21248850971460345 0.40869109332561498 0.27958363294601446 0.20504324138164523 0.32760982215404516 0.11769798770546915 0.14141541766002777 0.075200885534286513 0.51703013479709636 0.08831703546456994 0.26395084708929067 0.51254940032958995 0.1758888587355614 0.097716983407735838 0.057511688442900784 0.14994186162948611 0.13146256655454638 0.23182886838912967 0.29280082136392599 0.21706116059795025 0.59024997800588619 0.16041391389444473 0.39487451314926153 0.34643875062465673 0.35511809587478643
decision_type=2 2 2 2 2 2 2 2 2 2 2 2 2 2 2 2 2 2 2 2 2 2 2 2 2 2 2 2 2 2
left_child=1 10 17 4 26 25 7 24 20 22 -1 12 -12 -10 -15 16 -9 18 -3 -20 -7 -14 23 -6 -5 -4 -2 28 -8 -30
right_child=3 2 5 6 9 8 27 15 13 -11 11 -13 21 14 -16 -17 -18 -19 19 -21 -22 -23 -24 -25 -26 -27 -28 -29 29 -31
leaf_value=-0.035536938013039324 0.15749835382588981 0.16189188341514518 -0.028454324416519069 0.15835794520572993 0.11477399011556802 0.052237529078282441 0.15755871420707834 0.016092795487980257 0.014137127181420248 -0.024203014481470664 0.17454647872724802 -0.031959170229264276 -0.012530261616649819 0.16870763501962371 0.045928969825658333 0.0091413575582092593 0.15293699492148807 0.15921904017103683 0.09425277191213198 -0.037892599143439558 -0.0099947862240986063 0.12176333317025378 0.017176913787157785 0.028272159482543913 0.099714947023211722 0.070800402429487083 0.079861461205987222 0.16037304673231706 0.14496798351367388 0.036336223013470177
leaf_weight=10797.184631802142 188.25786508619785 18.186526834964756 433.3907435387373 289.71099561452866 9.0302668660879153 11.198720097541807 33.595763057470322 4.5768927633762342 19.273898273706436 38.696409627795219 21.102642476558689 757.62482079863548 4.032740615308283 7.1816226243972761 7.1363180875778198 30.38002997636795 4.9341286420822144 85.420224517583847 4.1244799941778165 5.1445199400186539 81.409622892737389 4.3536467254161835 66.068941548466682 14.198250219225882 9.6130200475454313 3.2504367977380744 5.0159854441881171 1887.8980365842581 13.139328420162203 7.8290050625801078
leaf_count=86750 786 77 3271 1197 44 83 138 27 128 284 93 5829 29 35 45 181 26 361 23 33 609 24 466 83 45 25 26 7689 56 37
internal_value=-0.000514621 -0.0324248 0.00920508 0.149784 0.0986312 -0.0186883 0.156987 0.141334 0.0125448 0.012783 -0.0348531 -0.0254729 0.14117 0.0539368 0.107513 0.027725 0.0870848 0.148292 0.114296 0.0209089 -0.00246931 0.0571859 0.0288106 0.0619004 0.156475 -0.0277155 0.155483 0.15972 0.137133 0.104408
internal_weight=14863 12260 675.717 2602.94 321.268 562.841 2281.68 339.215 126.2 127.994 11584.3 787.114 29.489 33.5918 14.3179 39.8911 9.51102 112.876 27.4555 9.269 92.6083 8.38639 89.2975 23.2285 299.324 436.641 193.274 1942.46 54.5641 20.9683
internal_count=108500 97415 4690 11085 1689 4196 9396 1476 900 877 92725 5975 146 208 80 234 53 494 133 56 692 53 593 127 1242 3296 812 7920 231 93
is_linear=0
shrinkage=0.05


Tree=9
num_leaves=31
num_cat=0
split_feature=3 3 50 3 51 3 50 27 15 15 6 6 15 4 50 3 22 3 42 3 15 6 18 10 23 3 47 20 22 39
split_gain=20057.2 250.94 314.62 220.668 472.768 38.1852 253.857 36.7721 81.9148 26.774 25.4225 22.9569 21.5176 21.0398 19.3477 20.2789 17.5145 17.4124 18.4875 12.8816 134.178 12.204 10.3357 10.1143 16.0497 20.3846 9.40823 8.96687 6.88418 5.86279
threshold=0.17268045991659167 0.20927730202674868 0.2070303410291672 0.12954070419073108 0.58363685989752423 0.08676666766405107 0.11939883092418314 0.084687117487192168 0.20222128927707675 0.076786868274211897 0.13384432345628741 0.15932456403970721 0.075654424726963057 0.75784260034561168 0.17879264568910005 0.14614497125148776 0.56359058618545543 0.099358741194009795 0.017613787204027179 0.26895338296890264 0.16162800788879397 0.21851083636283877 0.078531842678785338 0.43140295147895819 0.03791164048016072 0.099358741194009795 0.51993124186992656 0.26123195886611944 0.87528803944587719 0.14301800727844241
decision_type=2 2 2 2 2 2 2 2 2 2 2 2 2 2 2 2 2 2 2 2 2 2 2 2 2 2 2 2 2 2
left_child=3 2 26 5 10 -1 9 8 21 23 14 16 13 -8 15 -5 -4 -15 -19 20 -9 -3 -20 -7 -25 28 -2 -22 -26 -16
right_child=1 7 11 4 -6 6 12 19 -10 -11 -12 -13 -14 17 29 -17 -18 18 22 -21 27 -23 -24 24 25 -27 -28 -29 -30 -31
leaf_value=-0.034098473626796834 0.065941472017396613 0.14874776746998203 -0.018239457460074823 -0.01025296188186805 0.14419588731488064 0.21554707502357473 -0.036451667452454366 0.14714254071801791 -0.026570632711777148 -0.0086049298297712056 -0.026298714078035298 -0.019972619532104111 -0.029500518376425512 -0.016670100572809623 -0.010087889473604117 0.13988379321663577 0.14961518506210142 0.18879465711052634 -0.020504557199200465 0.14591171731074248 -0.018986456866825565 0.068113736463586608 0.11541008890374081 0.17695775101035863 -0.036215971502140495 0.13985723621296206 0.15256528710353459 0.084004555684533744 0.075054375945365112 0.046272325882875803
leaf_weight=8216.2761515080929 3.3033031150698653 28.643626436591148 2.654743827879428 3.7733608260750753 54.177196368575096 3.5190881192684236 10.294155523180963 135.97819796204567 10.08753542602062 3.605703465640544 203.90464592725039 55.423516474664211 866.83930546045303 5.0941175296902648 30.449365876615047 5.5677612274885178 3.7482913509011269 3.5076157003641111 3.0161017253994942 1774.4352159649134 14.088970981538298 5.6118459329009047 2.6085027679800987 8.9411932155489939 2.9102323576807967 8.545384153723715 61.352352954447269 2.4863668009638777 2.6611401215195656 5.4383424967527381
leaf_count=88332 18 125 20 33 224 19 88 523 91 34 1976 525 8686 48 275 30 29 19 23 6766 118 35 18 42 27 37 252 21 19 47
internal_value=-0.000549539 0.139297 0.0710257 -0.0316233 0.0103337 -0.033016 -0.0233649 0.143677 0.0986601 0.119246 -0.0187763 -0.00961678 -0.0281939 0.0179957 0.0151369 0.0792358 0.0800215 0.0573938 0.098708 0.144713 0.130771 0.135538 0.0425281 0.136592 0.124542 0.091343 0.14814 -0.00353739 0.0169318 -0.00154719
internal_weight=11538.9 2097.81 126.482 9441.13 303.311 9137.82 921.543 1971.33 44.343 30.1827 249.133 61.8266 891.36 24.5205 45.2288 9.34112 6.40304 14.2263 9.13222 1926.99 152.554 34.2555 5.6246 26.577 23.0579 14.1168 64.6557 16.5753 5.57137 35.8877
internal_count=108500 8523 844 99977 2585 97392 9060 7679 251 178 2361 574 8882 196 385 63 49 108 60 7428 662 160 41 144 125 83 270 139 46 322
is_linear=0
shrinkage=0.05


Tree=10
num_leaves=31
num_cat=0
split_feature=28 28 41 28 50 39 35 41 27 37 39 39 28 50 39 29 28 4 35 41 16 4 42 48 21 14 4 28 50 36
split_gain=28679.1 551.23 965.001 464.496 695.304 70.062 62.2541 49.6067 47.8755 197.891 38.4103 38.3674 35.4556 205.811 39.227 34.4857 28.4615 25.8332 24.0737 22.9162 19.6392 35.8961 24.2788 18.8099 17.0619 15.2449 15.2405 15.2118 131.523 27.8128
threshold=0.20765026658773425 0.13796468824148181 0.65254036337137233 0.28649973869323736 0.24318889575079086 0.031260364688932903 -0.18498419970273969 0.40732779353857046 0.059666328132152564 0.078239616006612792 0.080609925091266646 0.021398965269327167 0.3688389658927918 0.31714219134300953 0.12091253697872163 0.55519412457942974 0.17327229678630832 0.684881091117859 -0.38553483039140696 0.12754599750041964 0.69001656770706188 0.70330896973609935 0.031577520072460181 0.06688250100705774 0.10990298166871072 0.17919639497995379 0.49734549224376684 0.082962345331907286 0.11226505856029691 0.022609664127230648
decision_type=2 2 2 2 2 2 2 2 2 2 2 2 2 2 2 2 2 2 2 2 2 2 2 2 2 2 2 2 2 2
left_child=1 8 6 4 10 -4 20 18 27 11 25 -10 13 14 -5 24 -7 -9 -6 -15 -3 -22 -23 -12 -8 -2 -21 -1 29 -29
right_child=3 2 5 12 7 16 15 17 9 -11 23 -13 -14 19 -16 -17 -18 -19 -20 26 21 22 -24 -25 -26 -27 -28 28 -30 -31
leaf_value=0.038106579396870788 -0.097181068023430489 0.033808095273289991 -0.094486298967058513 -0.096885264567060495 0.02570055199070605 0.0043488846673710611 -0.0085117265450409228 -0.059707991378045513 -0.10087930414647724 0.032007700353977417 -0.10991828627901919 -0.0040360076560749828 -0.096833019007220897 0.02592941345534951 -0.042999368800739839 0.0072982423614895812 -0.076303772028179756 0.0035975964616533646 -0.0074323894798470312 -0.080382479765315248 -0.061085015197476313 0.030454485434200946 -0.01386742055372954 -0.01735895087425899 -0.082942128088723394 -0.067623200889099441 -0.017460494820796976 -0.077482102591588206 0.035306301471990945 0.016678140137372271
leaf_weight=13271.001142948866 433.44569553434849 676.22513096034527 216.54927970468998 690.50904427468777 161.38743820786476 28.440018832683563 12.985736146569254 39.896553993225098 35.25580658018589 485.06199412047863 7.032234549522399 14.406556904315947 4723.2369909137487 26.400425463914871 35.510273635387421 96.830211326479912 17.775275141000748 27.035325407981873 83.027377888560295 11.98346523940563 13.979208260774611 158.77244853973389 38.363854303956032 25.010335013270378 18.91438353061676 48.505125805735588 48.866914346814156 31.587424173951149 1942.7372766882181 10.432592779397963
leaf_count=69906 1301 3455 667 2066 783 128 57 152 114 2498 24 67 14049 117 134 478 58 124 381 43 57 798 193 103 72 166 206 132 10121 50
internal_value=0.000652868 0.0344235 0.0028503 -0.0899563 -0.0549642 -0.082559 0.0249379 0.00400124 0.0369806 0.022275 -0.0906819 -0.072786 -0.0951727 -0.08553 -0.0942497 -0.00755564 -0.0266717 -0.0341374 0.0144453 -0.0129736 0.0296518 0.0163389 0.0218292 -0.0376725 -0.0526434 -0.0942063 -0.0298519 0.037496 0.0334134 -0.0541043
internal_weight=23431.2 17069.3 1278.84 6361.85 825.34 262.765 1016.07 311.347 15790.5 534.724 513.993 49.6624 5536.51 813.27 726.019 128.73 46.2153 66.9319 244.415 87.2508 887.341 211.116 197.136 32.0426 31.9001 481.951 60.8504 15255.8 1984.76 42.02
internal_count=108500 88851 5963 19649 3034 853 5110 1440 82888 2679 1594 181 16615 2566 2200 607 186 276 1164 366 4503 1048 991 127 129 1467 249 80209 10303 182
is_linear=0
shrinkage=0.05


Tree=11
num_leaves=31
num_cat=0
split_feature=5 5 17 27 17 10 5 50 27 39 39 5 31 2 37 26 25 26 36 5 13 42 37 50 42 42 18 16 3 2
split_gain=22869.4 471.115 821.252 272.404 314.518 62.3578 29.2281 284.503 28.0391 210.747 26.1936 25.6333 31.1214 22.7752 15.5644 15.3778 12.0343 12.0258 11.0205 10.7044 10.6878 10.2934 13.1424 12.2321 10.1164 12.6051 9.27934 9.8289 13.0574 8.6985
threshold=0.23993498086929324 0.15720003098249438 0.13066393882036212 0.21475210599601272 0.22837233543395999 0.21248850971460345 0.11769798770546915 0.14141541766002777 0.31449571624398237 0.13852614909410479 0.080609925091266646 0.18884175270795825 0.16383763402700427 0.10921942070126535 0.29317012429237371 0.47789074480533605 0.2714065313339234 0.59024997800588619 0.061882503330707557 0.32165740430355078 0.76616457104682933 0.031577520072460181 0.18925882130861285 0.21515601733699444 0.045207608491182334 0.027889471501111988 0.23461887240409854 0.44501395523548132 0.14614497125148776 0.14994186162948611
decision_type=2 2 2 2 2 2 2 2 2 2 2 2 2 2 2 2 2 2 2 2 2 2 2 2 2 2 2 2 2 2
left_child=1 6 15 4 10 17 -1 13 9 -5 16 21 18 -8 19 -3 -2 -4 -13 -6 -9 29 23 -23 25 -12 -16 -28 -29 -7
right_child=3 2 5 8 14 11 7 20 -10 -11 24 12 -14 -15 26 -17 -18 -19 -20 -21 -22 22 -24 -25 -26 -27 27 28 -30 -31
leaf_value=-0.035285952651704096 0.12832715783509202 -0.00068941721437274645 -0.028125740453212995 0.12906619311343928 0.023410335636652495 0.029931576118048205 0.13708163504216483 -0.034232627204525953 0.13010116102083533 0.019478425475491903 0.039251396803507234 0.15348882772656902 0.018846400349569262 0.03174217801366476 -0.015193152725327789 0.12481868005432642 0.067651366146458225 0.06661600243351444 0.054290378478302675 0.09878364557817583 -0.017399934680843804 0.014451243604911047 -0.0081975157411969535 0.15725038643452011 -0.0053340797213373026 0.13694620057915777 -0.025842540656625251 0.0099061687499032089 0.14201170679138445 -0.023494045806393526
leaf_weight=10259.830674141645 145.94893865287304 2.4889564663171759 421.80943943560123 368.47284473478794 40.165471017360687 8.9339468926191312 27.222229354083538 621.97046288102865 2280.8833368569613 49.800215363502502 7.485441058874132 6.6393465101718885 42.355074509978294 6.3230638578534117 51.830448068678379 125.51977415382862 8.6567141413688642 3.3762457072734824 4.8414679616689682 5.3363597989082328 111.15533839166164 2.9153995960950843 8.7311395853757841 3.0881816223263741 4.3613083064556113 5.9074649810791016 4.3997227475047094 4.2472499907016754 3.3425579071044922 51.754159390926361
leaf_count=86750 535 12 3270 1323 270 64 109 4933 8061 294 35 28 283 37 370 475 37 25 30 23 896 22 68 23 23 28 32 31 23 390
internal_value=-0.0006097 -0.0320871 0.00822698 0.123036 0.0762472 -0.018128 -0.0345823 -0.0251652 0.127919 0.116019 0.118325 0.012284 0.0386387 0.117226 0.00990672 0.122378 0.12493 -0.0273734 0.111657 0.03225 -0.0316805 -0.00652763 0.0309592 0.0879057 0.0608056 0.0823435 -0.00602337 0.0336174 0.0680856 -0.0156292
internal_weight=14689.8 11709 682.453 2980.84 281.682 554.444 11026.5 766.671 2699.16 418.273 172.36 129.259 53.8359 33.5453 109.322 128.009 154.606 425.186 11.4808 45.5018 733.126 75.4228 14.7347 6.00358 17.7542 13.3929 63.82 11.9895 7.58981 60.6881
internal_count=108500 97415 4690 11085 1407 4203 92725 5975 9678 1617 658 908 341 146 749 487 572 3295 58 293 5829 567 113 45 86 63 456 86 54 454
is_linear=0
shrinkage=0.05


Tree=12
num_leaves=31
num_cat=0
split_feature=3 3 15 3 50 3 50 22 27 15 15 4 6 15 12 49 28 42 1 3 15 20 42 6 4 3 47 49 0 20
split_gain=16494.3 210.052 384.898 167.489 237.055 37.9121 219.249 24.1391 23.2494 62.8507 20.6405 19.8692 19.8101 17.9952 17.8341 19.6178 15.5465 15.0786 14.4356 8.501 97.6495 11.3751 8.44778 8.3783 7.58401 8.74278 6.731 6.54257 5.95541 5.59877
threshold=0.17268045991659167 0.12954070419073108 0.097130268812179579 0.20927730202674868 0.2070303410291672 0.08676666766405107 0.11939883092418314 0.73769775032997142 0.084687117487192168 0.20222128927707675 0.075654424726963057 0.75784260034561168 0.15932456403970721 0.07452526688575746 0.12055544182658197 0.098427210003137602 0.11918023228645326 0.017057888209819797 0.59722250699996959 0.26895338296890264 0.18703512102365497 0.26123195886611944 0.038445856422185905 0.21851083636283877 0.8637167513370515 0.09768694639205934 0.51993124186992656 0.040340047329664237 0.1092023327946663 0.37141604721546179
decision_type=2 2 2 2 2 2 2 2 2 2 2 2 2 2 2 2 2 2 2 2 2 2 2 2 2 2 2 2 2 2
left_child=1 5 7 4 26 -1 13 -3 9 23 11 -8 18 24 15 -4 17 -13 -6 20 -10 -22 -17 -5 25 -7 -2 -16 -29 -12
right_child=3 2 14 8 12 6 10 -9 19 -11 29 16 -14 -15 27 22 -18 -19 -20 -21 21 -23 -24 -25 -26 -27 -28 28 -30 -31
leaf_value=-0.033889259695798743 0.057074323150765577 -0.021371065974102821 0.10989439153682663 0.12542770327249939 -0.0066437331553818079 0.048158362648845626 -0.036427675471783348 0.1209578942601971 0.12264438479198464 -0.026296974282439836 -0.029968935389085318 0.12169052855094005 -0.019573514623114185 0.008536751182611808 0.066762788144957841 -0.020980577190160096 0.15432166508020298 -0.0070087135985694568 0.1375244095671285 0.12241674121287023 -0.028706737510424064 0.091019534755363618 0.077884809864390059 0.06098368851999722 0.17195733669322308 0.12137291549842005 0.12748046043303216 0.057997677427142881 -0.026405642238820838 -0.0070328812714945876
leaf_weight=7810.3027833849192 3.5690886229276648 3.122679889202117 5.0319375768303898 32.2707135155797 3.2678718492388716 5.2317948713898721 10.222744241356851 64.759318962693214 154.68209686875343 9.846579395234583 812.07454475015402 3.1200469732284537 54.221967153251171 4.3885740116238585 1.9354016855359066 12.587415196001528 3.0762780755758277 8.4116612151265127 3.7049287110567093 1995.5520473867655 12.842553369700907 2.3463390693068495 2.6084532812237731 5.9777271524071685 5.1883288621902457 18.481242753565311 69.467598684132099 2.1105990633368483 213.461350671947 27.508265852928162
leaf_count=88332 18 22 32 125 24 38 88 241 531 91 8420 20 525 39 18 103 15 73 25 6766 112 19 20 35 29 72 252 17 2132 266
internal_value=-0.00059417 -0.0313408 0.0094023 0.11745 0.0632188 -0.0327708 -0.0230396 0.114411 0.120739 0.0863551 -0.0278887 0.0170382 -0.00937183 0.102875 -0.0205814 0.0243254 0.0544539 0.0278125 0.0699586 0.121503 0.110765 -0.0102117 -0.0040098 0.115356 0.1172 0.10522 0.12404 -0.0247576 -0.0255793 -0.0292175
internal_weight=11361.4 9013.62 305.617 2347.75 134.231 8708.01 897.703 67.882 2213.52 48.095 864.414 24.8307 61.1948 33.2899 237.735 20.2278 14.608 11.5317 6.9728 2165.42 169.871 15.1889 15.1959 38.2484 28.9014 23.713 73.0367 217.507 215.572 839.583
internal_count=108500 99977 2585 8523 844 97392 9060 263 7679 251 8882 196 574 178 2322 155 108 93 49 7428 662 131 123 160 139 110 270 2167 2149 8686
is_linear=0
shrinkage=0.05


Tree=13
num_leaves=31
num_cat=0
split_feature=28 28 40 28 50 35 28 50 29 27 40 38 29 29 36 16 29 42 39 39 16 2 28 40 46 29 15 3 29 23
split_gain=24584.7 528.535 834.214 354.55 440.315 85.2665 58.7814 258.354 52.7237 47.2925 190.745 41.8783 36.8778 28.5763 27.6261 20.8312 28.172 24.8424 20.5974 20.3711 20.2938 17.6252 15.5456 133.51 24.5556 25.5562 23.0565 41.2319 13.9523 13.912
threshold=0.20765026658773425 0.13796468824148181 0.11296753957867624 0.25906093418598181 0.22367523424327376 -0.18498419970273969 0.32635328173637396 0.28530180035158997 0.55519412457942974 0.059666328132152564 0.077524457126855864 0.31390792131423956 0.42037715017795568 0.1827957481145859 0.039615545421838767 0.69001656770706188 0.51276845484972011 0.031577520072460181 0.031260364688932903 0.10772564634680749 0.48719725012779241 0.1677145063877106 0.082962345331907286 0.068558800965547576 0.069412183016538634 0.73487705737352382 0.076208882033824935 0.10130211710929872 0.3188669160008431 0.11660500243306161
decision_type=2 2 2 2 2 2 2 2 2 2 2 2 2 2 2 2 2 2 2 2 2 2 2 2 2 2 2 2 2 2
left_child=1 9 18 4 -2 15 7 19 21 22 14 -6 -13 -9 -11 -4 -17 -18 -3 -5 -15 -7 -1 24 -24 -26 27 -25 -22 -20
right_child=3 2 5 6 11 8 -8 13 -10 10 -12 12 -14 20 -16 16 17 -19 29 -21 28 -23 23 26 25 -27 -28 -29 -30 -31
leaf_value=0.037641711321885277 -0.08342467628407417 -0.085659465566276585 0.033191362126384315 -0.086124086607911737 0.026939535316137714 -0.087129675217693492 -0.085381422140406171 -0.081855294354523059 0.0066115287397808687 -0.080487009145991564 0.032610891837001325 -0.044449808934609668 0.0057914455477390851 0.038532576424729979 0.0013070227698194581 -0.064714708447523348 0.027957703763514204 -0.01634997585293679 -0.077717797995384794 -0.03657773551581741 -0.028884469377386729 -0.023261487682380812 -0.10243451056130803 0.024610125265418184 -0.1023731127229745 0.0099113516118264165 0.036791517279413731 -0.072592345617485579 0.012232120188999392 0.0019969351304764626
leaf_weight=12600.173436552286 309.73046460747719 218.49758614599705 647.26733663678169 540.71524345874786 114.04140603542328 23.745077192783356 5410.3730902969837 10.846945166587828 113.76788972318172 46.552485972642899 456.17408835887909 58.178322613239288 98.131884172558784 29.762573152780533 13.264787733554838 10.502339914441107 161.68328942358494 39.331261157989502 10.19370709359646 21.573533073067665 43.997154697775841 19.817261427640915 16.983940854668617 205.75962394475937 7.2526854872703579 16.819538086652756 1636.2578419744968 11.520703822374342 38.852520376443863 11.819705560803412
leaf_count=69906 901 632 3455 1541 572 79 15330 36 562 152 2470 223 463 142 57 39 837 198 32 81 180 83 63 1119 23 85 8970 43 180 46
internal_value=0.000712415 0.0338696 0.00272041 -0.0800791 -0.0427261 0.0225403 -0.0836335 -0.0698425 -0.0112992 0.0364772 0.0216025 0.0039006 -0.0129082 -0.00434668 -0.0623488 0.0287398 0.0151173 0.0192883 -0.0810151 -0.0842231 0.00311905 -0.0580749 0.0370068 0.032784 -0.0563988 -0.0239187 0.0347594 0.0194562 -0.00960276 -0.0349164
internal_weight=22943.6 16267.4 1256.63 6676.2 580.082 1016.11 6096.12 685.748 157.33 15010.8 515.991 270.352 156.31 123.459 59.8173 858.784 211.517 201.015 240.511 562.289 112.612 43.5623 14494.8 1894.59 41.0562 24.0722 1853.54 217.28 82.8497 22.0134
internal_count=108500 88851 5963 19649 2159 5253 17490 2160 724 82888 2679 1258 686 538 209 4529 1074 1035 710 1622 502 162 80209 10303 171 108 10132 1162 360 78
is_linear=0
shrinkage=0.05


Tree=14
num_leaves=31
num_cat=0
split_feature=5 5 40 27 17 10 3 39 5 17 50 28 39 5 5 38 13 13 5 10 38 5 42 37 39 5 2 39 36 42
split_gain=19063.1 322.709 591.082 288.463 310.872 45.2803 36.4895 29.6658 23.7926 263.784 23.7671 19.9323 162.783 18.7494 18.5668 15.4078 15.1164 14.8773 14.736 14.309 12.6643 19.5531 14.7962 12.1278 12.1231 26.8272 11.619 10.6975 10.0305 9.93313
threshold=0.22638297826051715 0.15343026071786883 0.13226937502622607 0.21475210599601272 0.22837233543395999 0.23383373022079471 0.23530557006597522 0.046548295766115196 0.10325087234377862 0.068637549877166762 0.14141541766002777 0.40869109332561498 0.15434879064559939 0.12663077563047412 0.25593970715999609 0.76565170660614978 0.74489861726760875 0.67036563158035289 0.32165740430355078 0.13224086165428164 0.57162610441446315 0.21443551033735278 0.031577520072460181 0.29317012429237371 0.029744811356067661 0.18884175270795825 0.28281797468662268 0.11734541505575181 0.051854439079761512 0.037398405373096473
decision_type=2 2 2 2 2 2 2 2 2 2 2 2 2 2 2 2 2 2 2 2 2 2 2 2 2 2 2 2 2 2
left_child=1 8 16 4 7 -4 11 -2 -1 15 13 12 27 -11 17 -10 -3 -9 23 -14 -7 22 -22 -6 -18 28 -20 -5 -26 -16
right_child=3 2 5 6 18 20 -8 14 9 10 -12 -13 19 -15 29 -17 24 -19 26 -21 21 -23 -24 -25 25 -27 -28 -29 -30 -31
leaf_value=-0.035232811768072428 0.11183852280570024 0.013245571943757143 -0.027334010878363874 0.11163281505071453 0.013720567190940232 -0.0033278079541301138 -0.014569757497711886 -0.0063029899615176035 0.029133481669203723 -0.012165303815760914 -0.032790544703430534 0.11103502663348082 -0.030603738944241673 0.080185839731788874 0.10145359159735112 0.13140577165785469 0.11387497976657475 0.066477899901359008 0.12012637221457412 0.030190410066416352 0.0055602117920347284 0.12670158265900164 0.10739735222112637 -0.0179884623419811 0.070909462027336168 0.11940854578130274 0.024416383768479988 0.081824074307147721 -0.018403520507038723 0.030609859473392339
leaf_weight=9329.3903863653541 143.17790427803993 4.7013508677482596 449.60133985430002 421.25338405370712 57.514670968055725 55.986850291490555 5.9680142104625693 9.2895443141460401 4.2800559699535397 18.433153845369819 1041.1232654824853 2471.5517981052399 13.211054012179373 7.83072505891323 48.756873324513435 26.385569870471954 88.220303863286972 28.758512988686562 3.9757115393877056 36.200992494821548 25.613021411001686 4.989210680127143 4.1438536345958701 63.39044738560915 5.7555784583091754 16.062225878238678 15.665883257985113 32.413577809929848 6.9272564202547073 5.506762519478797
leaf_count=83328 473 25 3598 1356 391 410 33 54 22 154 8660 7912 84 36 174 97 292 122 16 190 186 20 29 489 25 55 85 122 38 24
internal_value=-0.000664176 -0.0322643 0.00158736 0.103734 0.0624677 -0.0208318 0.108941 0.0975889 -0.0344134 -0.0274517 -0.0316055 0.109188 0.100117 0.0153697 0.0754875 0.117131 0.101153 0.0487082 0.00362107 0.0139362 0.0113881 0.0351002 0.0197417 -0.00290445 0.104686 0.0764864 0.0437893 0.109503 0.0221275 0.0942643
internal_weight=14446.1 11089.4 662.001 3356.64 376.036 540.334 2980.6 235.49 10427.4 1098.05 1067.39 2974.63 503.079 26.2639 92.3117 30.6656 121.667 38.0481 140.547 49.412 90.7329 34.7461 29.7569 120.905 116.965 28.7451 19.6416 453.667 12.6828 54.2636
internal_count=108500 96975 4678 11525 1828 4243 9697 847 92297 8969 8850 9664 1752 190 374 119 435 176 981 274 645 235 215 880 410 118 101 1478 63 198
is_linear=0
shrinkage=0.05


Tree=15
num_leaves=31
num_cat=0
split_feature=3 3 50 3 50 3 50 15 50 4 4 27 15 3 18 0 20 11 15 46 3 28 47 14 21 22 3 0 15 45
split_gain=13941.2 170.402 314.819 128.264 211.662 41.5994 222.541 30.4307 22.8404 22.0335 18.7262 17.7466 63.1538 14.8304 10.2203 9.15145 8.85813 16.0445 8.38491 7.70072 15.7773 7.46928 7.44756 6.87989 6.74544 6.68162 6.3497 51.0682 6.18518 5.98591
threshold=0.17268045991659167 0.12954070419073108 0.15650944970548156 0.20927730202674868 0.21230222703889015 0.08676666766405107 0.11569014238193633 0.073442932218313231 0.18055578600615266 0.74049940705299389 0.75784260034561168 0.097162257879972472 0.20222128927707675 0.09768694639205934 0.079413834959268584 0.097041577100753798 0.37141604721546179 0.71207526326179515 0.16162800788879397 0.073169484734535231 0.10130211710929872 0.14812392741441729 0.242753341794014 0.10111963376402856 0.1524632200598717 0.56359058618545543 0.23530557006597522 0.18797861039638522 0.13024334609508517 0.19852137751877311
decision_type=2 2 2 2 2 2 2 2 2 2 2 2 2 2 2 2 2 2 2 2 2 2 2 2 2 2 2 2 2 2
left_child=1 5 23 4 -2 -1 19 10 9 14 -8 12 18 -12 -4 -15 -9 28 -5 -7 -21 -11 -20 -3 25 -6 27 -13 29 -18
right_child=3 2 8 11 24 6 7 16 -10 21 13 26 -14 15 -16 -17 17 -19 22 20 -22 -23 -24 -25 -26 -27 -28 -29 -30 -31
leaf_value=-0.033747633153453672 0.10747922572259122 0.11124596740248489 0.043063820940527901 0.1121895130524321 -0.021064241348211055 0.12442121459929983 -0.036393383839861758 -0.02974925486021282 -0.025050706735184725 -0.036078178074359826 -0.024727092881773324 0.10807045979106185 -0.01539166288903503 0.12384775244349054 0.16376113385939223 0.039806887923476031 -0.014408587805880805 0.13387195074924682 0.10353505074700119 -0.0014858577211010286 0.12687921387264484 0.042188983722281893 0.0031350175953121732 0.053799821425140941 -0.02195348610777639 0.080842395166557349 0.1059134312998536 -0.013720799937603962 -0.023573186828058312 0.10068060328381974
leaf_weight=7422.1914578676224 83.043487757444382 56.470993660390377 3.5867488682270077 45.761928990483284 3.0768817439675322 21.908016830682758 7.9569900929927853 783.51065204292536 218.40847071260214 8.3774024397134763 4.2474061027169254 60.157696425914764 13.930637434124945 6.6520503982901555 3.4323133304715157 6.3139035031199455 2.3400538265705171 2.0528735965490332 3.8056907653808585 4.2402281910181028 5.4970114231109619 4.7919913157820693 3.5889883413910866 5.7418852671980849 53.037636533379555 3.3704172298312187 2267.4580844640732 10.044211491942404 20.016992658376694 2.1844912618398666
leaf_count=88393 286 185 21 154 22 89 69 8395 2200 85 39 189 124 32 20 37 25 17 18 36 19 25 23 26 525 24 7103 76 198 18
internal_value=-0.000732314 -0.0311955 0.00577196 0.101996 0.0559099 -0.0325371 -0.0221729 -0.0271038 -0.0203474 0.0305356 0.0270386 0.104727 0.0793723 0.0563604 0.102085 0.0829232 -0.028786 -0.000406968 0.104207 0.107978 0.0709807 -0.00759884 0.0548062 0.105944 -0.0160831 0.0322089 0.105455 0.090645 -0.0116393 0.0411575
internal_weight=11137.2 8589.92 300.81 2547.28 142.528 8289.11 866.921 835.275 238.597 20.1885 25.1704 2404.75 67.0872 17.2134 7.01906 12.966 810.105 26.5944 53.1566 31.6453 9.73724 13.1694 7.39468 62.2129 59.4849 6.4473 2337.66 70.2019 24.5415 4.52455
internal_count=108473 99929 2562 8544 857 97367 8974 8830 2351 151 177 7687 319 108 41 69 8653 258 195 144 55 110 41 211 571 46 7368 265 241 43
is_linear=0
shrinkage=0.05


Tree=16
num_leaves=31
num_cat=0
split_feature=28 28 37 28 50 27 48 27 40 10 4 14 17 29 35 29 40 29 4 35 29 31 36 37 28 46 37 15 3 4
split_gain=21454.9 412.841 659.188 385.36 480.825 46.9697 151.658 44.9749 209.676 41.341 40.5572 40.3024 35.9179 35.0309 34.235 31.9565 23.2992 27.8956 22.7945 17.0037 16.873 15.3658 13.5538 13.2919 11.6556 100.504 26.391 23.3653 46.0377 14.314
threshold=0.19961670041084292 0.13796468824148181 0.13506039977073672 0.25906093418598181 0.22367523424327376 0.24248464033007625 0.16041391389444473 0.0542101338505745 0.055990803986787803 0.21534145623445514 0.74677273631095897 0.2648789137601853 0.11121950671076776 0.1827957481145859 -0.35244038701057429 0.42037715017795568 0.082206860184669509 0.74985963106155407 0.74049940705299389 -0.52413746714591969 0.51276845484972011 0.15926772356033328 0.039615545421838767 0.19760143011808398 0.082962345331907286 0.073169484734535231 0.077445633709430708 0.075654424726963057 0.099358741194009795 0.83468833565711986
decision_type=2 2 2 2 2 2 2 2 2 2 2 2 2 2 2 2 2 2 2 2 2 2 2 2 2 2 2 2 2 2
left_child=1 7 12 4 -2 6 11 24 -9 -4 20 -5 -3 -13 23 -16 17 22 -14 -8 -11 -22 -10 -6 -1 26 -26 28 29 -27
right_child=3 2 9 5 14 -7 19 8 16 10 -12 13 18 -15 15 -17 -18 -19 -20 -21 21 -23 -24 -25 25 27 -28 -29 -30 -31
leaf_value=0.037218744037868429 -0.075629066192181779 -0.07529697822942634 0.032289497983531389 -0.076672405217536377 -0.055560458957784012 -0.077516590652347672 0.023734268214417861 -0.079698374414607323 -0.079606632246217737 -0.068516018014681115 0.021693642345513416 -0.065430310957584767 -0.076704339172641009 0.0026801545937697301 -0.042472393178926898 0.0088578734140557745 0.033688454707334774 0.031869902186108294 0.0042979776592591201 -0.020995756138957839 -0.043566372953278254 0.0063306794044939475 0.002189375759892058 0.024145815840085363 -0.095990575693198812 -0.013393826045929076 0.014108339368096133 0.036371310359541241 -0.074122901870588023 0.030212291911305311
leaf_weight=11926.314311027527 361.91042895615101 210.30228428542614 604.55957187712193 672.68525274097919 5.3813100904226294 5445.6490636467934 30.018300846219063 45.911086350679398 12.300691857934 14.616958707571028 194.2829899340868 48.714005172252655 13.096300095319746 30.823409274220467 50.395505115389824 76.122249990701675 584.1409480124712 25.663400709629059 25.784871935844421 72.707003429532051 22.622592881321907 48.524609923362732 8.6091064363718015 186.61522163450718 18.741122975945476 21.808475524187088 7.6706340909004203 1453.6157934069633 12.858141899108885 137.30891406536102
leaf_count=69749 1026 600 3368 1870 21 14925 133 144 40 51 1017 143 44 129 189 364 3332 133 122 302 91 237 37 967 72 118 41 8382 46 780
internal_value=0.000756179 0.033737 0.00469831 -0.0719456 -0.0361981 -0.0758061 -0.0649107 0.0360466 0.0234654 0.0249328 0.0090514 -0.0726928 -0.0671347 -0.0390352 0.00860512 -0.0115884 0.0309749 -0.00305923 -0.0229859 -0.00792479 -0.0195873 -0.00953503 -0.0459291 0.0219118 0.0366735 0.0327375 -0.0640151 0.0343095 0.0168817 0.0242357
internal_weight=22369.8 15388.7 1133.79 6981.02 680.425 6300.6 854.948 14254.9 676.625 884.607 280.047 752.223 249.183 79.5374 318.514 126.518 630.714 46.5732 38.8812 102.725 85.7642 71.1472 20.9098 191.997 13578.3 1652 26.4118 1625.59 171.976 159.117
internal_count=108473 88404 5530 20069 2567 17502 2577 82874 3686 4764 1396 2142 766 272 1541 553 3542 210 166 435 379 328 77 988 79188 9439 113 9326 944 898
is_linear=0
shrinkage=0.05


Tree=17
num_leaves=31
num_cat=0
split_feature=5 5 17 27 17 39 38 5 5 5 50 25 42 29 17 5 30 5 19 38 36 2 39 27 39 39 27 8 32 15
split_gain=16360.4 301.435 513.089 204.574 256.442 41.551 32.2553 28.0405 27.42 25.663 210.574 18.7181 16.9773 19.3466 13.9146 26.33 16.7158 12.2379 11.8546 11.0709 11.0691 10.9418 11.2521 10.6871 93.1073 15.4426 11.3308 10.5626 10.0278 9.74287
threshold=0.22638297826051715 0.15343026071786883 0.13066393882036212 0.21475210599601272 0.23602937906980517 0.080609925091266646 0.51540386676788341 0.25593970715999609 0.18884175270795825 0.11769798770546915 0.1390330386348069 0.16820872575044635 0.14400570839643481 -0.11674329638481139 0.098864402621984496 0.18884175270795825 0.027118566446006302 0.32165740430355078 0.63417029380798351 0.63754622638225567 0.20552797988057139 0.092206679284572615 0.014983945526182653 0.35735717788338667 0.15434879064559939 0.21181884780526164 0.31449571624398237 0.18986385315656665 0.23911678791046145 0.087302770465612425
decision_type=2 2 2 2 2 2 2 2 2 2 2 2 2 2 2 2 2 2 2 2 2 2 2 2 2 2 2 2 2 2
left_child=1 9 14 4 5 18 -4 -5 -8 -1 21 -10 23 -14 -3 16 -16 -6 -2 -12 -15 -11 -23 24 -9 26 -26 -13 -19 -7
right_child=3 2 6 7 17 29 8 12 11 10 19 27 13 20 15 -17 -18 28 -20 -21 -22 22 -24 -25 25 -27 -28 -29 -30 -31
leaf_value=-0.034825982979984793 -0.0073194067156058338 0.09865678079955123 -0.027419864972700148 -0.0092551938364957304 -0.0064063281918472189 -0.0087785202055925271 -0.012901702976023409 0.096627320348624951 0.11815595117237142 0.11102292336520843 -0.033690479826630183 0.053823410003488163 0.088907589851447186 0.073953742539321118 0.10625383247013252 0.10397161868823573 -0.005713900872369033 0.014062750193583254 0.094372844560787844 -0.012748761113593562 0.0015082063982101953 0.10890022269490061 0.0034015024308545264 0.09816412931006166 0.029597416226565056 -0.00099390582777773612 0.087538715173588078 -0.013927407791915267 0.093900375270129677 0.050781284802540842
leaf_weight=9232.6889334097505 2.9017445594072333 95.331651583313942 425.81736668199301 6.3383420258760443 110.25589645653963 9.7544690966606122 70.72060339897871 651.36876818537712 6.6556456759572056 25.450022488832474 562.979412086308 12.660154134035112 50.869352668523788 9.1903137564659136 4.3498510122299221 19.138603672385216 14.264388382434843 13.87713670730591 231.56276784837246 71.078177653253078 12.369039624929426 4.5155567079782468 5.7404304817318916 2403.6285910308361 22.342238858342171 23.006358802318573 13.558052182197569 10.544148400425909 5.4886421114206305 23.189710885286331
leaf_count=86732 13 293 3505 34 806 53 551 1970 38 82 4837 67 154 35 18 62 73 71 733 600 53 16 33 7166 119 113 42 73 23 108
internal_value=-0.000618983 -0.0319606 0.00077085 0.091597 0.0577492 0.0857264 -0.0214045 0.0958062 0.0040619 -0.0341404 -0.0246899 0.0442387 0.0960152 0.0720845 0.0884826 0.0627914 0.0204512 3.24082e-05 0.0931143 -0.0313429 0.0323903 0.0934523 0.049851 0.0965718 0.0911833 0.0309857 0.0514794 0.0230371 0.0366903 0.0331462
internal_weight=14151.6 10561.9 659.482 3589.7 397.03 267.409 526.398 3192.67 100.581 9902.45 669.764 29.8599 3186.33 72.4287 133.084 37.7528 18.6142 129.622 234.465 634.058 21.5594 35.706 10.256 3113.9 710.275 58.9066 35.9003 23.2043 19.3658 32.9442
internal_count=108473 96980 4680 11493 1807 907 4234 9686 729 92300 5568 178 9652 242 446 153 91 900 746 5437 88 131 49 9410 2244 274 161 140 94 161
is_linear=0
shrinkage=0.05


Tree=18
num_leaves=31
num_cat=0
split_feature=3 3 50 5 3 50 3 15 15 3 50 29 4 3 6 9 8 9 20 9 0 15 13 0 3 14 6 0 29 42
split_gain=12024.7 162.623 267.436 123.955 41.2669 192.252 40.074 194.389 28.1097 25.7872 21.321 17.7967 16.4361 12.1241 11.2931 11.2712 8.83052 8.58602 8.57748 12.556 7.08525 6.41994 6.17263 5.80912 7.25204 5.48307 5.32875 5.77568 4.85432 4.75868
threshold=0.17268045991659167 0.12954070419073108 0.15650944970548156 0.25593970715999609 0.08676666766405107 0.11569014238193633 0.23530557006597522 0.14233560860157016 0.073442932218313231 0.26895338296890264 0.18055578600615266 0.61581305414438259 0.75784260034561168 0.09768694639205934 0.13911249488592151 0.37123572826385504 0.12166583165526391 0.30641533434391027 0.37141604721546179 0.21314801275730136 0.097041577100753798 0.13024334609508517 0.67036563158035289 0.07653184607625009 0.10130211710929872 0.10111963376402856 0.13133314251899722 0.11521108448505403 0.75316566973924648 0.080800443887710585
decision_type=2 2 2 2 2 2 2 2 2 2 2 2 2 2 2 2 2 2 2 2 2 2 2 2 2 2 2 2 2 2
left_child=1 4 25 6 29 23 7 -2 12 17 11 14 -7 -14 16 -9 -4 -5 -10 -20 -15 -21 -17 28 -25 -3 27 -12 -6 -1
right_child=3 2 10 9 5 8 -8 15 18 -11 26 -13 13 20 -16 22 -18 -19 19 21 -22 -23 -24 24 -26 -27 -28 -29 -30 -31
leaf_value=-0.033678253356796584 0.096633058610165024 0.098329268627631639 0.041368207242213489 0.059673666115348717 0.092786247905081401 -0.036313956790302714 0.094052018463408049 0.08078290532382161 -0.029433000717181825 0.077422297451782751 0.060108113029717691 -0.036030174691930393 -0.02444643411711362 0.1066294378890208 -0.012399051982520523 -0.026610539491372195 0.13596905605538928 -0.022337429221172839 0.095413595683077626 0.040611324498785552 0.03537811723397262 -0.025539035382671833 0.033418752036261004 0.016126274327064923 0.10697413585446741 0.048317688513593783 -0.027767494185193947 -0.012357416455457342 0.14162575944957032 -0.021395743016233829
leaf_weight=6961.7152046486735 178.29636000096798 60.358129382133484 4.8042110428214091 3.5696123391389838 18.438818596303467 7.7844790816307095 2426.6232036575675 2.9115409553050986 754.68223298341036 10.103678829967974 3.0905459895730045 7.0229827985167494 4.1565227061510113 7.3503748401999456 3.7076832056045523 42.583971448242664 5.0702067017555237 30.124400213360786 3.0206471383571651 4.53907432407141 6.6417809948325157 19.108396992087364 4.7611651271581641 4.6372937485575658 4.1738779544830322 6.027857430279254 184.37604512274265 24.929719619452953 7.0265688374638549 79.762675195932388
leaf_count=87535 557 185 26 23 64 69 7180 20 8395 37 24 73 39 32 25 463 27 229 23 41 37 194 35 35 13 26 1948 228 32 858
internal_value=-0.000727505 -0.0309148 0.00525534 0.0907907 -0.0322885 -0.0218241 0.0921669 0.0721515 -0.0267484 0.00736021 -0.0199691 0.0285911 0.0244645 0.0505341 0.0620052 -0.0147019 0.0899428 -0.013649 -0.0284482 -0.000579771 0.0728079 -0.0128416 -0.0205738 0.0941545 0.0591612 0.0937882 -0.0246801 -0.0043647 0.106262 -0.0335391
internal_weight=10881.4 8182.43 299.387 2698.97 7883.04 841.56 2655.18 228.553 807.284 43.7977 233.001 20.6051 25.9332 18.1487 13.5821 50.2567 9.87442 33.694 781.35 26.6681 13.9922 23.6475 47.3451 34.2766 8.81117 66.386 212.396 28.0203 25.4654 7041.48
internal_count=108473 99929 2562 8544 97367 8974 8255 1075 8830 289 2351 151 177 108 78 518 53 252 8653 258 69 235 498 144 48 211 2200 252 96 88393
is_linear=0
shrinkage=0.05


Tree=19
num_leaves=31
num_cat=0
split_feature=28 28 37 28 50 28 37 29 40 10 28 40 4 4 40 10 17 29 4 11 40 29 29 1 32 33 22 46 47 42
split_gain=18909.5 396.608 577.477 317.424 406.165 40.5207 290.818 49.2428 48.979 40.4307 39.1715 191.253 39.1242 37.2211 32.3266 30.2851 29.3295 27.428 19.1441 16.5402 16.372 20.2332 14.2152 13.4101 12.7137 11.4357 10.759 10.7236 10.7204 10.3421
threshold=0.19961670041084292 0.13796468824148181 0.13506039977073672 0.25906093418598181 0.22367523424327376 0.084072817116975798 0.079088333994150176 0.74985963106155407 0.058847265318036086 0.21534145623445514 0.3688389658927918 0.25530865788459783 0.48371776938438421 0.74677273631095897 0.25966398417949682 0.12135865539312364 0.11121950671076776 0.42037715017795568 0.74049940705299389 0.53095641732215892 0.081337805837392821 0.74617148563265812 0.51276845484972011 0.7290644943714143 0.7416004315018655 0.11518913507461549 0.84202980995178234 0.22727236151695254 0.6417328529059888 0.096115790307521834
decision_type=2 2 2 2 2 2 2 2 2 2 2 2 2 2 2 2 2 2 2 2 2 2 2 2 2 2 2 2 2 2
left_child=1 5 16 4 -2 -1 7 26 -9 -4 11 19 -13 22 17 -14 -3 27 -18 -5 21 24 -11 -24 -8 -25 -7 -6 -15 -17
right_child=3 2 9 10 14 6 20 8 -10 13 -12 12 15 28 -16 29 18 -19 -20 -21 -22 -23 23 25 -26 -27 -28 -29 -30 -31
leaf_value=0.036773531739114511 -0.069264680472853543 -0.068912049323981747 0.03168544878822778 -0.070968203364014479 -0.054980509850874687 -0.019316696037131788 0.0083760458550052423 -0.076774940191720042 0.018930319285709304 -0.062914493031414762 -0.071516874161337424 -0.061500341481433296 0.026483142914366188 0.02572128175519894 0.024860092166742516 -0.010983142225260574 -0.069664348448933933 0.0086109405219432205 0.003779132433006727 -0.039833391901506213 0.034517868537113951 0.034871939154898661 0.006542219690099502 -0.0057100202499619597 -0.069102734143930714 -0.073429744671528505 -0.08476281928404869 -0.013106274585487824 -0.0083588760014297065 -0.054909608450591257
leaf_weight=11421.159553989768 370.02200536429882 215.14970825612545 578.3447909206152 969.72805577516556 30.173125848174095 7.0959504693746558 10.279112607240679 20.227406948804855 39.42347614467144 15.114079937338827 5232.6266519129276 32.056431382894516 59.842236042022705 160.87598392367363 150.11347912251949 57.597727343440056 13.621482506394385 101.66590069234371 25.452857539057732 44.61956125497818 1941.2992845773697 24.99775356054306 45.879856199026108 12.678711771965029 10.919354707002638 12.264485433697699 54.59767472743988 30.995232194662094 26.939329206943512 17.462116613984108
leaf_count=70443 1026 600 3368 2627 103 32 45 74 216 51 14060 98 271 879 804 229 44 504 122 146 11720 141 225 51 37 52 166 130 138 71
internal_value=0.000767894 0.0332442 0.00446074 -0.0662097 -0.0338043 0.0355978 0.0292299 -0.0459154 -0.013523 0.0241923 -0.0696603 -0.0614365 -0.0118479 0.00836172 0.00812311 -4.91581e-05 -0.0616745 -0.00730637 -0.0218236 -0.0695986 0.0338178 0.00439995 -0.0188942 -0.00949998 -0.0315334 -0.0390076 -0.0772353 -0.033762 0.020833 -0.0212023
internal_weight=21733.2 14636.3 1106.32 7096.9 682.97 13530 2108.84 121.345 59.6509 852.097 6413.93 1181.31 166.959 273.752 312.948 134.902 254.224 162.834 39.0743 1014.35 1987.5 46.1962 85.9371 70.8231 21.1985 24.9432 61.6936 61.1684 187.815 75.0598
internal_count=108473 88404 5530 20069 2567 82874 12431 488 290 4764 17502 3442 669 1396 1541 571 766 737 166 2773 11943 223 379 328 82 103 198 233 1017 300
is_linear=0
shrinkage=0.05


Tree=20
num_leaves=31
num_cat=0
split_feature=5 5 17 27 17 38 5 5 46 5 0 42 29 25 14 32 13 22 42 29 17 17 28 36 2 33 38 41 18 19
split_gain=14186.3 289.217 441.736 164.017 210.987 30.73 28.172 25.4025 187.627 23.1367 18.8183 14.7958 16.7278 14.7888 14.7067 13.7114 12.3878 12.0441 10.2189 10.0969 102.885 13.9993 20.2266 9.60314 9.5681 9.02989 8.86683 8.81898 8.60317 14.4965
threshold=0.22638297826051715 0.15343026071786883 0.13066393882036212 0.21475210599601272 0.20667170733213427 0.51540386676788341 0.32165740430355078 0.11769798770546915 0.10465457662940027 0.18884175270795825 0.31721407175064092 0.14400570839643481 -0.11674329638481139 0.16820872575044635 0.23273707926273349 0.23911678791046145 0.79677364230155956 0.70586588978767406 0.034653581678867347 0.026167735457420353 0.31009528040885931 0.23182886838912967 0.3688389658927918 0.20552797988057139 0.10277953371405603 0.065730355679988875 0.16035655140876773 0.14900252223014834 0.11032627895474435 0.6784542202949525
decision_type=2 2 2 2 2 2 2 2 2 2 2 2 2 2 2 2 2 2 2 2 2 2 2 2 2 2 2 2 2 2
left_child=1 7 17 4 18 -4 14 -1 24 -7 11 19 -13 -11 28 -8 -10 -3 -2 -5 21 -21 -23 -14 -9 -15 -22 -16 -6 -30
right_child=3 2 5 10 6 9 15 8 16 13 -12 12 23 25 27 -17 -18 -19 -20 20 26 22 -24 -25 -26 -27 -28 -29 29 -31
leaf_value=-0.034590240370065285 0.084868770016512607 -0.013326704207238369 -0.027000290762816986 0.088090536636745376 0.0074557264351962655 -0.012325623972783663 0.023119254018890947 0.097187224072725883 -0.032804231462604867 0.10122666722876013 0.0052361150218792687 0.079450978019001223 0.065405412739691401 0.077135362122351281 -0.034477495524735974 0.089862828085172028 -0.0042304757391171278 0.081610871797428819 0.029717720736802573 0.087465012959621405 -0.039556651267737289 0.032405662296821958 0.083507317713874124 -0.00050434680192874837 0.027760249961269485 0.003806232079318564 0.015980656219070046 0.00013193568017759691 0.0060254617377661279 0.11534312850313788
leaf_weight=8748.4076909795403 229.80652602016926 3.424515724182128 412.04583745449781 2466.2195820063353 13.376300238072874 69.275357879698277 16.931696191430095 30.511663280427456 569.67183691263199 7.3966744840145138 7.2281732410192481 53.055257558822632 9.7417872697114962 5.4230506867170361 22.932566314935684 14.105225771665571 40.637165255844593 136.48033454269171 8.7177895903587324 687.87114228308201 14.089043661952021 29.377818286418915 56.807643666863441 12.772330552339552 5.9265282154083243 18.588829532265663 14.670105896890162 93.259783670306206 5.5756918936967832 6.6491687595844269
leaf_count=86732 688 16 3505 7007 66 551 79 97 5097 38 35 153 35 24 189 47 333 430 36 1970 69 137 167 53 41 116 60 638 33 31
internal_value=-0.000635185 -0.0316476 0.000538165 0.0821685 0.0523717 -0.0209495 0.0103043 -0.0338833 -0.0243212 0.00381333 0.0858253 0.0859995 0.0641267 0.0394097 0.000859764 0.0534519 -0.0309017 0.079287 0.0828531 0.0865051 0.0816347 0.0850849 0.0660884 0.0280146 0.0858952 0.0203675 -0.0112269 -0.00669883 0.0351649 0.0654839
internal_weight=13811 10047.8 652.635 3763.19 411.355 512.73 172.83 9395.15 646.747 100.684 3351.83 3344.6 75.5694 31.4086 141.794 31.0369 610.309 139.905 238.524 3269.04 802.816 774.057 86.1855 22.5141 36.4382 24.0119 28.7591 116.192 25.6012 12.2249
internal_count=108473 96980 4680 11493 1807 4234 1083 92300 5568 729 9686 9651 241 178 957 126 5430 446 724 9410 2403 2274 304 88 138 140 129 827 130 64
is_linear=0
shrinkage=0.05


Tree=21
num_leaves=31
num_cat=0
split_feature=3 3 15 5 3 15 5 3 12 3 50 21 3 9 19 28 3 9 9 6 3 46 10 10 13 42 19 6 21 41
split_gain=10513.3 155.724 320.796 104.195 31.2228 159.883 29.2877 22.3216 19.9776 18.1819 96.1576 20.0582 16.4194 9.93287 9.86922 9.68602 8.38778 8.0052 7.57532 6.65306 8.76328 15.7872 6.32528 6.27264 5.68923 5.30961 12.6337 5.25179 5.06354 5.89624
threshold=0.17268045991659167 0.10905668139457704 0.088021807372570052 0.25593970715999609 0.23530557006597522 0.14233560860157016 0.1758888587355614 0.26895338296890264 0.099204991012811675 0.079357504844665541 0.11569014238193633 0.067706353962421431 0.13948632776737216 0.37123572826385504 0.46993491053581243 0.091652352362871184 0.091793578118085875 0.21430867165327075 0.30641533434391027 0.14161577820777896 0.15345278382301333 0.16347022354602816 0.17374732345342639 0.23063051700592044 0.67036563158035289 0.037398405373096473 0.72999244928359996 0.11779229715466501 0.083346415311098113 0.81796016171574604
decision_type=2 2 2 2 2 2 2 2 2 2 2 2 2 2 2 2 2 2 2 2 2 2 2 2 2 2 2 2 2 2
left_child=1 9 6 4 5 -2 -3 18 12 -1 11 15 23 -7 17 -11 -13 -12 -5 20 25 -22 -19 -4 -15 -10 -27 -24 -16 -30
right_child=3 2 8 7 -6 13 -8 -9 19 10 14 16 -14 24 28 -17 -18 22 -20 -21 21 -23 27 -25 -26 26 -28 -29 29 -31
leaf_value=-0.033508005454357802 0.087088142676425881 0.08402974856435072 0.067224107808665431 0.052460204330354879 0.08500930953341275 0.072118530214584919 -0.028939070803373903 0.069249157585257223 -0.024733073564041454 0.16732039983823643 0.060991172441782662 -0.014658477957058796 0.091544529266941621 -0.026207700060076285 -0.017339580531543282 0.078917274999548939 0.063653396339388865 -0.022853631256045857 -0.022221866688519429 -0.029362629558615863 0.088661356616426698 -0.023746236616221616 -0.0081782591982499063 -0.022015599292490209 0.030774707587456557 -0.011054077733464953 0.10653005452762526 0.11470178703889387 -0.031620702506038691 0.033654993297628055
leaf_weight=6425.9262177869678 186.94100078940392 91.565854355692863 2.4171798825264004 3.8303516730666152 2530.9724125638604 3.1154042556881896 6.1208189949393264 10.661758750677107 130.13292146474123 4.6046155169606235 4.5970635786652592 7.138742156326769 6.5522695779800406 41.098101198673248 72.341325618326664 9.4728793203830701 6.5625249519944191 18.909784182906154 29.911844968795776 281.57548049837351 5.3240868151187879 7.5575120970606804 1.8225117027759545 10.623186722397802 4.9029552266001692 32.030682623386383 2.459834396839141 1.6629150509834287 654.77396167069674 3.4778674095869055
leaf_count=85400 557 306 23 23 7180 20 49 37 1423 30 37 85 28 463 787 35 33 191 229 3163 24 64 21 110 35 327 27 19 7719 28
internal_value=-0.000711118 -0.0306314 -0.00562194 0.0821679 0.0833873 0.0659959 0.0769514 0.00618327 -0.0224733 -0.0326303 -0.0254488 0.0659174 0.0269714 -0.0142828 -0.028799 0.107833 0.0228507 0.00089127 -0.0137441 -0.0245835 -0.0170025 0.0227129 -0.0114454 -0.00547401 -0.0201343 -0.0201102 -0.00266808 0.0504484 -0.0298959 -0.0312758
internal_weight=10599.1 7787.65 576.36 2811.43 2767.03 236.057 97.6867 44.404 478.673 7211.29 785.364 27.7788 19.5926 49.1165 757.585 14.0775 13.7013 26.9923 33.7422 459.081 177.505 12.8816 22.3952 13.0404 46.0011 164.623 34.4905 3.48543 730.593 658.252
internal_count=108473 99929 5544 8544 8255 1075 355 289 5189 94385 8985 183 161 518 8802 65 118 268 252 5028 1865 88 231 133 498 1777 354 40 8534 7747
is_linear=0
shrinkage=0.05


Tree=22
num_leaves=31
num_cat=0
split_feature=28 28 37 28 50 27 40 10 27 48 4 40 40 17 29 29 29 40 29 10 14 28 28 46 15 4 37 37 29 31
split_gain=16807.5 380.641 509.443 269.243 348.851 43.7329 168.874 39.4006 35.4412 114.081 34.1162 30.0011 29.9383 25.1853 23.699 23.6876 22.0706 20.9154 22.5277 20.5312 18.9842 19.932 12.1751 89.676 23.9263 40.97 21.6064 19.4071 12.1404 12.0752
threshold=0.19961670041084292 0.13796468824148181 0.13506039977073672 0.25906093418598181 0.22367523424327376 0.0542101338505745 0.055990803986787803 0.21534145623445514 0.24248464033007625 0.14128028089180591 0.74677273631095897 0.25966398417949682 0.17906178534030917 0.10096571594476701 0.58953481912612926 0.42037715017795568 0.12672841548919681 0.082206860184669509 0.74985963106155407 0.12135865539312364 0.2648789137601853 0.29956881701946264 0.082962345331907286 0.073169484734535231 0.075654424726963057 0.83468833565711986 0.084466483443975462 0.077445633709430708 0.51276845484972011 0.15926772356033328
decision_type=2 2 2 2 2 2 2 2 2 2 2 2 2 2 2 2 2 2 2 2 2 2 2 2 2 2 2 2 2 2
left_child=1 5 13 4 -2 22 -7 -4 9 20 28 15 -11 -3 -15 -6 -14 18 -8 -18 -5 -22 -1 27 25 26 -25 -24 -9 -30
right_child=3 2 7 8 11 6 17 10 -10 12 -12 -13 16 14 -16 -17 19 -19 -20 -21 21 -23 23 24 -26 -27 -28 -29 29 -31
leaf_value=0.036419768291489893 -0.064144440033737413 -0.066015073216460413 0.031091607729911735 -0.066250748850576038 -0.031286558200108665 -0.067907893514058862 -0.039969444257964254 -0.058277053088134571 -0.066220174165295326 -0.070221670162049568 0.020004795683911825 0.024193250322586377 -0.05750386490387821 -0.062663792766430346 -0.00070912523670174979 0.0080000609822212607 0.028616893442909748 0.032553675270160509 0.03070414266311183 -0.015431859628097705 0.0093284976640478426 -0.054172486796204136 -0.083573944488570487 -0.093962229004436945 0.035493501732242201 0.028075509053989613 -0.0072258603580840457 0.012357576851819867 -0.038765360529050039 0.005175019266193957
leaf_weight=10712.120608776808 374.33535765111446 195.00999407470226 553.19958934187889 659.12656964361668 62.252749726176262 47.946219712495804 21.483124405145645 15.503386422991751 5580.2759509682655 22.013957977294922 181.73957698047161 145.54241798818111 18.71589982509613 28.788753464818001 33.278203472495079 100.00323539972305 42.386372283101082 529.3846143335104 23.731460645794868 70.37603335082531 16.618075758218765 48.199436381459236 20.048779994249347 10.39833180606365 1312.469148799777 125.89836511015892 23.197704881429672 7.1529590189456931 23.402506843209267 47.10955922305584
leaf_count=69749 1026 531 3368 1776 233 144 77 51 14925 59 1017 804 56 85 150 504 196 3332 133 279 73 138 72 37 8382 784 123 41 91 237
internal_value=0.000767209 0.0327731 0.00423681 -0.0615957 -0.0317211 0.0351701 0.0222433 0.023471 -0.0647514 -0.0554101 0.00772631 0.00771122 -0.0162559 -0.057186 -0.0294458 -0.00707304 -0.00722023 0.0297658 -0.0028755 0.00112567 -0.0637117 -0.0378919 0.0358291 0.0316089 0.0332713 0.0149848 -0.0340717 -0.0583478 -0.0182166 -0.00940851
internal_weight=21051.7 13911.9 1078.03 7139.85 682.134 12833.8 622.545 820.955 6457.71 877.436 267.755 307.798 153.492 257.077 62.067 162.256 131.478 574.599 45.2146 112.762 723.944 64.8175 12211.3 1499.17 1471.96 159.494 33.596 27.2017 86.0155 70.5121
internal_count=108473 88404 5530 20069 2567 82874 3686 4764 17502 2577 1396 1541 590 766 235 737 531 3542 210 475 1987 211 79188 9439 9326 944 160 113 379 328
is_linear=0
shrinkage=0.05


Tree=23
num_leaves=31
num_cat=0
split_feature=5 5 40 27 17 39 13 5 50 5 5 8 2 20 5 36 40 5 15 26 49 16 5 42 42 38 19 22 0 9
split_gain=12453.4 277.645 386.767 137.089 177.089 30.2406 28.9332 25.107 167.958 20.6172 20.2172 19.0729 14.0657 13.2549 25.9837 17.7393 11.8159 18.8573 17.5608 11.2034 13.6243 9.45467 10.9427 9.41277 9.30523 9.12277 8.89027 8.13969 8.12341 7.99407
threshold=0.22638297826051715 0.15343026071786883 0.13226937502622607 0.21475210599601272 0.23602937906980517 0.080609925091266646 0.67450422048568737 0.11769798770546915 0.14272423787042501 0.25593970715999609 0.18884175270795825 0.16322389245033267 0.1105417348444462 0.28779608011245733 0.5118733048439027 0.20552797988057139 0.1006390228867531 0.18884175270795825 0.087302770465612425 0.56366580724716198 0.22395852580666545 0.44501395523548132 0.32165740430355078 0.031577520072460181 0.034653581678867347 0.63754622638225567 0.63417029380798351 0.78607237339019786 0.11698780208826066 0.30790647864341741
decision_type=2 2 2 2 2 2 2 2 2 2 2 2 2 2 2 2 2 2 2 2 2 2 2 2 2 2 2 2 2 2
left_child=1 7 16 4 5 26 -4 -1 12 -5 23 29 -9 -11 15 -15 -3 18 -18 -13 -21 -6 24 27 -23 -10 -2 -8 -20 -12
right_child=3 2 6 9 21 -7 10 8 25 13 11 19 -14 14 -16 -17 17 -19 28 20 -22 22 -24 -25 -26 -27 -28 -29 -30 -31
leaf_value=-0.034358372817205447 -0.0096758998303186558 0.080731633686141044 -0.029135421555225527 -0.01098427283433032 -0.032278683929509264 0.026303738318640857 -0.028206557896583336 0.084047583826134309 -0.033167931719534194 0.078990536089292948 0.032307045617217652 -0.0046825011907669321 0.00177219551341699 0.063862485517992298 0.076935095496833583 0.0033510867012126288 -0.035214477720957253 0.083630833940109006 0.088693978505555521 0.0062549430388083825 0.14452603245377352 -0.019864678257145069 0.041949591086033342 0.0099949829175893304 0.012050312139509852 -0.013249595968168701 0.076590756449077091 0.033866623079027401 0.0027510620756422024 0.11916825534229186
leaf_weight=8284.4122344702482 3.0221858620643607 105.01241037249565 332.73178912699223 6.4804161339998236 19.850685097277164 35.452074557542801 78.38230462372303 36.226344279944897 516.92438099533319 3284.7493960335851 4.7198547124862653 36.299610383808613 6.0643276050686827 24.310760289430618 123.24004551768303 24.136411041021347 9.31572373211384 20.248943790793419 7.3815293163061124 4.3444641754031172 3.0198625549674034 39.767531059682369 17.118158265948296 26.822793051600456 53.652176044881344 64.678511783480644 253.25082747638226 5.662839099764823 4.381632536649704 6.0367301031947136
leaf_count=86732 13 296 2918 34 155 161 680 114 4837 9138 24 265 39 80 341 93 49 60 27 24 21 281 74 228 390 578 733 45 20 23
internal_value=-0.00064102 -0.0313374 0.000357226 0.0748364 0.0479346 0.0695859 -0.0206413 -0.0336299 -0.0239573 0.0781156 -0.00354229 0.0214169 0.0722496 0.0782827 0.0647393 0.0337157 0.0718187 0.0491712 0.0160684 0.00672523 0.0629553 -0.000506931 0.00519873 -0.0157937 -0.00153548 -0.0309529 0.0755734 -0.0240242 0.0566813 0.0810546
internal_weight=13437.7 9552.67 644.36 3885.03 422.114 291.725 498.02 8908.31 623.894 3462.92 165.288 54.4205 42.2907 3456.44 171.687 48.4472 146.34 41.3278 21.0789 43.6639 7.36433 130.389 110.538 110.868 93.4197 581.603 256.273 84.0451 11.7632 10.7566
internal_count=108473 96980 4680 11493 1807 907 4228 92300 5568 9686 1310 357 153 9652 514 173 452 156 96 310 45 900 745 953 671 5415 746 725 47 47
is_linear=0
shrinkage=0.05


Tree=24
num_leaves=31
num_cat=0
split_feature=0 28 5 28 53 27 15 5 28 15 15 27 27 28 4 32 5 15 29 5 42 47 29 33 35 41 15 17 4 18
split_gain=6925.56 594.902 512.366 301.018 1014.5 153.512 74.328 45.0074 34.8107 51.4678 33.6257 29.1127 26.2603 24.4285 23.1966 21.0385 19.9342 19.6984 12.9083 19.8366 12.47 12.996 17.5403 12.3446 11.5241 11.2512 10.692 10.3892 10.3465 13.2952
threshold=0.14774254709482196 0.21538531780242923 0.25593970715999609 0.1090817227959633 1.5000000000000002 0.057678202167153365 0.12876689434051516 0.17093474417924884 0.24673657864332202 0.15614235401153567 0.084444314241409316 0.24248464033007625 0.22764044068753722 0.13796468824148181 0.72653520107269298 0.22389538586139682 0.097188718616962447 0.13024334609508517 0.62459667026996624 0.12411542236804964 0.028086803853511814 0.63192234933376323 0.57813598960638057 0.10343151539564134 -0.19964633136987683 0.51875829696655285 0.15614235401153567 0.15015324950218203 0.65350982546806347 0.097793377935886397
decision_type=2 2 2 2 2 2 2 2 2 2 2 2 2 2 2 2 2 2 2 2 2 2 2 2 2 2 2 2 2 2
left_child=3 6 8 -1 11 10 13 17 9 -3 23 16 15 -2 25 26 -5 -7 19 -18 -21 28 -23 -6 -24 -12 -4 -9 29 -22
right_child=1 2 12 4 5 7 -8 27 -10 -11 14 -13 -14 -15 -16 -17 18 -19 -20 20 21 22 24 -25 -26 -27 -28 -29 -30 -31
leaf_value=-0.032772505826102971 -0.025510128757159023 0.070723492609188129 0.10318791098652212 0.1144206840917488 0.083110108368005822 0.07533786435270097 -0.026496087636044885 -0.033255644241658944 0.077835087184356999 -0.022538423491465332 -0.035437171148116862 -0.034666017653306416 -0.032868237882865796 0.061917723588892748 -0.028447419403695658 -0.024872944189435461 0.090994038762185273 -0.0066766477056640549 -0.029646529391300799 -0.024614988047975732 0.086247335085426591 -0.035948359931580028 0.04968408614277809 -0.011013255593581548 0.23297883552438467 0.071878882927501817 0.024288861763674775 0.08052094431648793 -0.016643981113061462 0.0011669296136801936
leaf_weight=5273.799981713295 10.133298464119433 47.850085392594337 5.1355875879526165 2.6932116374373427 13.74573812633753 342.73707742244005 183.9804343059659 12.542456001043318 2447.6624077782035 21.413633354008198 3.2623390182852736 911.83810371160507 97.865855015814304 37.772315181791782 63.541338637471199 24.159823134541512 4.265011638402938 7.4811295270919791 310.50040237605572 250.04227370023727 5.2468516677618018 2.4742688909173003 1.7660963386297228 4.6660590395331374 1.6668789237737653 9.7170862182974798 26.200060091912746 2.3884637355804434 134.055105663836 36.773800201714039
leaf_count=77505 134 162 32 10 51 1052 2402 106 6760 219 41 8354 853 166 842 193 18 80 4340 2656 47 25 23 25 17 45 187 16 1752 360
internal_value=-0.000687118 0.0647686 0.0714396 -0.0263746 -0.0104693 0.055235 -0.0120511 0.0699614 0.0768459 0.0418906 -0.00140859 -0.0286653 -0.017288 0.0434244 -0.0160054 0.0101878 -0.0213646 0.0735859 -0.0218543 -0.0163087 -0.017368 -0.00741071 0.0655379 0.0592566 0.138683 0.0449053 0.0372196 -0.0150551 -0.00985809 0.0117904
internal_weight=10297.4 2902.17 2670.29 7395.2 2121.4 460.082 231.886 365.149 2516.93 69.2637 94.9326 1661.32 153.361 47.9056 76.5208 55.4955 749.484 350.218 746.791 436.29 432.025 181.983 5.90724 18.4118 3.43298 12.9794 31.3356 14.9309 176.076 42.0207
internal_count=108473 11108 8406 97365 19860 2258 2702 1254 7141 381 1004 17602 1265 300 928 412 9248 1132 9238 4898 4880 2224 65 76 40 86 219 122 2159 407
is_linear=0
shrinkage=0.05


Tree=25
num_leaves=31
num_cat=0
split_feature=28 28 40 28 50 35 28 50 27 40 4 10 29 2 40 29 38 41 27 28 46 10 29 17 3 2 2 39 26 51
split_gain=15041.7 299.597 411.466 297.025 334.335 47.0353 43.4279 162.265 43.1622 153.168 22.3186 22.1287 22.2111 20.7996 19.862 20.0734 19.6405 15.9411 13.8439 12.4192 83.7242 19.4062 25.871 13.6835 14.6237 12.1753 11.3371 10.8056 10.2534 9.61392
threshold=0.19226136803627017 0.13796468824148181 0.10947626084089281 0.24673657864332202 0.22367523424327376 -0.18498419970273969 0.31277585029602056 0.2805735338479281 0.0542101338505745 0.055990803986787803 0.74049940705299389 0.13901694118976596 0.42037715017795568 0.23520790785551074 0.082206860184669509 0.74985963106155407 0.61514157801866542 0.12754599750041964 0.06181638780981303 0.082962345331907286 0.073169484734535231 0.38310471177101141 0.71263414621353161 0.062013279646635062 0.090513877570629134 0.13529792428016665 0.18749576807022098 0.055301036685705192 0.56366580724716198 0.23729389579966667
decision_type=2 2 2 2 2 2 2 2 2 2 2 2 2 2 2 2 2 2 2 2 2 2 2 2 2 2 2 2 2 2
left_child=1 8 25 4 26 -4 7 13 19 -10 16 -6 -13 -5 15 -11 -7 -9 -19 -1 23 -22 -23 -21 -25 -3 -2 -24 29 -14
right_child=3 2 5 6 11 10 -8 17 9 14 -12 12 28 -15 -16 -17 -18 18 -20 20 21 22 27 24 -26 -27 -28 -29 -30 -31
leaf_value=0.036051345516869608 -0.061545962202448047 -0.061851359325578587 0.028523956934432434 -0.063258918516375232 0.030588409549811731 -0.0071536407667034466 -0.061786293534145442 0.037624555552945478 -0.063580163327508807 -0.037046639351797576 0.010771919364710468 -0.035710079846351293 -0.03800842964310322 -0.031221879186183851 0.032005565530108124 0.030054462417848017 -0.073673033344697311 -0.066178125807005037 -0.00068674743017533083 -0.092753256904860304 0.034428579356739132 -0.045535245539818331 0.026938543781982023 0.021154700472802924 -0.078971694516317498 -0.015508967191750378 -0.0322044525636489 -0.053649743177409594 -0.050537041299359577 0.016864676334581882
leaf_weight=10143.116885438561 307.39937564730644 183.66436348855495 614.6124974489212 505.83521240949631 118.98109811544418 31.027290418744087 5884.6356365531683 25.791714772582054 48.436183646321297 21.841695591807365 95.368640765547752 30.99439649283886 8.4866642802953702 56.30207297205925 504.03310294449329 22.759332627058029 17.275089740753174 8.8419699370861036 92.322963774204254 12.860314533114435 1297.1270212829113 16.493061825633049 81.589115053415298 8.4034276306629163 6.4424297213554373 15.358192235231398 36.869868054986 4.3829784244298926 6.5152848660945883 134.27940049767494
leaf_count=69749 839 501 3845 1362 696 136 15807 137 144 77 515 118 49 172 3332 133 52 32 407 43 8709 69 519 48 22 48 120 29 29 734
internal_value=0.000758352 0.0326414 0.0057095 -0.057222 -0.0248027 0.0225032 -0.0603956 -0.0485196 0.0347604 0.021651 -0.00325301 0.0138523 0.00280647 -0.0600502 0.0291756 -0.00280581 -0.0309439 0.00253515 -0.00641079 0.0354369 0.03107 0.0327738 0.0118258 -0.0549998 -0.0222956 -0.0582752 -0.0584036 0.02283 0.0108034 0.0136028
internal_weight=20342 13124.8 957.306 7217.26 643.526 758.284 6573.73 689.094 12167.5 597.07 143.671 299.257 180.276 562.137 548.634 44.601 48.3024 126.957 101.165 11570.4 1427.3 1399.59 102.465 27.7062 14.8459 199.023 344.269 85.9721 149.281 142.766
internal_count=108473 87971 5097 20502 2585 4548 17917 2110 82874 3686 703 1626 930 1534 3542 210 188 576 439 79188 9439 9326 617 113 70 549 959 548 812 783
is_linear=0
shrinkage=0.05


Tree=26
num_leaves=31
num_cat=0
split_feature=5 5 17 5 50 10 5 14 42 29 40 40 26 27 39 17 5 32 36 28 41 12 41 22 8 5 37 26 5 14
split_gain=11039.6 225.309 305.215 151.57 337.154 23.966 25.0667 20.6354 19.8791 19.6912 17.2156 13.3997 11.0608 10.7401 70.7116 11.6005 16.0158 10.9177 10.8391 10.4365 12.1742 9.18179 8.98002 8.75293 8.55997 8.55937 161.947 16.1874 18.8107 12.1896
threshold=0.20504324138164523 0.29912227392196661 0.17852213978767398 0.13146256655454638 0.1626239041797817 0.23383373022079471 0.16088273376226428 0.23273707926273349 0.14400570839643481 -0.11674329638481139 0.1006390228867531 0.13226937502622607 0.63396902382373821 0.35735717788338667 0.16056313365697863 0.25807222723960882 0.37326008081436163 0.23911678791046145 0.31047135591506964 0.42145107686519628 0.22284422814846042 0.077392876148223891 0.4300250113010407 0.5457867980003358 0.14257845282554629 0.083173032850027098 0.064602393656969084 0.82489153183996689 0.10804640874266626 0.07408014684915544
decision_type=2 2 2 2 2 2 2 2 2 2 2 2 2 2 2 2 2 2 2 2 2 2 2 2 2 2 2 2 2 2
left_child=3 2 -2 25 10 -6 -7 -4 13 -10 -5 21 22 14 15 -3 17 -17 19 20 -16 -8 -13 -11 -24 -1 27 -27 -29 -28
right_child=1 8 7 4 5 6 11 -9 9 23 -12 12 -14 -15 18 16 -18 -19 -20 -21 -22 -23 24 -25 -26 26 29 28 -30 -31
leaf_value=-0.0345742771243326 0.07136640711744785 0.073726459309388426 0.017207720207412031 0.073602377897370966 -0.030117641422774719 -0.024320085129157919 0.0031039722280263127 -0.01426262082726814 0.066105964530667291 0.028885046634754337 0.02176238872272003 0.089595926321591093 0.072471414344158741 0.07393438425227733 -0.017332476926567596 -0.021426373076350258 0.066995290880287522 0.052408958027464397 -0.039930346184210694 0.067861090121438247 0.035092198796933066 0.07827047288874163 0.059841064037852033 -0.040608368124526499 -0.016586152646284952 0.052222791642763923 0.0056386230942777477 0.21927637383370047 0.095026086661381348 -0.033060332525455809
leaf_weight=6875.8508988469839 293.03875984996557 682.1643558293581 75.699898011982441 102.56917303800583 521.81871125102043 107.81753349304199 6.3139089196920422 167.01002993434668 56.522788524627686 26.421133749186996 18.978545732796192 2.3641647696495047 4.9947920367121688 2657.7641695737839 18.525305286049843 10.224799104034902 54.58940389752388 9.8101049810647947 7.3613886311650267 11.179436951875685 27.53280408680439 11.394830971956251 3.9964304864406577 5.4690468609333029 44.000466600060463 7.7053577154874828 20.700319446623325 5.0285105183720571 7.7269181609153748 1196.7633199244738
leaf_count=76939 832 1855 414 294 4930 990 29 1291 154 102 106 18 34 7166 92 49 151 41 31 31 113 39 22 28 341 43 160 29 23 12126
internal_value=-0.000640342 0.0672547 0.0370206 -0.0318099 -0.0113814 -0.0246811 -0.00899759 -0.00444719 0.071795 0.0483818 0.065508 0.013613 0.00150212 0.07239 0.0673929 0.071679 0.0529625 0.0147271 0.0171799 0.0245249 0.0140062 0.0514705 -0.00553658 0.0169672 -0.0102225 -0.0338852 -0.0300579 0.109443 0.144009 -0.0324023
internal_weight=13041.3 4103.31 535.749 8938.02 824.249 702.701 180.882 242.71 3567.56 88.413 121.548 73.0646 55.3559 3479.15 821.388 756.789 74.6243 20.0349 64.5989 57.2375 46.0581 17.7087 50.3611 31.8902 47.9969 8113.78 1237.92 20.4608 12.7554 1217.46
internal_count=108473 12350 2537 96123 6803 6403 1473 1705 9813 284 400 483 415 9529 2363 2096 241 90 267 236 205 68 381 130 363 89320 12381 95 52 12286
is_linear=0
shrinkage=0.05


Tree=27
num_leaves=31
num_cat=0
split_feature=3 3 15 5 27 15 5 3 50 3 21 38 19 6 3 48 28 6 4 26 28 9 37 10 7 21 41 3 0 42
split_gain=8284.38 144.69 253.591 78.5369 25.5229 75.8969 20.4105 18.8418 85.7182 18.1576 14.6606 12.0406 9.8101 8.49514 10.0764 15.4922 12.26 7.93697 7.6364 7.32896 7.28067 7.10269 6.4864 6.07846 5.81269 5.19699 5.85281 5.41902 5.32814 5.02273
