{"learner":{"attributes":{"scikit_learn":"{\"_estimator_type\": \"classifier\"}"},"feature_names":[],"feature_types":[],"gradient_booster":{"model":{"cats":{"enc":[],"feature_segments":[],"sorted_idx":[]},"gbtree_model_param":{"num_parallel_tree":"1","num_trees":"100"},"iteration_indptr":[0,1,2,3,4,5,6,7,8,9,10,11,12,13,14,15,16,17,18,19,20,21,22,23,24,25,26,27,28,29,30,31,32,33,34,35,36,37,38,39,40,41,42,43,44,45,46,47,48,49,50,51,52,53,54,55,56,57,58,59,60,61,62,63,64,65,66,67,68,69,70,71,72,73,74,75,76,77,78,79,80,81,82,83,84,85,86,87,88,89,90,91,92,93,94,95,96,97,98,99,100],"tree_info":[0,0,0,0,0,0,0,0,0,0,0,0,0,0,0,0,0,0,0,0,0,0,0,0,0,0,0,0,0,0,0,0,0,0,0,0,0,0,0,0,0,0,0,0,0,0,0,0,0,0,0,0,0,0,0,0,0,0,0,0,0,0,0,0,0,0,0,0,0,0,0,0,0,0,0,0,0,0,0,0,0,0,0,0,0,0,0,0,0,0,0,0,0,0,0,0,0,0,0,0],"trees":[{"base_weights":[-0E0,1.0659086E-1,-6.0924566E-1,7.1127065E-2,1.0223526E0,-7.319707E-1,2.8533277E-1,-2.6505983E-1,1.5716256E-1,3.8970143E-1,1.7823766E0,-5.214744E-1,-1.1308194E0,9.4860643E-1,-2.0333011E-1,5.059528E-1,-3.6049643E-1,2.9592144E-1,4.4095878E-2,-7.87762E-1,7.278751E-1,-7.694905E-1,-2.887829E-1,2.2148272E-1,-1.2568047E0,1.1994939E-1,1.2636714E0,-8.9860773E-1,5.276491E-1,-1.4692444E-1,1.0382675E0,-1.0360443E-1,-6.030014E-1,1.4309654E0,2.5326586E-1,-4.5898717E-2,4.835889E-1,1.5249033E0,3.3715624E-2,-2.2143438E-1,-1.0736792E0,7.8605545E-1,-4.3244433E-1,-1.4420505E0,-5.3606445E-1,1.009404E0,-7.6687366E-2,-5.049843E-1,5.413139E-1,4.0587094E-1,1.5529466E0,-4.0282345E-1,3.5673612E-1,-7.5428814E-1,-0E0,1.7320238E0,3.9587286E-1,9.504514E-2,4.386305E-1,-1.1374027E-1,5.412529E-1,1.4584468E-1,7.2287446E-1,-5.325199E-1,7.58315E-1,3.2596505E-1,-8.0727035E-1,-1.2129143E0,-8.554575E-3,-7.910144E-1,-3.5632588E-2,-1.4967775E0,-6.4620143E-1,-8.351118E-1,1.9457658E-1,-8.3977914E-1,-2.8529542E-2,6.5877753E-1,-0E0,-9.6180516E-1,-1.19744964E-1,6.169025E-1,-3.7906948E-1,1.7015246E-1,-8.4579587E-1,5.278708E-1,-8.6988837E-1,-6.525056E-1,1.8423323E-1,1.308822E0,3.6893392E-1,-7.382777E-2,-8.037642E-1,8.8064146E-1,7.107286E-2,-2.0901975E-3,1.0941494E0,9.2668074E-1,-4.508088E-3,-7.3998475E-1,9.558807E-1,-1.2172278E0,-2.2237526E-1,-1.3240263E0,-3.5810283E-1,-1.0620883E0,-0E0,7.4969995E-1,-3.9116693E-1,-1.0209966E0,-3.578735E-1,-1.1703086E0,-7.8211375E-2,6.270066E-1,-3.667451E-1,1.2310554E-1,9.8171794E-1,-8.0161583E-1,2.0960295E-1,-2.171422E-1,5.273252E-1,1.4441858E-1,-9.064171E-1,-4.7963443E-1,1.3108994E0,-1.2177908E0,-3.1805664E-1,5.3373702E-2,-8.5159E-1,1.1281397E-1,1.0546706E0,1.536327E0,6.690619E-1,4.854474E-1,-1.940868E-1,-1.3369273E-1,5.494716E-1,1.3006808E-2,-1.274389E0,3.2699686E-1,1.1002256E0,3.9001286E-1,-7.977472E-1,5.866611E-1,-4.7358918E-1,2.2353618E-1,1.2128484E0,5.6937087E-1,-4.456243E-1,1.281013E0,3.3038113E-1,-1.4933975E0,-7.90627E-1,-1.2397735E0,-3.5846135E-1,6.817687E-1,-5.579019E-1,1.2661499E0,-7.6687366E-2,-8.8296694E-1,4.4286254E-1],"categories":[],"categories_nodes":[],"categories_segments":[],"categories_sizes":[],"default_left":[0,0,0,0,0,0,0,0,0,0,0,0,0,0,0,0,0,0,0,0,0,0,0,0,0,0,0,0,0,0,0,0,0,0,0,0,0,0,0,0,0,0,0,0,0,0,0,0,0,0,0,0,0,0,0,0,0,0,0,0,0,0,0,0,0,0,0,0,0,0,0,0,0,0,0,0,0,0,0,0,0,0,0,0,0,0,0,0,0,0,0,0,0,0,0,0,0,0,0,0,0,0,0,0,0,0,0,0,0,0,0,0,0,0,0,0,0,0,0,0,0,0,0,0,0,0,0,0,0,0,0,0,0,0,0,0,0,0,0,0,0,0,0,0,0,0,0,0,0,0,0,0,0,0,0,0,0,0,0,0,0],"id":0,"left_children":[1,3,5,7,9,11,13,15,17,19,-1,21,23,25,27,29,31,33,35,-1,37,39,41,-1,43,-1,-1,-1,45,47,49,51,53,55,57,59,61,-1,63,65,67,-1,69,71,73,-1,-1,75,-1,77,-1,79,81,83,85,-1,-1,87,89,91,93,95,97,-1,-1,99,101,103,-1,105,107,-1,-1,109,-1,-1,-1,-1,-1,111,113,115,117,119,121,123,125,127,129,131,133,135,137,139,141,143,-1,145,147,-1,149,-1,-1,151,-1,153,155,157,159,-1,-1,-1,-1,-1,-1,-1,-1,-1,-1,-1,-1,-1,-1,-1,-1,-1,-1,-1,-1,-1,-1,-1,-1,-1,-1,-1,-1,-1,-1,-1,-1,-1,-1,-1,-1,-1,-1,-1,-1,-1,-1,-1,-1,-1,-1,-1,-1,-1,-1,-1,-1],"loss_changes":[1.3439473E2,5.6677586E1,3.4389038E1,4.912427E1,2.9282043E1,2.1151169E1,1.3031357E1,2.5762646E1,2.1097183E1,1.6389612E1,0E0,9.751087E0,1.6493172E1,3.6866083E0,1.2979743E1,1.3976786E1,1.8924461E1,2.8104355E1,2.9799849E1,0E0,1.6587315E1,1.3532196E1,1.5677197E1,0E0,9.129517E0,0E0,0E0,0E0,4.06903E0,5.1741166E0,5.230175E0,2.1397047E1,1.4279053E1,4.6153984E0,1.6961334E1,2.4809002E1,9.876608E0,0E0,8.59791E0,1.1475734E1,7.7190323E0,0E0,1.2190569E1,2.8118896E-1,5.055823E0,0E0,0E0,1.8772964E0,0E0,1.2049422E0,0E0,1.4343887E1,1.221615E1,1.1157112E1,1.6564318E1,0E0,0E0,2.1429226E1,1.4828232E1,1.5055577E1,9.867754E0,8.205514E0,1.1243282E1,0E0,0E0,1.3953909E1,3.1307192E0,3.1134796E0,0E0,1.0000544E1,1.2813678E1,0E0,0E0,2.225008E-1,0E0,0E0,0E0,0E0,0E0,5.155754E0,1.239736E1,7.736414E0,4.7103076E0,2.0826101E0,7.415558E0,1.9048285E1,1.395196E0,5.133829E0,1.7298782E1,2.2094727E-2,1.67998E1,1.9891823E1,1.1957417E1,3.3337727E0,8.688017E0,1.4476958E1,0E0,1.0712181E1,4.988189E0,0E0,1.2584381E0,0E0,0E0,7.021179E-1,0E0,2.905178E0,5.904772E0,6.607077E0,1.4034374E1,0E0,0E0,0E0,0E0,0E0,0E0,0E0,0E0,0E0,0E0,0E0,0E0,0E0,0E0,0E0,0E0,0E0,0E0,0E0,0E0,0E0,0E0,0E0,0E0,0E0,0E0,0E0,0E0,0E0,0E0,0E0,0E0,0E0,0E0,0E0,0E0,0E0,0E0,0E0,0E0,0E0,0E0,0E0,0E0,0E0,0E0,0E0,0E0,0E0,0E0,0E0,0E0],"parents":[2147483647,0,0,1,1,2,2,3,3,4,4,5,5,6,6,7,7,8,8,9,9,11,11,12,12,13,13,14,14,15,15,16,16,17,17,18,18,20,20,21,21,22,22,24,24,28,28,29,29,30,30,31,31,32,32,33,33,34,34,35,35,36,36,38,38,39,39,40,40,42,42,43,43,44,44,47,47,49,49,51,51,52,52,53,53,54,54,57,57,58,58,59,59,60,60,61,61,62,62,65,65,66,66,67,67,69,69,70,70,73,73,79,79,80,80,81,81,82,82,83,83,84,84,85,85,86,86,87,87,88,88,89,89,90,90,91,91,92,92,93,93,94,94,95,95,97,97,98,98,100,100,103,103,105,105,106,106,107,107,108,108],"right_children":[2,4,6,8,10,12,14,16,18,20,-1,22,24,26,28,30,32,34,36,-1,38,40,42,-1,44,-1,-1,-1,46,48,50,52,54,56,58,60,62,-1,64,66,68,-1,70,72,74,-1,-1,76,-1,78,-1,80,82,84,86,-1,-1,88,90,92,94,96,98,-1,-1,100,102,104,-1,106,108,-1,-1,110,-1,-1,-1,-1,-1,112,114,116,118,120,122,124,126,128,130,132,134,136,138,140,142,144,-1,146,148,-1,150,-1,-1,152,-1,154,156,158,160,-1,-1,-1,-1,-1,-1,-1,-1,-1,-1,-1,-1,-1,-1,-1,-1,-1,-1,-1,-1,-1,-1,-1,-1,-1,-1,-1,-1,-1,-1,-1,-1,-1,-1,-1,-1,-1,-1,-1,-1,-1,-1,-1,-1,-1,-1,-1,-1,-1,-1,-1,-1],"split_conditions":[6.735822E-1,1.7543138E0,1.9203354E0,-6.2528783E-1,6.132919E-1,3.3310673E-1,1.5369336E-1,-7.672171E-1,-4.894974E-1,-3.2211515E-1,1.7823766E0,1.1702523E0,-2.9783888E0,-4.4655585E-1,2.6882675E0,-1.285144E0,-7.094131E-1,-8.3699936E-1,7.825287E-1,-7.87762E-1,1.3189112E-1,1.0066844E0,-1.7337078E0,2.2148272E-1,7.001528E-1,1.1994939E-1,1.2636714E0,-8.9860773E-1,-1.3700853E-1,1.7548198E-1,-3.407713E-2,-7.473937E-1,1.1736624E0,-3.1308413E-1,1.0370046E-1,1.6546199E-1,-1.1040801E-1,1.5249033E0,3.135538E-1,-1.4199974E-1,1.5460414E0,7.8605545E-1,-3.1483808E-1,5.257379E-1,2.2635819E-1,1.009404E0,-7.6687366E-2,-1.2199726E0,5.413139E-1,-2.7575678E-1,1.5529466E0,-4.4063505E-2,2.7236633E-2,-1.2420037E0,-2.6961884E-1,1.7320238E0,3.9587286E-1,-3.3207557E-1,-8.340204E-1,6.416092E-1,-3.2771865E-1,1.1740944E0,-4.1405386E-1,-5.325199E-1,7.58315E-1,-5.4458535E-1,-9.2186135E-1,7.5702584E-1,-8.554575E-3,7.9309833E-1,-3.0898377E-1,-1.4967775E0,-6.4620143E-1,1.534049E0,1.9457658E-1,-8.3977914E-1,-2.8529542E-2,6.5877753E-1,-0E0,9.382708E-2,-5.188317E-1,-7.9200804E-2,-7.494119E-1,-1.431649E-1,-9.006705E-1,-2.1309204E-1,-6.963454E-1,-3.812654E-1,1.214221E0,1.3208331E-1,-4.428688E-1,3.9657262E-1,-3.105448E-1,-3.4989357E-1,6.1990553E-1,1.3576081E0,1.0941494E0,-8.72744E-1,-5.825222E-1,-7.3998475E-1,-2.8122187E-1,-1.2172278E0,-2.2237526E-1,8.025132E-2,-3.5810283E-1,5.2846336E-1,3.6943948E-1,-6.2634796E-2,5.5635864E-1,-1.0209966E0,-3.578735E-1,-1.1703086E0,-7.8211375E-2,6.270066E-1,-3.667451E-1,1.2310554E-1,9.8171794E-1,-8.0161583E-1,2.0960295E-1,-2.171422E-1,5.273252E-1,1.4441858E-1,-9.064171E-1,-4.7963443E-1,1.3108994E0,-1.2177908E0,-3.1805664E-1,5.3373702E-2,-8.5159E-1,1.1281397E-1,1.0546706E0,1.536327E0,6.690619E-1,4.854474E-1,-1.940868E-1,-1.3369273E-1,5.494716E-1,1.3006808E-2,-1.274389E0,3.2699686E-1,1.1002256E0,3.9001286E-1,-7.977472E-1,5.866611E-1,-4.7358918E-1,2.2353618E-1,1.2128484E0,5.6937087E-1,-4.456243E-1,1.281013E0,3.3038113E-1,-1.4933975E0,-7.90627E-1,-1.2397735E0,-3.5846135E-1,6.817687E-1,-5.579019E-1,1.2661499E0,-7.6687366E-2,-8.8296694E-1,4.4286254E-1],"split_indices":[158,159,122,34,150,150,128,105,158,162,0,72,122,83,108,21,9,108,34,0,49,49,159,0,108,0,0,0,161,163,163,9,150,8,80,163,158,0,166,178,101,0,161,166,159,0,0,122,0,162,0,128,156,83,158,0,0,162,128,48,56,128,150,0,0,80,159,149,0,108,162,0,0,158,0,0,0,0,0,80,48,178,137,163,166,128,137,122,159,101,48,158,162,83,48,34,0,178,80,0,137,0,0,101,0,122,101,21,162,0,0,0,0,0,0,0,0,0,0,0,0,0,0,0,0,0,0,0,0,0,0,0,0,0,0,0,0,0,0,0,0,0,0,0,0,0,0,0,0,0,0,0,0,0,0,0,0,0,0,0,0],"split_type":[0,0,0,0,0,0,0,0,0,0,0,0,0,0,0,0,0,0,0,0,0,0,0,0,0,0,0,0,0,0,0,0,0,0,0,0,0,0,0,0,0,0,0,0,0,0,0,0,0,0,0,0,0,0,0,0,0,0,0,0,0,0,0,0,0,0,0,0,0,0,0,0,0,0,0,0,0,0,0,0,0,0,0,0,0,0,0,0,0,0,0,0,0,0,0,0,0,0,0,0,0,0,0,0,0,0,0,0,0,0,0,0,0,0,0,0,0,0,0,0,0,0,0,0,0,0,0,0,0,0,0,0,0,0,0,0,0,0,0,0,0,0,0,0,0,0,0,0,0,0,0,0,0,0,0,0,0,0,0,0,0],"sum_hessian":[2.0639812E3,1.7577728E3,3.062084E2,1.6946295E3,6.3143295E1,2.6988275E2,3.632568E1,3.4375308E2,1.3508765E3,3.632568E1,2.6817616E1,1.8016562E2,8.971712E1,1.4871587E1,2.1454094E1,3.6569477E1,3.071836E2,6.03884E2,7.469925E2,7.313895E0,2.9011786E1,8.435359E1,9.581203E1,7.313895E0,8.240322E1,5.1197267E0,9.751861E0,1.0970843E1,1.048325E1,1.6821959E1,1.9747517E1,1.5115384E2,1.5602977E2,1.9259924E1,5.84624E2,6.209497E2,1.2604279E2,1.2189826E1,1.6821959E1,3.1693546E1,5.2660046E1,9.995657E0,8.5816376E1,6.363089E1,1.8772331E1,5.3635235E0,5.1197267E0,1.1702232E1,5.1197267E0,1.0727047E1,9.020471E0,9.215508E1,5.8998756E1,1.2409242E2,3.1937344E1,1.3652605E1,5.60732E0,3.1791064E2,2.6671338E2,5.585378E2,6.2411907E1,5.4122826E1,7.191997E1,9.508064E0,7.313895E0,1.6578163E1,1.5115384E1,4.607754E1,6.5825057E0,4.3639576E1,4.2176796E1,5.7535976E1,6.094913E0,1.3408808E1,5.3635235E0,5.60732E0,6.094913E0,5.60732E0,5.1197267E0,2.9011786E1,6.3143295E1,4.412717E1,1.4871587E1,1.0727047E1,1.1336538E2,2.0235111E1,1.1702232E1,3.218114E1,2.8572952E2,1.6821959E1,2.4989142E2,5.305012E2,2.8036598E1,3.48629E1,2.7549006E1,4.827171E1,5.851116E0,5.6073196E1,1.5846773E1,5.851116E0,1.0727047E1,7.313895E0,7.8014884E0,3.9495033E1,6.5825057E0,3.218114E1,1.1458436E1,1.2189826E1,2.998697E1,7.557692E0,5.851116E0,2.2673075E1,6.3387094E0,1.462779E1,4.8515507E1,2.0235111E1,2.3892057E1,8.532878E0,6.3387094E0,5.1197267E0,5.60732E0,6.094913E0,1.0727046E2,9.020471E0,1.121464E1,5.3635235E0,6.3387094E0,7.070099E0,2.511104E1,2.6646957E2,1.9259924E1,9.995657E0,6.8263025E0,2.0771463E2,4.2176796E1,4.8588644E2,4.461476E1,1.0727047E1,1.7309553E1,1.1702232E1,2.316067E1,2.1210297E1,6.3387094E0,2.09665E1,2.730521E1,1.7553349E1,3.8519848E1,6.3387094E0,9.508064E0,5.3635235E0,5.3635235E0,2.6817616E1,1.2677419E1,2.4135855E1,8.045285E0,5.1197267E0,6.3387094E0,7.070099E0,5.1197267E0,1.9016129E1,1.0970843E1],"tree_param":{"num_deleted":"0","num_feature":"179","num_nodes":"161","size_leaf_vector":"1"}},{"base_weights":[-2.6949538E-2,-4.967887E-3,-7.367599E-1,3.6160725E-1,-4.1369356E-2,3.3407587E-1,-8.7713873E-1,7.593066E-2,7.456249E-1,-1.427369E-1,4.629231E-2,-9.858067E-1,-0E0,3.0891016E-1,-5.093718E-1,2.1202591E-1,1.0174693E0,-6.6375434E-1,-1.0235157E-1,1.9260108E-3,4.594594E-1,-1.1127428E0,-9.1040105E-2,1.0822157E0,6.1607607E-2,3.3008985E-2,-8.997307E-1,-4.3412647E-1,6.110164E-1,1.3635099E-1,1.1302987E0,-3.877907E-2,-9.5039886E-1,-1.7861593E-1,1.4837343E-1,-3.4655076E-1,5.953251E-2,5.7040197E-1,-5.239372E-1,-1.2136943E0,-3.0852145E-1,1.6657962E-1,1.4260274E0,4.1894275E-1,-2.3872848E-1,-6.772749E-1,7.3002094E-1,-1.1670992E0,-1.5756385E-1,9.8284364E-1,2.3954755E-1,6.643996E-1,1.3701544E0,-4.18997E-1,3.3634767E-1,-1.7714101E-1,-1.1299751E0,-2.546732E-1,1.6530582E-1,3.4078693E-1,-4.3894193E-1,-6.275793E-1,-5.9873708E-2,2.1308477E-1,-1.7271172E-1,-4.9026617E-1,6.9186896E-1,-1.351252E0,-6.5283304E-1,-4.6781254E-1,7.302776E-1,2.2897642E-2,-9.14383E-1,9.677827E-1,1.3497232E-1,1.5626463E0,5.0992036E-1,-4.0819505E-1,-1.2382171E0,-1.0225048E-1,-3.8483605E-1,-5.0529486E-1,3.8725832E-1,5.4301304E-1,-1.3107927E-1,-1.0315286E-1,-1.3032731E0,6.266358E-1,-7.9739535E-1,7.6973176E-1,-2.1461011E-1,3.45437E-1,-1.03200026E-1,-5.833228E-1,-4.893395E-2,1.4535743E0,4.1348574E-1,-0E0,1.0081153E0,-2.5016192E-1,7.80425E-1,4.266195E-1,-1.8498462E-1,4.262351E-1,-4.4031635E-1,-1.1428077E0,-9.43014E-2,7.0944774E-1,-5.3869184E-2,7.4301344E-1,6.46757E-2,-5.754672E-1,6.073276E-1,-4.7568226E-1,3.7999082E-1,1.87418E-1,-9.4781953E-1,2.7901506E-1,-4.8083937E-1,4.7677574E-1,-1.1195571E-1,1.0464989E-1,-5.150378E-1,2.2499075E-2,-7.054627E-1,4.3354467E-1,-2.1055539E-1,3.80071E-2,8.258458E-1],"categories":[],"categories_nodes":[],"categories_segments":[],"categories_sizes":[],"default_left":[0,0,0,0,0,0,0,0,0,0,0,0,0,0,0,0,0,0,0,0,0,0,0,0,0,0,0,0,0,0,0,0,0,0,0,0,0,0,0,0,0,0,0,0,0,0,0,0,0,0,0,0,0,0,0,0,0,0,0,0,0,0,0,0,0,0,0,0,0,0,0,0,0,0,0,0,0,0,0,0,0,0,0,0,0,0,0,0,0,0,0,0,0,0,0,0,0,0,0,0,0,0,0,0,0,0,0,0,0,0,0,0,0,0,0,0,0,0,0,0,0,0,0,0,0,0,0,0,0],"id":1,"left_children":[1,3,5,7,9,-1,11,13,15,17,19,21,-1,23,25,27,29,31,33,35,37,39,-1,41,43,45,47,-1,49,-1,51,53,55,57,59,61,63,65,-1,67,-1,-1,-1,69,71,-1,-1,-1,-1,-1,-1,73,75,-1,-1,-1,77,79,81,83,85,87,89,91,93,-1,95,-1,-1,-1,97,99,-1,-1,-1,-1,-1,-1,-1,101,103,105,107,109,111,113,-1,-1,115,-1,117,119,121,123,125,-1,127,-1,-1,-1,-1,-1,-1,-1,-1,-1,-1,-1,-1,-1,-1,-1,-1,-1,-1,-1,-1,-1,-1,-1,-1,-1,-1,-1,-1,-1,-1,-1,-1],"loss_changes":[2.8936972E1,2.4161036E1,9.126108E0,1.7573431E1,1.4740885E1,0E0,4.7495575E0,1.3401415E1,9.216766E0,1.5818908E1,1.6118397E1,4.493393E0,0E0,1.3019768E1,6.2133956E0,7.3397646E0,3.77063E0,9.380953E0,1.3767221E1,1.6087378E1,9.922615E0,1.9219246E0,0E0,4.299864E0,6.251876E0,7.568431E0,2.5248365E0,0E0,1.5546274E0,0E0,1.9476204E0,3.0921748E0,4.3318596E0,1.4534441E1,1.918069E1,8.867071E0,2.476577E1,1.0778143E1,0E0,1.9686508E-1,0E0,0E0,0E0,8.13429E0,5.8214955E0,0E0,0E0,0E0,0E0,0E0,0E0,2.2387595E0,1.6855888E0,0E0,0E0,0E0,7.8131866E-1,8.7634945E0,1.5293102E1,1.2438007E1,1.1436433E1,1.310618E1,7.73149E0,1.7653791E1,1.3769475E1,0E0,1.3292912E1,0E0,0E0,0E0,4.3378534E0,5.536662E0,0E0,0E0,0E0,0E0,0E0,0E0,0E0,9.38185E0,1.1295376E1,6.091361E0,1.1198206E1,8.283634E0,1.3629016E1,6.2424774E0,0E0,0E0,8.130177E0,0E0,7.103883E0,1.7998852E1,1.0868419E1,4.9081135E0,1.685344E1,0E0,8.206167E0,0E0,0E0,0E0,0E0,0E0,0E0,0E0,0E0,0E0,0E0,0E0,0E0,0E0,0E0,0E0,0E0,0E0,0E0,0E0,0E0,0E0,0E0,0E0,0E0,0E0,0E0,0E0,0E0,0E0,0E0,0E0,0E0],"parents":[2147483647,0,0,1,1,2,2,3,3,4,4,6,6,7,7,8,8,9,9,10,10,11,11,13,13,14,14,15,15,16,16,17,17,18,18,19,19,20,20,21,21,23,23,24,24,25,25,26,26,28,28,30,30,31,31,32,32,33,33,34,34,35,35,36,36,37,37,39,39,43,43,44,44,51,51,52,52,56,56,57,57,58,58,59,59,60,60,61,61,62,62,63,63,64,64,66,66,70,70,71,71,79,79,80,80,81,81,82,82,83,83,84,84,85,85,88,88,90,90,91,91,92,92,93,93,94,94,96,96],"right_children":[2,4,6,8,10,-1,12,14,16,18,20,22,-1,24,26,28,30,32,34,36,38,40,-1,42,44,46,48,-1,50,-1,52,54,56,58,60,62,64,66,-1,68,-1,-1,-1,70,72,-1,-1,-1,-1,-1,-1,74,76,-1,-1,-1,78,80,82,84,86,88,90,92,94,-1,96,-1,-1,-1,98,100,-1,-1,-1,-1,-1,-1,-1,102,104,106,108,110,112,114,-1,-1,116,-1,118,120,122,124,126,-1,128,-1,-1,-1,-1,-1,-1,-1,-1,-1,-1,-1,-1,-1,-1,-1,-1,-1,-1,-1,-1,-1,-1,-1,-1,-1,-1,-1,-1,-1,-1,-1,-1],"split_conditions":[2.069728E0,-1.3537394E0,-7.6245767E-1,-1.5897628E-2,1.6314584E-1,3.3407587E-1,1.6950974E0,3.6068538E-1,-7.898524E-1,-1.285144E0,9.5684195E-1,2.6415074E-1,-0E0,-5.595581E-1,-4.3225622E-1,-7.420261E-3,-5.8536893E-1,2.4597092E-2,4.6135655E-1,-1.0506607E0,1.9056444E0,5.4252064E-1,-9.1040105E-2,-1.524548E0,-5.6398624E-1,-1.2337773E0,-9.2218906E-2,-4.3412647E-1,1.3098605E-1,1.3635099E-1,3.7320763E-1,-1.8656333E-1,-1.0979605E0,6.999234E-1,1.4449598E0,-4.3075693E-1,1.1708342E-1,-7.9700243E-1,-5.239372E-1,5.3647834E-1,-3.0852145E-1,1.6657962E-1,1.4260274E0,-7.486948E-1,4.0341327E-1,-6.772749E-1,7.3002094E-1,-1.1670992E0,-1.5756385E-1,9.8284364E-1,2.3954755E-1,-3.5676908E-1,3.0249986E-1,-4.18997E-1,3.3634767E-1,-1.7714101E-1,-7.861286E-1,-7.259044E-1,-8.110712E-1,-9.539574E-2,1.2517525E0,-7.964179E-1,-3.455168E-1,2.8944123E-1,-6.681835E-1,-4.9026617E-1,8.198306E-2,-1.351252E0,-6.5283304E-1,-4.6781254E-1,-1.044931E0,2.2992337E-2,-9.14383E-1,9.677827E-1,1.3497232E-1,1.5626463E0,5.0992036E-1,-4.0819505E-1,-1.2382171E0,-2.514776E-1,-8.517586E-1,-6.8088406E-1,-1.8303286E-1,5.486336E-1,8.964263E-1,-2.4785191E-1,-1.3032731E0,6.266358E-1,-1.6953986E0,7.6973176E-1,5.105408E-1,1.835322E-1,-1.7462371E-1,-9.075161E-1,-4.9372944E-1,1.4535743E0,1.1978359E0,-0E0,1.0081153E0,-2.5016192E-1,7.80425E-1,4.266195E-1,-1.8498462E-1,4.262351E-1,-4.4031635E-1,-1.1428077E0,-9.43014E-2,7.0944774E-1,-5.3869184E-2,7.4301344E-1,6.46757E-2,-5.754672E-1,6.073276E-1,-4.7568226E-1,3.7999082E-1,1.87418E-1,-9.4781953E-1,2.7901506E-1,-4.8083937E-1,4.7677574E-1,-1.1195571E-1,1.0464989E-1,-5.150378E-1,2.2499075E-2,-7.054627E-1,4.3354467E-1,-2.1055539E-1,3.80071E-2,8.258458E-1],"split_indices":[167,126,141,163,131,0,83,32,81,10,122,148,0,80,157,32,63,83,83,167,157,163,0,178,32,178,163,0,63,0,82,157,80,141,10,32,60,37,0,125,0,0,0,8,60,0,0,0,0,0,0,81,51,0,0,0,51,83,51,49,60,148,32,32,12,0,178,0,0,0,60,60,0,0,0,0,0,0,0,126,51,60,156,81,60,63,0,0,60,0,131,49,60,129,141,0,105,0,0,0,0,0,0,0,0,0,0,0,0,0,0,0,0,0,0,0,0,0,0,0,0,0,0,0,0,0,0,0,0],"split_type":[0,0,0,0,0,0,0,0,0,0,0,0,0,0,0,0,0,0,0,0,0,0,0,0,0,0,0,0,0,0,0,0,0,0,0,0,0,0,0,0,0,0,0,0,0,0,0,0,0,0,0,0,0,0,0,0,0,0,0,0,0,0,0,0,0,0,0,0,0,0,0,0,0,0,0,0,0,0,0,0,0,0,0,0,0,0,0,0,0,0,0,0,0,0,0,0,0,0,0,0,0,0,0,0,0,0,0,0,0,0,0,0,0,0,0,0,0,0,0,0,0,0,0,0,0,0,0,0,0],"sum_hessian":[1.8673314E3,1.8136038E3,5.3727657E1,1.61467E2,1.6521367E3,5.659469E0,4.8068188E1,9.441036E1,6.705664E1,7.6717725E2,8.849595E2,4.2525597E1,5.5425906E0,6.8572205E1,2.5838152E1,2.4206186E1,4.2850456E1,5.243288E1,7.147444E2,8.016165E2,8.3342964E1,3.6521908E1,6.0036883E0,1.4685616E1,5.3886593E1,1.1258072E1,1.458008E1,8.8866E0,1.5319586E1,5.667454E0,3.7183002E1,1.7529722E1,3.4903156E1,5.494017E2,1.6534271E2,1.11554535E2,6.9006195E2,7.592269E1,7.420273E0,3.121255E1,5.309359E0,5.057669E0,9.627947E0,2.4703644E1,2.918295E1,5.3908243E0,5.867247E0,9.57964E0,5.0004396E0,5.607455E0,9.7121315E0,1.56245E1,2.1558502E1,8.986794E0,8.542928E0,7.6416383E0,2.7261518E1,4.5104553E2,9.835611E1,1.2555823E2,3.978449E1,5.460281E1,5.6951725E1,4.1628482E2,2.7377713E2,6.9234905E0,6.89992E1,2.237214E1,8.840408E0,5.9078608E0,1.8795782E1,2.210982E1,7.0731306E0,8.519738E0,7.1047626E0,1.5997074E1,5.5614285E0,5.160967E0,2.2100552E1,2.1046434E2,2.405812E2,2.3487337E1,7.4868774E1,8.8125015E1,3.7433216E1,3.0515226E1,9.269262E0,5.659143E0,4.894367E1,7.398359E0,4.9553368E1,2.9401553E2,1.2226929E2,6.1132324E1,2.126448E2,1.5919643E1,5.3079556E1,5.614822E0,1.318096E1,1.694522E1,5.1645975E0,2.6855309E1,1.8360904E2,1.4201133E1,2.2638007E2,7.524527E0,1.59628105E1,4.29573E1,3.191147E1,6.0919697E1,2.7205315E1,2.3898333E1,1.35348835E1,1.7598032E1,1.2917194E1,6.1558237E0,4.2787846E1,1.6933485E1,3.261988E1,2.2886803E2,6.514752E1,8.176617E1,4.050312E1,1.0118632E1,5.101369E1,5.204799E1,1.6059682E2,2.9306282E1,2.3773273E1],"tree_param":{"num_deleted":"0","num_feature":"179","num_nodes":"129","size_leaf_vector":"1"}},{"base_weights":[-2.544504E-3,-8.895788E-2,1.4106792E-1,-1.3337564E-1,1.3327612E-1,-1.1575231E-1,2.2222431E-1,-6.068798E-1,-9.424653E-2,3.0181193E-1,-2.3261589E-1,9.684361E-2,-4.37658E-1,6.110781E-1,1.4794354E-1,3.9656505E-1,-7.131178E-1,3.0755948E-2,-1.9415118E-1,5.010053E-1,4.103679E-2,-4.1194892E-1,3.5726887E-1,-6.942558E-2,7.275346E-1,-5.854211E-1,4.5143917E-1,-0E0,7.632125E-1,3.014128E-1,-1.09505065E-1,-4.9161345E-1,-1.2310392E0,7.520186E-2,-4.586514E-1,-5.320376E-1,-1.1846781E-1,7.82363E-1,2.2598647E-1,-4.8789775E-1,1.7803451E-1,-5.5164564E-1,4.0682444E-1,8.630315E-1,-1.7273125E-1,5.8368295E-1,-1.8996392E-1,1.0643219E0,-6.4089336E-2,-8.3772224E-1,-1.2972593E-1,-5.2229863E-1,4.0285984E-1,4.8467496E-1,1.2261541E0,-1.6474614E-1,3.782372E-1,-2.162625E-1,2.9227266E-1,-6.4318943E-1,3.8917372E-1,4.2540196E-2,7.413169E-1,5.8882542E-2,-6.4069843E-1,-2.6025212E-1,-8.293674E-1,7.781265E-1,-1.4411922E-1,1.21105805E-1,1.002068E0,-1.6780324E-1,8.411264E-1,3.5093825E-2,9.457506E-1,1.3690339E-1,-7.8123176E-1,4.9686003E-1,-2.846538E-1,1.4071054E0,4.056773E-1,-2.2044404E-1,-1.0052916E0,1.5452905E-1,-5.930182E-1,6.8195474E-1,-1.3272624E-1,6.46665E-1,-4.4058287E-1,-7.0631966E-2,4.80894E-1,-3.8370207E-1,9.530868E-2,4.896986E-1,-3.357111E-1,-8.263955E-1,8.848185E-2,1.8215036E-2,7.418239E-1,6.325876E-3,1.0763636E0,-8.3732885E-1,-1.720142E-1,-5.436135E-1,9.005274E-2,-9.956778E-1,-2.3819242E-1,3.53623E-1,-1.926009E-1,1.1668948E0,3.0915406E-1,-6.837937E-1,2.8373596E-1,8.828762E-2,1.202762E0,2.118739E-1,-6.880122E-1,-1.0280869E0,-3.4979647E-1,1.982173E-1,-4.5556146E-1,-1.1857616E0,-2.741718E-1,-3.797584E-1,5.857958E-1,9.8612016E-1,5.0199207E-2,4.3733218E-1,-6.8225586E-1,4.727949E-1,-4.500085E-1,1.1169217E0,3.7821475E-1,-8.890123E-2,-7.329152E-1,-4.4501707E-2,9.1220474E-1,-6.17572E-2,1.0776275E0,-3.924088E-1,-1.0718402E0,6.8327606E-2,-2.8628466E-1,-2.1740824E-1,-1.1327735E0,-0E0,-7.506903E-1,5.3314656E-1,-1.7950067E-1,-1.1398499E0,-3.191955E-1,-3.097516E-1,5.944415E-1,-1.2627196E-1,-5.2610475E-1,-1.459435E-1,-9.7663677E-1,-4.6183303E-1,9.9266875E-1,-2.7859914E-1,4.327156E-1,3.8544375E-2,-7.6752853E-1,7.15267E-1,-3.003603E-1,-6.344876E-1,-1.19445175E-1,1.2501659E0,2.6398173E-1,-6.042299E-1,6.556137E-1,2.0435803E-2,-9.1322917E-1,1.0356773E0,-9.656269E-2,-6.741731E-1,1.9668259E-1,1.4692786E0,5.489843E-1,-2.454861E-1,4.6246818E-1,-3.9437923E-1,3.1642878E-1,-9.8698956E-1,-1.1295866E-1,1.6115439E-1,-6.721698E-1,3.6180803E-1,-6.4663625E-1,2.613596E-1,1.5410529E0],"categories":[],"categories_nodes":[],"categories_segments":[],"categories_sizes":[],"default_left":[0,0,0,0,0,0,0,0,0,0,0,0,0,0,0,0,0,0,0,0,0,0,0,0,0,0,0,0,0,0,0,0,0,0,0,0,0,0,0,0,0,0,0,0,0,0,0,0,0,0,0,0,0,0,0,0,0,0,0,0,0,0,0,0,0,0,0,0,0,0,0,0,0,0,0,0,0,0,0,0,0,0,0,0,0,0,0,0,0,0,0,0,0,0,0,0,0,0,0,0,0,0,0,0,0,0,0,0,0,0,0,0,0,0,0,0,0,0,0,0,0,0,0,0,0,0,0,0,0,0,0,0,0,0,0,0,0,0,0,0,0,0,0,0,0,0,0,0,0,0,0,0,0,0,0,0,0,0,0,0,0,0,0,0,0,0,0,0,0,0,0,0,0,0,0,0,0,0,0,0,0,0,0,0,0,0,0,0,0,0,0],"id":2,"left_children":[1,3,5,7,9,11,13,15,17,19,21,23,25,27,29,-1,31,33,35,37,39,41,43,45,47,49,-1,51,53,55,57,59,-1,61,63,65,67,69,71,-1,73,75,-1,-1,-1,-1,77,79,-1,81,83,-1,-1,85,-1,87,89,91,93,95,-1,97,99,-1,101,103,105,-1,107,-1,109,111,113,115,-1,-1,117,-1,119,-1,-1,-1,121,123,-1,125,-1,-1,127,129,131,133,135,137,-1,139,-1,141,-1,-1,-1,143,-1,145,147,149,-1,151,153,-1,-1,155,157,-1,-1,159,-1,-1,161,163,165,-1,-1,-1,-1,167,169,-1,171,173,175,177,179,181,183,185,-1,187,189,-1,-1,-1,-1,-1,-1,-1,-1,-1,-1,-1,-1,-1,-1,-1,-1,-1,-1,-1,-1,-1,-1,-1,-1,-1,-1,-1,-1,-1,-1,-1,-1,-1,-1,-1,-1,-1,-1,-1,-1,-1,-1,-1,-1,-1,-1,-1,-1,-1,-1,-1,-1],"loss_changes":[2.1646988E1,1.0805826E1,1.3724155E1,1.656263E1,1.1361162E1,1.0971165E1,1.4001463E1,7.97558E0,1.0611631E1,6.329829E0,6.4298887E0,1.0363325E1,8.92434E0,7.5263557E0,1.68032E1,0E0,5.5042267E0,8.125689E0,1.1727661E1,4.7974415E0,4.232918E0,5.716912E0,4.3026986E0,6.197318E0,5.921933E0,5.89604E0,0E0,4.101261E0,6.4722023E0,9.705931E0,6.8979893E0,6.970042E0,0E0,7.244254E0,3.1703558E0,6.104244E0,8.9632225E0,4.285284E0,9.929644E0,0E0,4.844036E0,6.759248E0,0E0,0E0,0E0,0E0,4.5922785E0,1.6589851E0,0E0,2.8154182E0,3.2961392E0,0E0,0E0,5.618536E0,0E0,9.111739E0,1.075761E1,6.7793903E0,4.5301304E0,5.9842453E0,0E0,5.409786E0,3.5162477E0,0E0,1.5773907E0,4.9797697E0,3.0012531E0,0E0,9.244709E0,0E0,1.6360931E0,6.3662386E0,3.7152205E0,5.567469E0,0E0,0E0,2.1433163E0,0E0,5.2712655E0,0E0,0E0,0E0,2.4254456E0,4.0126653E0,0E0,6.027602E0,0E0,0E0,7.0679264E0,9.465624E0,1.0947052E1,8.225402E0,5.5186963E0,9.086423E0,0E0,2.3445244E0,0E0,4.9222403E0,0E0,0E0,0E0,1.9607105E0,0E0,2.914692E0,2.999415E0,1.7119617E0,0E0,5.8590164E0,7.3611174E0,0E0,0E0,1.3675952E0,8.74692E0,0E0,0E0,4.178653E0,0E0,0E0,2.6573644E0,4.8890505E0,2.3847256E0,0E0,0E0,0E0,0E0,3.1160336E0,6.083247E0,0E0,4.313092E0,6.47181E0,4.350271E0,2.7086506E0,8.952612E0,6.22266E0,5.3550625E0,5.5719275E0,0E0,4.3667073E0,3.6781816E0,0E0,0E0,0E0,0E0,0E0,0E0,0E0,0E0,0E0,0E0,0E0,0E0,0E0,0E0,0E0,0E0,0E0,0E0,0E0,0E0,0E0,0E0,0E0,0E0,0E0,0E0,0E0,0E0,0E0,0E0,0E0,0E0,0E0,0E0,0E0,0E0,0E0,0E0,0E0,0E0,0E0,0E0,0E0,0E0,0E0,0E0,0E0,0E0,0E0,0E0,0E0,0E0],"parents":[2147483647,0,0,1,1,2,2,3,3,4,4,5,5,6,6,7,7,8,8,9,9,10,10,11,11,12,12,13,13,14,14,16,16,17,17,18,18,19,19,20,20,21,21,22,22,23,23,24,24,25,25,27,27,28,28,29,29,30,30,31,31,33,33,34,34,35,35,36,36,37,37,38,38,40,40,41,41,46,46,47,47,49,49,50,50,53,53,55,55,56,56,57,57,58,58,59,59,61,61,62,62,64,64,65,65,66,66,68,68,70,70,71,71,72,72,73,73,76,76,78,78,82,82,83,83,85,85,88,88,89,89,90,90,91,91,92,92,93,93,95,95,97,97,101,101,103,103,104,104,105,105,107,107,108,108,111,111,112,112,115,115,118,118,119,119,120,120,125,125,126,126,128,128,129,129,130,130,131,131,132,132,133,133,134,134,135,135,137,137,138,138],"right_children":[2,4,6,8,10,12,14,16,18,20,22,24,26,28,30,-1,32,34,36,38,40,42,44,46,48,50,-1,52,54,56,58,60,-1,62,64,66,68,70,72,-1,74,76,-1,-1,-1,-1,78,80,-1,82,84,-1,-1,86,-1,88,90,92,94,96,-1,98,100,-1,102,104,106,-1,108,-1,110,112,114,116,-1,-1,118,-1,120,-1,-1,-1,122,124,-1,126,-1,-1,128,130,132,134,136,138,-1,140,-1,142,-1,-1,-1,144,-1,146,148,150,-1,152,154,-1,-1,156,158,-1,-1,160,-1,-1,162,164,166,-1,-1,-1,-1,168,170,-1,172,174,176,178,180,182,184,186,-1,188,190,-1,-1,-1,-1,-1,-1,-1,-1,-1,-1,-1,-1,-1,-1,-1,-1,-1,-1,-1,-1,-1,-1,-1,-1,-1,-1,-1,-1,-1,-1,-1,-1,-1,-1,-1,-1,-1,-1,-1,-1,-1,-1,-1,-1,-1,-1,-1,-1,-1,-1,-1,-1],"split_conditions":[2.4795613E-1,5.257379E-1,-3.324757E-2,-1.1185279E0,1.3585894E-1,2.9059695E-2,-3.489651E-1,-2.8114298E-1,-2.2091639E-1,-8.019318E-2,1.4890219E0,9.722718E-1,1.2380883E0,-8.89279E-1,-5.421945E-2,3.9656505E-1,-9.6840835E-1,3.2381085E-1,-7.1276206E-1,-6.296228E-1,-3.2518157E-1,4.242043E-1,4.4676477E-1,-4.9754357E-1,-5.7656974E-1,-2.767519E-1,4.5143917E-1,3.708888E-1,-4.6276607E-2,-7.614225E-1,1.3602482E0,9.3344375E-2,-1.2310392E0,2.4400434E0,-3.6894682E-1,-4.9928345E-2,-1.0434852E0,-3.1184852E-1,1.777029E-2,-4.8789775E-1,-2.5622204E-1,-2.877605E-1,4.0682444E-1,8.630315E-1,-1.7273125E-1,5.8368295E-1,2.7640364E-1,-3.9449316E-1,-6.4089336E-2,-1.2097445E0,5.247782E-1,-5.2229863E-1,4.0285984E-1,1.05101526E-1,1.2261541E0,-9.7424275E-1,-1.2767066E-1,-7.394311E-2,7.286239E-1,-9.732333E-1,3.8917372E-1,1.8003241E0,-4.3291032E-1,5.8882542E-2,4.8739877E-2,7.2280727E-3,-2.111315E-2,7.781265E-1,-4.2939436E-1,1.21105805E-1,-1.4324391E0,-1.701614E-1,4.8739877E-2,-2.5871786E-1,9.457506E-1,1.3690339E-1,3.5583076E-1,4.9686003E-1,-4.6304598E-1,1.4071054E0,4.056773E-1,-2.2044404E-1,1.4294025E-1,-5.355682E-1,-5.930182E-1,-3.8171422E-1,-1.3272624E-1,6.46665E-1,-1.1513606E-1,-2.8822023E-1,-6.98983E-1,-4.9982402E-1,1.6079098E0,7.809286E-1,-3.357111E-1,-1.0152551E0,8.848185E-2,4.4830117E-1,7.418239E-1,6.325876E-3,1.0763636E0,-4.6386743E-1,-1.720142E-1,-5.4381585E-1,-7.0698375E-1,4.4142455E-2,-2.3819242E-1,-3.3251882E-1,8.8842E-1,1.1668948E0,3.0915406E-1,-2.224174E-1,-4.8412082E-1,8.828762E-2,1.202762E0,-1.3239428E0,-6.880122E-1,-1.0280869E0,9.969776E-1,-3.248758E-1,-1.4247526E-1,-1.1857616E0,-2.741718E-1,-3.797584E-1,5.857958E-1,6.966985E-2,-2.731462E-1,4.3733218E-1,-4.4999498E-1,-3.026017E-1,-8.192815E-2,6.9275314E-1,-7.325904E-1,-6.1989015E-1,-4.88316E-2,8.007213E-1,9.1220474E-1,8.524715E-1,-2.5833598E-1,-3.924088E-1,-1.0718402E0,6.8327606E-2,-2.8628466E-1,-2.1740824E-1,-1.1327735E0,-0E0,-7.506903E-1,5.3314656E-1,-1.7950067E-1,-1.1398499E0,-3.191955E-1,-3.097516E-1,5.944415E-1,-1.2627196E-1,-5.2610475E-1,-1.459435E-1,-9.7663677E-1,-4.6183303E-1,9.9266875E-1,-2.7859914E-1,4.327156E-1,3.8544375E-2,-7.6752853E-1,7.15267E-1,-3.003603E-1,-6.344876E-1,-1.19445175E-1,1.2501659E0,2.6398173E-1,-6.042299E-1,6.556137E-1,2.0435803E-2,-9.1322917E-1,1.0356773E0,-9.656269E-2,-6.741731E-1,1.9668259E-1,1.4692786E0,5.489843E-1,-2.454861E-1,4.6246818E-1,-3.9437923E-1,3.1642878E-1,-9.8698956E-1,-1.1295866E-1,1.6115439E-1,-6.721698E-1,3.6180803E-1,-6.4663625E-1,2.613596E-1,1.5410529E0],"split_indices":[101,164,107,104,81,51,119,51,120,16,177,101,120,81,165,0,108,164,84,107,162,157,81,63,84,106,0,16,63,51,128,120,0,162,16,167,157,162,104,0,101,122,0,0,0,0,101,104,0,84,63,0,0,106,0,51,84,30,49,128,0,63,167,0,81,120,49,0,122,0,177,167,81,123,0,0,81,0,108,0,0,0,81,164,0,63,0,0,108,106,157,118,101,120,0,120,0,122,0,0,0,81,0,16,156,164,0,108,31,0,0,101,8,0,0,119,0,0,84,156,103,0,0,0,0,165,165,0,16,162,157,128,98,30,49,122,0,119,162,0,0,0,0,0,0,0,0,0,0,0,0,0,0,0,0,0,0,0,0,0,0,0,0,0,0,0,0,0,0,0,0,0,0,0,0,0,0,0,0,0,0,0,0,0,0,0,0,0,0,0,0],"split_type":[0,0,0,0,0,0,0,0,0,0,0,0,0,0,0,0,0,0,0,0,0,0,0,0,0,0,0,0,0,0,0,0,0,0,0,0,0,0,0,0,0,0,0,0,0,0,0,0,0,0,0,0,0,0,0,0,0,0,0,0,0,0,0,0,0,0,0,0,0,0,0,0,0,0,0,0,0,0,0,0,0,0,0,0,0,0,0,0,0,0,0,0,0,0,0,0,0,0,0,0,0,0,0,0,0,0,0,0,0,0,0,0,0,0,0,0,0,0,0,0,0,0,0,0,0,0,0,0,0,0,0,0,0,0,0,0,0,0,0,0,0,0,0,0,0,0,0,0,0,0,0,0,0,0,0,0,0,0,0,0,0,0,0,0,0,0,0,0,0,0,0,0,0,0,0,0,0,0,0,0,0,0,0,0,0,0,0,0,0,0,0],"sum_hessian":[1.7415503E3,1.0890846E3,6.5246564E2,9.0946094E2,1.7962372E2,1.5558047E2,4.9688516E2,6.661858E1,8.4284235E2,1.237792E2,5.5844524E1,9.397982E1,6.1600655E1,7.672806E1,4.201571E2,5.5842733E0,6.103431E1,3.73675E2,4.6916733E2,6.847876E1,5.530043E1,4.3677753E1,1.216677E1,7.540497E1,1.8574852E1,5.3697033E1,7.903621E0,1.533727E1,6.1390793E1,2.637533E2,1.5640382E2,4.588702E1,1.5147289E1,3.446784E2,2.8996572E1,8.2925446E1,3.8624188E2,3.1486341E1,3.699242E1,9.872226E0,4.5428207E1,3.8182137E1,5.495616E0,5.872317E0,6.294453E0,1.0163423E1,6.524155E1,1.2813503E1,5.7613487E0,3.305868E1,2.0638353E1,6.714031E0,8.623239E0,4.1289883E1,2.010091E1,3.6440983E1,2.2731232E2,1.248893E2,3.1514519E1,3.9900585E1,5.9864345E0,3.3102533E2,1.3653089E1,7.468855E0,2.1527718E1,4.5810352E1,3.7115093E1,8.785837E0,3.7745605E2,8.966704E0,2.2519636E1,2.3143526E1,1.3848896E1,4.039017E1,5.038034E0,9.422854E0,2.8759285E1,6.4917283E0,5.8749817E1,6.63315E0,6.1803536E0,8.4292145E0,2.4629465E1,1.3215372E1,7.422981E0,3.150106E1,9.78882E0,8.287076E0,2.8153908E1,4.188236E1,1.8542995E2,8.155901E1,4.333028E1,2.4675232E1,6.839287E0,3.203125E1,7.869337E0,3.2229514E2,8.730195E0,5.1934304E0,8.459658E0,1.3606212E1,7.9215055E0,2.5188293E1,2.0622059E1,2.7502192E1,9.612901E0,3.1835705E1,3.4562036E2,1.6737234E1,5.7824025E0,1.0630888E1,1.2512637E1,5.5704293E0,8.278467E0,3.392523E1,6.464945E0,1.609114E1,1.2668144E1,1.4815675E1,4.3934143E1,1.8426937E1,6.2025285E0,5.6986623E0,7.5167093E0,2.0185722E1,1.1315338E1,5.4597945E0,2.2694113E1,1.6690823E1,2.5191536E1,2.2622408E1,1.6280754E2,4.6051346E1,3.550767E1,3.8299236E1,5.031047E0,1.3392865E1,1.1282367E1,1.3890449E1,1.81408E1,2.789275E2,4.336763E1,5.839842E0,7.76637E0,7.7587285E0,1.7429564E1,7.481345E0,1.3140714E1,2.1175798E1,6.3263927E0,7.9947076E0,2.3840998E1,2.9133496E2,5.4285393E1,5.16527E0,5.4656186E0,6.2322497E0,6.2803874E0,9.948606E0,2.3976622E1,7.1336784E0,5.534466E0,7.141778E0,7.673897E0,2.693028E1,1.700386E1,1.3406047E1,6.7796755E0,5.2013116E0,6.1140265E0,5.743827E0,1.6950287E1,7.834388E0,8.856435E0,1.8988424E1,6.203112E0,1.1676078E1,1.094633E1,1.8496435E1,1.4431111E2,2.6713112E1,1.9338232E1,2.4002752E1,1.150492E1,2.9607008E1,8.692228E0,7.912533E0,5.480333E0,5.4529514E0,5.829416E0],"tree_param":{"num_deleted":"0","num_feature":"179","num_nodes":"191","size_leaf_vector":"1"}},{"base_weights":[-3.279822E-2,-9.280057E-1,-1.8961858E-2,-2.0655371E-1,-1.2720544E0,5.884562E-2,-1.15572505E-1,-2.858309E-1,1.2642802E-1,5.107242E-1,-1.5136881E-1,1.3380012E-1,-4.673555E-1,7.179254E-1,9.981575E-2,1.5360801E0,1.7440651E-1,-3.2452828E-1,-2.6465712E-2,3.4563938E-1,-9.414991E-1,-5.3442027E-2,-6.2307817E-1,-0E0,1.0402663E0,7.918917E-2,1.0927386E0,-1.0025809E0,5.134403E-1,-2.5842464E-2,-5.1073E-1,4.234157E-2,-4.567227E-1,-3.9191777E-1,5.9683836E-1,4.7653556E-1,-6.935149E-1,4.3565415E-2,-7.974749E-1,2.3577556E-1,1.4510931E0,1.2516977E-1,-4.1821244E-1,3.775844E-1,1.3958923E0,7.2017306E-1,-1.7264202E-1,2.4526149E-1,-7.2516555E-1,-7.9369885E-1,-2.6929295E-1,1.0589799E0,-1.5122786E-2,-7.0980495E-1,3.0754593E-1,2.1394035E-1,1.2104882E0,-3.084226E-2,9.49964E-1,-1.0355604E0,-0E0,-4.7073102E-1,5.055403E-1,-9.298093E-1,-1.855469E-1,5.665811E-1,9.2535384E-2,3.4255722E-1,-5.828605E-1,-0E0,9.5014685E-1,4.8438618E-1,-2.2254397E-1,-9.538908E-1,2.9997626E-1,-0E0,-8.68635E-1,-6.710446E-1,2.7184553E-2,4.5452678E-1,1.6334878E0,3.2420734E-1,-1.337024E-1,-8.849221E-1,2.4832204E-1,8.015838E-1,-3.7674683E-1,-2.4575873E-1,7.1126E-1,-1.6526498E-2,-1.0479939E0,2.863304E-1,-6.1574084E-1,-1.5215968E-1,7.793877E-1,5.283694E-2,3.2551476E-1,-7.747625E-1,2.103705E-1,1.3199776E0,4.2162043E-1,7.1291417E-1,-5.631527E-1,-1.0348284E0,1.00453615E-1,-1.2912068E-1,-1.1549621E0,-0E0,-9.551036E-1,-3.2845443E-1,-1.2638788E0,1.1953257E0,-1.6663408E-1,-1.9112559E-1,1.0283453E0,-2.772696E-1,5.420095E-1,-2.1565804E-1,8.065504E-1,-2.7863553E-1,-1.1569965E0],"categories":[],"categories_nodes":[],"categories_segments":[],"categories_sizes":[],"default_left":[0,0,0,0,0,0,0,0,0,0,0,0,0,0,0,0,0,0,0,0,0,0,0,0,0,0,0,0,0,0,0,0,0,0,0,0,0,0,0,0,0,0,0,0,0,0,0,0,0,0,0,0,0,0,0,0,0,0,0,0,0,0,0,0,0,0,0,0,0,0,0,0,0,0,0,0,0,0,0,0,0,0,0,0,0,0,0,0,0,0,0,0,0,0,0,0,0,0,0,0,0,0,0,0,0,0,0,0,0,0,0,0,0,0,0,0,0,0,0,0,0],"id":3,"left_children":[1,3,5,-1,-1,7,9,11,13,15,17,19,21,23,25,-1,27,29,31,33,-1,35,37,-1,39,41,43,-1,45,47,49,51,53,-1,55,57,59,61,63,-1,-1,65,67,-1,-1,69,-1,71,73,75,77,79,81,83,85,87,-1,-1,-1,-1,-1,-1,-1,89,91,93,95,-1,97,-1,99,101,103,105,-1,-1,107,109,111,113,-1,115,117,119,-1,-1,-1,-1,-1,-1,-1,-1,-1,-1,-1,-1,-1,-1,-1,-1,-1,-1,-1,-1,-1,-1,-1,-1,-1,-1,-1,-1,-1,-1,-1,-1,-1,-1,-1,-1,-1],"loss_changes":[2.0008827E1,5.138996E0,1.2197336E1,0E0,0E0,2.0898874E1,1.628783E1,1.1406565E1,1.1438217E1,1.245884E1,1.4741619E1,1.0809273E1,6.395756E0,7.0296974E0,1.4258192E1,0E0,1.3641001E1,1.5763851E1,1.2077329E1,7.8675237E0,0E0,1.1236405E1,8.948412E0,0E0,5.9215508E0,1.6245007E1,1.5004082E0,0E0,4.149273E0,2.18974E1,1.12742E1,2.0686544E1,1.1438673E1,0E0,6.2543373E0,4.6288686E0,3.5607233E0,4.5189157E0,4.1348076E0,0E0,0E0,9.083958E0,7.9808426E0,0E0,0E0,3.2471542E0,0E0,9.525013E0,8.352541E0,4.9582367E0,1.196678E1,4.4642773E0,1.3358394E1,7.8723354E0,5.834675E0,5.427035E0,0E0,0E0,0E0,0E0,0E0,0E0,0E0,4.82481E0,3.1863997E0,7.1300354E0,5.491846E0,0E0,8.159582E0,0E0,1.4218874E0,1.4172471E1,8.05974E0,3.8210526E0,0E0,0E0,5.506256E0,7.293087E0,1.3881875E1,5.1837626E0,0E0,1.1608207E1,1.924608E1,5.0600586E0,0E0,0E0,0E0,0E0,0E0,0E0,0E0,0E0,0E0,0E0,0E0,0E0,0E0,0E0,0E0,0E0,0E0,0E0,0E0,0E0,0E0,0E0,0E0,0E0,0E0,0E0,0E0,0E0,0E0,0E0,0E0,0E0,0E0,0E0,0E0,0E0,0E0],"parents":[2147483647,0,0,1,1,2,2,5,5,6,6,7,7,8,8,9,9,10,10,11,11,12,12,13,13,14,14,16,16,17,17,18,18,19,19,21,21,22,22,24,24,25,25,26,26,28,28,29,29,30,30,31,31,32,32,34,34,35,35,36,36,37,37,38,38,41,41,42,42,45,45,47,47,48,48,49,49,50,50,51,51,52,52,53,53,54,54,55,55,63,63,64,64,65,65,66,66,68,68,70,70,71,71,72,72,73,73,76,76,77,77,78,78,79,79,81,81,82,82,83,83],"right_children":[2,4,6,-1,-1,8,10,12,14,16,18,20,22,24,26,-1,28,30,32,34,-1,36,38,-1,40,42,44,-1,46,48,50,52,54,-1,56,58,60,62,64,-1,-1,66,68,-1,-1,70,-1,72,74,76,78,80,82,84,86,88,-1,-1,-1,-1,-1,-1,-1,90,92,94,96,-1,98,-1,100,102,104,106,-1,-1,108,110,112,114,-1,116,118,120,-1,-1,-1,-1,-1,-1,-1,-1,-1,-1,-1,-1,-1,-1,-1,-1,-1,-1,-1,-1,-1,-1,-1,-1,-1,-1,-1,-1,-1,-1,-1,-1,-1,-1,-1,-1,-1],"split_conditions":[-8.2290334E-1,-5.914651E-1,1.1337231E-2,-2.0655371E-1,-1.2720544E0,-3.257736E-1,-3.3345318E-1,-9.109829E-1,-3.2273376E-1,-9.778579E-1,-3.6634764E-1,4.00431E-1,-6.944913E-1,-1.5228133E-1,1.7200015E0,1.5360801E0,-4.239192E-1,-5.5736935E-1,5.520552E-1,-4.2663944E-1,-9.414991E-1,-5.1082677E-1,-1.7853187E-1,-0E0,-4.8663706E-1,1.2043434E0,1.3874499E0,-1.0025809E0,-8.458466E-2,6.139789E-1,-3.7304014E-1,-7.4007106E-1,2.6882675E0,-3.9191777E-1,-1.1080991E0,-1.0691534E0,-3.421432E-1,-5.516426E-1,7.7324325E-1,2.3577556E-1,1.4510931E0,-8.9432406E-1,-2.9220724E-2,3.775844E-1,1.3958923E0,-1.9295016E-1,-1.7264202E-1,2.7512306E-1,1.5632042E0,-7.239961E-1,-4.484419E-1,9.6190107E-1,-3.9910072E-1,2.0831213E0,1.8645079E0,-5.071796E-1,1.2104882E0,-3.084226E-2,9.49964E-1,-1.0355604E0,-0E0,-4.7073102E-1,5.055403E-1,-7.556231E-1,6.2734663E-1,-4.6075138E-1,5.019303E-1,3.4255722E-1,4.7319934E-1,-0E0,-2.939305E-1,8.371554E-1,-5.8887494E-1,-3.1150907E-1,2.9997626E-1,-0E0,-3.315094E-1,-5.57255E-1,-3.7447408E-1,-7.628981E-1,1.6334878E0,-3.1567064E-1,1.2198629E0,1.2498946E0,2.4832204E-1,8.015838E-1,-3.7674683E-1,-2.4575873E-1,7.1126E-1,-1.6526498E-2,-1.0479939E0,2.863304E-1,-6.1574084E-1,-1.5215968E-1,7.793877E-1,5.283694E-2,3.2551476E-1,-7.747625E-1,2.103705E-1,1.3199776E0,4.2162043E-1,7.1291417E-1,-5.631527E-1,-1.0348284E0,1.00453615E-1,-1.2912068E-1,-1.1549621E0,-0E0,-9.551036E-1,-3.2845443E-1,-1.2638788E0,1.1953257E0,-1.6663408E-1,-1.9112559E-1,1.0283453E0,-2.772696E-1,5.420095E-1,-2.1565804E-1,8.065504E-1,-2.7863553E-1,-1.1569965E0],"split_indices":[8,16,106,0,0,162,162,10,162,167,167,29,167,50,108,0,38,50,13,164,0,34,163,0,8,10,119,0,163,108,13,34,108,0,10,167,50,12,107,0,0,50,108,0,0,163,0,34,129,13,31,106,82,119,167,106,0,0,0,0,0,0,0,126,129,150,107,0,150,0,159,106,126,162,0,0,162,8,8,118,0,162,167,121,0,0,0,0,0,0,0,0,0,0,0,0,0,0,0,0,0,0,0,0,0,0,0,0,0,0,0,0,0,0,0,0,0,0,0,0,0],"split_type":[0,0,0,0,0,0,0,0,0,0,0,0,0,0,0,0,0,0,0,0,0,0,0,0,0,0,0,0,0,0,0,0,0,0,0,0,0,0,0,0,0,0,0,0,0,0,0,0,0,0,0,0,0,0,0,0,0,0,0,0,0,0,0,0,0,0,0,0,0,0,0,0,0,0,0,0,0,0,0,0,0,0,0,0,0,0,0,0,0,0,0,0,0,0,0,0,0,0,0,0,0,0,0,0,0,0,0,0,0,0,0,0,0,0,0,0,0,0,0,0,0],"sum_hessian":[1.6391615E3,2.2608034E1,1.6165535E3,8.615171E0,1.3992864E1,8.9412616E2,7.2242737E2,1.4478935E2,7.4933685E2,3.717058E1,6.852568E2,4.3380245E1,1.014091E2,2.9539951E1,7.197969E2,7.1982E0,2.9972382E1,2.8481085E2,4.0044592E2,3.7607502E1,5.7727427E0,2.8983463E1,7.242564E1,1.0021826E1,1.9518126E1,7.0755994E2,1.2236919E1,5.629576E0,2.4342804E1,1.1086356E2,1.7394728E2,3.4618884E2,5.425707E1,8.966345E0,2.8641157E1,1.5878463E1,1.3105E1,1.4972478E1,5.745316E1,7.9088573E0,1.1609267E1,6.496089E2,5.7951057E1,5.2745757E0,6.962344E0,1.896584E1,5.376965E0,8.051875E1,3.0344814E1,7.740721E1,9.654006E1,1.6935522E1,3.2925333E2,4.1161713E1,1.3095357E1,1.9598478E1,9.042679E0,8.261048E0,7.6174145E0,8.094944E0,5.0100565E0,6.7597976E0,8.21268E0,4.598034E1,1.1472821E1,4.1834988E1,6.077739E2,9.601838E0,4.834922E1,5.32406E0,1.364178E1,5.366011E1,2.685864E1,2.5162348E1,5.1824665E0,6.5384493E0,7.086876E1,4.0348965E1,5.61911E1,1.0252808E1,6.682714E0,8.370968E1,2.4554366E2,3.5195026E1,5.966686E0,7.6603928E0,5.4349637E0,1.0396693E1,9.201785E0,5.8204384E0,4.01599E1,5.4577346E0,6.015087E0,9.365125E0,3.2469864E1,5.2248627E2,8.528764E1,3.9272907E1,9.076312E0,5.9298673E0,7.7119126E0,4.48098E1,8.850311E0,6.6517515E0,2.0206888E1,5.8681655E0,1.9294182E1,6.5607395E0,6.430802E1,2.7862032E1,1.2486931E1,6.7460647E0,4.9445038E1,5.206059E0,5.0467486E0,2.1742544E1,6.1967133E1,2.2756836E2,1.7975294E1,1.2497239E1,2.2697788E1],"tree_param":{"num_deleted":"0","num_feature":"179","num_nodes":"121","size_leaf_vector":"1"}},{"base_weights":[-1.7649073E-2,-4.3508686E-2,3.0585486E-1,-3.972036E-1,-2.6289288E-2,-2.4480197E-1,5.926965E-1,2.0482948E-1,-6.464456E-1,-4.1608462E-1,-7.6214476E-3,1.2663634E-1,-7.4671453E-1,8.811642E-1,-2.969569E-1,1.0744066E0,-2.9761037E-1,-9.330556E-1,2.8509786E-2,-5.255938E-1,5.2462584E-1,7.297632E-1,-1.805602E-2,-6.439847E-1,7.5050277E-1,-3.4296504E-1,-1.1106322E0,5.0316185E-1,1.3329257E0,7.556323E-1,-8.0358684E-1,-8.2593423E-1,2.736923E-1,-1.0569333E0,-1.5218389E-1,-5.702919E-1,5.1321036E-1,-1.7549492E-1,-9.306164E-1,-1.4207444E-1,1.1584078E0,3.4891327E-3,-3.5723263E-1,6.357416E-2,1.1441336E0,1.1622386E0,-7.85949E-2,1.6264585E0,2.044938E-1,-1.1447645E0,-1.3213028E-1,-1.2232659E0,-5.424204E-1,-8.3537203E-1,-0E0,-1.089209E0,-2.6149726E-1,6.168174E-1,-1.1115919E-2,-8.464676E-1,-7.917464E-2,2.1692058E-1,1.5765042E0,9.0387213E-1,-5.6673664E-1,2.8304192E-1,-6.0695493E-1,-4.8617744E-1,-1.3017985E0,9.076396E-1,1.10843204E-1,-4.2902883E-2,2.1475072E-1,-9.578615E-2,-9.9961644E-1,4.3360895E-1,-5.566118E-1,-1.1822176E0,-0E0,-3.6712152E-1,6.078932E-1,8.832943E-2,1.2221566E0,-1.5868624E-1,3.7998512E-1,-2.553773E-2,-3.6358216E-1,2.8364727E-1,-5.477923E-1,-8.120984E-2,1.084957E0,-1.0050998E0,3.7287197E-1],"categories":[],"categories_nodes":[],"categories_segments":[],"categories_sizes":[],"default_left":[0,0,0,0,0,0,0,0,0,0,0,0,0,0,0,0,0,0,0,0,0,0,0,0,0,0,0,0,0,0,0,0,0,0,0,0,0,0,0,0,0,0,0,0,0,0,0,0,0,0,0,0,0,0,0,0,0,0,0,0,0,0,0,0,0,0,0,0,0,0,0,0,0,0,0,0,0,0,0,0,0,0,0,0,0,0,0,0,0,0,0,0,0],"id":4,"left_children":[1,3,5,7,9,11,13,15,17,19,21,23,25,27,29,-1,31,33,35,37,-1,39,41,-1,43,-1,-1,45,47,-1,49,-1,-1,51,-1,-1,-1,53,55,-1,-1,57,59,-1,-1,61,63,-1,-1,-1,-1,-1,-1,-1,65,67,-1,69,71,73,75,-1,-1,-1,77,79,-1,-1,-1,81,83,85,87,-1,-1,89,91,-1,-1,-1,-1,-1,-1,-1,-1,-1,-1,-1,-1,-1,-1,-1,-1],"loss_changes":[1.3003618E1,8.669277E0,1.8544212E1,1.0339543E1,9.933487E0,7.909231E0,2.032978E1,9.858045E0,9.550655E0,6.9857655E0,9.992426E0,1.2821283E1,1.4205799E0,8.101612E0,1.1878893E1,0E0,4.9587784E0,2.5898113E0,5.1668673E0,7.4563837E0,0E0,7.4009695E0,9.658913E0,0E0,3.4747353E0,0E0,0E0,1.4095104E1,7.0948143E0,0E0,2.669073E0,0E0,0E0,5.8620644E-1,0E0,0E0,0E0,3.8943372E0,1.7492542E0,0E0,0E0,1.1213273E1,1.0322741E1,0E0,0E0,5.4287167E0,1.0732821E1,0E0,0E0,0E0,0E0,0E0,0E0,0E0,5.235831E0,7.307205E-1,0E0,3.778409E0,8.602991E0,2.6987457E0,1.347333E1,0E0,0E0,0E0,5.411482E0,4.9134636E0,0E0,0E0,0E0,3.9874754E0,1.1506095E0,5.752418E0,7.9842043E0,0E0,0E0,9.3072605E0,1.285251E1,0E0,0E0,0E0,0E0,0E0,0E0,0E0,0E0,0E0,0E0,0E0,0E0,0E0,0E0,0E0,0E0],"parents":[2147483647,0,0,1,1,2,2,3,3,4,4,5,5,6,6,7,7,8,8,9,9,10,10,11,11,12,12,13,13,14,14,16,16,17,17,18,18,19,19,21,21,22,22,24,24,27,27,28,28,30,30,33,33,37,37,38,38,41,41,42,42,45,45,46,46,54,54,55,55,57,57,58,58,59,59,60,60,64,64,65,65,69,69,70,70,71,71,72,72,75,75,76,76],"right_children":[2,4,6,8,10,12,14,16,18,20,22,24,26,28,30,-1,32,34,36,38,-1,40,42,-1,44,-1,-1,46,48,-1,50,-1,-1,52,-1,-1,-1,54,56,-1,-1,58,60,-1,-1,62,64,-1,-1,-1,-1,-1,-1,-1,66,68,-1,70,72,74,76,-1,-1,-1,78,80,-1,-1,-1,82,84,86,88,-1,-1,90,92,-1,-1,-1,-1,-1,-1,-1,-1,-1,-1,-1,-1,-1,-1,-1,-1],"split_conditions":[1.3417726E0,-1.3585763E0,-4.9764907E-1,-1.7422177E0,-7.6966655E-1,3.8281208E-1,7.5275695E-1,8.085843E-1,3.0144572E-1,1.9128413E-1,-7.615663E-1,-2.5410917E-1,-1.6230287E-3,4.465279E-1,2.1074325E-1,1.0744066E0,-2.1949186E0,6.476085E-1,-4.648917E-1,-7.982709E-1,5.2462584E-1,-9.0836143E-1,9.661708E-1,-6.439847E-1,-6.236637E-1,-3.4296504E-1,-1.1106322E0,-4.2473236E-3,1.61395E0,7.556323E-1,5.4278845E-1,-8.2593423E-1,2.736923E-1,8.677664E-1,-1.5218389E-1,-5.702919E-1,5.1321036E-1,-8.562054E-1,-7.545282E-1,-1.4207444E-1,1.1584078E0,-1.2820528E0,-4.716103E-1,6.357416E-2,1.1441336E0,1.576215E0,-3.6984774E-1,1.6264585E0,2.044938E-1,-1.1447645E0,-1.3213028E-1,-1.2232659E0,-5.424204E-1,-8.3537203E-1,5.239741E-1,-2.4161525E-1,-2.6149726E-1,3.4825474E-1,6.652348E-1,1.5100917E-1,2.1950413E-1,2.1692058E-1,1.5765042E0,9.0387213E-1,-2.789644E-1,-5.7312024E-1,-6.0695493E-1,-4.8617744E-1,-1.3017985E0,-4.1258957E-2,-6.9650793E-1,9.137831E-1,9.3110114E-1,-9.578615E-2,-9.9961644E-1,-4.419873E-1,5.055602E-1,-1.1822176E0,-0E0,-3.6712152E-1,6.078932E-1,8.832943E-2,1.2221566E0,-1.5868624E-1,3.7998512E-1,-2.553773E-2,-3.6358216E-1,2.8364727E-1,-5.477923E-1,-8.120984E-2,1.084957E0,-1.0050998E0,3.7287197E-1],"split_indices":[106,106,56,119,32,158,161,82,10,81,33,158,166,80,80,0,122,56,155,33,0,106,48,0,27,0,0,80,124,0,158,0,0,48,0,0,0,9,148,0,0,124,80,0,0,106,117,0,0,0,0,0,0,0,156,106,0,156,155,82,80,0,0,0,56,178,0,0,0,156,122,81,107,0,0,178,81,0,0,0,0,0,0,0,0,0,0,0,0,0,0,0,0],"split_type":[0,0,0,0,0,0,0,0,0,0,0,0,0,0,0,0,0,0,0,0,0,0,0,0,0,0,0,0,0,0,0,0,0,0,0,0,0,0,0,0,0,0,0,0,0,0,0,0,0,0,0,0,0,0,0,0,0,0,0,0,0,0,0,0,0,0,0,0,0,0,0,0,0,0,0,0,0,0,0,0,0,0,0,0,0,0,0,0,0,0,0,0,0],"sum_hessian":[1.5586259E3,1.4457191E3,1.1290667E2,6.425864E1,1.3814606E3,3.8412502E1,7.449416E1,1.8566E1,4.5692635E1,6.0456E1,1.3210045E3,2.259146E1,1.5821044E1,5.652302E1,1.7971142E1,6.183863E0,1.2382138E1,3.184837E1,1.3844267E1,5.5228283E1,5.2277203E0,1.6107449E1,1.3048971E3,9.86299E0,1.2728468E1,9.732503E0,6.088541E0,3.343695E1,2.3086071E1,5.3274837E0,1.2643659E1,6.242743E0,6.139395E0,2.6545877E1,5.3024917E0,5.7583094E0,8.085958E0,3.1557486E1,2.3670795E1,5.5191154E0,1.0588333E1,1.2279878E3,7.6909225E1,5.760652E0,6.9678164E0,1.498284E1,1.8454113E1,1.7409016E1,5.6770554E0,7.1526833E0,5.4909754E0,1.7538033E1,9.007846E0,5.06152E0,2.6495966E1,1.7757877E1,5.912919E0,2.7121353E1,1.2008665E3,2.599842E1,5.0910805E1,5.7144327E0,9.268407E0,5.356123E0,1.309799E1,1.8808506E1,7.6874595E0,6.7098227E0,1.1048054E1,1.5837639E1,1.1283713E1,1.0552991E3,1.4556744E2,5.2880473E0,2.0710373E1,2.433232E1,2.6578487E1,5.341534E0,7.756456E0,5.8721447E0,1.2936362E1,5.368455E0,1.0469184E1,5.490977E0,5.792737E0,1.0040247E3,5.127432E1,1.350179E2,1.0549536E1,1.4311062E1,1.0021256E1,1.8035957E1,8.542529E0],"tree_param":{"num_deleted":"0","num_feature":"179","num_nodes":"93","size_leaf_vector":"1"}},{"base_weights":[-1.8976415E-2,-9.640769E-2,7.097772E-2,-2.0062818E-1,5.600225E-2,-6.1531886E-2,2.3086672E-1,-1.07338555E-1,-4.7004905E-1,5.584688E-1,-1.914312E-2,-8.256191E-1,-1.1379703E-2,8.943918E-1,1.6078001E-1,4.8184547E-1,-1.7676267E-1,-6.4797074E-1,5.2921945E-1,8.9099395E-1,-4.8334293E-2,4.593863E-1,-8.100838E-2,-2.0221846E-1,-1.0329447E0,7.989177E-2,-2.742323E-1,2.3185046E-1,1.2154201E0,5.461469E-1,7.27029E-2,1.5715978E-1,1.0903091E0,-4.5082378E-1,-4.443839E-2,-3.182499E-1,-8.323292E-1,1.170471E0,6.504059E-2,2.8561231E-1,1.2256193E0,-6.421449E-1,6.406516E-1,9.5007765E-1,8.6796865E-2,-2.1374896E-1,4.191187E-1,-1.3064004E0,-4.3426275E-1,-8.762584E-2,4.6367526E-1,-3.7431255E-1,5.302631E-1,8.051036E-1,-3.4215748E-1,5.806169E-1,1.5683259E0,4.1988943E-2,9.614314E-1,4.998919E-1,1.1163545E-3,7.699441E-1,-4.1561693E-1,1.4109542E0,4.0269208E-1,-7.645964E-1,-2.40377E-1,1.14544846E-1,-2.1464545E-1,7.192718E-2,-7.914848E-1,-9.127812E-1,-0E0,6.291242E-1,-4.4426203E-1,-0E0,5.4708016E-1,4.6443337E-1,1.4355024E0,8.3942777E-1,-2.578836E-1,-1.21902704E-1,-8.11654E-1,7.054323E-1,-2.8287452E-2,5.459631E-1,-1.5400013E-1,9.302379E-1,2.5544375E-2,-4.5300376E-1,1.0813913E-1,-2.091613E-1,6.583651E-1,1.3374244E0,2.5493988E-1,-2.1245793E-1,1.013307E0,3.595E-1,-1.0601518E-1,1.2905611E0,1.2574641E-2,1.5485358E-1,-8.6556995E-1,-8.8892967E-1,-1.632975E-3,6.949706E-1,-3.4771964E-1,-2.5330342E-2,5.158417E-1,4.1721126E-1,-2.8185752E-1,6.7538303E-1,-3.0435205E-1,-2.2298607E-1,-1.0440079E0,-1.0443549E0,-3.0864164E-1,-7.0831794E-1,4.3671173E-1,-2.040596E-1,3.175787E-1,2.2061875E-2,-1.0572225E0,1.0022994E0,1.9305347E-1,-5.2528065E-1,3.8496932E-1,1.687107E-1,8.8551E-1,-2.1456923E-1,6.0862887E-1,4.3480735E-2,1.076943E0,-2.6333216E-1,6.167827E-1,-4.5880094E-2,-5.838786E-1,3.9237443E-1,-1.9623762E-1,8.647093E-2,-6.880878E-1,6.241782E-1,-1.7001532E-1,1.6416554E-1,-7.563582E-1,2.0612933E-1,1.2732629E0,1.1102893E-1,1.0605581E0,-3.240566E-1,1.0420972E-1,-1.1476735E0,-1.6274467E-1,-5.058959E-1,1.4027187E-1,7.915781E-1,-1.4213392E-1,-0E0,8.173489E-1,-1.0174651E0,-1.5618795E-1,3.7560984E-1,-7.079959E-1,-1.1644643E-1,-1.1406415E0,5.563862E-2,-7.139556E-1,-5.378543E-1,-8.191163E-2,5.61367E-1,-2.2571486E-1,-1.3731897E0,-3.588678E-1,5.393625E-1,1.3363594E0,6.375878E-1,-1.2585506E-1,8.931116E-1,-1.3899799E-1,-1.4723504E-1,-8.064561E-1,8.842005E-1,1.6592911E-1,1.4828264E0,5.673764E-1,-6.0009784E-1,4.3169865E-1,9.018078E-1,2.8427788E-3,-4.4034243E-1,6.210309E-1,-1.0098009E0,-3.2688084E-1,-2.6462087E-1,4.467683E-1,-2.7661192E-1,5.998684E-1,-6.481263E-1,4.023E-2,4.8371786E-1,-1.2888685E-1],"categories":[],"categories_nodes":[],"categories_segments":[],"categories_sizes":[],"default_left":[0,0,0,0,0,0,0,0,0,0,0,0,0,0,0,0,0,0,0,0,0,0,0,0,0,0,0,0,0,0,0,0,0,0,0,0,0,0,0,0,0,0,0,0,0,0,0,0,0,0,0,0,0,0,0,0,0,0,0,0,0,0,0,0,0,0,0,0,0,0,0,0,0,0,0,0,0,0,0,0,0,0,0,0,0,0,0,0,0,0,0,0,0,0,0,0,0,0,0,0,0,0,0,0,0,0,0,0,0,0,0,0,0,0,0,0,0,0,0,0,0,0,0,0,0,0,0,0,0,0,0,0,0,0,0,0,0,0,0,0,0,0,0,0,0,0,0,0,0,0,0,0,0,0,0,0,0,0,0,0,0,0,0,0,0,0,0,0,0,0,0,0,0,0,0,0,0,0,0,0,0,0,0,0,0,0,0,0,0,0,0,0,0,0,0,0,0,0,0,0,0],"id":5,"left_children":[1,3,5,7,9,11,13,15,17,19,21,23,25,27,29,31,33,35,37,39,41,43,45,-1,47,49,51,53,55,57,59,61,63,65,67,69,71,-1,73,75,77,-1,-1,-1,79,81,83,-1,-1,85,87,89,-1,-1,-1,-1,-1,91,93,95,97,99,101,-1,-1,103,105,107,109,111,113,115,-1,-1,-1,-1,-1,-1,-1,-1,117,119,121,123,125,127,129,131,133,135,137,139,-1,-1,141,143,145,147,149,-1,-1,-1,-1,151,-1,-1,153,155,157,-1,159,-1,161,-1,-1,163,165,-1,-1,167,169,-1,171,173,175,-1,177,-1,-1,179,181,-1,183,185,187,189,191,-1,-1,193,-1,-1,-1,-1,-1,-1,-1,195,-1,197,199,-1,-1,-1,-1,-1,-1,-1,-1,-1,-1,-1,-1,-1,-1,-1,-1,-1,-1,-1,-1,-1,-1,-1,-1,-1,-1,-1,-1,-1,-1,-1,-1,-1,-1,-1,-1,-1,-1,-1,-1,-1,-1,-1,-1,-1,-1,-1,-1,-1,-1],"loss_changes":[1.0577764E1,1.3045294E1,1.4919702E1,1.19634E1,1.2727869E1,1.4429019E1,1.4225204E1,1.5011843E1,2.27337E1,9.178559E0,8.5589075E0,2.2140427E0,8.795172E0,5.3017254E0,9.621014E0,6.901805E0,1.1724906E1,5.583683E0,5.298838E0,4.6650524E0,7.8136473E0,5.556106E0,1.7340815E1,0E0,1.0582027E0,1.7530516E1,7.974003E0,4.784342E0,1.8296375E0,1.0765978E1,7.188613E0,1.0505314E1,1.1328812E0,6.331127E0,6.1542635E0,8.0710125E0,4.5183716E0,0E0,4.56034E0,1.0313607E0,9.037857E-1,0E0,0E0,0E0,6.1335797E0,1.0879617E1,7.2393904E0,0E0,0E0,7.9928045E0,1.6591337E1,3.455659E0,0E0,0E0,0E0,0E0,0E0,4.5072722E0,6.4848156E0,1.3048166E1,8.145048E0,5.2494755E0,4.438636E0,0E0,0E0,3.62578E0,7.1003685E0,6.710996E0,4.8674393E0,6.077645E0,1.947978E0,3.7642403E0,0E0,0E0,0E0,0E0,0E0,0E0,0E0,0E0,5.6645994E0,6.669389E0,5.8341255E0,4.394165E0,5.1348124E0,1.680399E0,8.131277E0,4.7362747E0,8.131864E0,3.733241E0,1.3462132E0,3.1278703E0,0E0,0E0,2.3481417E0,3.6182518E0,3.2822304E0,7.9499855E0,7.5210686E0,0E0,0E0,0E0,0E0,5.8044434E0,0E0,0E0,5.0119877E0,8.400182E0,4.675314E0,0E0,8.673813E0,0E0,5.061796E0,0E0,0E0,3.689808E0,2.3557343E0,0E0,0E0,6.053241E0,4.1795764E0,0E0,3.124958E0,1.1732235E0,2.4750214E0,0E0,4.0124116E0,0E0,0E0,5.9350624E0,9.629884E-1,0E0,4.672127E0,7.906604E0,2.4775634E0,5.985556E0,5.0398674E0,0E0,0E0,2.029328E0,0E0,0E0,0E0,0E0,0E0,0E0,0E0,7.7687144E0,0E0,9.714317E0,7.561776E0,0E0,0E0,0E0,0E0,0E0,0E0,0E0,0E0,0E0,0E0,0E0,0E0,0E0,0E0,0E0,0E0,0E0,0E0,0E0,0E0,0E0,0E0,0E0,0E0,0E0,0E0,0E0,0E0,0E0,0E0,0E0,0E0,0E0,0E0,0E0,0E0,0E0,0E0,0E0,0E0,0E0,0E0,0E0,0E0,0E0,0E0,0E0,0E0,0E0,0E0],"parents":[2147483647,0,0,1,1,2,2,3,3,4,4,5,5,6,6,7,7,8,8,9,9,10,10,11,11,12,12,13,13,14,14,15,15,16,16,17,17,18,18,19,19,20,20,21,21,22,22,24,24,25,25,26,26,27,27,28,28,29,29,30,30,31,31,32,32,33,33,34,34,35,35,36,36,38,38,39,39,40,40,44,44,45,45,46,46,49,49,50,50,51,51,57,57,58,58,59,59,60,60,61,61,62,62,65,65,66,66,67,67,68,68,69,69,70,70,71,71,80,80,81,81,82,82,83,83,84,84,85,85,86,86,87,87,88,88,89,89,90,90,91,91,94,94,95,95,96,96,97,97,98,98,103,103,106,106,107,107,108,108,110,110,112,112,115,115,116,116,119,119,120,120,122,122,123,123,124,124,126,126,129,129,130,130,132,132,133,133,134,134,135,135,136,136,139,139,147,147,149,149,150,150],"right_children":[2,4,6,8,10,12,14,16,18,20,22,24,26,28,30,32,34,36,38,40,42,44,46,-1,48,50,52,54,56,58,60,62,64,66,68,70,72,-1,74,76,78,-1,-1,-1,80,82,84,-1,-1,86,88,90,-1,-1,-1,-1,-1,92,94,96,98,100,102,-1,-1,104,106,108,110,112,114,116,-1,-1,-1,-1,-1,-1,-1,-1,118,120,122,124,126,128,130,132,134,136,138,140,-1,-1,142,144,146,148,150,-1,-1,-1,-1,152,-1,-1,154,156,158,-1,160,-1,162,-1,-1,164,166,-1,-1,168,170,-1,172,174,176,-1,178,-1,-1,180,182,-1,184,186,188,190,192,-1,-1,194,-1,-1,-1,-1,-1,-1,-1,196,-1,198,200,-1,-1,-1,-1,-1,-1,-1,-1,-1,-1,-1,-1,-1,-1,-1,-1,-1,-1,-1,-1,-1,-1,-1,-1,-1,-1,-1,-1,-1,-1,-1,-1,-1,-1,-1,-1,-1,-1,-1,-1,-1,-1,-1,-1,-1,-1,-1,-1,-1,-1],"split_conditions":[6.2239706E-3,9.9454276E-2,7.277312E-2,-5.074489E-1,-4.4740725E-1,-9.595321E-1,-1.184883E0,-7.5200933E-1,8.085843E-1,-1.7268568E-1,1.9329508E-1,-2.224174E-1,-1.1354648E-1,-6.1809295E-1,-7.3781765E-1,1.2790391E-1,-5.129776E-1,-3.906342E-1,-3.557548E-1,-4.2843502E-2,6.3476306E-1,-6.00844E-1,4.9673483E-1,-2.0221846E-1,1.3485068E-1,-4.139733E-1,1.557834E0,-7.308046E-1,-2.9442224E-1,-1.569357E0,-7.7772045E-1,8.6512916E-2,8.912685E-1,-8.4260374E-2,1.0053054E-1,6.1319506E-1,5.126407E-1,1.170471E0,8.7199986E-2,-2.1748891E-1,-7.29445E-1,-6.421449E-1,6.406516E-1,9.5007765E-1,-8.481112E-1,9.810518E-1,9.081733E-1,-1.3064004E0,-4.3426275E-1,-1.5836428E0,-2.140992E-1,-3.6727667E-2,5.302631E-1,8.051036E-1,-3.4215748E-1,5.806169E-1,1.5683259E0,-1.314267E-1,-5.0272983E-1,-5.585856E-1,1.5105179E-1,-3.0900687E-1,-5.5555195E-1,1.4109542E0,4.0269208E-1,1.7456225E-1,-2.5112504E-1,-9.7591534E-2,-1.5929881E0,-3.8135943E-1,2.6593643E-1,8.546313E-1,-0E0,6.291242E-1,-4.4426203E-1,-0E0,5.4708016E-1,4.6443337E-1,1.4355024E0,8.3942777E-1,5.653118E-1,-2.7396125E-1,3.1243593E-1,-5.5414647E-1,4.1577068E-1,-1.1174804E0,1.054609E0,-9.4141656E-1,1.40715E0,-3.2771865E-1,-3.0113384E-1,2.2327274E-1,6.583651E-1,1.3374244E0,2.9438943E-1,5.249052E-1,1.314504E-1,4.2112255E-1,5.181364E-1,1.2905611E0,1.2574641E-2,1.5485358E-1,-8.6556995E-1,1.6549441E-1,-1.632975E-3,6.949706E-1,-1.09975256E-1,-6.810359E-1,-7.811264E-1,4.1721126E-1,-1.212258E0,6.7538303E-1,-1.9603416E-1,-2.2298607E-1,-1.0440079E0,-6.584487E-1,1.910897E-1,-7.0831794E-1,4.3671173E-1,-6.06432E-1,-6.3041285E-2,2.2061875E-2,-5.967128E-1,-5.2863706E-2,9.463908E-2,-5.2528065E-1,1.07649766E-1,1.687107E-1,8.8551E-1,-4.515208E-1,-2.7180466E-1,4.3480735E-2,-3.043371E-1,-1.394156E-1,-5.3836113E-1,-3.9272657E-1,2.3924908E-1,3.9237443E-1,-1.9623762E-1,-2.877451E-1,-6.880878E-1,6.241782E-1,-1.7001532E-1,1.6416554E-1,-7.563582E-1,2.0612933E-1,1.2732629E0,-3.717143E-1,1.0605581E0,-9.319859E-2,-6.03528E-1,-1.1476735E0,-1.6274467E-1,-5.058959E-1,1.4027187E-1,7.915781E-1,-1.4213392E-1,-0E0,8.173489E-1,-1.0174651E0,-1.5618795E-1,3.7560984E-1,-7.079959E-1,-1.1644643E-1,-1.1406415E0,5.563862E-2,-7.139556E-1,-5.378543E-1,-8.191163E-2,5.61367E-1,-2.2571486E-1,-1.3731897E0,-3.588678E-1,5.393625E-1,1.3363594E0,6.375878E-1,-1.2585506E-1,8.931116E-1,-1.3899799E-1,-1.4723504E-1,-8.064561E-1,8.842005E-1,1.6592911E-1,1.4828264E0,5.673764E-1,-6.0009784E-1,4.3169865E-1,9.018078E-1,2.8427788E-3,-4.4034243E-1,6.210309E-1,-1.0098009E0,-3.2688084E-1,-2.6462087E-1,4.467683E-1,-2.7661192E-1,5.998684E-1,-6.481263E-1,4.023E-2,4.8371786E-1,-1.2888685E-1],"split_indices":[150,9,124,150,155,156,167,48,82,48,141,101,155,141,60,107,164,164,165,82,63,150,125,0,82,30,48,148,162,60,164,81,21,119,126,10,155,0,48,164,156,0,0,0,60,126,122,0,0,126,118,124,0,0,0,0,0,48,9,98,126,165,30,0,0,162,10,63,60,148,125,101,0,0,0,0,0,0,0,0,81,150,124,150,120,124,120,124,150,12,162,120,0,0,124,167,126,10,119,0,0,0,0,48,0,0,162,156,124,0,60,0,82,0,0,30,124,0,0,103,162,0,48,60,81,0,63,0,0,141,162,0,162,124,48,141,155,0,0,63,0,0,0,0,0,0,0,156,0,167,30,0,0,0,0,0,0,0,0,0,0,0,0,0,0,0,0,0,0,0,0,0,0,0,0,0,0,0,0,0,0,0,0,0,0,0,0,0,0,0,0,0,0,0,0,0,0,0,0,0,0],"split_type":[0,0,0,0,0,0,0,0,0,0,0,0,0,0,0,0,0,0,0,0,0,0,0,0,0,0,0,0,0,0,0,0,0,0,0,0,0,0,0,0,0,0,0,0,0,0,0,0,0,0,0,0,0,0,0,0,0,0,0,0,0,0,0,0,0,0,0,0,0,0,0,0,0,0,0,0,0,0,0,0,0,0,0,0,0,0,0,0,0,0,0,0,0,0,0,0,0,0,0,0,0,0,0,0,0,0,0,0,0,0,0,0,0,0,0,0,0,0,0,0,0,0,0,0,0,0,0,0,0,0,0,0,0,0,0,0,0,0,0,0,0,0,0,0,0,0,0,0,0,0,0,0,0,0,0,0,0,0,0,0,0,0,0,0,0,0,0,0,0,0,0,0,0,0,0,0,0,0,0,0,0,0,0,0,0,0,0,0,0,0,0,0,0,0,0,0,0,0,0,0,0],"sum_hessian":[1.5135851E3,8.1512683E2,6.984583E2,4.848879E2,3.3023892E2,3.8157675E2,3.1688153E2,3.6307864E2,1.2180924E2,4.180883E1,2.8843008E2,2.1229597E1,3.6034717E2,2.761757E1,2.8926398E2,3.656434E1,3.265143E2,1.0425056E2,1.755868E1,2.6722658E1,1.5086173E1,3.0993572E1,2.5743652E2,6.6454225E0,1.4584174E1,2.676579E2,9.2689255E1,1.0443371E1,1.71742E1,5.1244488E1,2.3801949E2,2.5804356E1,1.0759982E1,1.0401154E2,2.2250278E2,3.992515E1,6.432541E1,5.823781E0,1.17348995E1,1.115157E1,1.5571088E1,8.409629E0,6.676545E0,1.169133E1,1.9302242E1,2.0481964E2,5.261687E1,8.044424E0,6.5397506E0,1.8685797E2,8.079994E1,8.3717094E1,8.972161E0,5.0837483E0,5.3596225E0,8.330306E0,8.843894E0,2.4466555E1,2.6777935E1,3.1842741E1,2.0617674E2,1.2387216E1,1.3417141E1,5.6057577E0,5.1542244E0,3.906875E1,6.4942795E1,1.1447138E2,1.08031395E2,2.2465046E1,1.7460106E1,5.8572018E1,5.7533913E0,5.6242304E0,6.110669E0,6.1211147E0,5.030456E0,5.0632253E0,1.0507862E1,5.434748E0,1.3867494E1,1.8006825E2,2.4751389E1,3.1790148E1,2.0826723E1,1.5919961E1,1.70938E2,3.7710823E1,4.3089123E1,7.261671E1,1.1100385E1,1.7976433E1,6.4901214E0,1.6033964E1,1.074397E1,1.3583728E1,1.8259014E1,4.700877E1,1.5916797E2,6.2718306E0,6.115385E0,6.2006426E0,7.2164984E0,3.2972164E1,6.096583E0,5.27086E0,5.9671932E1,8.571939E1,2.8751987E1,8.956222E0,9.907517E1,8.3236E0,1.4141446E1,6.8939695E0,1.0566137E1,4.6492626E1,1.2079392E1,8.650301E0,5.2171926E0,1.5318564E2,2.6882624E1,5.767873E0,1.8983517E1,1.8546595E1,1.3243553E1,9.538848E0,1.1287874E1,9.377922E0,6.542038E0,1.6005673E2,1.0881269E1,6.0115843E0,3.169924E1,2.9350433E1,1.37386875E1,1.8879625E1,5.373708E1,5.950785E0,5.1496E0,1.1741267E1,6.235165E0,5.624901E0,5.1190686E0,8.525215E0,5.058513E0,5.602587E0,1.2656426E1,3.673405E1,1.0274717E1,7.830037E1,8.086761E1,2.314981E1,9.822355E0,4.5473618E1,1.4198315E1,8.9564905E0,7.67629E1,1.1504903E1,1.7247084E1,1.2036939E1,8.703823E1,5.0425863E0,9.09886E0,5.0791903E0,4.1413433E1,6.8806353E0,5.1987567E0,3.8557262E1,1.14628365E2,1.8891314E1,7.991311E0,1.1443663E1,7.539854E0,1.0341971E1,8.204623E0,5.0902615E0,8.153292E0,5.305821E0,5.982053E0,1.464057E2,1.3651032E1,5.0595555E0,5.8217144E0,1.5190735E1,1.6508505E1,2.0245584E1,9.104851E0,8.408551E0,5.330136E0,1.2572548E1,6.307078E0,1.757849E1,3.6158592E1,5.7938766E0,5.947391E0,2.062968E1,1.6104372E1,4.1048645E1,3.725172E1,3.0441685E1,5.0425922E1],"tree_param":{"num_deleted":"0","num_feature":"179","num_nodes":"201","size_leaf_vector":"1"}},{"base_weights":[3.2858696E-2,1.2860699E-2,4.30185E-1,-2.5035718E-1,3.5697337E-2,1.25561E0,-3.962861E-3,5.4985934E-1,-3.8895002E-1,5.1937115E-1,2.2404648E-2,4.5559448E-1,1.5804693E0,2.857501E-1,-4.5810142E-1,8.910984E-1,2.383943E-2,-4.7650558E-1,3.6355707E-1,-1.5750092E-1,8.9692223E-1,-9.0856576E-1,3.1451914E-2,7.3716295E-1,-1.4255063E-1,-0E0,-7.351254E-1,-7.925116E-1,-3.0003992E-1,4.4827002E-1,-7.1919686E-1,1.190156E0,-0E0,-4.473434E-2,8.9573786E-2,7.697824E-2,1.0667435E0,-1.1197488E0,5.8927774E-1,-2.1649508E-1,-9.852971E-1,1.094864E-3,-6.2719345E-1,1.4513699E0,5.0887924E-1,2.3453536E-2,-4.1122237E-1,-2.6945138E-1,1.3043755E-1,-1.1244612E0,-3.890739E-1,-5.138092E-1,3.154597E-1,-1.0243464E0,7.886429E-2,7.7056825E-2,-4.505967E-1,-5.5098134E-1,7.567171E-2,-5.6017727E-1,7.298948E-2,1.0864968E0,1.02976255E-1,-8.815017E-1,-0E0,7.973805E-1,-2.89916E-1,-2.9039532E-1,-1.3102123E0,5.382691E-2,1.0426211E0,-5.838517E-1,1.2336351E-1,-6.280233E-1,1.8611376E-1,5.054458E-1,-3.8716123E-1,-0E0,-7.509916E-1,-4.3927896E-1,4.7269884E-1,1.15448E-1,1.4753027E0,1.5403035E-1,-2.1282437E-1],"categories":[],"categories_nodes":[],"categories_segments":[],"categories_sizes":[],"default_left":[0,0,0,0,0,0,0,0,0,0,0,0,0,0,0,0,0,0,0,0,0,0,0,0,0,0,0,0,0,0,0,0,0,0,0,0,0,0,0,0,0,0,0,0,0,0,0,0,0,0,0,0,0,0,0,0,0,0,0,0,0,0,0,0,0,0,0,0,0,0,0,0,0,0,0,0,0,0,0,0,0,0,0,0,0],"id":6,"left_children":[1,3,5,7,9,11,13,15,17,19,21,-1,-1,23,25,-1,-1,27,-1,29,31,-1,33,35,37,-1,-1,39,41,-1,-1,43,-1,45,47,-1,-1,-1,-1,-1,49,51,53,-1,-1,55,57,59,61,-1,-1,63,65,67,-1,69,71,73,75,77,79,81,83,-1,-1,-1,-1,-1,-1,-1,-1,-1,-1,-1,-1,-1,-1,-1,-1,-1,-1,-1,-1,-1,-1],"loss_changes":[1.1158777E1,8.111078E0,2.4533234E1,1.2306461E1,7.8609223E0,4.048893E0,6.354439E0,2.6241589E0,6.518181E0,8.882087E0,1.0076359E1,0E0,0E0,5.9683743E0,2.3311741E0,0E0,0E0,3.9182892E0,0E0,5.202185E0,5.4398613E0,0E0,5.3851485E0,2.6946278E0,1.3024111E1,0E0,0E0,2.379057E0,5.918868E0,0E0,0E0,8.04121E-1,0E0,1.3212524E1,1.0151689E1,0E0,0E0,0E0,0E0,0E0,3.6434174E-1,5.412506E0,8.39666E0,0E0,0E0,1.11990185E1,5.8661957E0,7.23789E0,1.5738998E1,0E0,0E0,2.3885443E0,6.8426313E0,2.6535816E0,0E0,8.524817E0,3.6983852E0,4.064369E0,4.3584666E0,4.196722E0,7.3105464E0,5.540539E0,9.830483E0,0E0,0E0,0E0,0E0,0E0,0E0,0E0,0E0,0E0,0E0,0E0,0E0,0E0,0E0,0E0,0E0,0E0,0E0,0E0,0E0,0E0,0E0],"parents":[2147483647,0,0,1,1,2,2,3,3,4,4,5,5,6,6,7,7,8,8,9,9,10,10,13,13,14,14,17,17,19,19,20,20,22,22,23,23,24,24,27,27,28,28,31,31,33,33,34,34,40,40,41,41,42,42,45,45,46,46,47,47,48,48,51,51,52,52,53,53,55,55,56,56,57,57,58,58,59,59,60,60,61,61,62,62],"right_children":[2,4,6,8,10,12,14,16,18,20,22,-1,-1,24,26,-1,-1,28,-1,30,32,-1,34,36,38,-1,-1,40,42,-1,-1,44,-1,46,48,-1,-1,-1,-1,-1,50,52,54,-1,-1,56,58,60,62,-1,-1,64,66,68,-1,70,72,74,76,78,80,82,84,-1,-1,-1,-1,-1,-1,-1,-1,-1,-1,-1,-1,-1,-1,-1,-1,-1,-1,-1,-1,-1,-1],"split_conditions":[1.681195E0,-7.4622977E-1,-2.1792959E-1,-1.0174717E0,-7.258581E-1,-4.1561803E-1,-1.9309108E-1,3.8981736E-1,1.4438331E0,-5.316441E-1,-7.3082787E-1,4.5559448E-1,1.5804693E0,4.5361874E-1,1.0913416E0,8.910984E-1,2.383943E-2,-3.0596453E-1,3.6355707E-1,-1.888383E-2,-6.99596E-1,-9.0856576E-1,-1.152934E-1,-6.00844E-1,1.0263991E0,-0E0,-7.351254E-1,-6.6922504E-1,4.601706E-1,4.4827002E-1,-7.1919686E-1,1.7527305E-1,-0E0,-2.1938358E-2,-2.020293E-1,7.697824E-2,1.0667435E0,-1.1197488E0,5.8927774E-1,-2.1649508E-1,5.7016426E-1,-1.7632805E-1,1.0099488E0,1.4513699E0,5.0887924E-1,1.0178475E0,1.4146559E-1,-5.516538E-1,-5.0973266E-1,-1.1244612E0,-3.890739E-1,-5.440919E-1,4.729694E-1,3.1311667E-1,7.886429E-2,1.1554056E0,1.5391198E0,6.437831E-1,9.5167965E-1,-4.7138685E-1,-3.0046564E-1,-7.5696844E-1,1.2344754E0,-8.815017E-1,-0E0,7.973805E-1,-2.89916E-1,-2.9039532E-1,-1.3102123E0,5.382691E-2,1.0426211E0,-5.838517E-1,1.2336351E-1,-6.280233E-1,1.8611376E-1,5.054458E-1,-3.8716123E-1,-0E0,-7.509916E-1,-4.3927896E-1,4.7269884E-1,1.15448E-1,1.4753027E0,1.5403035E-1,-2.1282437E-1],"split_indices":[128,12,60,127,12,155,155,13,157,131,30,0,0,60,104,0,0,162,0,104,8,0,104,150,60,0,0,83,129,0,0,83,0,108,108,0,0,0,0,0,103,104,84,0,0,51,13,129,124,0,0,155,104,108,0,49,122,82,51,8,162,129,127,0,0,0,0,0,0,0,0,0,0,0,0,0,0,0,0,0,0,0,0,0,0],"split_type":[0,0,0,0,0,0,0,0,0,0,0,0,0,0,0,0,0,0,0,0,0,0,0,0,0,0,0,0,0,0,0,0,0,0,0,0,0,0,0,0,0,0,0,0,0,0,0,0,0,0,0,0,0,0,0,0,0,0,0,0,0,0,0,0,0,0,0,0,0,0,0,0,0,0,0,0,0,0,0,0,0,0,0,0,0],"sum_hessian":[1.4204945E3,1.3551097E3,6.538481E1,1.0554319E2,1.2495665E3,2.1470572E1,4.3914238E1,1.438524E1,9.115795E1,3.078264E1,1.2187839E3,7.8549366E0,1.3615635E1,2.68601E1,1.7054138E1,7.53727E0,6.847969E0,8.267123E1,8.486727E0,1.1155028E1,1.9627611E1,9.497295E0,1.2092866E3,1.27160425E1,1.4144056E1,7.341134E0,9.713003E0,2.6512264E1,5.6158962E1,5.304292E0,5.8507357E0,1.4123599E1,5.5040126E0,5.212847E2,6.880019E2,5.3589253E0,7.357117E0,5.7782483E0,8.365808E0,8.10318E0,1.8409086E1,2.9802752E1,2.635621E1,8.256734E0,5.8668656E0,4.4039865E2,8.088608E1,6.841192E1,6.1958997E2,1.3080791E1,5.3282943E0,1.04550495E1,1.9347702E1,1.6562956E1,9.793255E0,3.9773273E2,4.2665928E1,6.3120697E1,1.776538E1,3.6785828E1,3.1626091E1,1.4841245E1,6.047487E2,5.305464E0,5.1495857E0,1.06949835E1,8.652718E0,6.067076E0,1.049588E1,3.90754E2,6.978716E0,3.502295E1,7.64298E0,5.7784004E1,5.3366947E0,9.452287E0,8.313094E0,9.764554E0,2.7021275E1,1.3445618E1,1.8180473E1,5.205609E0,9.635635E0,5.222873E2,8.246141E1],"tree_param":{"num_deleted":"0","num_feature":"179","num_nodes":"85","size_leaf_vector":"1"}},{"base_weights":[-2.6779909E-2,-1.607845E-1,2.524533E-2,-7.0511065E-2,-4.6181735E-1,1.0833625E0,1.12634655E-2,4.06085E-1,-1.1438183E-1,-5.6983364E-1,4.518795E-1,-3.172597E-2,2.1035364E-1,8.965519E-1,-4.1748235E-1,-6.1195474E-2,-6.05253E-1,2.5891976E-2,-7.5816125E-1,-4.1472875E-2,7.9989105E-1,4.7020203E-1,3.102209E-2,-0E0,1.6439743E0,-1.6625234E-1,1.8788187E-1,-1.0475051E0,-2.0272566E-1,8.9937526E-1,-5.7434833E-1,4.9503043E-2,-8.49965E-1,-2.879943E-1,-1.1352534E-2,5.493944E-1,-2.8391275E-1,7.1808815E-1,-2.8460462E-2,4.9803406E-2,-3.7741795E-1,-4.1040037E-2,8.978012E-1,2.7167E-1,-5.017338E-1,-6.473864E-2,-9.4428414E-1,-2.2205508E-1,-1.0126609E0,-4.1204217E-1,3.7350157E-1,3.6956123E-1,-3.9266694E-2,6.508839E-1,-2.3871072E-1,7.260437E-2,-3.9794502E-1,-7.446338E-2,7.137916E-1,-5.223781E-1,2.969741E-1,1.784434E-1,-4.0172073E-1,-3.0204019E-2,1.2940465E0,-6.402649E-1,2.6175323E-1,-1.4188501E0,-6.9626206E-1,1.6446005E-1,-5.169969E-1,-2.570226E-1,9.749037E-1,9.6518296E-1,-5.2218097E-3,-1.1982642E-2,-4.2967388E-1,-3.0015897E-2,7.2721136E-1,1.7615178E-1,-7.2139335E-1,-8.59309E-1,7.036056E-2,3.583523E-1,-3.296108E-1,-0E0,1.1943512E0,-3.1839716E-1,-8.403051E-1,7.4920243E-1,-1.2945047E-1,4.9938047E-1,-1.269125E-1,-5.9955466E-1,5.164474E-2,1.9345663E-1,-9.785875E-1,-2.5097427E-1,5.931582E-1,1.6455603E-1,-6.089804E-1,3.0747947E-1,1.1915044E0,-7.4704003E-1,3.4236363E-1,-3.4101676E-2,5.365163E-1,4.913097E-1,-7.004067E-1,1.0107566E0,3.9651942E-1,-1.5712228E-4,4.6708155E-1,-2.196963E-1,3.9794844E-1],"categories":[],"categories_nodes":[],"categories_segments":[],"categories_sizes":[],"default_left":[0,0,0,0,0,0,0,0,0,0,0,0,0,0,0,0,0,0,0,0,0,0,0,0,0,0,0,0,0,0,0,0,0,0,0,0,0,0,0,0,0,0,0,0,0,0,0,0,0,0,0,0,0,0,0,0,0,0,0,0,0,0,0,0,0,0,0,0,0,0,0,0,0,0,0,0,0,0,0,0,0,0,0,0,0,0,0,0,0,0,0,0,0,0,0,0,0,0,0,0,0,0,0,0,0,0,0,0,0,0,0,0,0,0,0],"id":7,"left_children":[1,3,5,7,9,-1,11,13,15,17,-1,19,21,23,-1,25,27,29,31,33,-1,35,37,-1,-1,39,41,-1,43,-1,45,-1,47,49,51,53,-1,-1,55,57,59,61,63,-1,-1,-1,-1,65,67,69,71,73,75,77,-1,79,81,83,85,87,89,91,93,-1,-1,-1,-1,-1,95,97,99,-1,-1,101,103,105,107,-1,109,111,-1,-1,113,-1,-1,-1,-1,-1,-1,-1,-1,-1,-1,-1,-1,-1,-1,-1,-1,-1,-1,-1,-1,-1,-1,-1,-1,-1,-1,-1,-1,-1,-1,-1,-1],"loss_changes":[9.658065E0,1.0301585E1,1.4337958E1,6.3013573E0,9.258583E0,0E0,8.474573E0,1.1089482E1,6.980612E0,9.243719E0,0E0,6.3914E0,8.019526E0,1.1607707E1,0E0,6.6890063E0,3.8978043E0,1.2029428E1,4.8692474E0,5.853446E0,0E0,4.6330194E0,4.617736E0,0E0,0E0,8.357012E0,1.2566609E1,0E0,2.7033458E0,0E0,2.089501E0,0E0,4.84803E0,7.3825274E0,7.555936E0,5.658457E0,0E0,0E0,3.8869658E0,7.734948E0,9.378076E0,4.8433905E0,7.3576756E0,0E0,0E0,0E0,0E0,3.3540597E0,2.9320297E0,4.742196E0,6.1237845E0,1.110865E1,7.002287E0,3.3054066E0,0E0,6.628499E0,5.19932E0,8.769775E0,5.3677626E0,4.1022034E0,3.6961837E0,3.889192E0,2.3136795E0,0E0,0E0,0E0,0E0,0E0,7.794262E0,2.6169631E0,4.306547E0,0E0,0E0,1.6492767E0,8.730474E0,7.5260425E0,1.1482704E1,0E0,3.7731438E0,3.8481548E0,0E0,0E0,1.4300251E0,0E0,0E0,0E0,0E0,0E0,0E0,0E0,0E0,0E0,0E0,0E0,0E0,0E0,0E0,0E0,0E0,0E0,0E0,0E0,0E0,0E0,0E0,0E0,0E0,0E0,0E0,0E0,0E0,0E0,0E0,0E0,0E0],"parents":[2147483647,0,0,1,1,2,2,3,3,4,4,6,6,7,7,8,8,9,9,11,11,12,12,13,13,15,15,16,16,17,17,18,18,19,19,21,21,22,22,25,25,26,26,28,28,30,30,32,32,33,33,34,34,35,35,38,38,39,39,40,40,41,41,42,42,47,47,48,48,49,49,50,50,51,51,52,52,53,53,55,55,56,56,57,57,58,58,59,59,60,60,61,61,62,62,68,68,69,69,70,70,73,73,74,74,75,75,76,76,78,78,79,79,82,82],"right_children":[2,4,6,8,10,-1,12,14,16,18,-1,20,22,24,-1,26,28,30,32,34,-1,36,38,-1,-1,40,42,-1,44,-1,46,-1,48,50,52,54,-1,-1,56,58,60,62,64,-1,-1,-1,-1,66,68,70,72,74,76,78,-1,80,82,84,86,88,90,92,94,-1,-1,-1,-1,-1,96,98,100,-1,-1,102,104,106,108,-1,110,112,-1,-1,114,-1,-1,-1,-1,-1,-1,-1,-1,-1,-1,-1,-1,-1,-1,-1,-1,-1,-1,-1,-1,-1,-1,-1,-1,-1,-1,-1,-1,-1,-1,-1,-1],"split_conditions":[-5.70988E-1,-6.0839945E-1,-6.03528E-1,-3.2755867E-1,1.2964823E0,1.0833625E0,4.7912642E-1,-6.315773E-1,1.5377576E0,4.9586707E-1,4.518795E-1,2.309811E0,8.4060174E-1,-6.985428E-1,-4.1748235E-1,3.8349572E-1,1.7878969E0,5.137793E-2,-2.6856557E-1,-3.2583073E-1,7.9989105E-1,2.2460191E0,-5.2494025E-1,-0E0,1.6439743E0,1.2716997E-1,-1.3106246E-1,-1.0475051E0,-2.8892145E-1,8.9937526E-1,7.74077E-2,4.9503043E-2,-9.479139E-1,7.6597893E-1,-3.2162976E-1,7.762587E-1,-2.8391275E-1,7.1808815E-1,6.964491E-1,3.2993447E-2,-6.275524E-1,8.534951E-1,-3.91966E-1,2.7167E-1,-5.017338E-1,-6.473864E-2,-9.4428414E-1,-1.3873261E0,-5.2863706E-2,-5.2494025E-1,4.2525455E-1,-1.072536E-1,9.893427E-1,-1.6219367E0,-2.3871072E-1,1.2367992E0,-5.167807E-2,-4.9438593E-1,-3.7224688E-2,-6.96224E-1,-6.121561E-1,-2.400088E-1,1.3840896E0,-3.0204019E-2,1.2940465E0,-6.402649E-1,2.6175323E-1,-1.4188501E0,4.2061067E-1,-5.3971016E-1,-7.8304064E-1,-2.570226E-1,9.749037E-1,-5.673376E-1,-6.099738E-1,1.4213719E0,-8.7903905E-1,-3.0015897E-2,-1.2711123E-1,3.978722E-1,-7.2139335E-1,-8.59309E-1,8.432703E-2,3.583523E-1,-3.296108E-1,-0E0,1.1943512E0,-3.1839716E-1,-8.403051E-1,7.4920243E-1,-1.2945047E-1,4.9938047E-1,-1.269125E-1,-5.9955466E-1,5.164474E-2,1.9345663E-1,-9.785875E-1,-2.5097427E-1,5.931582E-1,1.6455603E-1,-6.089804E-1,3.0747947E-1,1.1915044E0,-7.4704003E-1,3.4236363E-1,-3.4101676E-2,5.365163E-1,4.913097E-1,-7.004067E-1,1.0107566E0,3.9651942E-1,-1.5712228E-4,4.6708155E-1,-2.196963E-1,3.9794844E-1],"split_indices":[32,139,30,161,127,0,164,55,121,46,0,121,164,32,0,121,108,127,80,161,0,30,137,0,0,60,161,0,161,0,119,0,60,104,161,103,0,0,60,60,9,121,157,0,0,0,0,60,60,30,81,108,108,129,0,84,101,119,108,140,117,164,108,0,0,0,0,0,60,32,119,0,0,104,157,21,131,0,80,26,0,0,26,0,0,0,0,0,0,0,0,0,0,0,0,0,0,0,0,0,0,0,0,0,0,0,0,0,0,0,0,0,0,0,0],"split_type":[0,0,0,0,0,0,0,0,0,0,0,0,0,0,0,0,0,0,0,0,0,0,0,0,0,0,0,0,0,0,0,0,0,0,0,0,0,0,0,0,0,0,0,0,0,0,0,0,0,0,0,0,0,0,0,0,0,0,0,0,0,0,0,0,0,0,0,0,0,0,0,0,0,0,0,0,0,0,0,0,0,0,0,0,0,0,0,0,0,0,0,0,0,0,0,0,0,0,0,0,0,0,0,0,0,0,0,0,0,0,0,0,0,0,0],"sum_hessian":[1.3763431E3,3.853525E2,9.909906E2,2.9911823E2,8.623426E1,1.0649329E1,9.803413E2,2.3244741E1,2.758735E2,7.808424E1,8.150014E0,8.0639197E2,1.7394934E2,1.4685797E1,8.558944E0,2.5148532E2,2.438818E1,1.878736E1,5.9296883E1,7.99285E2,7.106959E0,6.9021515E1,1.04927826E2,7.428281E0,7.2575164E0,1.7819499E2,7.329033E1,9.738582E0,1.4649598E1,7.449606E0,1.1337753E1,5.812635E0,5.348425E1,8.40762E1,7.152088E2,6.3313488E1,5.7080255E0,6.997754E0,9.793007E1,8.813084E1,9.0064156E1,5.6524975E1,1.676535E1,5.3465276E0,9.303071E0,6.0981383E0,5.2396154E0,1.2359091E1,4.1125156E1,7.181645E1,1.2259746E1,4.6428234E1,6.687806E2,5.67361E1,6.5773897E0,7.752089E1,2.0409178E1,7.535238E1,1.2778462E1,7.4867165E1,1.5196987E1,3.525199E1,2.1272984E1,5.342851E0,1.1422499E1,6.6146317E0,5.7444596E0,1.4540858E1,2.65843E1,1.0445951E1,6.1370502E1,6.3005366E0,5.959209E0,1.7023531E1,2.9404705E1,6.2774005E2,4.1040516E1,5.4450545E0,5.1291046E1,7.0288506E1,7.23239E0,9.762312E0,1.0646866E1,2.7210115E1,4.814226E1,5.737035E0,7.041427E0,4.8619576E1,2.624759E1,6.9820666E0,8.214921E0,1.7046902E1,1.8205091E1,1.482197E1,6.451013E0,6.2993884E0,2.028491E1,5.37073E0,5.0752215E0,6.722278E0,5.4648224E1,5.905253E0,1.1118278E1,8.923907E0,2.0480797E1,6.057355E2,2.2004581E1,8.701617E0,3.2338898E1,2.4911228E1,2.6379816E1,4.4368248E1,2.5920252E1,5.510558E0,5.1363077E0],"tree_param":{"num_deleted":"0","num_feature":"179","num_nodes":"115","size_leaf_vector":"1"}},{"base_weights":[-4.7847424E-3,-1.0210347E-1,4.051815E-2,-5.8136153E-1,-6.858937E-2,1.8724783E-1,-1.1597305E-2,5.1552724E-2,-7.843296E-1,-3.024862E-1,6.032751E-3,4.465174E-1,2.1935941E-3,4.2286374E-2,-1.9016944E-1,-1.0241714E0,-9.615327E-2,-9.897939E-2,-8.074162E-1,8.001849E-1,-1.7793126E-2,-0E0,5.6566566E-1,-6.592316E-1,1.032532E-1,-4.7452547E-2,4.3461898E-1,-3.2049128E-1,1.9728298E-1,-1.3237405E0,-2.9955792E-1,3.6149234E-1,-3.9857846E-1,-1.0067713E0,-8.247048E-2,-1.8250963E-1,1.09030545E-1,1.9496247E-1,-4.744313E-1,8.0098563E-1,2.0421089E-1,-1.8200059E-1,-9.042367E-1,-2.1952048E-1,2.1983908E-1,4.4885624E-2,-3.246937E-1,2.7652493E-1,1.2583473E0,-5.4643655E-1,1.3090338E-3,-5.051107E-1,4.143815E-1,-1.4918694E-1,6.925751E-1,-5.263894E-1,2.8848878E-1,5.0595105E-1,-2.4183421E-1,5.7232445E-3,5.653226E-1,-2.3631048E-1,4.906145E-1,9.5050603E-1,1.9221349E-1,4.58365E-2,5.8658993E-1,-5.472135E-1,4.7213343E-1,4.177499E-1,-1.7870733E-1,-1.1363068E-1,1.9490202E-1,-4.4096163E-1,2.3388481E-1,4.1527933E-1,-6.126042E-1,-3.024157E-1,-1.0550842E0,-5.5921566E-1,3.4418058E-1,6.49117E-1,-5.163828E-1,4.463602E-1,-7.276796E-1,9.235224E-1,2.4135369E-1,-6.5727186E-1,1.0604948E-2,-3.3892328E-1,2.176744E-1,2.9492286E-1,-1.9030133E-1,7.182726E-1,-2.4132945E-2,1.1948946E0,5.54309E-1,3.0098966E-1,-3.175365E-1,-9.031514E-1,-1.0122152E-1,5.841742E-1,-0E0,4.2880213E-1,-4.531026E-1,-6.0282126E-2,-8.8371223E-1,1.1710296E0,1.03447236E-1,-5.677896E-1,1.5187904E-1,-3.8950053E-1,6.461626E-1,6.6545916E-1,-2.0102572E-3,-5.993485E-1,8.428723E-2,-1.3475949E0,-6.29682E-1,-6.5034494E-2,-8.9691496E-1,-2.6469627E-1,6.163259E-1,8.3812666E-1,-4.001661E-2,-6.2614955E-2,-8.391116E-1,-1.5530403E-1,-7.694087E-1,8.567148E-1,-1.1820451E-1,6.258625E-1,-1.8154486E-1,-5.808046E-1,-2.883176E-2,1.1189018E-1,8.658572E-1,4.4125813E-1,1.4096737E0,-2.5351146E-1,9.360362E-1,7.3974305E-1,-5.5951245E-2,-3.959745E-1,-1.1374627E0,-4.0144268E-1,1.8230888E-1,3.178805E-2,7.5660795E-1,4.6966353E-1,-4.4276884E-1,1.5351577E-1,-7.6936644E-1,-2.0990549E-1,1.7695317E-1,1.4320679E0,4.8957905E-1,-5.3186136E-1,2.0307612E-1,-7.5181556E-1,6.1986804E-2,6.290326E-1,-2.4393508E-1,1.1036936E0,-0E0,8.563369E-1,-8.464655E-2,-4.760902E-1,3.5727665E-1,-9.1658807E-1,-1.2359471E-1,-2.9829365E-1,5.793639E-1,6.696882E-3,-1.1175913E0,1.0557518E0,-2.2197802E-1,3.2257828E-1,9.850114E-1],"categories":[],"categories_nodes":[],"categories_segments":[],"categories_sizes":[],"default_left":[0,0,0,0,0,0,0,0,0,0,0,0,0,0,0,0,0,0,0,0,0,0,0,0,0,0,0,0,0,0,0,0,0,0,0,0,0,0,0,0,0,0,0,0,0,0,0,0,0,0,0,0,0,0,0,0,0,0,0,0,0,0,0,0,0,0,0,0,0,0,0,0,0,0,0,0,0,0,0,0,0,0,0,0,0,0,0,0,0,0,0,0,0,0,0,0,0,0,0,0,0,0,0,0,0,0,0,0,0,0,0,0,0,0,0,0,0,0,0,0,0,0,0,0,0,0,0,0,0,0,0,0,0,0,0,0,0,0,0,0,0,0,0,0,0,0,0,0,0,0,0,0,0,0,0,0,0,0,0,0,0,0,0,0,0,0,0,0,0,0,0,0,0,0,0,0,0,0,0],"id":8,"left_children":[1,3,5,7,9,11,13,-1,15,17,19,21,23,25,27,29,-1,31,33,-1,35,37,39,41,43,45,47,49,51,-1,-1,53,55,-1,-1,57,59,61,-1,63,65,-1,-1,67,69,71,73,75,-1,77,79,-1,81,83,85,87,-1,-1,89,91,93,-1,-1,95,-1,97,-1,99,-1,101,103,105,107,109,111,113,-1,115,117,119,121,123,-1,-1,-1,-1,-1,125,-1,127,129,131,133,135,-1,137,139,141,-1,143,145,147,149,-1,151,153,-1,155,157,159,161,-1,163,165,167,169,171,-1,173,-1,-1,-1,175,177,-1,-1,-1,-1,-1,-1,-1,-1,-1,-1,-1,-1,-1,-1,-1,-1,-1,-1,-1,-1,-1,-1,-1,-1,-1,-1,-1,-1,-1,-1,-1,-1,-1,-1,-1,-1,-1,-1,-1,-1,-1,-1,-1,-1,-1,-1,-1,-1,-1,-1,-1,-1,-1,-1,-1],"loss_changes":[5.858963E0,6.51732E0,6.954405E0,3.741601E0,7.040658E0,1.128371E1,6.46837E0,0E0,2.8940687E0,9.566101E0,5.992311E0,5.2971897E0,9.43285E0,1.8181273E1,8.041641E0,1.9471283E0,0E0,1.0239053E1,3.4449024E0,0E0,6.2359886E0,2.300259E0,5.997177E0,1.5246859E0,4.798037E0,1.0809152E1,1.1360573E1,8.751579E0,6.4801664E0,0E0,0E0,5.28205E0,4.3263626E0,0E0,0E0,5.489214E0,7.7041306E0,2.5067964E0,0E0,3.4783897E0,1.8096964E0,0E0,0E0,8.125224E0,7.5932536E0,7.544439E0,7.116459E0,1.075214E1,0E0,7.6347713E0,9.960927E0,0E0,7.6856556E0,5.115179E0,1.1156559E0,2.949996E0,0E0,0E0,5.6160774E0,8.017716E0,2.975727E0,0E0,0E0,1.638504E0,0E0,2.661573E0,0E0,3.3147807E0,0E0,4.3387766E0,5.7152944E0,5.9019284E0,1.394672E1,6.945093E0,5.4709964E0,7.897868E0,0E0,6.0499063E0,3.814106E-1,2.8436832E0,5.8492103E0,3.776455E0,0E0,0E0,0E0,0E0,0E0,3.0683908E0,0E0,7.53382E0,5.128569E0,9.429649E0,5.0411854E0,1.708703E0,0E0,1.4510593E0,6.212056E0,2.9810843E0,0E0,1.4632511E-1,1.3398358E0,4.0221024E0,4.649285E0,0E0,4.8900714E0,5.257175E0,0E0,4.241352E-1,9.720324E0,8.838476E0,3.5844927E0,0E0,3.9113588E0,7.040535E0,5.345414E0,3.872982E0,4.8303905E0,0E0,4.359913E0,0E0,0E0,0E0,9.388892E0,5.881481E-1,0E0,0E0,0E0,0E0,0E0,0E0,0E0,0E0,0E0,0E0,0E0,0E0,0E0,0E0,0E0,0E0,0E0,0E0,0E0,0E0,0E0,0E0,0E0,0E0,0E0,0E0,0E0,0E0,0E0,0E0,0E0,0E0,0E0,0E0,0E0,0E0,0E0,0E0,0E0,0E0,0E0,0E0,0E0,0E0,0E0,0E0,0E0,0E0,0E0,0E0,0E0,0E0,0E0,0E0,0E0],"parents":[2147483647,0,0,1,1,2,2,3,3,4,4,5,5,6,6,8,8,9,9,10,10,11,11,12,12,13,13,14,14,15,15,17,17,18,18,20,20,21,21,22,22,23,23,24,24,25,25,26,26,27,27,28,28,31,31,32,32,35,35,36,36,37,37,39,39,40,40,43,43,44,44,45,45,46,46,47,47,49,49,50,50,52,52,53,53,54,54,55,55,58,58,59,59,60,60,63,63,65,65,67,67,69,69,70,70,71,71,72,72,73,73,74,74,75,75,77,77,78,78,79,79,80,80,81,81,87,87,89,89,90,90,91,91,92,92,93,93,95,95,96,96,97,97,99,99,100,100,101,101,102,102,104,104,105,105,107,107,108,108,109,109,110,110,112,112,113,113,114,114,115,115,116,116,118,118,122,122,123,123],"right_children":[2,4,6,8,10,12,14,-1,16,18,20,22,24,26,28,30,-1,32,34,-1,36,38,40,42,44,46,48,50,52,-1,-1,54,56,-1,-1,58,60,62,-1,64,66,-1,-1,68,70,72,74,76,-1,78,80,-1,82,84,86,88,-1,-1,90,92,94,-1,-1,96,-1,98,-1,100,-1,102,104,106,108,110,112,114,-1,116,118,120,122,124,-1,-1,-1,-1,-1,126,-1,128,130,132,134,136,-1,138,140,142,-1,144,146,148,150,-1,152,154,-1,156,158,160,162,-1,164,166,168,170,172,-1,174,-1,-1,-1,176,178,-1,-1,-1,-1,-1,-1,-1,-1,-1,-1,-1,-1,-1,-1,-1,-1,-1,-1,-1,-1,-1,-1,-1,-1,-1,-1,-1,-1,-1,-1,-1,-1,-1,-1,-1,-1,-1,-1,-1,-1,-1,-1,-1,-1,-1,-1,-1,-1,-1,-1,-1,-1,-1,-1,-1],"split_conditions":[-4.3537843E-1,-9.4459546E-1,6.482163E-3,-8.8102925E-1,-5.70988E-1,-3.8257095E-1,6.353176E-1,5.1552724E-2,-4.7939426E-1,-6.2504303E-1,-5.6398624E-1,-6.110014E-1,-2.5395644E-1,-2.6121417E-1,4.2435443E-1,-2.9485938E-1,-9.615327E-2,-1.2730082E0,1.1965047E-1,8.001849E-1,-1.3125063E-1,1.1269648E0,1.520876E-1,-2.1528022E-1,-3.421917E-1,-1.4990085E-1,3.850285E-1,8.7968516E-1,1.0800701E0,-1.3237405E0,-2.9955792E-1,-5.498446E-2,-8.666286E-2,-1.0067713E0,-8.247048E-2,-1.8965871E0,7.281939E-1,-2.7832353E-1,-4.744313E-1,6.1865395E-1,-4.9150956E-1,-1.8200059E-1,-9.042367E-1,7.901323E-2,1.6212472E-1,-2.615831E-1,7.127405E-1,-1.1864044E-1,1.2583473E0,3.4925076E-1,-5.767667E-1,-5.051107E-1,7.7736723E-1,1.1702523E0,8.1975186E-1,4.8739877E-2,2.8848878E-1,5.0595105E-1,1.0522623E0,-2.9689914E-1,1.9592056E0,-2.3631048E-1,4.906145E-1,-1.2630686E-1,1.9221349E-1,-2.4497804E-1,5.8658993E-1,-2.2729358E-1,4.7213343E-1,2.0715327E0,-1.849367E-1,-3.2771865E-1,-2.2914952E-1,7.5852627E-1,3.669634E-1,-2.1180731E-1,-6.126042E-1,1.9874126E-1,9.570487E-2,1.9576076E-1,9.865189E-1,1.4438331E0,-5.163828E-1,4.463602E-1,-7.276796E-1,9.235224E-1,2.4135369E-1,-5.424208E-1,1.0604948E-2,8.2018815E-2,1.4925145E0,-1.2459067E-1,-7.202441E-1,-2.9026645E-1,-2.4132945E-2,-6.928863E-1,1.1702523E0,-6.590868E-1,-3.175365E-1,-5.3632073E-2,-1.495801E-1,-2.6916173E-1,-8.445602E-1,4.2880213E-1,3.992518E-2,8.199524E-2,-8.8371223E-1,7.0155305E-1,-1.5903932E-1,1.1702523E0,-6.974046E-2,-3.8950053E-1,2.0715327E0,1.6549441E-1,-4.4401723E-1,-4.946015E-1,-5.462634E-1,-1.3475949E0,1.0029736E0,-6.5034494E-2,-8.9691496E-1,-2.6469627E-1,7.3934114E-1,3.2248574E-1,-4.001661E-2,-6.2614955E-2,-8.391116E-1,-1.5530403E-1,-7.694087E-1,8.567148E-1,-1.1820451E-1,6.258625E-1,-1.8154486E-1,-5.808046E-1,-2.883176E-2,1.1189018E-1,8.658572E-1,4.4125813E-1,1.4096737E0,-2.5351146E-1,9.360362E-1,7.3974305E-1,-5.5951245E-2,-3.959745E-1,-1.1374627E0,-4.0144268E-1,1.8230888E-1,3.178805E-2,7.5660795E-1,4.6966353E-1,-4.4276884E-1,1.5351577E-1,-7.6936644E-1,-2.0990549E-1,1.7695317E-1,1.4320679E0,4.8957905E-1,-5.3186136E-1,2.0307612E-1,-7.5181556E-1,6.1986804E-2,6.290326E-1,-2.4393508E-1,1.1036936E0,-0E0,8.563369E-1,-8.464655E-2,-4.760902E-1,3.5727665E-1,-9.1658807E-1,-1.2359471E-1,-2.9829365E-1,5.793639E-1,6.696882E-3,-1.1175913E0,1.0557518E0,-2.2197802E-1,3.2257828E-1,9.850114E-1],"split_indices":[127,50,127,150,139,31,60,0,129,31,139,101,149,162,50,162,0,127,50,0,60,150,60,127,125,60,34,10,60,0,0,48,177,0,0,60,164,127,0,101,29,0,0,48,84,149,34,139,0,81,30,0,30,72,50,81,0,0,29,48,164,0,0,10,0,164,0,127,0,77,124,12,29,101,129,162,0,124,139,162,60,48,0,0,0,0,0,164,0,149,31,165,101,48,0,129,72,118,0,164,166,124,50,0,30,50,0,129,30,72,50,0,77,48,50,50,8,0,30,0,0,0,27,127,0,0,0,0,0,0,0,0,0,0,0,0,0,0,0,0,0,0,0,0,0,0,0,0,0,0,0,0,0,0,0,0,0,0,0,0,0,0,0,0,0,0,0,0,0,0,0,0,0,0,0,0,0,0,0],"split_type":[0,0,0,0,0,0,0,0,0,0,0,0,0,0,0,0,0,0,0,0,0,0,0,0,0,0,0,0,0,0,0,0,0,0,0,0,0,0,0,0,0,0,0,0,0,0,0,0,0,0,0,0,0,0,0,0,0,0,0,0,0,0,0,0,0,0,0,0,0,0,0,0,0,0,0,0,0,0,0,0,0,0,0,0,0,0,0,0,0,0,0,0,0,0,0,0,0,0,0,0,0,0,0,0,0,0,0,0,0,0,0,0,0,0,0,0,0,0,0,0,0,0,0,0,0,0,0,0,0,0,0,0,0,0,0,0,0,0,0,0,0,0,0,0,0,0,0,0,0,0,0,0,0,0,0,0,0,0,0,0,0,0,0,0,0,0,0,0,0,0,0,0,0,0,0,0,0,0,0],"sum_hessian":[1.3208514E3,4.208674E2,8.999841E2,2.478547E1,3.960819E2,2.3602698E2,6.639571E2,6.021767E0,1.8763702E1,9.5296394E1,3.0078552E2,9.6449615E1,1.3957735E2,5.0993265E2,1.5402446E2,1.2866931E1,5.896771E0,7.004976E1,2.5246635E1,7.229731E0,2.935558E2,2.0550873E1,7.589874E1,1.6642021E1,1.2293533E2,4.1581583E2,9.411683E1,1.1609512E2,3.792933E1,7.64053E0,5.2264013E0,2.7054132E1,4.2995625E1,1.8867004E1,6.3796306E0,1.283475E2,1.652083E2,1.5243251E1,5.3076224E0,4.399466E1,3.1904085E1,7.2433257E0,9.398696E0,3.147002E1,9.146531E1,3.123713E2,1.0344453E2,8.150884E1,1.260799E1,6.793332E1,4.8161804E1,8.002652E0,2.9926674E1,1.0716743E1,1.6337389E1,3.7014416E1,5.981207E0,8.586568E0,1.1976093E2,1.3689662E2,2.8311672E1,5.9502444E0,9.293007E0,3.402283E1,9.971831E0,2.4698658E1,7.2054267E0,2.1930946E1,9.539073E0,6.155473E1,2.9910583E1,1.5114633E2,1.6122496E2,8.6415405E1,1.7029125E1,7.171979E1,9.789058E0,4.846257E1,1.947075E1,1.746811E1,3.0693695E1,2.464005E1,5.286624E0,5.250097E0,5.4666467E0,8.981908E0,7.3554797E0,2.9849783E1,7.1646338E0,9.984294E1,1.9917988E1,5.5515175E1,8.138145E1,2.253598E1,5.775693E0,1.8080875E1,1.5941954E1,1.5196758E1,9.5019E0,1.0682613E1,1.1248333E1,4.3214943E1,1.8339787E1,8.616019E0,2.1294563E1,1.4373502E2,7.4113283E0,1.1507913E1,1.4971704E2,7.16728E1,1.4742604E1,6.5332875E0,1.0495837E1,4.454373E1,2.7176052E1,2.722989E1,2.123268E1,8.550501E0,1.092025E1,8.420003E0,9.048106E0,9.157594E0,2.15361E1,1.9338873E1,5.3011775E0,8.006201E0,2.1843582E1,7.238589E1,2.7457056E1,6.101388E0,1.3816601E1,3.276215E1,2.2753027E1,2.1743746E1,5.9637703E1,5.4974704E0,1.703851E1,5.674702E0,1.2406174E1,5.0791645E0,1.0862789E1,6.231966E0,8.964792E0,5.480369E0,5.2022448E0,5.5732956E0,5.675038E0,1.1258185E1,3.1956758E1,8.990338E0,9.349448E0,7.3250914E0,1.3969472E1,8.906011E1,5.4674892E1,6.4094543E0,5.0984583E0,1.8711357E1,1.3100569E2,5.5534073E1,1.6138727E1,6.4938183E0,8.248786E0,5.493967E0,5.0018706E0,3.56011E1,8.942632E0,1.1795997E1,1.5380054E1,1.4846348E1,1.2383543E1,1.2083722E1,9.148957E0,5.3282743E0,5.5919757E0,1.4024014E1,7.5120864E0,6.1583743E0,1.3180499E1],"tree_param":{"num_deleted":"0","num_feature":"179","num_nodes":"179","size_leaf_vector":"1"}},{"base_weights":[8.364503E-3,-8.332616E-2,5.234462E-2,2.3674779E-1,-1.276634E-1,-1.3701059E-1,8.440889E-2,-1.8300362E-1,4.2580992E-1,-2.0853734E-1,1.1170472E-1,-6.39591E-2,-7.026476E-1,5.6722504E-1,5.897243E-2,-7.5489104E-1,2.9076988E-1,5.796916E-1,-2.6582664E-1,-7.2110345E-4,-3.3489397E-1,6.764971E-1,-4.0610436E-2,7.590641E-2,-2.800273E-1,7.297726E-1,-7.96395E-2,6.947069E-1,4.259928E-2,8.934662E-1,5.8950022E-2,2.4973294E-1,-2.4963576E-1,-4.470679E-1,1.5636024E-1,1.596434E-2,9.5087844E-1,2.2261809E-1,-3.112222E-1,-2.9186906E-2,8.119242E-1,6.3999355E-1,-4.497328E-1,9.310651E-1,3.289606E-2,-1.5282586E-1,1.2431995E0,5.967332E-2,-3.7984782E-1,1.1078625E0,1.9484285E-1,6.0648656E-1,-5.3051734E-1,2.0264668E-2,5.438463E-1,4.6623367E-1,-4.2444313E-1,-1.6653974E-2,-5.6173503E-1,4.296173E-1,-1.9245039E-1,3.650671E-1,1.173779E0,4.1100746E-1,-4.2193228E-1,1.5160583E-1,-5.312449E-1,7.4695766E-2,-5.4762137E-1,-6.040417E-1,3.3052582E-1,2.7620986E-1,1.1167085E0,3.949057E-1,4.0783968E-2,-1.8990581E-3,-7.4810237E-1,4.4899207E-1,1.3974696E0,3.8253662E-1,-7.074936E-1,-6.1089683E-2,8.185531E-1,2.1172538E-1,-6.7495155E-1,3.0209944E-1,-4.0045935E-1,-1.1674593E-1,-6.5484226E-1,-1.23807155E-1,7.1026504E-1,-4.236621E-1,5.449685E-2,1.3997614E-1,9.846967E-1,-1.488479E-1,4.6846735E-1,-8.151958E-1,-0E0,5.252716E-1,-1.0457339E-1,-1.0175138E0,-2.6127872E-1,4.69729E-1,1.3940618E0,7.649747E-1,-3.5633907E-1,-6.668007E-2,1.0743394E-1,-4.5149708E-1,3.6277348E-1,-3.0499205E-1,-9.228988E-1,7.61293E-1,-1.8931967E-1,1.281504E-1,1.0945888E0,-4.751672E-1,9.8082304E-1,-9.8258823E-1,-4.0139285E-1,-3.0714962E-1,6.986456E-1,-0E0,-7.493523E-1,-3.8922077E-1,4.8369238E-1,-7.555975E-1,-1.6762073E-1,1.0296013E0,2.2900134E-1,5.867916E-1,-4.0714398E-1,-9.4699985E-1,-3.2799658E-1,2.0413126E-1,7.6697373E-1,-3.0951285E-1,4.9150175E-1,-5.016559E-1,3.9607562E-2,1.194976E-2,1.0716243E0,-0E0,-6.488273E-1,1.2041649E-2,-3.888116E-1,7.0043355E-2,4.882938E-1],"categories":[],"categories_nodes":[],"categories_segments":[],"categories_sizes":[],"default_left":[0,0,0,0,0,0,0,0,0,0,0,0,0,0,0,0,0,0,0,0,0,0,0,0,0,0,0,0,0,0,0,0,0,0,0,0,0,0,0,0,0,0,0,0,0,0,0,0,0,0,0,0,0,0,0,0,0,0,0,0,0,0,0,0,0,0,0,0,0,0,0,0,0,0,0,0,0,0,0,0,0,0,0,0,0,0,0,0,0,0,0,0,0,0,0,0,0,0,0,0,0,0,0,0,0,0,0,0,0,0,0,0,0,0,0,0,0,0,0,0,0,0,0,0,0,0,0,0,0,0,0,0,0,0,0,0,0,0,0,0,0,0,0,0,0,0,0,0,0],"id":9,"left_children":[1,3,5,7,9,11,13,15,17,19,21,23,-1,25,27,-1,-1,29,-1,31,33,35,37,39,41,43,-1,45,47,49,51,53,55,57,59,-1,61,63,65,67,-1,-1,69,71,-1,-1,-1,73,75,77,-1,-1,-1,79,81,-1,83,85,87,89,91,-1,-1,93,-1,95,97,99,-1,101,-1,-1,103,105,107,109,111,-1,-1,113,-1,-1,115,117,119,121,123,125,127,-1,129,-1,-1,131,-1,-1,-1,133,-1,135,137,-1,139,-1,-1,141,143,145,147,-1,-1,-1,-1,-1,-1,-1,-1,-1,-1,-1,-1,-1,-1,-1,-1,-1,-1,-1,-1,-1,-1,-1,-1,-1,-1,-1,-1,-1,-1,-1,-1,-1,-1,-1,-1,-1,-1,-1,-1],"loss_changes":[5.154455E0,5.8881207E0,5.2737317E0,4.2062893E0,7.138419E0,4.8458805E0,8.886978E0,5.040942E0,4.1966577E0,7.1026278E0,8.203323E0,3.5303617E0,0E0,4.141883E0,7.1093817E0,0E0,0E0,4.534642E0,0E0,6.7723722E0,9.578661E0,3.3368235E0,5.4593587E0,5.662863E0,7.6733937E0,3.8132906E0,0E0,8.718842E0,4.960118E0,1.920044E0,5.1317725E0,3.4228976E0,7.276174E0,6.6764984E0,3.3372443E0,0E0,4.9661064E-1,4.991678E0,4.1490316E0,3.5867102E0,0E0,0E0,5.314088E0,1.7154922E0,0E0,0E0,0E0,4.0805655E0,3.4710684E0,7.204571E-1,0E0,0E0,0E0,9.0734825E0,4.119384E0,0E0,7.700652E0,4.1726956E0,4.143406E0,3.3560028E0,1.0241828E0,0E0,0E0,4.2062445E0,0E0,1.5086446E0,3.9993696E0,4.541214E0,0E0,3.9797087E0,0E0,0E0,1.1120815E0,1.0305966E1,4.592362E0,2.899222E0,7.9734325E-2,0E0,0E0,5.5339737E0,0E0,0E0,2.4348202E0,8.523593E0,1.6213408E0,4.9276276E0,2.3924186E0,3.9312468E0,3.8575096E0,0E0,1.2241573E0,0E0,0E0,6.3343987E0,0E0,0E0,0E0,1.1001587E-1,0E0,6.357894E-1,5.0529637E0,0E0,1.7675236E0,0E0,0E0,5.221225E0,1.426954E0,6.2979727E0,5.4024205E0,0E0,0E0,0E0,0E0,0E0,0E0,0E0,0E0,0E0,0E0,0E0,0E0,0E0,0E0,0E0,0E0,0E0,0E0,0E0,0E0,0E0,0E0,0E0,0E0,0E0,0E0,0E0,0E0,0E0,0E0,0E0,0E0,0E0,0E0,0E0,0E0,0E0,0E0,0E0,0E0],"parents":[2147483647,0,0,1,1,2,2,3,3,4,4,5,5,6,6,7,7,8,8,9,9,10,10,11,11,13,13,14,14,17,17,19,19,20,20,21,21,22,22,23,23,24,24,25,25,27,27,28,28,29,29,30,30,31,31,32,32,33,33,34,34,36,36,37,37,38,38,39,39,42,42,43,43,47,47,48,48,49,49,53,53,54,54,56,56,57,57,58,58,59,59,60,60,63,63,65,65,66,66,67,67,69,69,72,72,73,73,74,74,75,75,76,76,79,79,82,82,83,83,84,84,85,85,86,86,87,87,88,88,90,90,93,93,97,97,99,99,100,100,102,102,105,105,106,106,107,107,108,108],"right_children":[2,4,6,8,10,12,14,16,18,20,22,24,-1,26,28,-1,-1,30,-1,32,34,36,38,40,42,44,-1,46,48,50,52,54,56,58,60,-1,62,64,66,68,-1,-1,70,72,-1,-1,-1,74,76,78,-1,-1,-1,80,82,-1,84,86,88,90,92,-1,-1,94,-1,96,98,100,-1,102,-1,-1,104,106,108,110,112,-1,-1,114,-1,-1,116,118,120,122,124,126,128,-1,130,-1,-1,132,-1,-1,-1,134,-1,136,138,-1,140,-1,-1,142,144,146,148,-1,-1,-1,-1,-1,-1,-1,-1,-1,-1,-1,-1,-1,-1,-1,-1,-1,-1,-1,-1,-1,-1,-1,-1,-1,-1,-1,-1,-1,-1,-1,-1,-1,-1,-1,-1,-1,-1,-1,-1],"split_conditions":[-6.776095E-1,-4.476847E-1,-1.1733105E0,-4.600545E-1,6.1845785E-1,1.2334741E0,-1.3961596E0,-2.1233901E-1,5.665944E-1,-1.1345661E0,-1.2602225E-1,-1.000296E0,-7.026476E-1,9.330191E-1,-1.3905505E0,-7.5489104E-1,2.9076988E-1,-3.987662E-1,-2.6582664E-1,-3.268714E-1,1.5621573E-1,-4.7487742E-1,5.523543E-1,-2.4982493E-2,-6.6137356E-1,-3.1987646E-1,-7.96395E-2,-1.0679333E0,1.8402697E0,-5.421945E-2,-1.3860032E-1,1.0931981E-1,-5.37367E-1,-5.9311044E-1,-9.0558225E-1,1.596434E-2,-6.945354E-2,1.1161385E0,-5.7114387E-1,-9.9493936E-2,8.119242E-1,6.3999355E-1,3.4429544E-1,8.358143E-1,3.289606E-2,-1.5282586E-1,1.2431995E0,-9.2495805E-1,1.2964823E0,6.1021797E-2,1.9484285E-1,6.0648656E-1,-5.3051734E-1,2.1293339E-1,-1.964031E-1,4.6623367E-1,-5.1678043E-2,-9.234855E-1,-6.0146874E-1,-8.136634E-2,-7.869624E-1,3.650671E-1,1.173779E0,-2.537923E-1,-4.2193228E-1,3.9984647E-2,1.3417726E0,-5.410928E-1,-5.4762137E-1,-1.7818931E-1,3.3052582E-1,2.7620986E-1,-7.0343846E-1,6.0963607E-1,-1.5589406E-1,1.9974396E-1,-3.8171422E-1,4.4899207E-1,1.3974696E0,-9.7852215E-2,-7.074936E-1,-6.1089683E-2,-1.7399655E-1,3.4680779E-3,-3.9181924E-1,-1.6015951E-1,-2.94693E-1,-6.1577475E-1,4.8453942E-1,-1.23807155E-1,1.0931981E-1,-4.236621E-1,5.449685E-2,-3.87257E-1,9.846967E-1,-1.488479E-1,4.6846735E-1,-1.4119034E-1,-0E0,7.6206666E-1,8.4677964E-1,-1.0175138E0,-7.6446056E-1,4.69729E-1,1.3940618E0,3.016519E-1,8.703589E-1,4.3462786E-1,1.3488547E0,-4.5149708E-1,3.6277348E-1,-3.0499205E-1,-9.228988E-1,7.61293E-1,-1.8931967E-1,1.281504E-1,1.0945888E0,-4.751672E-1,9.8082304E-1,-9.8258823E-1,-4.0139285E-1,-3.0714962E-1,6.986456E-1,-0E0,-7.493523E-1,-3.8922077E-1,4.8369238E-1,-7.555975E-1,-1.6762073E-1,1.0296013E0,2.2900134E-1,5.867916E-1,-4.0714398E-1,-9.4699985E-1,-3.2799658E-1,2.0413126E-1,7.6697373E-1,-3.0951285E-1,4.9150175E-1,-5.016559E-1,3.9607562E-2,1.194976E-2,1.0716243E0,-0E0,-6.488273E-1,1.2041649E-2,-3.888116E-1,7.0043355E-2,4.882938E-1],"split_indices":[83,121,128,63,128,63,80,129,150,83,106,129,0,165,127,0,0,106,0,48,48,63,104,107,156,122,0,129,177,165,107,80,128,129,83,0,107,98,48,80,0,0,129,26,0,0,0,48,127,103,0,0,0,104,127,0,80,83,30,122,83,0,0,48,0,107,106,12,0,165,0,0,128,30,163,106,63,0,0,177,0,0,163,121,106,163,126,26,122,0,80,0,0,63,0,0,0,165,0,165,150,0,106,0,0,178,127,107,104,0,0,0,0,0,0,0,0,0,0,0,0,0,0,0,0,0,0,0,0,0,0,0,0,0,0,0,0,0,0,0,0,0,0,0,0,0,0,0,0],"split_type":[0,0,0,0,0,0,0,0,0,0,0,0,0,0,0,0,0,0,0,0,0,0,0,0,0,0,0,0,0,0,0,0,0,0,0,0,0,0,0,0,0,0,0,0,0,0,0,0,0,0,0,0,0,0,0,0,0,0,0,0,0,0,0,0,0,0,0,0,0,0,0,0,0,0,0,0,0,0,0,0,0,0,0,0,0,0,0,0,0,0,0,0,0,0,0,0,0,0,0,0,0,0,0,0,0,0,0,0,0,0,0,0,0,0,0,0,0,0,0,0,0,0,0,0,0,0,0,0,0,0,0,0,0,0,0,0,0,0,0,0,0,0,0,0,0,0,0,0,0],"sum_hessian":[1.2763489E3,4.109601E2,8.6538873E2,4.812151E1,3.628386E2,1.2301611E2,7.423726E2,1.4470887E1,3.3650623E1,2.7233667E2,9.050193E1,1.113871E2,1.1629015E1,3.4431213E1,7.079414E2,6.3057613E0,8.165126E0,2.8145924E1,5.5047E0,1.04633575E2,1.677031E2,1.8179214E1,7.2322716E1,6.756183E1,4.3825268E1,2.7682455E1,6.748758E0,1.5234545E1,6.9270685E2,1.6310413E1,1.1835509E1,5.155148E1,5.30821E1,1.3717165E2,3.0531454E1,6.277292E0,1.1901922E1,3.627932E1,3.6043392E1,6.0444298E1,7.1175323E0,5.6865788E0,3.813869E1,2.062293E1,7.0595255E0,6.337541E0,8.897004E0,6.681307E2,2.4576193E1,1.1255352E1,5.055062E0,6.369906E0,5.4656034E0,3.0732046E1,2.0819433E1,9.426865E0,4.3655235E1,2.988862E1,1.0728302E2,1.7342297E1,1.3189157E1,5.1055026E0,6.79642E0,2.8994818E1,7.2845035E0,1.1374665E1,2.4668726E1,5.129842E1,9.14588E0,3.2539627E1,5.5990644E0,6.0109773E0,1.4611953E1,3.266821E1,6.3546246E2,1.3522591E1,1.1053602E1,5.3104367E0,5.9449153E0,2.1426878E1,9.305168E0,6.6464186E0,1.4173014E1,1.2082835E1,3.1572401E1,1.6133633E1,1.3754988E1,1.9900774E1,8.738225E1,5.851721E0,1.1490576E1,6.6998563E0,6.4893007E0,2.1736591E1,7.2582264E0,5.896859E0,5.477806E0,1.5343989E1,9.324737E0,1.3978391E1,3.7320026E1,1.2567358E1,1.997227E1,6.325469E0,8.286484E0,2.212972E1,1.0538488E1,2.4152849E2,3.9393396E2,6.211287E0,7.311303E0,5.1653547E0,5.888248E0,1.280671E1,8.620168E0,5.1949816E0,8.978032E0,6.580223E0,5.5026116E0,1.19045105E1,1.966789E1,6.240359E0,9.893273E0,6.994957E0,6.7600303E0,1.4516476E1,5.3842993E0,7.09854E1,1.6396854E1,5.1627803E0,6.3277955E0,1.2187092E1,9.5494995E0,1.0106537E1,5.237453E0,8.1199875E0,5.8584037E0,2.8861727E1,8.458301E0,1.0914911E1,9.057357E0,7.288339E0,1.4841382E1,5.3669305E0,5.1715584E0,1.9489456E2,4.663392E1,3.6159064E2,3.234333E1],"tree_param":{"num_deleted":"0","num_feature":"179","num_nodes":"149","size_leaf_vector":"1"}},{"base_weights":[8.75518E-3,7.364449E-2,-7.697313E-2,3.381449E-2,3.457202E-1,-1.224379E-1,2.2443238E-1,9.776635E-2,-1.5320903E-1,5.428349E-1,-2.9955257E-2,-6.0060702E-2,-5.323899E-1,-4.6897995E-1,4.3846777E-1,1.2407192E-1,-3.8975385E-1,-9.598843E-2,-8.022467E-1,-1.590107E-1,6.321897E-1,-4.380827E-1,3.711719E-1,1.0815581E-3,-3.8149184E-1,-1.24981E0,-2.5056693E-1,-9.7158426E-1,1.9565733E-1,1.8281665E-1,1.048818E0,-7.0762326E-4,2.812727E-1,5.017905E-1,-9.30503E-1,-1.5374322E-1,4.9442086E-1,8.505276E-1,3.1971726E-1,-0E0,-8.172358E-1,7.913254E-1,-1.2714784E-1,-8.8092566E-1,3.44836E-2,-0E0,-7.5209355E-1,-7.785693E-1,3.3512512E-1,6.5524966E-1,-6.0019962E-2,4.4057408E-1,1.3298368E0,-2.4505503E-1,1.4751355E-1,1.7358729E-1,6.116756E-1,-3.926275E-1,-1.1947786E0,-2.4964705E-2,-5.067112E-1,1.2854318E-1,6.581564E-1,2.9571805E-2,1.1140058E0,8.460449E-1,-1.3662435E-2,-4.8133835E-2,3.499576E-1,-6.582304E-1,2.3379098E-1,-8.831213E-1,-0E0,-1.3285477E-1,-1.0762042E0,7.1299636E-1,-1.4352281E-1,9.899678E-1,7.63725E-2,-6.766521E-1,1.8651965E-1,-0E0,-5.802226E-1,7.016063E-1,2.8491475E-2,2.6929075E-1,-2.5861531E-1,7.6747787E-1,1.8545768E-1,1.9931774E-1,-4.043702E-1,-7.521162E-1,-2.959431E-2,4.0664077E-1,1.4111241E0,-5.098903E-1,3.028444E-1,-0E0,-7.052948E-1,-4.2399862E-1,5.9973735E-1,6.1887884E-1,-2.1778257E-1,-1.080203E0,-5.6584585E-2,-5.1000917E-1,-1.4294164E0,9.8426443E-1,2.496037E-1,5.737954E-1,-2.3157683E-1,5.6451976E-1,-1.9820651E-1,-2.1672018E-1,-8.6378646E-1,2.1254328E-1,1.5731838E0,2.4981113E-1,-2.6709625E-1,8.8250555E-2,6.223271E-1,-7.159001E-1,1.4721918E-1,9.0222685E-3,9.0533537E-1,-3.852222E-1,6.58971E-1,-1.5171032E-1,4.0697366E-1,8.753525E-2,-7.9132736E-1,-1.0411044E0,-0E0,3.7643856E-1,-5.070296E-1,3.698331E-1,-7.147363E-2,4.689671E-2,-1.0616918E0,-7.3479456E-1,1.7165627E-1,1.4833364E0,3.771129E-1,9.307207E-1,2.241317E-1,-5.407829E-1,1.09092996E-1,-4.0242517E-1,-1.2652276E0,9.137926E-1,2.5026126E-2],"categories":[],"categories_nodes":[],"categories_segments":[],"categories_sizes":[],"default_left":[0,0,0,0,0,0,0,0,0,0,0,0,0,0,0,0,0,0,0,0,0,0,0,0,0,0,0,0,0,0,0,0,0,0,0,0,0,0,0,0,0,0,0,0,0,0,0,0,0,0,0,0,0,0,0,0,0,0,0,0,0,0,0,0,0,0,0,0,0,0,0,0,0,0,0,0,0,0,0,0,0,0,0,0,0,0,0,0,0,0,0,0,0,0,0,0,0,0,0,0,0,0,0,0,0,0,0,0,0,0,0,0,0,0,0,0,0,0,0,0,0,0,0,0,0,0,0,0,0,0,0,0,0,0,0,0,0,0,0,0,0,0,0,0,0,0,0,0,0,0,0],"id":10,"left_children":[1,3,5,7,9,11,13,15,17,19,21,23,25,27,29,31,33,35,-1,-1,37,39,41,43,45,-1,47,-1,-1,49,51,53,55,-1,57,59,61,63,65,-1,-1,-1,-1,-1,67,69,71,73,75,77,79,-1,-1,81,83,85,87,-1,-1,89,91,-1,-1,-1,93,-1,95,97,99,-1,101,103,-1,-1,105,107,-1,-1,-1,-1,109,111,113,115,117,119,121,123,125,127,129,131,133,-1,-1,-1,-1,135,137,139,141,143,145,147,-1,-1,-1,-1,-1,149,-1,-1,-1,-1,-1,-1,-1,-1,-1,-1,-1,-1,-1,-1,-1,-1,-1,-1,-1,-1,-1,-1,-1,-1,-1,-1,-1,-1,-1,-1,-1,-1,-1,-1,-1,-1,-1,-1,-1,-1,-1],"loss_changes":[6.8216705E0,7.4477897E0,7.239134E0,7.3538685E0,6.7178555E0,1.1512271E1,1.0620449E1,5.9132185E0,5.369012E0,4.010313E0,5.5389667E0,8.01222E0,1.1016882E1,6.2500825E0,7.669077E0,8.682497E0,1.236137E1,5.029322E0,0E0,0E0,2.6973896E0,2.6889505E0,3.8993924E0,9.788876E0,9.011326E0,0E0,1.4801453E1,0E0,0E0,4.939067E0,8.892517E-1,8.985411E0,6.4912367E0,0E0,7.886553E-1,5.9519033E0,3.7499738E-1,5.912798E0,4.734623E0,0E0,0E0,0E0,0E0,0E0,8.691713E0,5.6958017E0,3.0012302E0,4.142292E0,4.502288E0,2.3272266E0,4.7119813E0,0E0,0E0,7.70261E0,9.8419075E0,6.3705306E0,2.5148735E0,0E0,0E0,8.872001E0,3.861536E0,0E0,0E0,0E0,2.8875332E0,0E0,3.0702958E0,8.2168255E0,1.3941769E1,0E0,5.007986E0,4.0218925E0,0E0,0E0,1.2526798E0,8.274398E-1,0E0,0E0,0E0,0E0,3.8472939E0,6.523028E0,3.3904982E0,1.011358E1,8.54183E0,7.6547585E0,5.5310087E0,3.1464787E0,4.8027797E0,4.917983E0,7.757974E0,4.8195467E0,3.233399E0,0E0,0E0,0E0,0E0,6.526E0,5.158703E0,3.7102082E0,8.836975E0,1.1090002E0,1.656373E0,1.2188835E0,0E0,0E0,0E0,0E0,0E0,1.9304874E0,0E0,0E0,0E0,0E0,0E0,0E0,0E0,0E0,0E0,0E0,0E0,0E0,0E0,0E0,0E0,0E0,0E0,0E0,0E0,0E0,0E0,0E0,0E0,0E0,0E0,0E0,0E0,0E0,0E0,0E0,0E0,0E0,0E0,0E0,0E0,0E0,0E0,0E0,0E0,0E0,0E0],"parents":[2147483647,0,0,1,1,2,2,3,3,4,4,5,5,6,6,7,7,8,8,9,9,10,10,11,11,12,12,13,13,14,14,15,15,16,16,17,17,20,20,21,21,22,22,23,23,24,24,26,26,29,29,30,30,31,31,32,32,34,34,35,35,36,36,37,37,38,38,44,44,45,45,46,46,47,47,48,48,49,49,50,50,53,53,54,54,55,55,56,56,59,59,60,60,64,64,66,66,67,67,68,68,70,70,71,71,74,74,75,75,80,80,81,81,82,82,83,83,84,84,85,85,86,86,87,87,88,88,89,89,90,90,91,91,92,92,97,97,98,98,99,99,100,100,101,101,102,102,103,103,109,109],"right_children":[2,4,6,8,10,12,14,16,18,20,22,24,26,28,30,32,34,36,-1,-1,38,40,42,44,46,-1,48,-1,-1,50,52,54,56,-1,58,60,62,64,66,-1,-1,-1,-1,-1,68,70,72,74,76,78,80,-1,-1,82,84,86,88,-1,-1,90,92,-1,-1,-1,94,-1,96,98,100,-1,102,104,-1,-1,106,108,-1,-1,-1,-1,110,112,114,116,118,120,122,124,126,128,130,132,134,-1,-1,-1,-1,136,138,140,142,144,146,148,-1,-1,-1,-1,-1,150,-1,-1,-1,-1,-1,-1,-1,-1,-1,-1,-1,-1,-1,-1,-1,-1,-1,-1,-1,-1,-1,-1,-1,-1,-1,-1,-1,-1,-1,-1,-1,-1,-1,-1,-1,-1,-1,-1,-1,-1,-1],"split_conditions":[2.0144485E-2,6.820622E-1,1.3252349E0,3.2381085E-1,4.9050087E-1,5.0004816E-1,-7.3970205E-1,2.562738E0,1.6121216E0,-3.988786E-1,-6.1289513E-1,6.1323214E-3,6.999234E-1,-4.1405386E-1,8.371554E-1,-2.893306E-1,-5.065741E-1,1.1621449E0,-8.022467E-1,-1.590107E-1,-3.1845826E-1,-6.953518E-1,-3.6664566E-1,-1.3013071E0,-1.2546095E0,-1.24981E0,3.0557996E-1,-9.7158426E-1,1.9565733E-1,-7.8763413E-1,-1.2485599E-1,-4.9169606E-1,4.040066E-1,5.017905E-1,9.152664E-3,1.213113E-1,1.209302E0,-6.140283E-1,3.2391563E-1,-0E0,-8.172358E-1,7.913254E-1,-1.2714784E-1,-8.8092566E-1,-1.2825347E-2,-5.016307E-1,4.1441134E-1,-3.739821E-1,6.448259E-1,-1.1529465E-1,-5.7041377E-1,4.4057408E-1,1.3298368E0,4.265018E-1,-4.006431E-1,3.9151E-2,1.4430003E0,-3.926275E-1,-1.1947786E0,-3.5243395E-1,8.7528265E-1,1.2854318E-1,6.581564E-1,2.9571805E-2,-3.9181924E-1,8.460449E-1,-3.0364352E-1,-2.089538E-1,-5.928485E-1,-6.582304E-1,8.9316344E-1,1.2439318E0,-0E0,-1.3285477E-1,-3.826283E-1,3.7011895E-1,-1.4352281E-1,9.899678E-1,7.63725E-2,-6.766521E-1,-1.8303286E-1,-8.9746785E-1,-6.990582E-1,-2.4169475E-1,-2.8828296E-1,-3.914651E-1,-7.17066E-2,-7.621282E-1,1.9650558E0,-5.9510195E-1,-4.648346E-1,-3.5243395E-1,6.952493E-1,4.0664077E-1,1.4111241E0,-5.098903E-1,3.028444E-1,-7.5057024E-1,-3.027708E-1,-1.5957282E-1,4.074041E-2,-4.3755543E-1,1.7784634E0,2.5492468E-1,-5.6584585E-2,-5.1000917E-1,-1.4294164E0,9.8426443E-1,2.496037E-1,1.8846099E-1,-2.3157683E-1,5.6451976E-1,-1.9820651E-1,-2.1672018E-1,-8.6378646E-1,2.1254328E-1,1.5731838E0,2.4981113E-1,-2.6709625E-1,8.8250555E-2,6.223271E-1,-7.159001E-1,1.4721918E-1,9.0222685E-3,9.0533537E-1,-3.852222E-1,6.58971E-1,-1.5171032E-1,4.0697366E-1,8.753525E-2,-7.9132736E-1,-1.0411044E0,-0E0,3.7643856E-1,-5.070296E-1,3.698331E-1,-7.147363E-2,4.689671E-2,-1.0616918E0,-7.3479456E-1,1.7165627E-1,1.4833364E0,3.771129E-1,9.307207E-1,2.241317E-1,-5.407829E-1,1.09092996E-1,-4.0242517E-1,-1.2652276E0,9.137926E-1,2.5026126E-2],"split_indices":[106,119,118,164,48,34,48,95,26,120,29,161,34,150,106,104,32,32,0,0,16,118,140,150,150,0,104,0,0,150,83,9,33,0,9,156,9,164,81,0,0,0,0,0,8,16,82,81,80,163,13,0,0,150,118,48,137,0,0,128,83,0,0,0,106,0,48,32,21,0,104,128,0,0,83,81,0,0,0,0,156,124,21,161,161,13,128,81,137,106,29,128,82,0,0,0,0,164,155,81,118,155,104,106,0,0,0,0,0,83,0,0,0,0,0,0,0,0,0,0,0,0,0,0,0,0,0,0,0,0,0,0,0,0,0,0,0,0,0,0,0,0,0,0,0,0,0,0,0,0,0],"split_type":[0,0,0,0,0,0,0,0,0,0,0,0,0,0,0,0,0,0,0,0,0,0,0,0,0,0,0,0,0,0,0,0,0,0,0,0,0,0,0,0,0,0,0,0,0,0,0,0,0,0,0,0,0,0,0,0,0,0,0,0,0,0,0,0,0,0,0,0,0,0,0,0,0,0,0,0,0,0,0,0,0,0,0,0,0,0,0,0,0,0,0,0,0,0,0,0,0,0,0,0,0,0,0,0,0,0,0,0,0,0,0,0,0,0,0,0,0,0,0,0,0,0,0,0,0,0,0,0,0,0,0,0,0,0,0,0,0,0,0,0,0,0,0,0,0,0,0,0,0,0,0],"sum_hessian":[1.222432E3,6.9793427E2,5.2449774E2,6.117321E2,8.620214E1,4.5764786E2,6.684987E1,4.577613E2,1.5397084E2,5.647742E1,2.972472E1,3.9983487E2,5.7812996E1,1.4875069E1,5.1974796E1,4.363245E2,2.1436792E1,1.4403078E2,9.940063E0,5.8230696E0,5.065435E1,1.5013175E1,1.4711545E1,3.3682446E2,6.3010418E1,1.4067704E1,4.3745293E1,8.201072E0,6.6739974E0,3.8809597E1,1.3165199E1,2.4329193E2,1.9303255E2,7.938209E0,1.3498585E1,1.3300713E2,1.1023651E1,2.7226255E1,2.3428097E1,8.098237E0,6.914938E0,7.670383E0,7.0411615E0,1.0110863E1,3.267136E2,3.2352665E1,3.0657753E1,2.2928656E1,2.0816635E1,1.2442254E1,2.6367344E1,6.1206374E0,7.044562E0,9.213001E1,1.5116193E2,1.4856935E2,4.4463203E1,6.4590726E0,7.039512E0,9.964394E1,3.3363182E1,5.078274E0,5.945377E0,7.4321027E0,1.9794151E1,8.241318E0,1.5186779E1,2.59499E2,6.721461E1,7.7959337E0,2.455673E1,2.5534079E1,5.123674E0,8.4648905E0,1.4463766E1,1.1435987E1,9.380648E0,6.655413E0,5.7868404E0,6.8820257E0,1.948532E1,5.4459816E1,3.7670197E1,2.4552183E1,1.2660974E2,1.2282088E2,